fly 0.35704 -0.57058 -0.20603 0.13609 0.37948 0.63035 0.082321 0.59069 -0.22552 1.9267 -0.27967 -0.16778 0.043135 0.43497 -0.15674 -0.045646 0.044425 1.0607 -0.088455 0.095526 -0.23182 0.71564 -0.30569 -0.18201 0.1106 -0.27806 -0.25062 -0.37804 0.26106 0.0095718 -0.50699 -0.028192 0.12198 0.047725 -0.013865 -0.071514 0.44832 -0.18135 -0.12339 0.088266 -0.055859 -0.12448 -0.53771 0.36594 0.99438 0.222 -0.14041 0.19716 0.79444 0.45461 -0.15138 -0.016041 -0.26917 -0.0066094 0.017237 -0.015135 0.55882 0.27863 0.17953 -0.071488 0.23609 0.045921 -0.17117 0.17707 0.32867 0.25765 -0.46132 0.056552 -0.17566 -0.012463 -0.40504 0.50979 -0.20143 -0.13305 -0.45005 -0.25649 -0.16398 0.61511 -0.45902 0.0037567 -0.10945 -0.20103 -0.2566 -0.27827 -0.045767 -0.073169 0.35017 0.11118 0.36991 0.34511 0.01585 0.44677 -0.22438 -0.35128 -0.25315 0.064506 -0.077943 0.17229 -0.5488 0.40167 -0.038415 0.42795 -0.36606 0.68517 -0.20228 -0.5545 0.069318 0.27608 0.16432 0.49465 0.28983 -0.46077 0.12323 0.036092 0.15464 0.35407 0.076403 0.20588 -0.33707 -0.1509 -0.21102 0.057389 0.55703 -0.087668 0.12899 -0.1858 -0.26125 0.21067 -0.14749 0.21969 -0.23446 0.22963 -0.2841 0.062739 0.47429 -0.39231 0.10995 0.28545 0.29917 0.47193 -2.2915 0.07198 0.38516 -0.070844 0.025995 0.47805 0.12507 0.033813 0.38138 -0.056624 -0.02931 0.022873 -0.31852 -0.029781 -0.20267 -0.11345 -0.44229 0.27773 0.22986 -0.1755 0.28366 -0.52264 -0.26608 -0.019328 0.76883 0.099261 0.037911 -0.052598 0.086258 0.90808 0.19203 0.25012 0.11038 -0.7327 0.75928 0.35692 0.26337 -0.38693 0.44806 -0.19197 -0.22061 0.0093759 0.02055 -0.1322 0.72424 -0.086591 0.32432 -0.035048 -0.18561 0.3697 0.85311 0.0011203 0.14019 -0.47183 -0.28633 -0.014535 0.6032 0.16177 0.099813 -0.085684 -0.009188 -0.26565 0.086416 0.6237 0.71633 0.10069 0.0017735 -0.18487 -0.12839 0.5467 -0.095619 -0.080937 0.15116 -0.20977 0.31331 0.33131 0.09972 0.36853 -0.2244 -0.19751 0.042187 -0.54263 0.24888 -0.49699 0.11006 0.7166 -0.62427 0.62445 0.080602 0.79859 0.77746 0.001709 0.35901 0.43427 0.72998 0.32217 -0.18907 0.057167 0.10834 0.40933 0.45976 0.49186 0.78338 0.17291 0.41548 -0.32885 -0.52147 0.43728 -0.30953 0.37576 0.17011 -0.32659 -0.30304 0.20257 0.53629 -0.18784 0.31267 -0.30282 -0.44126 0.087807 -0.25432 -0.17695 0.29233 -1.1151 0.46526 -0.62136 0.24224 0.6457 -0.024769 0.12718 0.22442 -0.49892 0.53905 0.13853 0.57871 -0.017487 0.39276 0.088123 0.28329 -0.083151 -0.16653 -0.25827 -0.14425 -0.3086 -0.049664 -0.19072 0.11302 -0.1624 -0.070357 0.10026 -0.065932 0.54864 0.091349 -0.35686 -0.24285 -0.21067 0.11252 0.13309 0.16104 -0.0096334
cricket 0.36204 0.64204 0.65683 -0.30521 0.17781 0.13698 0.16801 0.43182 0.55088 1.5586 -0.71398 -0.15343 0.10837 0.18519 0.54054 -0.19756 -0.14995 -0.43492 0.49757 0.36032 -0.9158 -0.23697 -0.029848 0.056564 0.61962 0.091738 -0.18753 0.26572 -0.4072 0.4402 0.16427 -0.084726 0.20903 0.015963 -0.38318 0.72979 0.13874 -0.18091 -0.39702 0.21304 0.24134 -0.18102 0.47545 -0.088919 -0.069576 -0.23748 0.045247 0.79537 -0.17879 0.36203 0.022058 -0.43787 -0.17761 -0.32156 0.32783 0.019555 0.18293 -0.07785 0.37746 -0.020676 -1.0068 0.85451 -0.099427 0.1611 -0.52835 0.21183 -0.084455 0.10612 0.35523 -0.088271 -0.0089347 0.28347 -0.047527 0.3736 0.27289 0.70712 0.41069 0.01186 0.77903 -0.13999 0.018533 0.14997 0.07521 0.1138 0.11767 0.080679 0.057457 0.72654 0.6381 0.27797 -0.0039206 0.66463 -0.99043 -0.34471 0.26206 -0.33652 0.43914 0.11622 -0.13523 0.58006 0.51623 0.20959 0.41051 -0.38113 -0.59996 -1.0957 -0.39608 0.65174 0.56891 0.067877 0.14494 -0.0041406 -0.60681 0.33013 0.16375 0.36478 0.020205 0.32434 -0.16831 -0.4872 -0.2126 -0.067117 -0.30106 -0.40532 -0.22363 0.27068 0.12797 0.31768 -0.40103 0.61447 0.17536 -0.38403 -0.33314 -0.5064 0.051221 -0.30985 0.60654 -0.041952 0.31524 0.065161 -2.0479 0.37603 0.28842 0.11884 0.12354 -0.30387 0.56731 -0.00059048 -0.30662 0.36418 0.10454 0.69808 0.61525 0.32996 0.017273 -0.21007 0.58466 0.39036 -0.25973 -0.2283 0.57269 -0.47612 1.4811 -0.441 0.31082 -0.22701 0.053889 -0.1539 -0.31982 -0.11792 0.13194 -0.68471 -0.42097 -0.33118 0.40154 -0.46471 -0.19843 0.01452 0.73023 0.42341 -0.57749 -0.223 0.30822 -0.13265 -0.0030564 -0.42352 0.073788 0.34662 0.94803 -0.41356 -0.035627 0.54678 -0.18538 -0.26126 -0.8719 -0.17226 0.45611 0.43514 0.73874 -0.19763 0.39864 -0.13818 0.56208 0.1616 0.10108 -0.48616 0.34049 -0.25663 -0.39881 -0.34356 -0.097127 0.084592 0.75572 0.00097656 0.27026 0.25593 -0.58398 -0.057522 -0.47802 0.051211 0.28023 -0.2684 0.31969 0.46761 -0.29869 0.60304 -0.52396 -0.57645 0.66581 0.17456 0.57588 0.12027 -0.47501 0.25557 0.10732 -0.25678 -0.17167 0.36142 0.015606 0.31181 -0.1554 -0.28792 0.085957 -0.31685 -0.050025 0.16171 1.0395 0.37599 -0.94213 -0.041364 0.2776 -0.87566 -0.21391 -0.033846 0.2074 -0.42083 -0.16644 0.028502 -0.041255 -0.017039 1.1823 0.64232 0.20803 0.016402 -0.047049 0.15258 -0.36457 0.18147 0.63212 -0.26899 -0.32426 0.23805 -0.057376 0.85592 0.079877 0.30455 0.35374 0.17746 -0.5172 -0.00627 -0.039401 0.048466 -0.60656 0.3313 -0.57333 -0.50584 0.38935 -0.16659 -0.25814 -0.40832 -0.11519 -0.60037 -0.72407 -0.22787 -0.10273 0.35055 -0.20446 -0.35866 0.24677 0.034985
spider -0.30763 -0.18056 -0.48429 -0.25943 -0.34507 0.020943 -0.34633 -0.056336 0.1357 0.32695 -0.70201 -0.38449 -0.010328 -0.24923 -0.041196 0.12595 -0.22868 1.1912 -0.24826 -0.74462 0.10071 -0.25932 -0.46573 0.15806 -0.295 0.060831 -0.058315 -0.24518 -0.19947 -0.2508 -0.151 -0.46629 -0.16073 0.27074 -0.2021 0.068034 0.51316 0.018042 -0.40521 0.13051 0.47408 0.31895 -0.19761 0.19963 0.83879 0.090814 0.33716 0.55319 0.2796 -0.17528 -0.10983 0.28048 -0.17408 -0.10525 0.056071 0.45951 -0.44593 -0.18474 0.52573 0.60929 -0.15269 0.59124 0.060943 -0.0065521 0.40575 -0.15914 -0.66051 -0.14079 -0.2525 -0.081166 -0.38482 -0.08555 -0.30351 0.027254 -0.36875 0.027639 -0.10329 0.067976 -0.17223 -0.28854 0.083745 0.2015 0.47544 -0.49561 0.33032 -0.097647 1.0142 0.45383 -0.13591 -0.025773 0.58414 0.20591 -0.33872 -0.070992 0.01235 -0.05359 -0.1355 -0.15762 0.19202 0.033613 -0.017514 0.6181 0.38067 -0.39365 -0.36761 -1.2328 -0.388 0.25464 -0.086664 0.24095 0.14537 0.25782 0.22106 -0.2644 0.11085 -0.032428 -0.47731 -0.23101 0.33 0.27435 -0.087934 -0.32428 0.41296 -0.83732 -0.76338 -0.22857 0.65943 -0.19152 -0.1129 0.87804 -0.22236 -0.25278 -0.69814 0.10877 0.52493 -0.35455 -0.20707 -0.1204 -0.063329 0.3931 -2.3653 0.20799 0.38437 0.13551 -0.25689 0.71159 0.30662 0.06027 -0.19359 -0.18508 0.23083 -0.34046 0.19164 -0.0086065 0.25969 0.10116 -0.12991 -0.35427 0.096013 0.39468 0.25984 -0.75767 -0.49178 -0.32869 0.64724 -0.23597 -0.052067 0.028227 0.057529 0.16192 -0.15791 -0.14282 -0.10568 -0.0073071 -0.75499 -0.014921 0.24385 0.14706 -0.091516 0.26737 -0.18975 0.32473 0.49853 0.14726 0.21363 -0.32098 -0.15839 -0.21636 -0.31234 -0.0025286 -0.44804 -0.014642 -0.29755 0.25232 0.10741 -0.42473 0.41445 0.60476 -0.036839 -0.24392 -0.066333 -0.15688 -0.49255 0.12143 0.0066758 0.067736 0.0098669 0.010815 -0.48819 -0.43755 0.26305 0.22072 0.033589 0.25611 -0.69585 -0.54492 -0.36144 0.19959 -0.47189 -0.56937 -0.2475 -0.3807 0.15919 -0.24049 0.011056 0.34748 0.076227 0.3644 0.092041 0.55221 0.19184 -0.014652 -0.46577 0.41063 -0.12574 0.11258 -0.22459 0.51709 0.085808 -0.0099803 -0.16138 0.07938 -0.18364 0.056702 -0.15468 -0.85972 0.16349 0.74432 -0.0081436 0.087092 -0.25046 -0.28723 0.13642 0.77407 0.44812 0.051104 -0.1452 -0.27513 0.53772 -0.080895 -0.33015 -0.24786 0.09961 -0.32846 0.91687 -0.016531 -0.17232 -0.2348 0.33458 0.88286 -0.51583 -0.72785 -0.083645 0.012954 -0.11168 0.2561 -0.49969 -0.13714 -0.093231 -0.24434 0.6404 0.36391 -0.016707 -0.36991 0.22259 -0.5028 -0.32716 -0.0036234 0.20625 -0.44228 -0.56778 -0.18265 0.052737 0.38072 -0.37243 0.28504 0.21787 -0.10165 -0.00028876 0.30208
bee -0.16981 -0.082661 0.048465 -0.58961 -0.21663 0.2605 0.075047 -0.144 -0.32781 1.0705 -0.62731 -0.76776 -0.19266 -0.23427 0.18944 0.32322 0.23903 0.96795 -0.20619 0.22713 -0.3095 0.77357 -0.10931 0.18915 0.11322 -0.53369 -0.014417 -0.62794 0.16528 -0.11894 -0.83146 0.057176 0.096661 -0.18444 -0.40396 0.38163 0.30839 0.22693 -0.59533 0.1654 -0.35846 -0.16215 -0.22069 0.45522 0.33839 0.22472 -0.0079266 0.15632 -0.01763 0.18335 -0.2758 -0.20664 -0.20979 -0.031212 0.30757 -0.40406 0.38177 0.26779 -0.2433 0.027076 -0.10608 -0.17434 0.20461 -0.048371 0.44274 -0.13527 -0.16285 0.13186 0.29178 -0.54374 -0.63171 -0.10088 -0.050964 0.3573 0.54142 -0.52034 0.13911 0.72463 -0.49065 -0.58402 0.024432 0.46656 0.29986 0.093643 0.35163 -0.57012 0.50407 0.14925 -0.38364 0.17084 0.56787 0.13155 -0.022015 0.072458 -0.22723 -0.10044 0.22752 0.034159 -0.016872 0.49647 -0.16546 0.18949 -0.35375 0.096127 -0.017915 -0.97403 0.090207 -0.43388 0.5458 0.42845 -0.074129 0.18066 0.22051 0.23948 0.33832 0.27507 -0.64138 0.2053 0.041578 -0.078259 -0.34611 0.087492 0.46201 -0.37844 -0.47567 0.43954 0.38764 0.11284 -0.32438 0.2435 -0.59073 -0.97538 -0.21838 0.17282 0.24864 -0.48107 0.30831 -0.12571 0.08374 0.19704 -2.1473 0.54449 0.38862 0.18498 -0.067619 0.1204 -0.31025 0.54709 0.039404 -0.45092 0.26938 -0.0014597 -0.4424 -0.13002 0.15151 -0.23136 0.26648 0.14167 -0.026474 -0.52467 0.33767 -0.41095 0.044511 -0.10219 0.2669 0.0835 -0.00021101 -0.042813 -0.26358 0.47331 0.10169 0.13753 0.31228 0.19401 -0.083732 -0.41909 0.62252 0.47403 -0.32701 0.51766 0.17635 0.21412 0.30281 0.16079 -0.042228 -0.053154 -0.7728 0.061313 0.20309 0.12655 -0.16909 0.18924 -0.34511 -0.039928 -0.10153 0.030633 0.10379 0.26744 0.60675 -0.36639 -0.079742 0.10338 -0.77385 0.26435 0.16291 -0.20483 0.29052 0.46654 0.21095 -0.36123 -0.10487 0.77933 0.62908 -0.28112 -0.27931 -0.35231 -0.69552 -0.12778 -0.37211 -0.31758 0.068346 -0.24412 0.70096 -0.41651 0.17849 1.0234 -0.29828 0.41928 0.09853 0.059778 0.52827 0.20342 -0.4325 0.34481 -3.3047e-05 0.2583 0.020133 0.34397 -0.32391 -0.31383 0.021535 -0.51168 0.5908 0.23358 0.030446 -0.46569 0.2272 0.53792 0.20047 -0.36961 0.21546 0.16804 -0.5056 -0.12604 0.073348 -0.42063 -0.36222 -0.058202 0.37367 0.32648 -0.50424 -0.43423 -0.056231 -0.46746 0.11133 0.19251 -0.20364 -0.14618 -0.57917 0.17606 -0.33397 -0.32819 0.25318 0.63415 -0.051588 0.24293 -0.50475 0.13368 0.088448 0.31008 0.044492 0.71192 -0.31974 -0.52817 -0.21768 -0.37062 -0.0017131 -0.18831 -0.57122 -0.40512 -0.35428 0.19093 -0.1173 -0.24997 -0.28126 0.0017758 -0.33804 -0.55483 -0.17566 -0.0072025
flea -0.2341 0.50246 -0.24179 -0.016746 0.117 0.16925 0.068441 -0.53216 0.19166 1.0286 -0.7087 -0.16463 0.23051 -0.58296 -0.054114 0.39662 0.28145 0.74671 0.22804 0.58685 0.020669 0.61962 0.17267 -0.10216 0.22159 -0.33476 -0.84438 0.13417 -0.2981 0.36533 -0.31427 -0.82957 0.15523 0.26326 -0.45331 0.14697 0.44925 -0.16525 0.37838 0.63729 -0.36503 0.3617 0.12535 -0.19659 0.34319 -0.18655 -0.087188 0.12773 0.080302 -0.39042 0.69726 -0.15115 0.50195 0.70815 0.27473 -0.22431 -0.26634 -0.33889 0.067305 0.2779 0.094325 0.23027 -0.17524 0.29113 0.07394 0.035717 -0.18284 0.055833 -0.17791 0.35173 -0.42326 0.32133 -0.29429 0.26143 -0.01206 -0.67977 -0.079802 0.15165 -0.43093 -0.3705 0.43443 0.36324 0.40012 -0.5049 -0.34109 -0.56338 0.38714 0.83513 0.50891 0.22132 0.85761 0.5188 1.0961 -0.59853 0.061777 -0.25283 0.2623 -0.072856 -0.26662 0.15479 0.23551 0.4383 0.35396 0.014431 0.19992 -1.1921 0.358 -0.73328 -0.41674 -0.30612 0.63654 -0.1133 0.46359 -0.58213 -0.32547 0.12866 -1.0857 -0.51807 0.47256 -0.82584 -0.53191 0.26559 0.15837 0.029683 -0.47484 0.16902 -0.17862 -0.085531 0.39298 0.21735 -0.15657 -0.65568 -0.096549 0.38903 -0.58742 0.13078 -0.0824 0.35369 0.066208 -0.1975 -1.4835 -0.25034 0.81632 -0.25874 0.38455 -0.34135 0.15619 0.19207 0.042115 -0.49282 0.30557 -0.36386 -0.28551 -0.31487 -0.65672 -0.62363 0.30217 -0.57434 -0.60421 -0.62345 -0.11651 -0.82313 0.21846 -0.30036 0.95351 0.25317 -0.16691 0.37452 -0.21408 0.05225 0.38604 0.31594 0.024268 -0.056661 -0.38693 0.44683 -0.38183 0.89055 0.24186 0.47747 0.28025 -0.08809 -0.31279 -0.40177 -0.21977 -0.42385 0.37899 -0.12229 -0.13035 -0.053066 -0.14683 -0.062607 -0.24045 0.11253 -0.12656 0.41026 -0.049235 0.46981 1.1477 -0.2555 -0.56636 -0.31811 -0.3331 0.24826 0.26337 -0.024604 0.61604 -0.16511 0.7544 0.07147 0.22497 0.23596 -0.35976 0.020799 -0.76496 -0.77395 0.052803 0.54605 -0.12064 -0.05389 0.16818 0.18284 0.10473 -0.89495 0.0241 0.22417 0.01209 1.2426 0.049821 -0.19854 0.4493 0.15721 0.47993 0.085823 0.36932 -0.074543 0.095082 0.27496 0.49233 -0.4393 -0.27222 0.095507 0.0041639 0.20977 -0.52103 0.14848 0.80046 0.72519 0.27031 0.14727 -0.26409 -0.1611 0.22994 0.2004 -0.35727 -0.14019 -0.27462 -0.37288 0.056546 -0.082238 -0.34062 -0.45199 -0.10088 -0.59853 0.2831 0.4708 -0.068155 -0.99217 -0.50436 0.23479 -0.52908 0.28176 -0.10067 0.10793 0.47126 0.35453 -0.095111 0.20549 0.26012 0.23239 -0.022574 0.030064 -0.0529 -0.50376 0.41554 -0.12113 0.8044 -0.73462 -0.0013853 0.13673 -0.46597 0.1954 -0.63172 0.026592 -0.74507 -0.070206 0.55672 -0.36608 0.26436 0.16647
ant 0.0012069 -0.17304 -0.10112 -0.4149 -0.42422 0.66071 0.29658 0.052975 -0.002936 0.48537 -0.67908 -0.72784 -0.049979 -0.091369 0.069314 0.39131 -0.03229 0.9353 -0.37999 0.081983 0.37024 0.48534 0.12671 -0.048643 -0.3978 -0.44857 -0.14767 -0.35772 0.19222 0.19065 -0.55644 -0.37586 0.035376 0.07031 -0.44337 0.12517 0.38071 0.032531 -0.49555 -0.048562 0.44171 -0.22122 -0.38711 0.2499 0.30774 -0.12609 0.39436 0.399 0.16015 -0.18527 -0.49275 -0.079318 -0.3459 0.085247 -0.20229 0.043201 -0.014202 -0.20963 -0.028272 0.14672 0.05529 0.15678 -0.09723 0.0033503 0.37061 -0.17578 0.15748 -0.039066 -0.40958 0.097586 -0.38644 -0.013742 -0.26433 0.51084 0.071923 -0.50682 -0.21841 -0.12797 -0.08897 -0.41743 -0.012774 0.57988 0.37578 -0.081733 -0.02884 -0.45465 0.56685 -0.24283 0.14791 0.078505 -0.19184 0.14899 0.21284 -0.1582 0.15582 0.10875 -0.15525 -0.2397 -0.48694 0.26262 0.29594 0.48366 -0.072034 0.1785 -0.43938 -1.3827 0.23408 0.023895 0.31078 0.096479 -0.16734 -0.3017 -0.061441 0.13958 0.046793 0.13846 -0.23019 -0.57199 -0.25588 -0.16854 -0.55492 -0.65865 0.15326 -0.68736 -0.94336 -0.014044 0.12918 0.68383 0.037895 0.20624 -0.27065 -0.41799 -0.47792 0.020013 0.034401 0.018249 0.14378 -0.019571 0.11111 -0.34709 -1.7563 0.48783 0.1067 0.064417 -0.24198 0.0027364 0.22094 0.36835 -0.17662 -0.020642 -0.0099656 -0.31024 -0.23858 -0.10836 0.082313 0.11334 0.1937 -0.32522 0.49498 0.24263 -0.058253 -0.40397 -0.28435 0.0095691 0.18777 0.090478 -0.11172 -0.081015 -0.24012 -0.033236 0.16536 0.48647 -0.11595 -0.213 -0.14216 0.12752 -0.42928 0.48003 -0.31441 0.26811 0.57454 0.27594 0.013287 0.097759 -0.41387 0.14817 0.12589 0.13982 0.19103 -0.0014953 -0.69729 0.26914 -0.66157 0.18384 0.2303 0.13481 0.24487 0.29789 0.53935 -0.44864 -0.00641 0.010849 -0.21311 0.76021 -0.029624 -0.40255 0.094492 0.11712 0.2844 -0.66068 0.22854 0.2267 0.31194 -0.090053 -0.12741 -0.7445 -0.15105 0.06377 -0.2386 -0.55131 0.19391 -0.12834 0.50925 -0.14185 0.33462 0.45963 -0.1591 0.067893 -0.13187 0.25495 0.34451 -0.102 -0.24809 0.56542 0.19774 -0.046823 0.36648 0.60794 -0.012194 0.31202 0.065867 0.16033 -0.024352 0.10304 -0.27931 -0.51695 0.49261 0.48661 -0.125 -0.01043 0.0064872 0.12709 0.064764 0.042194 0.17551 -0.21988 -0.028743 -0.14636 0.16361 -0.49566 -0.64124 -0.13235 0.53747 -0.82903 0.23058 0.16913 0.10271 -0.20939 0.21561 0.42201 0.30372 -0.11633 0.26239 0.20986 -0.33976 -0.12101 -0.39057 0.02524 -0.015827 0.33008 0.24651 0.43567 -0.1769 -0.31977 -0.029475 -0.98543 0.58996 -0.14116 -0.23816 -0.27319 -0.22915 0.17487 -0.65646 -0.29167 -0.17553 -0.12053 0.44989 0.12313 -0.11261 -0.15603
mosquito 0.31921 -0.18275 0.05089 -0.47298 -0.6668 0.69399 0.26123 -0.72138 -0.17816 0.61354 -0.1723 -0.41411 0.093785 -0.37891 -0.10725 0.40376 -0.027539 1.0769 -0.15921 0.1668 -0.10048 0.62211 -0.18809 0.035555 -0.35332 -0.69484 -0.46365 -0.13499 0.26598 0.13566 -0.067655 -0.35992 -0.65055 -0.47645 0.21072 0.254 0.097217 -0.14905 -0.17185 -0.24269 0.20434 0.39502 -0.018755 -0.03306 0.33836 -0.52553 0.16398 0.49491 0.52175 0.030846 0.20998 -0.37665 -0.32881 0.23735 0.070124 -0.3755 0.6065 0.26456 0.1831 1.1125 0.13505 -0.018099 0.14272 0.42962 -0.22264 0.14053 -0.3913 0.091811 -0.17454 -0.16698 -0.52495 0.54187 -0.11217 0.27654 0.26659 -0.61216 0.1784 0.18028 -0.11372 -0.15483 0.095782 0.51012 0.076304 0.14286 0.16466 -0.35737 0.1773 0.60285 -0.054236 0.41594 0.18737 0.53257 0.73557 0.07045 -1.0464 -0.32724 0.029649 -0.076274 -0.54239 0.92451 -0.088708 1.0335 0.23784 0.21036 0.011143 -1.8015 -0.029414 -0.15189 -0.22815 -0.28871 0.58442 0.31135 -0.24949 -0.36132 0.08486 -0.0093514 -0.44368 -0.10163 0.2357 -0.21915 -0.58561 0.32914 0.6681 -0.88725 -0.65102 0.23212 -0.14727 -0.24051 -0.42633 0.6116 0.0022544 -1.0103 0.090953 0.10257 -0.11338 0.36785 0.3822 0.28114 0.59016 0.38565 -1.1627 0.45766 0.61183 0.22019 -0.19188 0.43203 -0.37635 0.57082 0.043748 -0.45901 -0.45371 -0.05481 0.21598 -0.17716 -0.40619 -0.36242 0.30147 -0.30694 0.31601 -0.18367 0.41032 -0.53288 -0.021931 -0.35043 1.5192 0.43942 0.28471 0.69679 -0.30932 -0.12683 0.30092 0.3595 0.2635 -0.37747 0.16361 -0.16939 0.15716 0.13228 0.35428 0.22661 0.060612 -0.00070403 0.11249 -0.27279 0.60968 -0.2702 -0.1326 -0.12773 0.36286 -0.16056 -0.027273 0.035282 -0.54964 0.16889 -0.58266 -0.11676 0.2193 0.88001 0.43207 -0.57384 -0.11573 0.16073 -0.42224 0.71256 0.46595 -0.50813 0.44903 0.16631 -0.26142 0.081729 0.22768 0.30348 0.14729 -0.42435 -0.14995 -0.58958 -0.39935 -0.11452 -1.1309 -0.4724 0.017642 -0.13628 0.15654 -0.14437 0.050421 0.39383 -0.034904 -0.15613 0.067396 -0.0089739 0.52089 -0.61101 -0.094744 -0.14919 0.3926 -0.010257 0.93666 0.11201 0.18224 0.078973 -0.14781 -0.36175 0.16164 -0.23271 -0.43526 -0.014598 0.71629 0.23759 0.28452 0.22798 -0.8338 -0.043036 0.031666 0.76346 0.19807 0.021319 0.28482 -0.66575 -0.18399 -0.55359 -0.22238 0.0082462 0.18276 -0.5441 0.6191 0.44955 -0.6213 -0.35659 -0.0030565 0.33901 0.13193 -0.16763 0.20476 0.1856 0.28475 0.0035995 0.1583 0.094824 0.16675 0.032704 -0.07376 0.74439 -0.50289 -0.30027 -0.23195 -0.18105 0.47622 -0.62909 -0.42765 0.022694 0.0075487 0.51051 -0.52874 -0.26463 -0.39865 0.374 -0.089232 0.11599 -0.21077 0.065079
beetle 0.28273 0.40088 0.10677 -0.47546 -0.0043373 0.68578 -0.45214 -0.57755 -0.61794 0.31046 -0.38111 -0.62893 0.23114 -0.3766 0.13142 0.78114 -0.1083 0.52926 0.1049 -0.11785 0.5634 -0.11519 -0.49501 0.04064 -0.26417 -0.13862 -0.18976 0.11177 -0.07411 0.45971 -0.76975 -0.7758 -0.11114 -0.13698 0.11752 0.15868 0.057636 0.090363 -0.46806 -0.067159 0.010486 -0.13291 -0.12602 0.18751 0.83804 -0.27072 -0.05867 0.47358 0.33797 0.21005 -0.41407 -0.18314 -0.03569 -0.21329 0.35431 -0.49617 -0.9766 0.331 0.1762 -0.31195 0.09353 0.25676 0.017732 0.098515 0.10685 -0.34916 -0.9022 -0.36706 -0.22974 -0.21903 -0.19359 0.23061 -0.18876 0.14196 -0.0046444 0.20964 -0.13974 -0.10535 -0.091191 -0.40398 -0.051122 0.72674 1.1464 0.60389 0.48778 -0.70555 0.78157 0.35755 -1.0054 0.83223 0.10244 0.17356 0.65517 -0.16495 -0.16324 -0.29797 0.64573 0.40176 -0.062559 0.22885 -0.37111 0.73871 0.42297 -0.069479 -0.54624 -1.2806 -0.097131 0.61895 0.47195 0.011849 0.10452 0.26702 0.22086 -0.65454 0.12209 -0.38468 -0.36382 -0.70868 -0.20658 -0.095613 -0.74059 -0.25601 0.46554 -0.80056 -0.67801 0.61799 0.60061 0.21786 -0.64279 0.49124 -0.07591 -0.69419 -0.24534 0.32859 -0.30806 -0.25324 -0.24045 0.066597 0.048083 0.087534 -1.4163 0.29216 0.21691 0.070189 0.10387 -0.033572 -0.067822 0.046507 0.30746 0.19433 -0.533 -0.21477 -0.0017112 0.063515 -0.12391 0.082236 0.21645 -0.12748 0.078908 0.62651 -0.44485 -0.59277 -0.050496 -0.0090314 0.48965 0.14465 -0.34382 0.18019 0.2981 -0.22763 -0.080452 0.58482 0.16105 0.058217 -0.71998 -0.4691 0.79178 0.31851 0.37426 0.21665 0.012022 0.3706 -0.10638 0.17666 -0.43312 -0.45228 -0.018536 0.17032 -0.15727 0.47262 0.21208 0.21483 -0.41349 0.17342 -0.13033 -0.22455 0.036598 0.44794 0.61177 -0.4072 -0.42354 -0.025675 -0.44004 0.46812 0.53019 -0.41236 0.3654 0.56862 0.15026 -0.12044 0.10759 0.39445 0.10151 0.14971 -0.32204 -0.046201 -0.42422 0.12093 -0.27205 -0.51061 -0.024366 -0.74856 0.8097 -0.40437 -0.099371 0.5906 0.078806 0.7402 0.44322 0.47596 0.51119 -0.13519 -0.49694 0.40994 -0.042146 0.48487 0.10267 0.39436 0.46327 0.15051 0.41951 -0.21642 0.18862 0.11387 -0.46913 -0.57105 0.37963 0.59541 0.20651 -0.37032 0.17137 -0.35156 0.26909 0.23912 -0.38187 -0.028948 0.12519 -0.019999 1.2069 -0.25329 -0.2564 0.092656 -0.0056777 -0.86362 0.29308 0.069112 -0.30277 -0.33778 -0.48728 0.28952 0.1176 -0.26407 0.24885 -0.43931 -0.15 0.3698 0.25418 0.05073 -0.23078 -0.20629 -0.14917 0.45259 -0.11596 -0.71251 0.33343 -0.36563 0.44795 -0.024076 -0.1768 -0.16107 -1.0977 0.02081 -0.2102 -0.77519 -0.33759 -0.16336 -0.063646 -0.0088668 -0.025243 -0.18324
moth -0.17864 0.16341 -0.24554 -0.16283 -0.35658 0.41284 -0.013731 -0.72695 -0.35614 0.39622 -0.3544 0.011621 -0.5878 -0.55291 -0.00039894 0.55373 0.4528 0.25308 -0.27826 -0.032097 0.59704 0.22598 -0.30975 -0.093511 -0.11037 -0.081727 -0.42353 0.18016 0.12433 0.45659 -0.68487 -0.58962 0.065921 -0.29295 -0.68305 0.63236 0.49457 -0.13524 -0.63798 0.27802 -0.27256 -0.24769 -0.19089 0.27118 1.0369 -0.21009 0.17798 0.49831 0.71683 -0.0096444 -0.49821 -0.66465 -0.22342 0.11328 0.20413 -0.57049 -0.21332 0.41936 -0.37983 -0.12891 0.22115 -0.0095175 0.16016 0.031306 0.15239 -0.009783 -0.63467 -0.050919 -0.50647 0.1816 -0.07441 0.46 -0.32665 0.068355 -0.14489 -0.10096 -0.47076 -0.090356 -0.21709 -0.35868 0.10932 0.3183 0.57292 -0.33109 0.41295 -0.81496 0.52436 0.17495 0.068571 0.62681 0.35942 0.48739 0.15583 -0.10243 -0.29301 0.13431 0.18465 -0.015272 -0.16667 0.71267 -0.028033 0.41765 0.57284 0.11618 -0.82988 -1.3107 -0.18343 -0.016693 0.0092981 0.0644 0.13605 0.13319 -0.051309 -0.21496 -0.10508 0.34375 -0.59467 -0.40045 0.19494 -0.13654 -0.89106 -0.21209 0.70623 -0.43426 -1.057 0.37883 0.235 0.31225 -0.019485 0.23356 -0.55205 -0.48664 0.20505 0.10267 -0.10229 -0.33305 -0.12203 0.27871 0.38999 0.19105 -1.4547 0.6306 0.3522 0.2266 -0.46818 -0.46573 0.055884 0.071326 0.19899 -0.098033 0.14772 -0.19849 0.0082237 -0.30881 -0.35616 -0.025278 0.063819 -0.41778 0.38056 0.41484 -0.48132 -0.49448 -0.089917 0.72458 0.49986 0.16002 -0.44875 -0.34324 -0.024302 0.54035 0.20446 0.16177 0.22519 0.088452 -0.62293 0.29342 0.55577 0.14172 0.22333 0.45046 -0.45222 0.33789 0.3305 -0.035011 0.046071 -0.13228 -0.44296 0.15834 -0.0058674 0.27056 0.17869 0.25998 -0.24764 -0.1473 0.29132 -0.11538 0.36107 0.35227 0.20027 -0.12317 -0.38637 -0.037232 -0.29767 0.60473 0.20464 -0.48812 0.37147 0.25661 -0.17567 -0.013702 0.19163 0.16374 0.0018957 -0.69686 0.17675 -0.60749 -0.37846 0.28001 0.21992 -1.1072 0.2296 -0.67066 0.49618 -0.31023 0.19956 0.85259 -0.2384 0.61312 -0.11554 0.41511 0.7107 -0.39096 -0.11472 0.33598 0.62689 -0.27215 -0.046582 -0.29685 0.11019 -0.41794 0.28285 0.4751 0.33952 0.1753 -0.24267 -0.60736 0.14073 1.2113 0.13675 0.16805 -0.18573 -0.53896 -0.10691 0.22806 0.042734 -0.16578 0.24573 -0.28098 0.70134 0.10741 -0.15563 0.0078317 -0.058134 -0.4951 0.39959 -0.10678 -0.15064 -0.3857 -0.56236 -0.27107 -0.10474 -0.095768 0.26741 -0.033543 -0.056493 -0.028102 0.22166 -0.043743 -0.0057699 0.09519 0.032599 0.19642 -0.40846 -0.78258 0.1004 0.064901 0.65435 -0.16237 0.11149 -0.22539 -0.44485 0.75102 -0.080206 -0.43005 -0.90694 0.49559 0.41004 0.7268 -0.48026 -0.32529
caterpillar 0.35177 0.68704 0.060574 -0.55106 0.37765 0.72663 -0.49881 0.038883 0.34379 -0.24633 -0.32667 -0.71374 -0.52291 -0.068172 -0.28907 0.59902 -0.63035 0.52469 -0.078713 -0.071124 0.40205 -0.16028 -0.79791 0.65739 -0.27898 0.40158 -0.35259 -0.02505 0.6059 0.38562 -0.67067 -0.56222 -0.34926 0.36646 -0.18742 0.44064 0.85536 0.72326 -0.19267 -0.19051 -0.083811 -0.021927 -0.77802 0.33919 0.63251 -0.24519 -0.17114 0.63041 0.088824 -0.45635 -0.36561 -0.51736 0.24673 -0.12796 0.059982 -0.65623 -0.73346 0.12323 -0.25572 0.023882 -0.23765 0.54966 -0.025581 -0.18305 1.061 -0.41242 -0.35142 0.1287 -0.09431 -0.20333 -0.79519 0.010351 -0.27592 -0.14436 -0.19004 0.006868 -0.19312 0.020269 0.45755 -0.35107 0.62057 0.16447 0.25256 -0.0021054 0.59195 -0.28654 1.3638 0.25728 -0.32814 0.81197 0.065803 0.54825 0.069075 -0.20319 0.0096003 0.35213 -0.41245 -0.52358 0.25723 0.071356 -0.25786 0.5578 0.58981 0.22317 -0.94896 -1.4292 0.20547 0.035291 -0.091783 0.21209 -0.28769 -0.28948 -0.031022 -0.5847 -0.0094652 -0.61594 -0.17776 -0.29286 0.31509 -0.68472 -0.57495 -0.087361 0.85614 -0.69521 -0.9112 0.30049 0.9007 -0.12796 -0.0091997 0.28372 0.088108 -1.0334 -0.13994 -0.082252 0.18364 0.054928 0.12736 0.50804 -0.23721 -0.20834 -1.3974 -0.34979 -0.071366 0.47651 -0.35668 -0.67582 0.053771 -0.18878 0.34098 -0.24489 -0.46397 -0.35898 -0.0046514 -0.10262 0.17269 -0.27082 0.23836 -0.35912 0.028247 -0.025505 -0.30239 -0.10383 0.049953 0.048418 0.30288 0.45006 -0.21514 -0.25208 0.17929 0.13339 -0.1732 0.14423 -0.38291 0.38178 -0.56595 -0.25004 0.72235 0.19199 0.32711 1.1114 -0.19943 0.3776 0.33424 -0.4436 -0.42027 -0.028506 -0.31597 0.21726 -0.1137 0.25699 -0.47747 0.50551 0.11127 -0.035991 -0.050238 -0.18698 0.40312 0.25333 -0.037037 -0.75709 0.2885 0.055502 -0.74978 -0.10975 -0.051783 -0.2747 0.70459 -0.042627 -0.067338 -0.48448 0.44847 0.37604 0.28039 -0.30166 0.26925 0.061123 -0.3365 0.016128 -0.15043 -0.43005 0.65716 -0.46181 1.0527 0.16034 0.4629 0.24255 -0.099947 0.64722 0.063833 0.061406 -0.26444 -0.04522 -0.22135 0.20744 -0.16303 -0.27268 -0.77143 0.010406 0.14646 0.56799 0.1127 -0.41352 -0.36667 0.25177 -0.43457 -0.83926 0.037753 0.58275 0.067348 0.053706 0.19633 -0.22044 0.22466 0.32469 -0.27816 -0.31655 0.13567 -0.040383 0.561 0.3546 -0.23253 -0.46349 0.04719 -0.31447 0.81609 0.10608 -0.41877 -0.31764 -0.14274 -0.26115 -0.15917 -0.34627 -0.14339 0.078244 -0.41713 0.0026111 -0.38543 0.60344 0.57573 -0.4472 -0.037962 0.57129 -0.77294 -0.49844 0.76877 0.28462 -0.37861 0.073868 0.2097 -0.49334 -0.37806 0.40336 0.42954 0.1286 -0.41179 0.17405 0.37521 1.1667 -0.17078 -0.1867
termite -0.24789 0.50464 -0.37421 -0.24917 0.078458 0.24841 0.10484 -0.51888 0.39647 0.47168 -0.18513 -0.47334 -0.2414 0.078489 -0.52294 0.8781 0.39171 0.53987 -0.64106 -0.072427 0.60019 0.053059 0.037938 -0.58673 -0.66127 -0.26841 -0.19165 0.36402 0.11262 0.2505 0.2279 0.36268 0.20333 0.32731 -0.56707 0.47016 0.18291 0.16993 0.12972 0.20588 0.25345 0.3386 -0.53943 -0.34329 0.57105 -0.43265 -0.071953 0.43836 0.048911 0.12739 -0.068352 -0.2077 -0.32215 0.52402 0.23554 0.16281 0.8413 0.1457 -0.049721 0.80903 0.31147 -0.081703 -0.055582 0.27376 0.73715 0.10158 -0.57499 -0.36499 -1.2691 -0.4451 -0.30274 0.21166 0.13342 0.29838 -0.26474 0.08045 0.091013 -0.57803 0.07421 -0.59668 0.13494 0.58185 0.79828 0.057935 0.21192 -0.13781 0.21558 0.23877 -0.42551 0.3224 0.72949 0.12564 0.15281 -0.16324 0.0024508 0.51245 0.50168 0.40146 -0.038976 0.23645 0.37254 0.92785 0.095337 0.27565 -0.4455 -1.875 -0.061335 0.20064 -0.094236 -0.88227 -0.094752 0.40819 0.16725 0.17286 -0.045255 -0.089778 -0.37675 -0.099881 0.077285 -0.528 -0.31902 0.46242 -0.055583 -0.65268 -0.77519 -0.40662 0.70706 0.80273 -0.6916 0.37062 -0.39748 -0.94041 -0.98082 0.33746 0.21393 0.6073 0.3537 0.26696 0.48954 -0.30386 -0.29536 0.4724 0.18842 -0.13824 -0.15232 -0.118 -0.22537 0.12473 0.07624 -0.091493 -0.22456 0.28085 -0.31274 0.16183 0.030573 0.59268 0.74998 -0.0059413 0.4945 0.80907 0.10707 -0.82882 -0.047637 0.042722 0.73619 0.3397 0.38986 0.28185 0.26591 -0.48397 0.10879 0.20262 -0.82031 0.40917 0.03234 -0.13188 -0.25182 0.45652 -0.37849 -0.0061231 0.89488 0.38899 -0.16672 -0.056663 -0.13981 -0.025316 0.3209 0.089361 0.47285 0.012499 -0.078046 0.18801 -0.36911 0.25377 -0.27307 0.79305 -0.20228 1.4063 1.0131 -0.018728 -0.42884 -0.1252 -0.54425 -0.046885 0.19741 0.1673 0.039366 0.1729 0.20156 0.23114 1.0922 0.72084 0.72636 -0.40071 -0.17402 -0.79975 0.39353 0.3152 0.38934 -0.39707 -0.31076 -0.30909 0.5379 -0.042058 0.59503 0.40856 -0.80723 0.55053 -0.38727 -0.086121 0.57143 0.034185 -0.38742 0.38708 0.19991 -0.11112 0.3387 -0.46791 0.037817 -0.20377 0.56499 -0.58768 0.13131 -0.43243 -0.59151 -0.63602 0.12811 0.30742 0.33865 0.24621 0.34139 0.17902 0.089338 0.25817 0.10271 -0.17866 -0.33304 -0.73468 0.75574 -0.12843 0.016115 0.39082 0.10268 -1.0771 0.59555 0.54072 -0.27264 -0.49034 0.18214 0.94817 0.032729 0.43493 0.1848 0.060608 0.070307 -0.12214 0.16186 0.6951 -0.26912 0.21267 0.05392 0.024978 -0.22207 -0.12836 0.044355 -0.70041 -0.0046081 0.14675 -0.60035 0.53524 -0.6569 0.45207 -0.78399 -0.46245 -0.66307 -0.092543 -0.15175 -0.083597 0.31557 -0.55062
wasp 0.061896 0.18823 0.080312 -0.21181 -0.072685 0.0044888 -0.004947 -0.087571 0.017706 -0.041284 -0.54006 -0.93798 -0.28848 -0.2534 0.55784 0.16823 -0.24141 0.14428 -0.067895 0.025905 0.29656 0.30582 -0.11832 -0.14054 -0.51197 -0.55953 0.15393 -0.29297 0.029099 0.33199 -0.58275 -0.048345 -0.19863 0.0076224 -0.26914 0.59243 0.94506 -0.12409 -0.53252 0.72007 0.042839 0.067286 -0.51072 0.3289 0.80877 -0.027374 0.08178 0.43557 0.20978 -0.11089 -0.77469 -0.30944 -0.6375 0.53241 -0.11484 -0.63573 -0.13933 -0.31047 -0.042823 0.49383 -0.012947 -0.12637 0.56004 0.083563 0.44148 0.065555 -0.17863 0.09674 -0.47193 -0.10572 -0.38235 -0.1666 -0.29899 0.30085 -0.18602 -0.96372 0.43898 -0.084477 -0.27142 -0.23625 0.011935 0.494 0.64816 -0.56631 0.3833 -0.57805 0.93104 0.024594 -0.40197 0.63563 0.14249 0.57786 0.62146 -0.16701 -0.033515 -0.034126 0.51009 -0.20782 -0.42311 0.24981 -0.064256 0.45583 0.39311 0.13952 -0.287 -1.6486 -0.15654 0.24493 -0.16258 0.29207 -0.015794 0.035963 -0.087791 0.4215 0.18513 -0.017211 -0.47291 -0.23197 0.16343 -0.026376 -0.86621 -0.31392 0.32318 -0.97371 -1.0411 0.12515 0.2897 0.2312 -0.32674 0.73285 -0.52937 -0.81753 -0.63012 0.12129 0.30891 -0.10783 -0.16597 0.00089655 0.13082 0.47342 -1.5008 0.093857 0.38032 0.48289 -0.35899 0.27448 -0.52255 0.50488 0.26446 -0.7153 -0.067699 -0.31134 -0.40115 0.22728 -0.36142 0.19114 0.14643 -0.26868 0.36809 0.3959 0.017955 -0.74815 -0.37062 -0.037472 0.53291 -0.11449 -0.22169 0.16192 -0.47092 0.17551 -0.027685 0.093692 -0.087477 -0.114 -0.46311 -0.025659 0.13273 0.17187 -0.17124 0.52234 0.10474 -0.061911 0.1892 0.15655 -0.11795 -0.2663 -0.38341 0.089647 0.23062 -0.026061 -0.23531 0.26293 -0.30276 0.14624 0.20463 -0.063846 0.25138 0.52374 0.77817 -0.44553 0.2929 -0.37094 -0.63381 0.32686 0.022727 -0.0027058 0.051866 0.20635 -0.34018 -0.16991 0.46034 0.39896 0.27511 -0.19218 0.12277 -0.46085 -0.26376 0.23292 -0.07219 -0.81971 -0.00066681 -0.53267 0.63539 -0.056 0.49448 0.30599 -0.26814 0.53854 0.11769 0.31485 0.78703 -0.42658 -0.18553 0.5793 0.50588 0.28432 -0.11102 0.33888 0.57138 -0.024871 0.12479 0.22335 0.24437 -0.10201 -0.062883 -0.82282 0.6167 0.69901 0.0054083 -0.28805 -0.13983 0.26235 -0.2437 0.024019 -0.11274 -0.78639 0.027624 -0.80557 0.09525 0.093217 -0.59429 0.33016 0.41446 -0.70011 0.74729 0.63624 -0.27811 -0.38506 -0.43186 0.61783 0.057726 -0.27992 0.23299 0.072584 0.13288 0.058716 -0.56052 -0.19271 -0.0074296 -0.023576 0.35063 0.51786 -0.64369 -0.51738 0.04386 -0.75909 0.055518 -0.44379 0.11616 -0.36957 -0.43881 -0.05124 -0.12091 -0.20635 -0.36365 8.0052e-05 -0.19951 0.073068 -0.12518 0.081795
roach -0.054236 0.13969 0.023055 0.0055598 -0.33528 0.21003 -0.32068 -0.77474 0.070261 0.041274 -0.21237 -0.34155 0.45225 -0.44505 0.17225 0.20461 0.68007 -0.028474 -0.077018 0.43914 0.08517 0.98094 0.35578 -0.17907 -0.054949 -0.27612 -0.98096 0.63266 0.051639 0.51618 -0.15877 -0.36082 -0.66972 -0.14378 -0.3191 0.31244 0.29755 0.2454 -0.70079 0.6532 0.28237 0.19667 -0.30079 0.092018 1.2635 0.42034 0.47438 0.4546 0.13143 0.026076 -0.42675 0.089475 0.25273 0.46726 -0.19075 0.28836 -0.25089 0.49331 -0.0028353 0.16046 0.28813 -0.28164 0.070027 -0.10455 -0.08591 -0.13828 -0.086987 0.16492 -0.76839 -0.66517 -0.49071 0.47402 0.20166 0.016175 -0.52953 -0.2973 0.0071317 -0.0078735 -0.11915 -0.26066 -0.14069 0.063097 0.75752 -0.3986 -0.21935 -0.53742 1.1702 -0.46135 -0.44477 -0.022921 -0.57813 0.3142 -0.052184 -0.90036 -0.076356 -0.33911 0.13274 0.49283 -0.54356 0.017134 0.1554 0.30061 0.30629 0.37206 -0.3391 -1.3174 0.1158 -0.45588 0.36657 -0.069088 -0.0363 0.42047 -0.14444 -0.25815 -0.043224 -0.30629 0.25283 -0.36036 0.33893 -0.3692 -0.76138 0.099425 0.27123 -0.16362 -0.55866 -0.16357 -0.14466 0.03741 0.022232 0.83935 -0.13228 -0.56507 0.072628 0.40513 0.75104 0.61871 0.38154 0.34 0.28145 -0.23142 -1.8132 -0.25653 0.045445 0.19865 -0.32169 -0.4873 0.30908 0.29561 0.2173 0.25761 0.15832 -0.24119 0.14274 -0.49476 0.17451 0.026319 0.26633 -0.33762 0.39556 -0.1716 0.020198 -0.70005 -0.18373 -0.12603 1.0637 -0.17598 -0.3612 0.10388 -0.36686 0.41939 -0.062009 -0.12681 -0.21244 -0.32878 -0.06261 -0.18708 -0.15705 0.72377 0.13184 0.058214 0.25912 -0.088637 -0.15229 -0.041649 -0.21216 -0.49139 0.14775 0.025781 -0.048048 -0.38611 -0.2117 0.036842 -0.11648 0.66549 0.44293 0.55342 0.22193 0.57203 0.79238 -0.24305 0.056577 -0.38171 0.059522 0.010911 0.51601 -0.20007 -0.18224 -0.39673 -0.0046079 0.041599 -0.10562 0.34679 0.23787 0.24294 -0.28768 -0.70263 -0.017614 0.31873 0.15721 -0.15667 -0.018594 0.34358 0.018008 -0.31584 -0.19122 0.39397 -0.6925 -0.10642 -0.4629 0.30884 0.2427 0.035539 0.45135 0.54216 0.28923 -0.16457 -0.23533 -0.32992 0.42954 0.1936 0.26408 -0.022627 0.1064 0.2847 0.10605 -0.35485 0.67692 0.067638 0.42947 -0.011731 -0.61159 -0.75682 -0.31203 0.69217 0.3153 -0.031888 -0.20246 -0.47685 0.42948 -0.19954 -0.35835 0.12182 -0.28081 -0.82908 0.43532 -0.14063 0.48232 -0.28397 -0.42429 0.32523 -0.0065405 -0.21976 0.037589 -0.25967 0.28606 -0.041408 -0.11807 0.067079 0.19034 -0.18341 -0.33994 0.12663 -0.27587 -0.44284 0.25611 -0.46819 0.37925 -0.18773 0.068491 -0.059531 -0.12247 -0.10449 -0.3964 -0.33672 0.094254 0.44792 -0.53349 0.010006 0.23545 0.0033142
dragonfly -0.01091 0.13312 0.10304 0.11721 0.35538 0.42384 -0.44395 -0.053809 0.012745 -0.49322 -0.5475 -0.78311 -0.3981 0.016213 -0.097356 0.26927 -0.19371 0.43137 0.12601 -0.49705 -0.17473 0.55545 -0.68109 -0.5431 -0.46404 -0.0033767 -0.16768 -0.18799 -0.04534 0.36981 -0.35889 -0.37615 -0.33591 -0.32648 -0.69552 0.3688 0.23164 -0.28521 -0.090055 0.066269 0.20264 0.4574 0.22322 -0.14124 0.99776 -0.22531 0.10978 -0.15258 0.64475 0.19291 -0.72309 -0.32274 -0.021571 0.031901 -0.021266 -0.3083 -0.21344 0.02485 -0.13096 0.55084 -0.069735 -0.19205 -0.28256 -0.2069 -0.37512 -0.079554 -0.37343 0.049763 -0.22209 -0.50975 -0.4652 -0.037707 -0.53975 0.17841 0.12082 -0.0645 -0.57527 0.1442 -0.56658 -0.11864 -0.060327 0.16722 -0.057486 0.12771 0.075341 -0.31215 1.0926 0.62261 -0.20885 0.33766 0.24619 0.15812 0.28089 0.13226 0.23413 0.27051 -0.23315 -0.0034827 -0.32103 0.60498 -0.39575 0.3658 -0.11062 0.26896 -0.48697 -1.1187 0.0049899 -0.21285 -0.10584 0.77637 -0.10291 0.29582 0.19719 -0.15472 0.92195 0.27871 -0.6198 0.36475 0.56008 0.082501 -0.51083 -0.48576 0.95838 0.075766 -0.0037062 -0.026827 -0.21556 0.1909 0.11252 0.30281 0.17136 -0.79702 -0.08515 -0.11707 -0.13645 -0.24144 0.2877 0.42457 0.11601 0.70931 -1.7571 0.19608 0.37278 0.17982 -0.32951 0.061622 -0.18222 0.72418 0.32471 -0.41164 -0.15743 -0.065439 0.12395 0.55752 -0.14193 -0.2587 0.0065175 0.025079 0.18529 0.067142 -0.097391 -0.11307 -0.51286 -0.093721 0.9713 -0.016927 -0.16347 0.025536 -0.13091 0.61952 -0.0032145 -0.10328 0.41866 0.31106 -0.16353 -0.16904 0.7007 0.24022 0.4439 0.0050855 -0.027187 0.036934 0.27276 -0.37694 -0.076491 -0.11582 -0.47658 0.60191 -0.22961 -0.12009 -0.33961 0.49221 -0.18991 -0.21363 -0.17821 -0.064151 0.35163 0.56849 0.37774 -0.36678 -0.46868 -0.031282 -0.431 0.64402 0.38059 -0.046722 0.098647 0.027718 -0.35335 -0.2431 0.40132 0.19 0.19533 -0.39084 0.21779 0.12373 -0.24897 0.18428 0.063027 -0.32374 0.16246 -0.68659 0.39001 0.62372 0.14483 0.49705 0.1614 0.025045 0.172 0.15686 0.31072 0.36947 -0.14455 0.68581 0.42051 -0.15022 -0.12728 0.7203 0.70769 -0.14257 -0.11612 0.2575 0.37263 0.12536 0.26133 -0.2759 0.028268 0.60539 -0.063943 0.24311 -0.012634 -0.042288 0.079966 0.44989 -0.0098125 -0.43019 0.01958 0.049853 0.055901 -0.4279 -0.19799 0.26367 0.20718 -0.18151 0.36141 -0.096903 0.14736 -0.32909 -0.12713 0.049997 -1.0956 -0.38981 -0.065961 0.30767 0.41124 -0.3299 -0.18121 -0.19726 0.11033 -0.56944 0.0003653 -0.098654 -0.53431 -0.30398 0.024814 -0.51078 -0.17455 0.36775 -0.1669 -0.29413 -0.32395 0.69495 0.065562 -0.030693 -0.30826 0.17371 -0.41082 0.66899 -0.15642 -0.0085406
cockroach -0.029105 -2.6046e-05 -0.12526 0.129 -0.3401 0.45663 -0.32113 -0.48902 0.32529 0.052377 -0.76261 -0.39996 -0.2402 0.038703 0.12713 0.65693 0.26994 -0.22321 -0.24795 0.0030108 0.1935 0.34888 0.14267 -0.15137 0.093137 -0.64345 -0.39218 0.30815 0.037181 -0.068284 -0.24518 -0.27446 -0.20113 -0.092923 -0.054381 -0.019886 0.18039 0.087126 -0.36749 0.22169 -0.056966 0.23622 -0.37247 0.26047 0.65401 -0.2945 0.42367 -0.045087 0.18024 -0.46231 -0.96322 -0.089839 0.13042 0.37098 0.018528 0.33671 0.1081 -0.27287 0.15055 0.38685 0.50719 -0.054725 -0.033445 -0.39193 -0.057191 -0.3268 -0.60459 -0.051576 -0.73994 0.42806 0.037741 0.11664 -0.34091 0.036104 -0.79718 -0.42013 0.032254 -0.37598 0.43163 -0.33018 0.12406 0.588 0.36331 -0.41527 0.075067 -1.0512 0.50712 -0.35782 -0.49178 0.1889 -0.13737 0.52534 -0.12722 -0.51981 -0.39534 -0.64536 -0.080285 -0.080794 0.040634 0.40267 0.13515 0.94416 0.74051 -0.18164 0.070381 -1.6762 -0.18342 0.28731 -0.18667 -0.061096 -0.03521 0.68152 0.070563 -0.38771 0.31267 0.15398 -0.01995 -0.62209 0.35557 -0.93034 -0.76963 -0.39884 0.62688 -0.5251 -0.88424 -0.39904 0.16021 0.46142 -0.20406 0.63629 -0.26656 -0.68581 -0.3415 0.57805 0.25681 -0.22226 0.088852 0.63231 0.13527 0.77113 -1.4503 0.16855 0.07838 0.083844 0.16868 -0.09433 -0.049828 0.46575 0.20597 0.097285 0.31625 -0.22864 0.31228 -0.20497 0.13322 0.085385 0.69057 -0.43578 0.47079 0.25611 -0.19384 -1.0555 -0.39365 -0.42802 0.72261 -0.19009 -0.088566 0.28128 0.0077998 0.099278 0.034436 -0.11563 -0.046274 0.14639 -0.25297 -0.16919 0.1984 -0.046406 -0.35432 0.063059 0.22398 0.059117 -0.066193 -0.58603 -0.073712 -0.35343 0.18023 0.43138 0.36121 -0.087005 -0.60802 0.31128 0.01659 0.20082 0.085465 0.45028 0.43997 0.58354 0.52908 -0.47693 -0.063122 -0.13407 -0.25792 0.11552 0.49206 -0.36612 0.45007 0.28102 0.24508 -0.21704 0.092186 0.49185 0.020215 -0.080104 -0.044431 -0.62066 0.10114 0.14277 0.059255 -0.42069 -0.20367 -0.57034 0.68118 -0.10364 0.36221 0.18952 -0.082196 0.29618 -0.12508 0.48534 0.30245 0.3517 -0.47676 0.20141 0.33565 0.38951 0.1214 -0.12303 0.6405 0.15572 -0.061779 0.034498 -0.0077707 0.29575 -0.44386 -0.49078 0.47052 -0.040683 0.078544 0.24237 -0.0018745 0.025067 0.016525 0.35543 0.2157 -0.44695 0.20916 -0.13593 0.54493 -0.16735 -0.5354 -0.023082 -0.02505 -1.188 0.3461 0.36935 -0.087203 -0.57647 0.047098 0.63976 -0.23818 -0.32069 -0.11137 0.046191 -0.26595 0.25244 -0.30375 -0.14523 -0.00039051 -0.10478 0.29071 0.19508 -0.20914 -0.19209 0.31236 -0.42055 0.63323 -0.6283 -0.17619 -0.1457 -0.054646 0.033515 -0.29335 0.048527 -0.29976 0.31695 -0.072441 0.079614 0.11634 0.3215
locust -0.1899 0.05573 -0.21829 -1.127 0.16422 0.2557 -0.12049 0.20362 -0.76651 0.042295 -0.51647 -0.24714 -0.32959 -0.72254 -0.15289 0.85622 0.23581 0.10876 -0.16271 0.27005 0.41225 0.20957 -0.54635 -0.17044 -0.10649 0.089749 0.27952 0.17859 0.25785 0.0088905 -0.2847 0.32301 0.056028 -0.34874 0.29885 0.89271 0.47875 0.54735 -0.32267 0.10845 -0.47155 -0.10071 -0.1637 0.21287 0.5241 -0.0087938 -0.4077 0.51342 0.27471 -0.24002 -0.82575 -0.37409 -0.20365 0.21305 0.15953 -0.92604 -0.12695 0.43326 -0.029904 0.073851 -0.83631 0.36256 0.1571 0.0057265 0.67467 0.0050237 -0.25157 -0.42032 -0.31928 0.39435 -0.48261 0.30126 -0.18769 0.59027 0.33199 -0.098205 0.099543 0.25667 -0.061795 -0.15376 -0.035013 0.42735 0.58659 0.43075 0.67076 0.17366 0.69117 -0.37472 -0.7315 0.11681 0.4947 -0.20951 -0.37567 -0.16881 -0.066863 0.55374 0.1881 -0.37082 0.063429 -0.020933 0.0024861 0.64819 0.027947 0.11963 -0.80733 -1.7108 -0.10599 0.76684 -0.019975 -0.47923 0.065877 0.53131 0.043401 0.29145 -0.074031 -0.33317 0.41991 -0.3667 -0.4668 -0.31338 -0.91067 0.16565 0.020181 0.10129 -0.37939 -0.72373 0.67453 0.72133 -0.17967 0.87064 0.43502 -0.65679 0.46134 0.4582 -0.24398 -0.30369 0.021702 -0.51752 0.1166 -0.0080847 -1.0426 0.53119 0.3186 -0.076929 0.22382 -0.18408 0.45532 0.18616 0.010358 -0.45035 0.011848 -0.76354 -0.028555 -0.22908 -0.46345 0.18989 0.32993 -0.2126 0.59244 0.61009 0.034079 0.096932 -0.20434 0.32959 0.3637 0.11796 0.19476 0.11766 -0.1971 0.25792 0.46112 0.13773 0.21613 0.1524 -0.34067 -0.24787 -0.15439 -0.33321 0.3238 -0.055316 0.23454 0.40719 -0.15632 -0.24218 0.087797 -0.012772 -0.53643 -0.063713 0.0025982 0.32463 0.1363 -0.07536 -0.1876 0.41685 -0.66966 -0.14187 0.24152 0.32455 -0.079717 -0.34544 -0.35001 0.08565 -0.11717 0.062698 0.69927 0.32659 0.32297 0.60736 0.33607 -0.54319 0.34131 0.79004 0.67501 -0.059817 -0.096833 -0.48897 -0.948 0.01455 0.72019 -0.13526 -0.54677 -0.37223 0.61061 -0.36269 -0.098083 0.78966 -0.041884 0.48789 0.089505 0.14655 0.67549 -0.1914 -0.40607 0.33802 0.19983 -0.13587 -0.47449 -0.056986 0.18285 -0.092525 -0.33128 0.14373 -0.021245 -0.00054125 -0.65837 -0.31044 0.57503 0.081758 0.65862 -0.39505 -0.14391 0.18933 0.99415 0.65518 -0.21913 -0.61717 0.32568 0.0559 0.44185 -0.25674 0.21345 -0.32529 0.39931 -0.5146 0.2705 0.17148 -0.25966 0.15808 -0.53374 -0.010666 0.25977 -0.080042 0.33083 -0.047619 -0.080638 -0.11742 0.048654 0.20269 0.087339 0.044744 -0.24098 0.2204 -0.607 -0.46335 -0.12089 -0.33666 0.52331 -0.37895 0.33085 -0.37402 -0.44249 0.40614 -0.81689 -0.17832 -0.26981 0.26061 -0.33644 -0.13941 -0.44272 -0.061972
hornet 0.50149 -0.16548 0.30635 -0.224 -0.078198 -0.11628 -0.24516 0.099405 -0.11169 -0.36188 -0.3573 -1.1257 -0.11607 -0.50015 0.078755 0.23425 0.10011 -0.19694 -0.23722 0.55494 0.35646 0.012287 0.19686 -0.63961 -0.21639 -0.23991 -0.55469 0.14674 0.14945 0.040878 -0.084989 -0.32709 -0.32481 0.31754 -0.021179 -0.12552 0.5624 -0.19738 -0.34847 0.23322 -0.32054 -0.066444 0.15248 0.37737 0.37323 -0.035464 -0.13254 0.147 0.021857 -0.52201 -0.42369 0.013558 -0.55741 0.50668 0.17188 -0.5974 0.083571 0.10527 -0.18924 0.023314 -0.27768 0.35471 0.072141 0.073093 0.31744 -0.060629 -0.097497 -0.11717 -0.43754 -0.26798 -0.28537 -0.65122 -0.41439 0.74468 -0.1408 -0.55065 0.38164 -0.10401 -0.27177 0.50805 -0.24723 -0.090404 0.74599 0.0073038 0.50913 -0.099522 0.75377 -0.32454 -0.43397 0.34699 0.39116 0.24519 0.27974 -0.40964 0.22648 0.11092 -0.14844 -0.60692 -0.25033 0.28063 -0.37989 0.36898 -0.058391 -0.22595 0.01711 -1.3308 -0.42178 0.39076 0.054702 0.47568 -0.11263 -0.26024 0.11616 -0.053009 0.31527 0.22703 -0.043331 0.12517 0.57491 -0.23688 -0.51669 -0.32168 -0.31529 -0.68053 -0.39809 -0.10876 0.4444 0.36437 -0.41185 -0.058404 -0.61802 -0.75741 -0.54101 -0.059444 0.16713 0.37835 -0.19224 -0.074314 -0.27504 0.15988 -1.7165 0.13178 0.54688 0.53854 0.10116 0.387 -0.20342 0.38818 0.1187 -0.15362 -0.00025773 -0.071895 -0.0232 -0.043549 -0.25979 -0.22342 -0.032535 -0.13424 0.12573 0.53256 0.26401 -0.72635 -0.098114 0.028823 0.3943 -0.096345 0.064853 0.24132 -0.026614 0.15076 -0.074393 -0.12846 0.068106 0.15688 -0.40136 -0.36113 0.56573 0.11155 -0.13064 0.34293 -0.33204 -0.03263 0.06664 -0.047833 0.22631 -0.12862 -0.27631 0.25671 0.18902 0.45174 0.16513 0.066887 -0.42306 0.17141 -0.056121 -0.45307 0.37529 0.094081 0.63717 -0.5816 0.41666 -0.15095 -0.159 -0.12426 -0.18779 -0.0077766 0.19442 0.12695 -0.21102 0.24025 0.28654 0.68166 0.46522 0.34377 -0.11315 0.011688 -0.10969 0.2582 0.46499 -0.56534 0.12719 -0.4 0.85808 -0.30329 0.39695 0.5537 -0.22188 0.24366 0.49592 -0.13563 0.63568 0.088734 -0.12165 0.24674 0.046539 -0.0014774 0.032127 0.12641 0.1277 0.011958 0.20188 0.27949 0.72683 -0.071623 -0.13182 -0.6809 0.71664 0.69311 -0.18494 -0.68717 -0.12722 0.12192 0.15113 0.25272 -0.01129 -0.86588 -0.11219 -0.35514 -0.22425 -0.5006 -0.68685 -0.30032 0.39587 -0.56551 0.40003 0.31205 -0.3189 -0.094875 -0.50635 0.11364 0.47961 -0.2088 0.48516 -0.46408 0.39165 0.14434 -0.044777 -0.34908 -0.29055 0.13254 -0.41147 0.31988 -0.27431 -0.39597 0.19998 -0.64007 0.16914 -0.40188 0.024522 -0.13999 -0.068641 -0.087644 -0.18719 -0.17776 -0.59736 0.12866 -0.26578 0.3707 -0.31407 0.32175
maggot -0.047437 -0.2071 0.30524 0.064197 0.055952 -0.030597 0.030197 -1.0668 -0.18949 -0.1816 0.05351 -0.19866 -0.39357 0.086505 0.080823 0.0018489 -0.14651 -0.70098 -0.1931 0.14464 0.35249 0.6848 -0.45666 0.29297 -0.24985 -0.41978 -0.35435 0.36564 0.31068 0.51598 -0.28688 -0.082467 0.10483 0.19385 -0.23759 0.24703 -0.184 0.08966 -0.39778 0.73561 -0.097506 -0.0044704 -1.0531 0.21814 1.1877 0.067675 0.5409 0.34122 0.25358 0.16452 -0.043105 0.028438 0.062778 0.10655 0.38722 -0.084487 -0.33669 0.56184 -0.24569 -0.26153 -0.32076 0.24526 0.41845 0.34364 0.14873 -0.42718 -0.72549 -0.47925 -1.0025 -0.54913 -0.21043 0.24363 -0.49747 -0.27807 -0.41245 -0.35683 -0.089816 0.09633 -0.037208 -0.016641 0.43818 0.26112 0.29259 -0.69781 -0.20159 -0.13449 1.1434 -0.54041 -0.69163 0.80262 -0.27623 0.56502 0.08313 0.17105 -0.39968 0.20328 -0.47843 -0.16026 -0.1709 0.060893 0.26988 0.028875 0.31503 -0.11187 -0.25586 -1.5564 -0.075249 -0.22579 0.2452 -0.19921 0.012455 0.0014794 -0.066011 -0.043384 0.15213 0.059603 -0.063758 -0.71933 0.33043 -0.51658 -0.74407 -0.14339 0.27061 0.048087 -0.39292 -0.10296 0.30178 -0.37447 -0.003649 0.52454 -0.31216 -0.15901 0.18223 0.28701 0.24948 0.13056 0.31776 0.065935 0.068232 0.75508 -1.3408 -0.13976 -0.15223 -0.21725 0.14651 -0.64745 -0.20546 -0.068899 0.091414 -0.028025 0.18595 -0.032394 0.24728 -0.40819 0.22819 0.1383 -0.21625 -0.099755 0.64177 -0.31432 -0.19716 -0.37944 0.091248 0.025946 0.53041 -0.20215 0.047099 -0.2649 -0.6535 0.18422 0.083522 -0.27617 0.27808 -0.18184 0.24914 0.15492 -0.2536 0.6234 0.12931 0.34609 0.25154 0.38444 0.061619 -0.030613 -0.3855 -0.56765 -0.099607 0.10705 -0.41669 -0.23746 -0.01218 0.20647 0.3133 -0.14922 0.20974 0.7475 0.69983 0.32968 -0.27601 -0.58956 -0.32284 -0.31467 -0.32762 0.20658 0.46166 -0.11376 0.20935 0.45917 0.038283 0.050501 -0.30635 0.4959 -0.2385 0.50419 0.25285 -0.87367 -0.099155 0.36525 -0.2133 -0.31067 -0.38422 -0.36004 0.40016 -0.60546 0.17766 0.44083 -0.51042 0.098398 -0.15058 0.28499 -0.019117 0.4772 0.2445 0.47134 0.055795 0.0096771 0.20668 -0.0026939 -0.032457 -0.063519 0.096261 0.10886 -0.25841 -0.35167 0.2225 -0.077225 0.24381 0.095399 -0.28808 0.70709 -0.61906 -0.7117 0.244 0.18398 0.014542 -0.35036 0.30226 -0.10558 0.56188 0.35915 -0.25153 -0.011192 0.26804 -0.94391 0.95765 0.23586 0.077245 -0.26586 0.041005 -0.3231 0.10183 -0.57968 -0.40812 -0.21574 -0.50313 0.3329 0.17545 -0.024838 0.11286 -0.3066 -0.0075251 0.50492 -0.59605 -0.77843 0.21382 0.059887 -0.13088 -0.35186 0.17273 0.52673 -0.13269 0.26448 -0.19366 -0.5643 -0.12517 -0.0048401 -0.36429 0.033115 -0.4496 -0.13904
tarantula -0.27804 -0.58698 0.2388 -0.020572 0.0063773 0.10144 -0.49528 -0.089348 -0.078651 -0.57547 -0.43857 0.3917 0.029717 -0.45441 -0.23835 0.15927 -0.42552 -0.57378 -0.23483 -0.67332 -0.16392 -0.085315 -0.24314 -0.19017 -0.31627 -0.25997 -0.39428 -0.095223 0.047646 -0.1824 -0.059844 -0.57648 -0.1548 -0.07821 -0.36716 0.93275 0.84672 -0.03733 0.023945 0.02614 0.28508 0.020211 0.30249 0.16603 0.46903 0.26397 -0.12832 -0.045358 0.47709 -0.15052 -0.65249 -0.15417 -0.029812 0.27051 0.28614 0.44054 -0.1253 -0.0471 0.085357 0.27669 -0.19943 0.016957 -0.19502 -0.039017 0.35265 -0.45032 -0.4382 0.14068 -0.7148 -0.13731 -0.23529 -0.26807 -0.28249 -0.017953 -0.50792 -0.057195 0.15201 -0.5 -0.36121 -0.55162 -0.014687 0.49861 0.31967 -0.31491 0.10581 0.032495 0.61274 -0.37675 -0.048619 -0.071024 -0.11384 0.18415 -0.1297 -0.65358 0.15612 0.4684 0.03632 -0.36105 -0.022724 0.4958 0.37717 0.67987 0.87201 -0.49389 -0.28159 -1.4629 -0.32697 -0.34147 -0.44421 -0.22197 -0.037896 0.054534 -0.16096 -0.0035267 0.48056 -0.1708 -0.57913 -0.51661 0.65252 0.12845 -0.23185 -0.27949 0.61907 -0.52603 -0.69401 0.050775 0.24242 -0.2778 -0.24944 0.91531 -0.34729 -0.77458 -0.6552 0.54545 0.33115 -0.052581 0.18944 0.19699 0.22668 0.41872 -1.5263 -0.47557 0.036697 0.036478 -0.08531 0.23081 0.25554 0.073867 0.26738 -0.26724 0.11858 -0.47016 0.56225 -0.22061 -0.3129 -0.1438 0.63945 -0.14813 -0.12481 -0.062896 0.24298 -0.094041 -0.22132 -0.34862 0.20013 0.07145 -0.26932 0.24305 -0.32279 0.0081086 0.14265 -0.29271 0.22258 0.19426 -0.56092 0.097243 0.14671 0.099941 -0.2122 0.276 -0.010698 -0.34934 0.22396 -0.58965 -0.10266 -0.65765 0.369 0.03202 0.39865 -0.092578 -0.346 0.47937 -0.089029 -0.22517 0.064721 -0.20369 0.39701 0.6474 0.6919 -0.3264 -0.33477 0.19553 0.31502 0.24115 -0.03308 -0.14841 0.37042 0.012213 -0.42197 -0.27011 0.066704 0.37822 0.064897 -0.16608 -0.28527 -0.45323 -0.29618 -0.13619 0.063834 -0.60899 0.0054236 -0.32952 0.20578 -0.3955 0.289 0.15999 0.24844 0.45355 0.18728 0.36563 0.059211 0.019806 -0.43943 -0.025361 0.31314 0.13052 -1.028 0.081168 0.39521 -0.13657 0.13444 0.023281 -0.35088 0.24036 -0.21336 -0.70575 -0.22592 0.74414 -0.25649 -0.17598 0.013949 0.13635 -0.08913 1.1738 0.28246 -0.62873 -0.052285 -0.090402 0.68567 -0.053106 -0.37276 -0.26662 0.48665 -0.74846 0.66986 0.30305 0.18633 -0.23438 -0.5974 0.64403 -0.030701 -0.59939 0.34491 -0.32482 0.68228 0.40579 -0.5594 -0.22594 -0.052659 -0.28622 0.24215 0.30365 -0.3046 -0.27592 0.19778 -0.5343 -0.29653 -0.19931 0.39977 -0.34987 0.12029 -0.27735 -0.32111 0.0020907 -0.52218 0.51263 0.024646 0.29659 0.28418 0.077198
centipede 0.38859 -0.01813 0.35792 -0.69948 0.30149 -0.0072339 -0.16726 -0.012756 0.12474 -0.51234 -0.23588 -0.32806 -0.064958 0.35553 -0.12395 0.83051 -0.012323 -0.59076 -0.24699 -0.20287 0.06768 0.83149 -0.021941 -0.089774 0.057007 0.057637 0.019871 -0.29538 0.37147 0.10621 -0.35573 -0.4091 0.13579 0.038583 -0.039467 -0.19027 0.25195 -0.023902 -0.27223 -0.17775 0.36922 0.43102 -0.1006 -0.29762 0.57386 -0.17549 -0.081303 0.31096 -0.12655 -0.10754 -0.59433 0.10048 -0.15619 -0.16035 0.040076 0.27946 -0.37671 -0.33939 -0.30524 0.50437 -0.18576 0.24814 0.01037 0.082329 0.41399 -0.42555 -0.53418 0.22742 -0.99664 0.02141 0.23004 0.16435 -0.13639 0.19552 -0.13549 -0.32313 -0.041918 -0.21265 -0.06475 -0.42347 -0.13067 0.35504 0.54599 -0.10913 0.2201 -0.097689 0.7411 -0.32361 0.098897 -0.64416 -0.22176 0.57508 -0.40596 -0.51212 -0.11082 0.31429 -0.19966 -0.19989 -0.25011 0.11487 -0.16453 0.42324 0.25293 -0.36287 -0.73716 -1.6514 -0.40718 0.026123 -0.076208 -0.40515 0.21381 0.21003 -0.32257 -0.26528 0.49036 0.066365 -0.53273 -0.46722 0.2708 -0.18285 -0.59778 -0.29853 0.31005 -0.49262 -0.29857 -0.060701 0.039671 0.12119 -0.18537 0.62633 -0.32458 -0.79865 -0.58291 0.43745 -0.088728 -0.073083 0.36237 0.55211 0.037635 0.34683 -1.249 -0.090198 -0.46025 0.17807 0.072254 0.13996 -0.23245 -0.43392 -0.19822 -0.076696 -0.17551 -0.21839 0.41813 0.021453 -0.088377 0.039109 0.45871 -0.27481 -0.022196 0.56847 -0.20926 -1.0625 -0.33756 -0.20339 0.38431 -0.23785 0.17241 0.45294 -0.33208 0.30334 -0.10976 0.0049747 0.063512 -0.38757 -0.82772 -0.20233 -0.040869 0.22434 -0.03176 -0.32259 0.10714 0.045334 -0.26692 -0.48008 -0.16519 -0.26077 0.0066454 0.38739 0.080068 0.43716 -0.025335 0.27455 0.51332 -0.28792 0.24665 0.25285 0.82262 0.43195 0.22066 -0.35803 0.10153 0.30023 -0.010452 0.13406 0.10961 0.34405 0.51997 -0.038576 0.10949 -0.46166 -0.080446 0.21092 0.67023 0.03497 -0.8034 -0.40438 0.2108 0.061646 -0.23559 -0.81086 -0.22578 -0.29669 0.025691 -0.31338 0.34819 0.0058144 0.038613 0.4886 -0.063203 0.17455 0.4299 0.11336 -0.39261 0.48061 0.056336 0.21877 -0.48023 0.018158 0.25068 0.43915 -0.061838 -0.25539 -0.36797 -0.31039 -0.50155 -0.65545 0.51336 0.15006 0.061072 0.11456 0.0071549 -0.12647 0.2873 0.66322 0.41341 -0.50292 0.32746 0.10485 0.83378 -0.47318 -0.42295 -0.089388 -0.70482 -0.67789 0.74283 0.11795 -0.40617 -0.019503 -0.36697 0.26509 -0.29085 -0.69331 -0.024954 -0.49276 -0.15543 0.23694 -0.64959 0.024502 -0.091071 -0.57668 0.15724 -0.15951 -0.10864 -0.65025 0.22947 -0.20243 0.12043 -0.69549 0.16192 -0.60128 0.016378 -0.11976 -0.35388 0.0012878 -0.3954 0.22449 -0.18045 0.14549 0.17087 -0.2362
gnat -0.10516 0.11808 0.59786 -0.36656 0.00050732 0.51254 0.27325 -0.43237 0.43606 -0.51198 -0.22933 -0.111 -0.48571 -0.24539 0.23585 0.33178 -0.030202 -0.97407 -0.62591 0.047663 0.56252 0.31292 -0.11963 -0.037053 0.33785 -0.58757 -0.13043 -0.13003 0.53341 0.095499 -0.32196 -0.21913 -0.05302 -0.16182 -0.1842 0.30993 0.77817 -0.11594 -0.17404 0.37601 0.30541 -0.10856 -0.57861 0.66862 0.69319 -0.13284 0.25438 0.42826 0.44947 0.43402 -0.49194 -0.071033 -0.81692 0.16865 0.011524 -0.36459 0.2173 0.030314 0.50604 0.72275 -0.042656 0.10629 0.067355 0.15277 -0.1294 -0.2949 -0.41287 -0.45581 -0.19888 0.75023 -0.33889 0.054812 0.38178 0.046373 -0.35548 0.018396 -0.11811 0.20409 -0.092743 -0.20127 -0.29658 0.54961 0.42977 0.049365 -0.33615 -0.24226 1.3395 -0.53768 0.33695 0.30013 -0.12148 0.61093 0.14157 -0.1416 0.2092 0.14725 -0.36745 -0.19611 0.24961 0.72127 0.39227 0.49039 -0.031053 0.2075 -0.1632 -1.5395 0.373 -0.30724 -0.1904 0.21716 0.034497 -0.07147 -0.22364 -0.20825 0.17352 0.019017 -0.39125 -0.3605 0.41766 -0.21444 -0.20375 -0.42923 -0.1972 -0.17937 -0.63913 0.37466 -0.72198 0.083567 -0.098971 0.071286 -0.27234 -0.51018 -0.25795 0.31666 -0.20097 -0.32396 0.3962 0.36297 -0.48558 0.57382 -0.81474 1.0164 -0.06642 -0.14857 0.2448 -0.014408 0.35713 -0.18071 -0.15174 0.046031 0.46386 -0.012896 -0.08171 -0.11835 -0.23375 -0.28376 -0.064461 0.18689 0.5544 -0.10539 0.066528 -0.84135 -0.4457 -0.16829 0.97073 0.16299 0.21996 -0.62346 -0.17321 0.55701 0.19027 0.27829 0.54872 -0.1014 0.17618 0.038666 -0.20011 -0.48579 0.69194 -0.34315 0.29556 -0.0062924 0.088125 0.0058089 -0.31616 0.065763 0.00084894 0.41547 -0.29838 -0.092178 -0.17924 -0.40626 -0.34993 0.36813 -0.075283 0.28247 0.41981 0.76539 0.65282 -0.45733 -0.27908 -0.2188 -0.58443 0.090604 -0.10642 -0.092058 -0.1886 -0.22951 -0.23927 0.11537 -0.29196 0.23277 -0.006159 0.016597 0.052596 -0.38714 -0.33985 0.28163 -0.18236 -0.80994 0.2187 -0.56455 0.5881 -0.059581 0.4481 0.24459 -0.15047 -0.16392 -0.14953 0.15736 0.9034 -0.24381 0.074439 -0.28698 0.38725 0.1782 0.61055 0.31416 0.46659 -0.7397 0.25145 0.48237 0.46578 -0.23786 -0.75123 -0.22641 0.37693 0.10116 0.16347 -0.047937 -0.067684 0.3799 0.083564 0.015342 0.44213 -0.49507 0.062225 -0.12725 0.34657 -0.46166 -0.46046 -0.4123 0.19538 -0.55658 0.45779 0.33648 -0.050051 0.15005 -0.070355 -0.27701 -0.013044 -0.037549 0.10163 -0.31778 0.16218 0.055419 0.2353 0.13281 0.011592 -0.15215 -0.32426 0.31387 -0.18888 -0.83116 -0.61614 -1.0294 0.43052 -0.59016 0.1124 0.047411 -0.1248 0.42923 -0.65506 -0.36887 -0.1049 0.14202 0.31792 0.37901 -0.31598 -0.32102
weevil -0.3518 0.68847 0.12468 -0.60471 -0.40645 0.10997 -0.42746 -0.65432 0.078602 -0.43986 -0.21114 -0.55482 -0.054129 -0.36861 0.9437 0.34595 0.050473 -0.89117 0.12093 0.16803 -0.025388 0.040314 -0.089836 0.16484 -0.55855 -0.68884 -0.46494 -0.046511 -0.2669 0.45833 -0.38744 -0.5859 0.40115 -0.61998 -0.34255 0.61466 0.043604 0.22144 -0.67965 0.46846 -0.35878 0.27128 -0.8856 -0.011384 0.28878 0.37264 -0.36314 0.92191 0.2294 0.25679 -0.92778 -0.39884 -0.073666 0.10113 0.91164 -0.13679 -0.25816 -0.17974 -0.14088 -0.022251 0.14778 0.59314 0.38773 0.36462 0.1717 0.035747 -0.80366 -0.29968 -0.64484 0.037729 -0.41899 1.0834 -0.47349 0.03591 -0.12795 -0.11924 -0.18806 0.26715 0.18331 -0.21504 0.20305 0.8625 0.53218 0.6031 0.15248 -0.6638 0.24133 -0.2286 -0.50047 0.64783 -0.12025 0.50424 0.20454 -0.088652 -0.24694 -0.039963 0.17076 -0.5014 -0.30571 0.49604 -0.47863 0.3756 0.096308 0.13164 -0.66593 -1.439 -0.33764 -0.12224 -0.25485 -0.29568 -0.0016693 0.81808 -0.24639 0.24257 0.32371 -0.33172 -0.69843 -0.84706 -0.48735 -0.39612 -0.76842 0.58288 0.4018 -0.26672 -0.83777 -0.14996 0.25511 0.2667 -0.34127 0.45228 -0.66219 -0.75657 -0.10177 0.90058 -0.43841 -0.16418 0.31635 0.27436 0.43994 0.33327 -0.46836 0.55643 -0.24302 -0.28355 0.39005 -0.51485 0.1492 -0.37899 0.31862 0.37238 -0.5714 -0.81552 0.13806 -0.12183 -1.0005 0.25101 -0.078373 -0.21451 0.26448 0.65408 -0.053357 -0.61008 -0.55673 0.58748 0.17138 0.30641 0.19109 -0.39311 0.29557 0.091816 0.070877 1.0208 0.019067 0.011501 -0.55325 -0.29734 0.12471 0.51754 0.25732 0.012843 -0.10507 0.47035 -0.23008 0.41745 -0.55069 0.17646 -0.14623 -0.24147 -0.58711 0.084238 0.40041 -0.042026 -0.21517 0.47849 -0.063614 -0.46131 0.055194 0.25558 0.28664 -0.17158 -0.087638 0.26132 -0.33753 0.62681 0.21715 -0.6424 0.54882 0.81794 0.1636 0.57823 -0.041686 0.67063 -0.13143 0.02425 -0.14601 -0.47204 -0.11223 0.46191 0.24625 -0.3089 -0.22561 0.25411 0.91815 0.21372 0.17484 0.69641 0.2792 -0.2001 0.28135 0.68153 0.73968 -0.18574 -0.23972 0.34099 0.073037 -0.47187 -0.098703 0.31157 0.85326 -0.19459 0.5762 -0.46802 0.21336 -0.21424 -0.2597 -0.22524 0.2999 0.88339 0.34758 0.55892 0.33046 0.06437 -0.018122 0.12637 -0.29374 -0.2475 0.39346 -0.3208 1.2689 -0.025912 0.072532 0.4493 0.2063 -0.78402 -0.20655 0.30994 -0.28591 -0.6643 -0.39725 0.30842 0.1563 -0.83557 0.49172 -0.77899 0.17148 -0.09693 0.26901 -0.14471 -0.17966 -0.0099871 -0.2991 -0.1017 -0.28265 -1.3322 0.15418 -0.30607 0.77128 0.0088947 -0.48013 -0.54269 0.016342 1.0395 0.061505 -0.55736 -0.18869 0.17847 0.066479 0.22046 -0.60015 -0.41888
bedbug 0.02111 0.043577 -0.42758 -0.051233 -0.082577 0.59689 0.12868 -0.89024 0.0081104 -0.081603 0.16193 -0.94911 0.3384 -0.030433 -0.016374 0.35669 0.91364 -0.25587 -0.086729 0.2306 0.25316 0.58549 0.21119 -0.40311 -0.25691 -0.43466 -0.64424 0.21116 -0.41414 0.24984 0.089613 0.20281 0.21151 0.33513 0.45084 0.34412 -0.057549 0.11196 -0.0072601 0.13018 -0.086876 -0.37543 -0.35968 -0.11632 0.41416 0.50337 0.77222 0.72917 -0.020203 -0.48987 -0.50191 0.35563 -0.38154 0.42147 0.12239 0.17454 0.68736 0.33205 -0.072538 1.0864 0.70571 -0.14643 -0.63238 0.29999 0.20262 0.091876 -0.22247 -0.062671 -0.48398 0.55951 0.1749 0.085701 -0.011261 0.64274 -0.013633 -0.37825 0.33643 -0.21144 0.48722 -0.4297 0.054597 0.16383 0.94978 -0.46124 -0.20078 -0.33186 -0.062896 -0.29954 0.041362 0.28162 0.53946 0.15924 0.37564 -0.47822 -0.68307 0.12618 -0.29686 -0.065228 0.10492 0.46937 0.19333 0.8876 0.33038 0.10307 0.12535 -1.6086 -0.43012 0.059132 -0.6708 -0.53791 -0.1162 0.61907 0.35977 -0.39531 -0.049774 -0.23596 -0.59251 -0.061516 0.27512 -1.1726 -0.32812 -0.11427 0.41015 -0.54299 -0.29694 0.27236 0.17611 0.59148 0.23283 0.19692 -0.14774 -0.91025 0.18466 0.64761 0.37991 -0.35887 0.085235 0.29447 0.14664 -0.081586 -0.12908 0.12831 0.81525 0.077517 0.10919 0.18336 -0.51812 0.30745 0.38427 0.028963 0.22904 -0.22084 0.21397 -0.29676 0.27879 -0.11633 0.42691 -0.14074 0.024434 -0.16767 -0.27444 -0.50284 0.15204 -0.57801 0.86201 0.36657 -0.265 0.23763 -0.23271 -0.43385 -0.21129 -0.043989 0.32295 -0.088554 0.41913 0.27806 0.17051 0.088362 -0.37183 0.35511 0.031528 0.20517 0.19154 -0.17193 0.046849 0.23489 -0.1601 0.60429 -0.10515 0.037763 -0.57611 0.16616 -0.069826 0.82703 0.31342 0.65041 0.27482 0.62001 0.59246 -0.19912 0.30539 -0.61289 -0.76037 -0.13899 0.14008 -0.25472 0.098429 0.57721 -0.10405 0.31499 0.57873 0.36936 0.35244 -0.15939 -0.72165 -1.0442 -0.063043 -0.28171 0.068153 -0.29841 0.0038759 -0.32858 0.1913 -0.85745 -0.0025845 0.23842 -0.33105 0.37044 -0.30361 -0.55187 0.42321 -0.13803 0.47094 -0.34332 0.20188 0.0039023 -0.65434 -0.59486 0.67237 -0.38776 0.30812 -0.55485 0.077042 -0.196 -0.56443 -0.054305 0.55182 0.51126 0.54684 -0.043665 -0.4877 0.095359 0.047128 0.6223 -0.3931 -0.34959 0.19608 -0.28694 0.50476 0.033373 -0.31191 0.33622 -0.25604 -1.095 0.65389 0.47096 -0.10681 -0.18072 -0.91542 0.77335 0.25788 -0.31426 0.14439 0.055498 0.3274 0.29695 -0.096082 0.12196 0.46728 -0.14631 0.23601 0.45861 -0.11469 -0.31849 -0.25519 -0.16409 -0.16952 -0.11372 -0.31562 0.35109 -0.57616 0.15338 -0.18571 0.22785 0.087659 -0.19234 -0.52201 -0.039805 0.047054 0.39022
horsefly 0.44307 0.11546 0.42777 -0.69897 0.11833 0.72596 0.22888 -0.618 0.070876 -1.1748 -0.040584 -0.4737 -0.58418 0.12005 0.18943 0.66078 -0.29922 -1.7081 -0.12784 0.21407 -0.45936 0.71111 -0.89684 0.24625 0.03272 -0.12739 0.38233 -0.17531 -0.013132 -0.026451 0.0020711 -0.085555 0.19494 0.36323 -0.37493 -0.019082 0.46567 -0.095861 -0.36057 1.1027 -0.49816 0.17917 0.0091685 0.24761 0.71466 -0.1527 0.22603 -0.0099255 0.23884 -0.0979 -0.37064 0.34353 -0.28176 0.67648 0.36634 -0.34188 0.24048 0.50493 0.061921 0.61403 -0.44402 0.23886 0.29193 0.27295 -0.13094 -0.02993 0.057909 -0.32695 -0.20113 -0.088731 0.13808 -0.45778 -0.25849 0.095349 -0.38352 -0.42729 -0.0072142 -0.13584 -0.38135 -0.65799 0.10882 0.20119 0.30366 -0.013948 -0.15017 0.1188 0.87585 -0.23453 0.047908 0.030657 -0.069881 0.41989 0.32607 -0.43319 -0.85848 0.18273 -0.24427 -0.06183 -0.46449 0.4322 0.46464 0.82912 0.28431 0.053304 -0.24437 -1.6119 0.34846 -0.13661 -0.0026671 -0.21365 0.00024517 0.51866 0.15655 0.1943 -0.12417 0.33317 -0.21481 -0.34961 0.55947 -0.26582 -0.20025 -0.45033 0.17815 -0.015685 -0.31872 0.27198 0.19279 0.22582 -0.10154 -0.4117 0.10552 -0.60215 0.062076 0.34409 -0.11842 -0.30848 0.20724 0.19783 -0.044077 0.25529 -0.10631 0.56059 0.15899 -0.39453 -0.089077 -0.098082 0.27987 0.018163 -0.17256 -0.35493 0.17581 0.070507 -0.64739 0.24418 -0.50345 0.22783 0.065944 0.0040247 0.45775 -0.067936 -0.32835 -0.56976 -0.4669 -0.050929 1.0305 0.27273 0.52178 0.51444 0.071222 -0.20557 0.31432 -0.026833 1.1208 -0.68325 0.037843 0.28417 -0.2041 -0.22185 0.19579 0.14302 0.47732 0.040352 0.18529 0.092684 0.41812 -0.062009 -0.39211 0.62748 0.10949 -0.48402 0.52995 0.11088 0.052286 0.061301 0.02788 -0.25311 1.0843 0.84992 0.4672 -0.7486 -0.68601 -0.28919 -0.24786 0.52515 -0.21637 0.16342 0.40313 0.21644 -0.76647 0.31937 -0.22964 0.80061 0.12156 0.14973 -0.29806 -0.59997 -0.17061 0.24737 0.30259 -0.007674 0.047756 -0.038603 0.31592 -0.50676 -0.040871 0.24101 -0.14472 0.4888 0.067959 -0.21742 0.4757 -0.15026 0.32778 0.33021 0.20663 0.16938 0.15271 0.48852 0.33419 0.033248 0.602 0.15011 0.50097 0.18014 -0.11922 -0.63744 0.68862 -0.52548 0.29375 -0.19696 -0.66695 -0.65984 -0.0011546 0.19952 0.37655 -1.2634 -0.018838 -0.010405 0.067166 0.22728 -0.14852 -0.56405 -0.50047 -0.15273 0.64507 0.15526 -0.47744 -0.10105 -0.53782 0.25746 -0.31682 -0.18171 -0.28638 -0.20394 0.39459 0.35845 0.097857 -0.34404 0.52569 -0.14469 0.35773 0.19013 -0.20625 -0.1173 -0.033132 -0.32281 -0.34401 -0.2789 -0.11144 0.21711 -0.38225 0.52455 -0.29936 -0.5769 -0.14302 0.27858 -0.003184 -0.22269 -0.024613 -0.037129
blackfly 0.41879 0.0010959 0.068436 -0.4416 -0.25604 1.1635 0.27455 0.084794 -0.090331 -1.1358 0.5214 -0.30593 0.0073696 -0.53336 0.49363 0.46392 -0.19278 -1.4216 0.50695 -0.16284 -0.19001 0.10926 -0.076125 0.041556 -0.26461 -0.69827 -0.3896 0.014602 0.12038 0.16764 0.21127 -0.55943 -0.4864 -0.19571 -0.1374 0.21595 0.7587 0.13226 -0.53049 -0.065461 -0.55806 0.77957 -0.39086 0.52326 0.57927 0.22487 -0.10198 0.53169 0.87809 -0.13191 0.11528 -0.29731 0.31079 0.3301 -0.0305 -0.12537 0.20265 0.98376 -0.19436 -0.32643 0.015773 0.52363 0.044458 -0.039725 0.60881 -0.25867 -0.57465 -0.0072222 -0.14797 0.068244 0.068327 0.75321 -0.52464 0.05253 -0.49677 -0.70355 0.19146 0.33189 -0.3129 -0.072848 0.036717 0.7528 0.5012 -0.65289 0.047409 -0.049694 0.94704 -0.30646 0.10715 0.26411 -0.21052 0.43627 1.5945 0.10527 -0.58601 0.091821 0.51612 -0.34437 -0.47204 0.93791 0.27218 0.45513 0.3801 0.46302 -0.22348 -1.4418 -0.15912 -0.71911 -0.0089443 -0.69815 -0.6588 0.39035 -0.71496 -0.30671 -0.29201 0.0010045 -0.48253 -0.35617 0.63196 -0.04946 -0.51748 0.062341 0.21293 -0.49275 0.092645 0.24183 0.43855 0.58397 -0.093147 0.305 -0.38972 -0.38472 0.032967 0.35664 0.50667 0.30833 0.42913 0.27804 -0.090344 0.32376 0.3038 0.19419 0.29766 -0.23214 0.22344 0.2602 0.67864 -0.60715 -0.28193 0.56365 -0.036332 -0.33249 0.22806 0.45901 -0.64213 0.2857 -0.10322 -0.30646 0.038415 0.3843 -0.44041 -0.27723 -0.071929 -0.26239 1.042 0.87319 -0.055492 0.12436 0.3399 0.1715 0.33658 0.37062 0.74017 -0.48245 -0.061825 -0.06268 -0.87821 -0.37152 -0.20642 0.40552 -0.052296 -0.58357 -0.27836 -0.32133 0.69258 -0.0078672 -0.0059199 -0.24366 0.12371 -0.45625 0.46741 -0.46609 -0.089909 -0.26729 0.057511 -0.55947 0.4136 1.03 0.8803 -0.15471 0.37516 0.043565 -0.045867 0.87302 0.2969 -0.13252 -0.10607 0.81799 -0.15473 0.15511 0.091939 0.59084 -0.10662 -0.059439 -1.2751 -0.49459 -0.10396 0.13191 0.54503 -0.66423 0.092393 -0.13797 0.83477 -0.25698 0.34807 0.12944 -0.0023667 -0.49995 -0.39562 -0.054917 0.52872 0.027172 -0.2005 0.0010297 0.10157 -0.05503 -0.056111 0.3294 0.28068 0.41386 0.39384 -0.15916 0.11062 -0.50915 -0.25268 -0.43929 0.20009 0.52102 -0.3114 0.3269 -1.3 0.26244 0.65593 0.1005 0.24092 -0.94191 0.10341 -0.31626 0.061979 0.7545 -0.22784 0.10011 0.43794 -0.2455 0.60298 -0.2738 0.11136 0.06009 -0.14892 0.31368 -0.24254 -0.88492 0.32651 -0.082935 -0.033305 0.65604 0.54318 -0.33126 0.20651 0.15269 -0.18768 0.58408 -0.25843 -0.66248 0.00018597 0.18602 0.46143 0.24956 0.014638 -0.40099 -0.11791 0.10248 -0.89044 -0.13484 -0.61489 -0.057768 -0.11401 -0.055356 -0.33134 -0.35272
