Paul 0.090956 -0.28958 -0.25384 -0.084522 0.39235 0.087349 0.35232 0.090223 -0.34385 2.8537 0.42306 -0.014071 0.086295 -0.16743 0.071932 0.034554 -0.34086 0.13034 0.0043164 0.24152 0.047576 -0.38768 0.16836 -0.21175 0.020944 -0.18892 -0.048748 0.19404 0.41544 0.17354 -0.19353 0.52928 0.14582 -0.16223 0.50324 0.078964 -0.12338 -0.68116 -0.10819 -0.30981 0.23563 -0.0051346 -0.048358 -0.084358 -0.22392 -0.17877 0.08119 0.022463 0.28923 0.16113 0.39336 -0.11771 -0.17183 0.24111 0.013364 -0.66939 -0.11481 0.27889 0.27776 0.09943 -0.55437 -0.011454 -0.30797 -0.33975 -0.13516 -0.11978 0.19322 -0.058089 -0.44372 -0.23284 -0.14359 0.29604 0.33263 0.054063 -0.45779 -0.10591 0.36471 0.05744 -0.55377 0.12523 0.36549 -0.41022 0.59318 -0.20564 0.10625 -0.98872 -0.27938 -0.89038 0.031186 0.10038 0.38935 -0.26318 0.10194 0.61621 0.21012 -0.60796 -0.038619 0.35916 0.0081148 -0.21212 -0.16025 0.039708 0.0781 -0.12815 -0.28801 1.9076 -0.071189 0.084914 -0.16004 0.14515 -0.051731 -0.27559 0.071614 0.16612 0.20613 -0.047808 -0.32547 -0.68667 0.16676 0.094797 -0.20701 0.14363 -0.036019 0.24168 0.18147 -0.52356 -0.40619 0.28938 0.1471 0.021563 -0.19805 0.22279 0.16941 -0.45688 -0.20602 0.27079 0.07729 -0.38781 -0.28876 -0.14292 -0.48469 -0.19962 -0.31875 0.10146 0.45746 0.5026 0.0064747 -0.32825 0.12166 -0.0082662 0.29061 -0.37386 -0.42618 -0.14256 -0.056829 -0.25958 -0.084847 -0.089611 -0.35433 -0.31235 0.19183 -0.23624 0.41389 -0.26403 -0.10711 0.001913 0.14934 -0.13068 -0.112 0.0018193 -0.2795 -0.043144 0.080398 -0.34976 0.03416 0.073618 -0.087066 0.59295 0.83493 0.0012267 0.49259 -0.018404 0.43811 -0.26389 0.0085776 0.38006 -0.12231 -0.10381 -0.28264 -0.21833 -0.18798 -0.19439 -0.2305 0.09151 0.123 0.1625 -0.2435 -0.28067 0.10369 0.33092 -0.46696 -0.26201 -0.43148 0.058856 0.1062 -0.12742 -0.21885 -0.66593 -0.23724 0.39923 0.0012017 0.42903 0.18601 0.12464 0.033665 0.57877 0.029711 0.20555 -0.18957 -0.69338 -0.078196 0.48763 -0.3096 0.45189 0.2524 0.0035429 0.032909 -0.26014 -0.04722 0.54978 0.20898 -0.30874 -0.33329 0.14904 0.070364 -0.027109 0.060829 0.078259 -0.29641 0.0072449 0.18545 -0.025578 -0.20465 -0.17724 -0.031757 -0.090843 0.17941 0.094651 -0.012811 -0.23815 -0.16311 0.12244 -0.37999 -0.07657 -0.10567 -0.089398 0.19598 -0.55172 -0.18818 0.02014 0.39798 0.08387 -0.076769 -0.11107 0.30799 0.093777 0.43708 -0.12907 0.16698 0.14018 0.047783 0.090062 0.53628 -0.10063 0.1447 0.33229 0.16769 0.068941 -0.18897 0.0013171 -0.22972 -0.12496 0.24859 -0.065904 0.19371 -0.037524 0.11551 -0.089801 -0.23803 -0.39061 -0.05026 -0.056368 0.47801 0.47921 0.11152 0.075155 -0.31903 0.17687 0.078359 -0.18935
Peter -0.32821 -0.50062 -0.12316 -0.39278 0.0060914 0.23741 0.56185 -0.029074 -0.34757 2.6149 0.043774 0.041768 0.28261 -0.061277 0.10406 -0.15264 -0.22843 0.067216 -0.03209 -0.2235 0.4944 -0.46319 -0.12533 -0.037581 0.015024 -0.055014 0.25907 0.066332 0.33761 -0.34642 -0.30777 0.51196 0.33156 0.23821 0.52833 0.20569 0.2178 -0.40089 0.20743 -0.30355 0.44143 0.22787 -0.2936 -0.22091 -0.0048101 -0.095552 0.10985 -0.052538 0.11254 -0.026079 0.7181 -0.22146 -0.045987 -0.02895 0.27713 -0.40896 -0.4633 -0.081995 0.12749 -0.0064039 -0.13295 0.30031 0.36601 -0.23508 -0.15426 -0.04171 0.084402 0.047433 0.017249 -0.28742 -0.18251 0.10521 0.12653 0.35976 -0.21283 -0.21508 0.18958 0.33327 -0.39885 0.0043787 0.28833 -0.06328 0.23946 -0.32655 0.088426 -0.76487 -0.1628 -0.84399 -0.17835 0.29651 0.12616 -0.16695 0.17562 0.22915 0.1195 -0.69463 0.042406 0.11621 -0.16755 -0.15044 -0.051027 -0.093655 -0.34812 -0.26294 -0.28052 1.7472 -0.16118 -0.043537 0.2896 -0.22987 0.38007 -0.39704 0.091977 0.19651 0.45339 -0.39725 -0.49543 -0.52656 0.07089 0.13106 0.19437 -0.6259 0.26487 0.21238 -0.04172 -0.41999 -0.25973 -0.18827 -0.2145 0.006861 0.019688 0.46616 0.55686 -0.09621 -0.016175 0.14846 0.037521 -0.40058 -0.023145 -0.21039 -0.48888 -0.56939 -0.36224 0.3307 0.43243 0.69063 0.11157 -0.39787 -0.21532 -0.13543 0.1542 -0.27015 -0.018462 -0.18138 0.089894 -0.069256 -0.22831 -0.08472 -0.27945 -0.24783 0.014653 -0.5369 0.56661 -0.055119 -0.20991 -0.26115 0.0038405 -0.3566 0.27701 -0.27562 -0.46989 -0.43828 0.18508 -0.16967 -0.049983 0.016743 0.45623 0.21975 0.48733 -0.29698 0.33552 0.059478 0.47562 -0.2124 -0.51667 -0.24787 0.079806 0.069738 -0.45584 -0.18183 -0.46689 0.53029 0.36191 -0.037031 0.19772 -0.29904 0.11781 0.082734 0.0081783 -0.018931 -0.53474 -0.45794 -0.17327 -0.088665 0.39405 0.21095 -0.080274 -0.054269 -0.54643 0.2043 0.044203 -0.3167 0.23291 0.37406 0.060662 0.31465 0.37681 0.053715 0.017108 -0.099277 0.16095 0.44617 0.20938 0.63813 0.016284 -0.0067706 0.03356 -0.59282 -0.08547 0.50984 -0.031305 0.37287 -0.33629 -0.028763 -0.035483 -0.04271 -0.2425 0.031683 -0.26233 -0.41421 0.10599 0.026117 -0.37798 -0.15723 0.39244 -0.23968 0.5869 -0.031036 0.40856 0.24353 0.17893 0.090586 0.15637 0.081169 0.010611 -0.066539 0.33552 -0.14635 0.31963 -0.3663 0.25149 0.14569 0.22868 0.63501 0.10988 -0.0097571 -0.0024915 0.10171 -0.001544 -0.38485 -0.18297 0.048068 -0.0066021 -0.25871 0.0053958 0.1703 0.48137 0.30691 -0.25742 -0.062105 0.14453 0.29347 0.29117 0.35966 -0.36538 -0.4358 0.039727 -0.0012187 -0.33309 -0.12244 -0.13226 -0.17285 0.30026 0.41993 0.33041 0.25877 0.12352 0.68849 0.23942 0.049765
Jack -0.12991 -0.043369 -0.29645 0.13251 0.05696 0.32685 -0.07771 -0.13711 0.073541 2.0191 0.47624 0.40118 -0.44499 0.036251 -0.098244 -0.67137 -0.18997 -0.034709 -0.24145 0.13277 0.073537 0.035176 -0.23383 -0.003921 -0.10412 -0.62075 -0.036826 0.079714 0.088606 -0.065733 -0.51492 0.1342 -0.12176 0.2163 -0.27941 -0.19732 0.28118 0.060092 -0.43403 -0.39004 0.14773 0.11334 0.0081893 -0.27231 -0.0026003 0.40909 0.029477 -0.069282 0.32235 -0.38268 0.32124 0.10275 0.19168 0.11345 -0.0097099 0.088325 -0.17947 0.21615 0.4558 -0.10271 -0.16998 0.39896 0.33323 -0.0061856 0.44178 0.1026 0.13344 -0.23909 -0.20465 -0.0702 0.015019 -0.37021 0.66082 0.38743 -0.29028 -0.052667 -0.3482 -0.23069 0.24467 -0.30339 0.016829 -0.28241 -0.23075 -0.62177 0.024346 -0.89658 -0.14503 -0.06523 0.21293 0.41132 -0.090087 -0.15716 -0.13868 0.29115 -0.27515 -0.6094 -0.033677 -0.43339 -0.16072 0.019577 -0.14637 -0.32502 -0.094676 -0.26264 -0.39486 1.9733 -0.33029 0.28087 0.28932 0.28059 -0.018966 0.43865 -0.052424 0.022323 0.55392 0.20932 0.095031 -0.27819 0.2137 0.49374 0.044579 -0.30865 -0.23353 0.017963 0.099223 -0.020712 -0.090229 -0.098862 0.065115 0.23132 -0.26371 0.38887 0.21558 0.5446 0.035038 0.055045 0.24425 -0.098416 0.19675 -0.30552 -1.5444 -0.30907 -0.12413 -0.1583 -0.43485 0.37881 0.11719 -0.41506 0.10805 0.044681 -0.017436 -0.15388 -0.24102 0.1789 0.0019895 -0.26342 -0.061781 0.11767 -0.32783 -0.14241 -0.073584 -0.19196 0.14656 -0.40496 -0.40257 -0.19244 -0.020659 -0.075883 0.25968 -0.5708 -0.089391 0.20153 0.40454 -0.19247 -0.42969 -0.020461 -0.10907 -0.18508 0.32068 0.29446 -0.24847 0.0045509 0.27949 -0.12866 -0.53765 0.15168 0.28757 0.081006 -0.11955 -0.29413 -0.10069 0.45338 -0.013922 0.14622 -0.15298 -0.33607 0.063877 -0.35911 -0.29529 0.05267 -0.090795 -0.23008 -0.10774 0.061482 -0.44567 -0.13116 0.36624 -0.18821 0.21358 0.1177 0.0080497 -0.14259 -0.31304 -0.02894 0.55853 0.12284 0.050789 0.2672 -0.31126 0.31396 -0.656 0.33973 0.11963 0.022933 -0.13316 -0.25355 0.038377 -0.30226 0.39504 0.28438 -0.32806 0.37352 -0.19521 0.17999 -0.14506 0.56014 -0.081932 0.18678 0.12221 0.22174 0.19068 0.23441 -0.25861 -0.046772 0.065782 0.12788 -0.10818 0.0072636 0.14785 -0.028033 -0.31672 0.074205 -0.18543 0.15857 -0.32995 -0.2297 0.14478 -0.21348 0.43268 0.22099 -0.34679 0.065251 -0.46533 -0.29327 -0.042334 0.034809 -0.090963 -0.26239 -0.24189 0.1201 0.2881 0.47615 0.015789 0.2548 -0.078723 0.19195 0.28688 -0.086125 -0.2119 -0.22942 -0.2003 0.042738 -0.19322 0.29527 0.33911 -0.039128 0.31666 -0.055945 0.098658 0.10054 -0.52875 -0.25042 -0.37989 0.47358 -0.056262 0.55901 0.12286 -0.13346 0.18433 -0.0060555
Ryan -0.050591 -0.16004 -0.43457 0.501 -0.014859 -0.051251 0.70668 0.081922 -0.039819 2.7283 0.37337 0.071427 -0.1024 0.24872 -0.32665 0.26016 -0.070106 -0.28127 -0.24647 0.43719 0.0455 0.0066036 0.094605 -0.17361 -0.44019 -0.11808 -0.0027244 0.5555 0.098477 -0.26036 0.039576 0.089072 0.28841 -0.32232 -0.026828 0.10143 0.075976 0.28125 -0.25618 -0.66124 0.19818 0.46538 -0.13935 0.15074 -0.095243 -0.095859 -0.51287 0.22015 0.32263 -0.03397 0.40986 -0.5597 -0.11689 -0.14615 -0.21902 0.1439 0.025565 0.32188 -0.076448 0.33536 -0.17837 0.085565 0.093382 0.45128 0.2491 0.018547 -0.1268 -0.093776 -0.099501 -0.057669 0.13062 -0.021457 0.23621 -0.17019 -0.86469 -0.35347 0.14237 -0.23291 -0.047469 -0.11866 0.31853 -0.21606 0.28082 -0.24828 0.36495 -0.15225 0.35496 -0.489 0.046748 0.54817 0.30267 0.19976 -0.2338 0.2735 -0.27708 -0.326 -0.43558 -0.072716 -0.24977 -0.32072 -0.083957 -0.4218 -0.087553 0.19555 0.18047 2.1093 0.11035 -0.14866 -0.021094 0.065738 -0.19794 -0.50817 -0.34691 0.013263 -0.10429 0.35222 0.11746 -0.25709 0.029707 0.47705 -0.082638 0.086458 -0.069437 0.037374 0.29122 0.056329 -0.23037 0.22493 0.14687 0.35123 0.1641 0.58261 0.47455 -0.030368 -0.061119 -0.062578 0.43229 -0.049681 0.29271 -0.27484 -0.95825 -0.40011 0.063184 0.80729 0.13403 0.26325 -0.12813 -0.075155 0.30183 0.15577 0.14388 -0.12026 0.19621 0.3818 0.2624 0.029011 0.18682 0.04774 -0.52029 -0.1674 0.084987 0.33125 0.1193 -0.52318 -0.15535 0.091935 -0.2008 -0.083321 -0.16676 -0.21032 -0.19447 -0.15033 0.23987 -0.38944 0.2404 -0.24407 0.014896 0.15867 0.43287 -0.27955 -0.053197 0.014529 -0.29849 0.073743 -0.091175 0.2758 0.30487 0.19582 -0.22081 0.11059 0.15763 0.15487 0.021831 -0.0057461 -0.1518 -0.35243 0.077496 -0.072826 -0.12854 -0.013739 -0.32871 -0.13666 -0.13847 -0.3047 -0.21804 0.11832 -0.1351 0.16833 0.069152 0.46705 -0.23661 0.18208 -0.11491 -0.0072823 -0.34932 0.60943 0.16451 0.054512 -0.25706 -0.22676 -0.1957 0.41523 -0.51873 0.70014 0.2725 -0.12977 0.26585 -0.20109 0.13328 0.079391 0.25558 0.024295 0.14435 0.078025 -0.12609 -0.4014 0.31711 0.29305 0.081701 0.23003 0.15803 0.23628 0.0067763 0.34781 -0.093463 -0.016136 -0.27466 -0.25011 0.0072212 0.053293 -0.097363 0.30371 -0.15682 -0.0049249 -0.061737 -0.20554 -0.040486 -0.13163 -0.63666 -0.35599 -0.1281 0.31753 0.18765 -0.0074829 0.33178 0.22892 -0.18532 -0.18572 0.23748 -0.27337 -0.13327 0.30438 0.053711 0.19406 0.26413 -0.16397 0.5294 -0.18782 -0.027047 0.050562 -0.051516 -0.10165 -0.50343 0.32071 0.30435 -0.057495 -0.68217 -0.33145 0.39997 0.10109 0.25424 0.26348 0.26172 0.61595 0.12066 -0.088384 -0.14742 -0.11388 -0.26243 -0.19737
Andrew -0.28121 -0.091862 -0.25424 -0.012541 -0.29461 0.30888 0.28827 -0.22931 -0.14158 2.5915 0.1645 0.028985 -0.088957 0.17182 -0.20959 -0.054489 -0.031721 -0.074013 0.05453 0.31711 0.24376 -0.27398 -0.23128 -0.21476 0.28323 -0.098006 0.067618 0.36779 0.011806 0.10627 0.23274 0.12612 0.062758 -0.12415 0.073203 0.21922 0.030099 0.073226 0.15353 -0.76868 0.51004 0.29818 -0.27858 -0.068139 0.05572 0.17229 0.21116 0.55918 0.23775 0.11039 0.15572 -0.25824 -0.30377 0.18861 0.13591 -0.27078 -0.19277 0.056582 0.010816 0.014483 -0.1417 0.042292 0.17548 -0.25568 0.3102 -0.15947 0.035176 0.16026 0.037137 -0.18392 0.017621 -0.057451 0.18181 0.34121 -0.25837 -0.01574 0.14606 -0.26352 -0.30136 -0.14073 0.25188 0.1405 0.21171 0.11408 0.33418 -0.52104 0.20156 -0.68084 -0.22689 0.3229 0.40537 -0.20577 -0.010637 0.0053914 0.08718 -0.44488 0.097731 0.014329 -0.2377 0.13834 -0.53881 -0.30572 0.52749 0.063909 -0.56278 1.967 -0.046626 0.022155 0.53563 -0.21775 0.29819 -0.38632 0.17258 0.26805 0.070415 -0.024434 -0.42366 -0.26973 -0.060825 0.28956 -0.18294 0.30381 0.12348 -0.18346 0.041677 -0.22374 -0.075473 0.039878 -0.12319 0.040062 0.047082 0.71116 0.34513 0.0012887 0.10784 -0.18987 -0.10002 -0.051743 0.23239 -0.22512 -0.314 -0.1948 -0.33608 0.43548 0.57339 -0.090293 0.12966 -0.24036 -0.25196 -0.076928 0.15877 -0.16972 0.0018105 0.099645 -0.029081 -0.013283 0.51557 -0.084769 -0.17129 -0.1646 -0.080387 -0.05729 0.011067 -0.34005 -0.54538 0.32364 0.25282 -0.46883 0.27751 -0.097598 -0.019781 0.081761 -0.095689 -0.38705 0.024143 -0.48179 0.29388 -0.30894 0.44034 -0.23187 -0.16365 -0.024832 0.2576 -0.12198 -0.41917 0.018002 0.43428 0.4578 -0.11942 -0.13748 -0.25821 0.54381 0.19443 -0.15864 -0.12643 -0.15506 0.05767 0.082388 0.22014 -0.10685 -0.63512 -0.28358 -0.02994 -0.38953 0.1587 0.33367 -0.19758 -0.24604 -0.28699 0.19909 0.032763 0.028126 -0.084557 -0.17175 -0.014553 0.33577 0.32952 -0.11456 -0.22825 -0.15961 -0.22797 0.42947 -0.07535 0.18286 0.13115 -0.17897 -0.19216 -0.22335 0.28334 0.3406 0.12181 -0.052291 -0.21914 -0.0057375 -0.0068845 -0.36726 0.14635 0.34967 0.051083 -0.12305 0.2064 0.26974 -0.49871 -0.33104 -0.32972 0.41948 0.17489 0.14294 -0.25665 0.011007 0.16502 0.16636 -0.1666 -0.21335 0.0095279 -0.70541 0.24942 -0.18622 0.091355 0.0083303 0.24283 -0.03947 0.4429 0.21094 -0.019237 -0.10288 -0.33537 0.326 0.47892 -0.20487 -0.15886 0.12507 -0.10001 0.03468 0.1679 -0.13388 0.39975 -0.31901 -0.015893 -0.041653 -0.08888 -0.21168 -0.17487 0.54137 -0.47967 -0.33761 -0.28764 -0.17198 0.30162 -0.20001 -0.022261 0.11928 -0.19571 0.38201 0.12566 -0.072876 0.14207 0.2915 -0.14188 0.1693
Frank -0.23771 -0.12757 -0.32308 0.35543 -0.21823 0.83384 0.12035 -0.29092 -0.14196 2.5982 0.65022 0.36964 -0.25806 0.086546 0.0084073 0.04715 -0.45305 -0.080065 -0.1243 -0.18052 0.17285 -0.10226 0.020436 -0.25043 -0.11051 -0.12395 -0.38345 0.27155 0.13936 0.095342 0.054043 0.050262 -0.088586 -0.065864 -0.14198 -0.12099 0.0040464 0.10139 -0.022963 -0.39911 0.55579 -0.00012922 -0.23448 -0.29852 0.027755 -0.083745 -0.17107 -0.25916 0.086422 -0.076096 0.55429 0.0080548 -0.14513 0.021945 0.09669 -0.30862 0.017494 0.26361 -0.03059 0.088729 0.085476 0.67083 0.079047 0.43935 -0.066958 -0.025351 -0.054534 0.11066 -0.34704 0.11857 -0.11956 -0.15198 -0.055486 0.05694 -0.50532 0.18921 0.13583 -0.19098 0.15665 -0.37609 -0.11213 -0.11742 0.31717 -0.40409 -0.46691 -0.35847 -0.41157 -0.63042 0.040312 0.42618 -0.19531 -0.33068 0.14001 0.69366 0.29113 -0.99878 -0.21261 0.2896 0.025087 -0.051752 0.23767 -0.16003 0.29131 0.26674 -0.064968 1.8875 0.32612 0.33519 0.11576 0.031393 0.10859 0.10954 0.1248 -0.11397 0.41316 0.25195 -0.27383 -0.74247 0.00013079 0.32449 -0.036231 0.038714 -0.1189 -0.23655 0.072594 0.17114 0.22612 -0.20394 -0.063056 0.084952 -0.18217 0.2767 0.20988 -0.00081003 0.21611 0.36467 -0.0030558 -0.38647 -0.014811 -0.080441 -0.81155 -0.22575 -0.50078 0.33036 0.16149 0.25409 -0.15852 0.3292 -0.058675 0.067302 0.48887 0.11294 -0.25748 -0.40549 0.42595 0.0046994 -0.33514 -0.089017 0.14716 0.039165 -0.42194 -0.2569 0.15457 -0.20101 -0.29195 -0.53265 -0.22 0.00015899 0.22274 -0.061545 -0.082661 0.30386 0.019728 -0.11924 0.059404 -0.1119 -0.15045 0.0029771 0.26273 0.2305 0.099769 0.19657 0.063782 0.30968 -0.37282 -0.45967 0.25629 0.20903 -0.28506 -0.15584 -0.2577 0.16208 -0.16947 -0.070699 0.1623 0.24467 0.13127 0.11392 -0.22221 -0.22602 0.067164 -0.38994 -0.048915 -0.13211 -0.2312 0.069533 0.45598 -0.20825 -0.29938 0.64659 0.1033 0.21713 -0.063328 -0.062252 0.032634 0.00915 0.20999 -0.1377 -0.10171 0.023245 0.11155 0.37568 0.20074 0.4277 -0.1539 -0.24644 -0.050499 -0.11001 0.17419 0.17033 -0.10359 0.0068438 -0.29537 0.12303 -0.074441 0.31531 0.28518 -0.035604 -0.062754 -0.1163 0.19966 0.2271 0.0041572 0.37334 -0.31331 0.32461 0.20891 -0.35198 0.34639 0.13849 -0.029338 -0.048319 0.27926 0.11041 -0.40636 -0.7138 0.21734 -0.27491 -0.05416 -0.090199 -0.30819 0.097698 -0.078296 0.2332 -0.30665 -0.12088 -0.068425 0.18572 -0.23947 -0.19647 -0.079408 -0.13182 0.12271 -0.052633 0.15798 -0.13031 0.25029 -0.18756 0.0090133 -0.34726 -0.30794 -0.070548 0.15784 0.15263 0.062711 -0.35566 0.24386 -0.53302 -0.26655 0.008897 0.052066 -0.16094 -0.15047 0.24157 -0.23525 -0.22219 0.2586 0.089487 0.48158 0.29409
Harry 0.35861 -0.56497 -0.28979 0.072195 -0.38917 -0.084572 -0.061697 0.0073576 0.36493 2.3165 -0.38463 0.27816 0.03889 -0.3903 0.20049 -0.11305 -0.081005 -0.48151 -0.21703 -0.32896 -0.032379 -0.055745 -0.36079 0.081791 0.2639 -0.48074 -0.2218 -0.62555 0.013304 -0.12431 -0.47773 0.40648 -0.13153 0.29584 0.41473 -0.16038 0.094336 0.94204 -0.1255 -0.66507 0.2806 0.035858 0.17217 0.10785 0.068117 0.25068 -0.10587 0.021732 0.30781 -0.02426 0.45085 -0.44332 0.18822 0.26069 0.034113 -0.22487 -0.13904 -0.25284 0.046775 -0.1324 0.57799 0.83384 0.063087 -0.22831 -0.022768 0.14123 0.071285 -0.36801 -0.014129 0.35876 -0.01131 -0.19995 -0.24606 -0.30811 -0.031815 0.27033 0.17021 0.10439 0.47333 0.0062101 -0.23184 -0.30106 0.25039 0.00081826 0.31896 -0.79277 0.0062736 -0.66201 0.18588 0.31378 -0.13893 -0.37775 -0.23018 0.39226 -0.34682 -0.68996 -0.14634 -0.23601 0.0080319 -0.27269 0.2726 0.045798 -0.30289 -0.38773 -0.11701 1.6857 0.11864 0.20395 0.063027 -0.16905 0.17986 0.37756 -0.028149 -0.068957 0.78216 0.14959 -0.40913 0.33497 0.13128 0.10982 -0.17004 0.064775 0.059137 0.16034 -0.55328 0.18923 0.04474 0.15559 -0.51823 0.30406 -0.087629 0.20237 0.075711 0.049904 0.14081 0.048842 -0.23178 0.23345 -0.018452 0.21031 -1.4713 -0.18347 -0.31203 0.2098 0.24691 0.061194 -0.022983 -0.47866 -0.030021 0.30378 0.36098 0.13235 -0.19523 0.15718 0.83002 0.023337 -0.19488 0.10987 -0.23131 -0.06543 -0.086688 -0.37861 0.01216 -0.23676 -0.080855 -0.16221 -0.11948 0.26197 -0.14622 0.1009 -0.18806 0.063982 -0.070256 0.0093279 -0.14644 0.18931 0.010268 -0.13643 0.5397 -0.19587 0.020358 -0.47648 0.031742 -0.064145 -0.67026 -0.35508 0.39242 0.11381 0.20627 0.22167 0.0007926 0.1231 -0.4897 -0.13618 0.46581 -0.47744 0.072143 0.08136 -0.30273 -0.26399 0.2681 -0.18418 0.031483 0.11394 -0.49913 0.12392 0.21893 -0.55645 -0.44049 0.17249 0.35537 0.042692 -0.27553 -0.26638 0.70446 0.24447 0.0021239 0.15306 -0.031079 0.30425 -0.36092 0.601 -0.0038515 0.37032 -0.028053 0.20734 0.2241 -0.46047 0.027728 -0.3652 -0.54359 -0.081999 -0.22715 -0.045437 -0.56162 0.06796 0.17401 0.10287 0.51362 -0.16518 0.26276 0.13798 -0.071173 -0.16275 -0.27454 0.5109 -0.075543 0.49111 -0.11329 -0.064955 0.19968 -0.39302 -0.30297 -0.095244 -0.43698 -0.17499 0.55425 0.1429 0.15888 -0.34663 -0.4354 0.18253 -0.13477 0.11165 0.21735 0.14107 -0.14597 -0.14402 -0.22688 -0.15652 -0.1817 -0.1777 -0.43104 -0.17246 -0.28278 -0.10209 0.15738 0.59863 -0.30969 -0.048678 -0.12913 -0.010613 0.54011 0.078289 0.34073 -0.011764 0.21742 -0.52433 -0.26468 -0.70993 -0.31306 0.22722 -0.1472 0.69622 0.75369 0.45953 -0.031032 0.0039256 0.025566 0.3644
Adam -0.35233 -0.29163 -0.51924 0.34331 0.044053 -0.050041 0.67375 -0.14611 -0.055427 2.4197 0.48489 -0.026114 -0.4306 0.31037 -0.035957 0.2437 -0.53862 -0.19241 -0.21007 0.51895 0.076531 -0.057175 -0.19223 0.30674 0.04515 -0.11256 0.32916 0.84502 -0.14994 0.41335 -0.60277 0.22042 0.19954 -0.0038678 0.24252 0.52287 0.097985 0.16635 0.0026598 -0.63128 0.28856 0.041875 -0.2979 0.10413 -0.041101 -0.041925 -0.14236 0.20402 0.29679 -0.097819 0.03858 -0.37361 0.026155 -0.29158 0.13901 -0.25591 -0.076054 0.052277 -0.34355 -0.062848 0.011846 -0.27696 -0.083036 0.12505 -0.16571 -0.16652 -0.24763 -0.58103 0.31939 -0.043541 -0.016537 0.10505 0.54648 0.058917 -0.4378 -0.26503 0.18164 -0.29159 0.029536 0.12265 0.21841 0.53652 0.25088 -0.39766 0.63943 -0.65728 0.15292 -0.7394 -0.25702 0.0039216 0.34269 -0.013875 -0.080794 -0.23938 -0.1999 -0.05864 0.044317 0.010144 -0.14482 -0.062483 -0.028169 0.23683 0.03837 -0.10978 -0.28633 1.7762 -0.25921 -0.12031 0.4798 -0.085703 0.016883 -0.21746 -0.11859 0.34794 -0.018156 0.20493 0.24194 -0.40308 0.12644 0.24422 -0.42992 -0.22807 0.32094 0.1242 0.086614 0.15155 -0.3214 0.4903 0.45471 0.25144 0.29532 0.31058 0.36542 0.062173 -0.22724 0.42384 0.43656 0.14469 0.1675 -0.22482 -1.0508 -0.10456 -0.14799 0.13537 -0.12668 0.060105 0.5322 -0.28323 0.02708 -0.02943 0.12063 -0.48161 -0.0051837 0.13627 0.075795 0.20537 -0.24498 0.094636 -0.47039 0.45979 -0.27628 -0.43352 0.20662 -0.72588 -0.083643 -0.022048 0.22342 -0.11296 -0.069292 0.28953 -0.17925 -0.0019491 0.28231 -0.25718 0.065784 -0.17469 -0.072378 -0.40358 0.26297 -0.73953 0.088997 -0.21668 0.10882 -0.079952 -0.14703 -0.27864 0.35265 -0.050376 -0.09375 -0.078588 -0.49046 0.2935 -0.15715 0.51448 -0.060094 0.0046765 0.036619 -0.40087 0.21202 0.049696 -0.85037 -0.09335 -0.012298 -0.28384 -0.31528 0.24435 0.14902 0.49532 0.019745 0.075376 -0.1877 0.024481 -0.0070173 -0.23514 -0.35516 0.31165 0.31117 -0.15771 -0.11908 -0.13888 0.23796 0.24453 0.14684 0.2692 0.10959 0.079587 0.17773 -0.37355 0.48938 0.22969 -0.063029 -0.18475 -0.29046 -0.13404 0.31763 -0.23428 0.056805 0.19352 0.096973 -0.18521 0.39719 0.22363 0.10814 0.45081 -0.065046 0.21335 -0.039633 -0.04062 0.059725 0.40809 0.039174 0.23367 -0.086471 -0.010889 0.39697 -0.37694 0.17332 0.00893 0.22804 0.076059 0.18018 -0.059677 0.039869 -0.17558 -0.14331 0.022942 -0.1243 -0.10182 0.27131 -0.18776 0.26011 0.021122 0.099477 0.14524 -0.087946 0.020781 0.49113 -0.48684 0.028146 0.18339 0.2267 -0.22327 -0.063065 0.33506 -0.8936 -0.29003 -0.1378 -0.14167 0.14621 0.2217 -0.28311 0.20128 -0.11152 0.42344 0.17551 -0.063203 -0.20545 0.16242 -0.052472 0.039679
Stephen -0.0029378 -0.16337 -0.34294 0.1135 -0.02587 -0.040797 0.41584 -0.18308 -0.28987 2.6025 0.17169 -0.075196 -0.0069979 0.091778 -0.32185 0.22234 -0.09677 -0.15778 0.081026 -0.014852 -0.0047734 -0.0002146 -0.01918 -0.16641 -0.3585 0.13748 -0.30786 -0.088584 -0.02868 -0.1899 0.20398 0.19393 -0.056023 0.15119 0.15109 0.30067 0.21435 0.11048 0.18326 -0.5477 0.33631 -0.087456 -0.19771 -0.038259 0.27122 0.17294 0.039359 0.17154 -0.13391 0.10881 0.89036 -0.015736 0.025445 0.00052944 0.15643 -0.38712 -0.26448 -0.10639 -0.014364 -0.061453 -0.096473 -0.057737 0.06221 -0.13194 0.46658 -0.18071 0.052067 0.20416 -0.18695 0.066849 0.069193 -0.3167 -0.28622 0.078212 -0.34132 -0.042421 -0.20008 0.042782 -0.3638 -0.087458 -0.18999 -0.24728 0.3945 -0.23042 -0.12989 -0.58414 -0.18571 -0.96771 -0.20259 -0.10888 0.18647 0.33085 0.2216 0.44181 0.2062 -0.63858 -0.12243 -0.0054474 -0.31638 -0.080635 -0.22469 -0.35726 0.39105 -0.30823 -0.28882 1.8141 -0.023148 -0.35764 0.54666 -0.17937 0.178 0.066279 -0.10687 0.041377 0.24579 0.063204 -0.18449 0.20554 0.19761 0.27426 -0.33169 -0.049167 -0.2577 0.0019408 0.33531 0.29675 -0.19969 0.42183 0.049667 -0.1377 -0.15118 0.21351 0.28088 -0.27587 -0.20296 0.060832 0.35496 -0.26812 0.046634 -0.062889 -0.22928 -0.1499 -0.70392 0.36546 0.46559 0.083476 0.096346 -0.45484 -0.61974 -0.062555 0.58542 -0.1055 0.25945 -0.23134 0.20339 -0.095437 0.060585 0.055188 -0.24464 -0.17035 0.17107 -0.024647 0.36604 -0.47237 -0.39491 0.44514 0.59245 -0.39318 0.34135 -0.29764 0.013564 -0.16181 0.036098 -0.2555 0.00076031 0.096378 0.17905 -0.22455 0.59952 -0.34834 -0.14447 0.11006 0.11484 -0.22072 -0.46082 0.06071 0.04598 0.56922 -0.13679 0.052744 -0.37308 0.050436 -0.097289 0.15813 -0.26291 -0.35758 0.25698 -0.17635 0.21896 -0.47231 -0.15361 -0.4464 -0.11276 -0.11593 0.29952 0.25503 -0.11199 -0.01851 -0.37561 0.031451 0.2184 0.10712 -0.11279 -0.068009 0.091188 0.46329 -0.0064482 0.26751 -0.29178 -0.19596 0.18933 0.7478 -0.17292 0.17345 0.19615 -0.21977 -0.66587 -0.61697 0.24354 0.45253 -0.043088 0.10595 -0.50409 0.019149 -0.18496 -0.05839 0.07485 0.20777 -0.19215 -0.11971 0.36004 0.0051673 -0.3505 -0.40808 -0.22412 0.064944 0.32231 -0.18394 -0.066359 -0.36448 -0.193 -0.045781 -0.19313 0.16333 -0.19028 -0.58501 0.12467 -0.10501 -0.0010773 0.12829 0.20017 -0.046732 0.27866 0.47765 0.18291 -0.20335 -0.31143 0.13228 0.36037 -0.24847 -0.22222 -0.23047 0.025365 -0.31437 0.079412 -0.015166 -0.13328 -0.23456 -0.1874 -0.010942 0.18832 0.09407 -0.4995 0.051844 -0.33221 0.16486 -0.1808 -0.40256 0.036262 -0.16234 -0.12964 -0.13042 0.026917 0.22936 0.15498 0.13174 0.041523 0.53515 -0.18225 0.23657
Matthew -0.11081 -0.43442 0.06075 -0.054319 -0.068204 -0.38453 0.69187 0.16845 -0.31464 2.5267 0.11608 0.13731 -0.31665 0.077998 -0.73783 -0.012734 -0.22785 -0.15045 -0.47269 0.32215 0.38738 -0.53537 0.06949 -0.0085332 -0.17525 0.19976 0.30282 0.57205 0.039949 0.039256 -0.27449 0.46372 0.088694 -0.26563 0.16736 0.14016 -0.070906 -0.15469 -0.040929 -0.23549 0.50315 -0.0054787 0.14077 -0.26387 -0.25613 0.14317 -0.12542 0.11029 0.24894 0.047251 0.33988 -0.19636 -0.11756 0.065059 0.19413 -0.23136 -0.083441 -0.0058304 -0.019106 -0.045973 0.3153 -0.12142 0.43901 0.13492 -0.18696 -0.30035 -0.072874 0.33536 -0.025093 0.44339 -0.057186 -0.21666 0.37174 0.2195 -0.44045 0.0044964 0.31651 0.029001 0.13871 -0.1676 0.21334 0.2022 0.53478 0.063676 0.25026 -0.64662 0.28648 -0.82643 -0.39882 0.25724 0.58463 -0.34424 -0.17191 -0.049122 0.51051 -0.25538 0.29059 -0.28171 0.17118 -0.54139 -0.14677 -0.39986 0.27524 -0.49851 -0.3057 1.8301 0.0090479 0.14873 0.18103 0.024821 -0.030635 -0.36193 0.076961 0.076212 0.064669 -0.045397 0.036873 -0.19069 0.079017 0.25352 -0.53394 -0.53844 -0.078196 0.34734 0.26704 -0.55832 -0.32268 0.46011 0.42279 0.16431 0.055805 0.75733 0.38447 0.016428 -0.40805 0.012101 0.14767 -0.68631 -0.094292 -0.20015 -0.32409 -0.28168 -0.1545 0.43714 0.15896 0.48316 0.42752 -0.76069 -0.27181 -0.39901 0.090439 -0.17022 -0.19218 0.15621 -0.28328 -0.25552 -0.43805 -0.61544 -0.60827 -0.29784 -0.0052127 -0.42853 0.3055 -0.24948 -0.40215 0.46467 0.3372 -0.13374 -0.16216 0.19161 -0.047469 0.23077 0.31022 -0.45327 -0.082085 0.011791 -0.044355 -0.34355 0.27992 -0.059392 0.058945 -0.4015 0.19415 0.33535 0.24396 0.47138 0.016745 0.19434 -0.41332 -0.4848 -0.4455 -0.027621 0.083032 0.37332 0.083732 -0.52118 0.1275 -0.054512 0.59099 -0.25444 -0.94804 -0.17435 -0.41534 0.098481 0.21731 0.32355 -0.076241 0.19951 -0.52759 0.47327 0.26455 0.20812 0.1397 -0.27814 -0.41211 0.43898 0.23503 0.25588 0.31147 0.33468 0.17505 0.053655 -0.004367 0.42035 0.16391 0.23122 0.11731 -0.59044 -0.34479 0.32002 0.050343 -0.084388 -0.58073 -0.078245 0.0095608 -0.33265 0.025186 0.40433 -0.11457 -0.41104 -0.12688 0.09868 -0.10484 0.00025979 0.11481 -0.001855 0.37726 -0.083743 0.10281 0.19206 -0.032283 0.12188 -0.032032 -0.13729 -0.2696 -0.28938 0.27574 0.11835 0.32572 -0.29395 0.46268 0.050349 0.37729 0.071712 0.4457 -0.0032085 0.077544 0.32206 0.25527 -0.31519 -0.10832 0.086962 0.056999 0.19962 -0.16641 -0.37892 0.18892 0.1159 -0.17999 0.20746 0.3391 -0.39441 0.11061 0.21089 -0.2582 -0.25645 -0.31297 -0.20156 -0.01818 0.19154 -0.22155 -0.12728 -0.072349 0.70079 -0.49913 0.49398 -0.13161 0.4694 -0.037341 0.054127
Justin -0.11937 -0.2442 -0.42534 0.24415 0.0031843 -0.20832 0.55194 -0.43894 0.042084 2.0414 0.24934 -0.22155 0.051069 0.16634 -0.55449 -0.017012 0.05883 -0.34585 -0.020175 0.81128 -0.017298 -0.1959 -0.1985 -0.30648 -0.12699 0.32719 0.28024 0.18419 -0.10631 -0.083758 -0.13147 -0.016589 0.14638 -0.28204 0.065718 0.12209 0.0094233 0.037092 0.38747 -1.0119 0.086241 0.094455 -0.090037 0.58856 -0.41771 0.0414 -0.32321 0.14674 -0.2109 0.39041 -0.061176 -0.38575 0.094971 -0.10794 -0.43287 -0.34962 0.12073 -0.0041098 0.13656 0.26724 0.37352 0.24683 -0.10895 0.089981 0.19281 0.088596 -0.048302 -0.32429 0.025341 -0.24013 0.089842 -0.21244 0.38315 0.098899 -1.1184 -0.031766 0.5215 -0.06537 -0.063522 -0.32282 0.46095 0.23697 0.052849 0.36883 0.35891 -0.16967 0.18849 -0.55889 -0.16558 0.59194 0.031589 -0.38204 0.20526 0.24273 -0.2651 -0.20434 -0.089213 0.11953 -0.0078157 -0.44098 -0.14305 -0.019936 -0.45699 0.39566 0.4445 2.0962 -0.066007 -0.096754 0.32476 -0.30772 -0.25652 -0.53736 -0.12944 -0.017504 0.063445 0.68134 0.45386 -0.41984 -0.011278 0.049899 0.088991 0.2363 0.32324 -0.33203 0.076143 0.38983 -0.27056 0.27056 0.29771 0.71727 0.16233 0.42946 -0.094385 0.26173 -0.042526 -0.16835 0.26408 -0.29078 0.34262 -0.17691 -1.6104 -0.31684 -0.3524 0.52164 -0.24794 0.11931 -0.012757 -0.093081 -0.19888 -0.039314 0.13197 -0.13993 0.10628 0.099216 -0.22986 0.41497 0.39454 -0.33124 -0.19159 -0.18227 -0.13631 -0.19031 -0.088739 -0.71321 -0.20879 0.57254 0.39973 0.4785 -0.065805 0.027085 -0.32893 -0.0091805 0.34647 -0.41334 -0.15558 -0.007836 0.0089705 -0.23474 0.065812 -0.46778 0.36807 0.10497 0.025274 0.133 -0.4019 0.53028 0.50722 -0.032982 -0.019075 -0.15427 0.1006 -0.25534 0.15309 0.37161 0.038988 -0.24474 -0.37381 -0.2218 -0.19688 -0.41343 -0.20516 -0.41692 -0.14529 -0.22279 -0.031687 0.13389 0.31307 0.14321 -0.20705 0.034352 -0.07083 -0.08973 -0.011373 -0.019629 -0.40268 0.62231 0.054261 -0.39181 -0.14438 -0.069173 0.16185 0.18043 -0.2876 0.16039 0.40717 0.2417 0.083956 -0.19183 0.21029 0.28437 -0.0026492 0.086515 0.34277 0.12179 -0.39628 -0.085324 0.0084199 0.25218 0.084387 0.30933 -0.18468 0.033582 -0.24838 0.052671 -0.002341 0.32154 -0.24104 -0.21529 -0.34327 -0.038808 -0.15924 0.054916 -0.38095 0.38211 0.16218 -0.39803 0.38675 0.20321 -0.1104 0.37342 0.14686 0.10482 0.30411 -0.29953 0.33962 0.52931 0.12321 -0.16896 0.32258 -0.11268 -0.30403 0.30943 -0.25961 0.070603 -0.054115 -0.16253 0.30881 0.11897 0.37191 0.05935 -0.21506 0.0005333 -0.10838 0.27754 -0.24667 0.18728 -0.36625 -0.13113 -0.090992 -0.086477 0.34779 0.63108 0.10906 -0.15197 0.11736 -0.012507 -0.37275 0.028361 -0.060133 0.40095
Alan -0.1088 -0.13607 -0.20153 0.17752 -0.69552 -0.079426 0.29692 -0.067423 -0.17583 2.2786 0.38461 -0.0012596 -0.25519 0.17892 -0.074506 -0.37676 0.081855 -0.33206 -0.10286 -0.37473 -0.28118 -0.22691 0.024571 0.27752 0.11385 -0.11257 0.19712 0.27944 0.20165 0.11689 -0.13431 0.055127 -0.19042 0.22383 0.48982 0.20573 -0.34234 -0.13598 -0.078841 -0.63829 0.58618 -0.10901 -0.080549 0.30977 0.18127 -0.12049 0.2668 -0.017242 -0.025426 0.19627 0.33314 0.017067 0.1031 0.065325 -0.018167 -0.45179 -0.058114 -0.06415 0.034522 0.21962 -0.23145 -0.13719 -0.23409 -0.042234 0.35557 -0.16632 0.13987 -0.27921 -0.19054 -0.015346 0.096203 -0.23095 0.21168 0.040433 -0.47826 0.014945 -0.40199 -0.20807 -0.434 0.10019 -0.31709 -0.14204 0.04062 -0.42887 -0.2434 -0.79148 0.16018 -0.5129 -0.0058168 -0.01916 -0.064622 -0.027689 -0.017451 0.1744 0.062644 -0.6904 -0.02325 0.25941 0.040637 -0.17926 -0.058566 -0.23074 0.26862 -0.057352 -0.23982 1.7328 0.016912 -0.33171 0.35716 -0.044049 0.35585 0.06399 0.044115 0.36076 0.45741 -0.22424 -0.016178 -0.27073 0.28026 0.25876 -0.11877 0.24448 -0.033432 0.043926 0.16082 -0.087296 0.2441 0.03698 -0.38078 0.078149 -0.057774 0.17481 0.30572 0.083519 0.0049269 -0.38926 0.4676 0.0085904 -0.06305 0.041543 -0.48787 -0.45458 -0.53301 -0.032907 -0.0035301 0.16127 0.20433 -0.55932 -0.64914 0.059403 0.1102 -0.55627 -0.2554 -0.0098954 -0.097315 0.11188 0.38214 -0.12683 -0.15097 -0.16436 -0.03644 -0.12479 0.216 -0.1216 -0.14592 0.027467 0.26512 -0.45058 0.10899 -0.39971 -0.14183 0.19139 -0.24975 -0.2553 0.058613 -0.071306 0.37164 -0.29993 0.30869 0.36226 -0.022991 -0.17394 0.50832 0.082775 -0.15406 -0.31522 -0.034547 0.17366 -0.43133 -0.2179 -0.17833 0.50091 -0.35735 0.058019 -0.0046279 -0.32808 0.45197 -0.022944 -0.023899 -0.030775 -0.48761 -0.23796 0.19964 0.030429 -0.11681 0.40412 0.013502 -0.10392 -0.16987 0.50142 0.66463 0.051818 0.033196 0.21907 0.078843 0.54512 0.15634 0.066079 -0.1763 -0.12519 -0.48867 0.49951 0.090265 0.21606 0.13733 -0.12249 -0.037059 -0.35381 0.2714 0.32096 -0.28436 -0.41527 -0.32816 0.10458 -0.016613 0.034717 0.036793 0.34294 -0.17467 0.275 0.42172 0.0068777 0.073127 0.14053 -0.35886 0.54687 0.047119 -0.12769 -0.15499 0.15286 0.17242 -0.31393 0.063075 0.19272 0.092978 -0.59956 0.2141 0.044024 0.096079 0.034651 -0.30097 0.029457 -0.07739 0.5553 -0.027706 -0.56563 -0.24947 0.13049 0.69941 -0.22963 -0.20766 0.012116 0.29338 -0.023994 -0.0049571 0.31096 0.22616 -0.238 -0.076602 0.31314 0.24839 -0.012998 -0.083717 0.3056 -0.36879 -0.37444 0.10503 -0.69747 -0.043428 0.046752 -0.058393 -0.051024 0.1577 0.55158 0.2795 -0.066969 0.41148 0.30685 0.1201 0.17562
Greg -0.44419 0.18556 -0.44548 0.23739 0.13946 0.19204 0.27716 -0.15787 -0.18598 2.4048 0.40582 -0.20214 0.26998 0.051753 -0.27158 -0.39291 0.24298 -0.1251 -0.16837 0.37285 0.024184 -0.25292 -0.17921 -0.64272 0.0091337 -0.17168 -0.15657 0.39606 -0.053691 -0.20126 -0.092713 -0.40707 -0.015175 -0.14417 -0.044429 0.16075 -0.22513 0.070608 -0.10525 -0.34535 0.52308 -0.16788 -0.063803 0.093553 -0.29868 -0.086662 -0.022345 0.44741 -0.12828 0.27006 0.64565 -0.12246 -0.14518 0.084927 0.051601 -0.4395 -0.016751 0.29545 0.17384 0.23943 -0.60267 0.14341 -0.17249 0.29459 0.33213 -0.38687 0.034336 -0.29704 0.030191 0.20173 0.26491 -0.099026 0.51288 0.52139 -0.41857 0.13369 -0.36737 -0.43588 -0.058198 -0.08169 0.59324 0.0015665 0.27951 0.18515 0.1198 0.11137 0.10704 -0.60531 -0.52063 0.33015 0.40503 -0.12282 -0.074086 0.67845 0.52687 -0.5066 0.0015791 0.10277 0.046244 -0.061099 0.19383 -0.27262 0.22164 0.12174 -0.17125 1.8601 0.069206 -0.011159 0.074443 0.2847 0.10028 -0.23094 -0.039127 0.18423 -0.12405 -0.32493 -0.16982 -0.24178 0.53502 0.42487 0.47922 -0.07871 0.24359 -0.042787 0.36517 -0.27076 -0.42761 0.019485 -0.018864 0.13717 -0.016585 0.53005 -0.17619 0.04113 -0.14478 0.040358 0.075767 -0.10381 0.24499 0.13921 -0.65274 -0.19105 -0.31876 0.20571 0.16896 0.3164 0.37919 -0.2303 -0.24659 -0.0055808 0.18924 -0.24737 -0.13183 0.25589 0.15935 0.23409 0.4722 0.0042437 -0.076007 0.1431 0.15091 -0.24278 0.55793 -0.47854 -0.23446 0.11964 -0.11068 -0.13121 -0.089327 -0.23319 -0.17325 0.0028775 0.19571 -0.072621 -0.019012 -0.14911 -0.064923 -0.42849 0.17906 -0.062039 -0.031435 -0.0738 -0.25751 -0.067105 -0.37979 -0.036443 0.405 0.3427 -0.37301 -0.19393 -0.19191 0.07908 -0.29787 0.17177 -0.019574 0.26675 -0.15159 0.09644 0.18334 0.1972 -0.39744 -0.32279 -0.41593 -0.079038 -0.039965 0.27499 -0.20065 0.044463 -0.03736 0.34737 0.05426 -0.092811 0.17922 0.079539 -0.39375 0.48799 0.31085 -0.046609 -0.17258 0.0064943 -0.22613 0.27383 0.21372 0.22932 0.19481 -0.044903 0.016207 -0.25554 -0.12972 0.16884 0.17095 -0.21132 0.083041 0.14379 -0.064723 0.06279 -0.16807 0.43157 0.38288 0.32271 0.45594 -0.031118 -0.26775 -0.12759 -0.49685 0.37983 -0.27511 -0.32416 0.027937 0.27146 0.30868 -0.2186 -0.4355 0.30475 -0.27398 -0.50266 0.2125 0.023667 -0.20701 0.041865 0.15382 0.049648 -0.12276 0.16219 0.12723 -0.17068 -0.26895 0.15274 0.46272 -0.19641 -0.035195 0.3312 0.18749 -0.39239 -0.37988 -0.11035 0.19696 -0.19228 0.14617 -0.29481 -0.21337 -0.20651 -0.58577 0.27817 -0.24322 -0.2262 -0.20239 -0.25367 -0.12044 0.23408 0.348 -0.22739 0.50291 0.42835 -0.036347 -0.24972 0.13021 -0.094448 0.30662 -0.11753
Josh 0.0857 -0.050987 -0.70839 0.78 -0.22787 -0.11353 0.42093 -0.041279 -0.034094 2.2791 0.4789 0.097069 -0.20051 0.0594 -0.1504 -0.12197 0.27051 -0.54864 -0.322 0.66682 0.050764 -0.44255 -0.21077 -0.24168 -0.089748 0.22969 0.081217 0.18874 -0.088348 -0.26514 -0.04155 0.047579 -0.15841 -0.30554 -0.1754 0.32767 0.23576 0.061998 0.053618 -0.65222 0.53642 -0.14551 0.061801 0.086532 -0.41248 -0.038344 -0.11493 0.12377 0.081928 -0.1107 0.25098 -0.23635 0.29057 -0.39909 -0.20346 -0.17297 0.18412 0.13423 0.0017235 0.21915 0.44419 0.11761 -0.12021 0.079197 0.2792 -0.54037 -0.099329 -0.30293 -0.095192 0.15019 0.005398 -0.19118 0.59925 0.13154 -0.73716 -0.38202 0.248 -0.13632 0.23823 0.022773 0.40202 0.29728 0.21092 -0.3077 0.314 0.23922 0.3673 -0.58907 -0.44653 0.1279 0.27908 -0.46403 0.017427 0.23312 0.16919 -0.47577 -0.045433 -0.38867 0.12445 0.30864 0.14834 -0.44616 -0.097861 -0.020758 -0.19278 1.905 0.30229 -0.15208 0.17215 0.098319 -0.28985 -0.51403 -0.22983 -0.057977 -0.077473 0.475 0.53415 -0.062568 0.35934 0.25219 0.011022 -0.2394 0.015721 0.059235 0.54745 0.0085013 -0.23518 0.48847 0.18527 -0.20776 0.0075792 0.49378 0.17367 0.14678 -0.17402 0.11884 0.45267 -0.28043 0.45913 -0.12913 -1.3841 -0.16581 -0.087788 0.32016 -0.21995 0.18103 0.14099 -0.34933 0.26107 0.0044294 0.075874 -0.30209 -0.028334 -0.04085 -0.27043 0.053578 0.144 -0.055207 -0.19371 -0.067369 0.39065 0.24538 -0.096192 -0.77249 -0.5225 0.37696 0.45604 -0.1507 -0.045699 0.12489 -0.49874 0.15103 0.25941 -0.0988 0.12267 -0.17953 -0.05693 -0.17975 0.022488 -0.51665 -0.14661 -0.035554 -0.053572 0.25396 -0.029456 0.24784 0.45771 -0.080106 -0.26715 -0.11565 -0.028967 0.047403 0.056945 0.23888 -0.14601 0.078869 -0.082268 0.13435 0.33652 -0.091615 -0.66632 -0.44273 0.10986 -0.25253 -0.029103 0.21313 -0.15857 0.0080756 0.18826 0.29434 0.17975 -0.083005 0.14486 -0.43611 -0.13131 0.41009 -0.23439 -0.019153 0.0061037 -0.063729 -0.17211 0.3858 -0.10279 0.26357 0.088061 0.1466 0.21505 -0.1128 0.25231 -0.021099 0.21217 -0.11064 0.14631 0.013414 0.030495 -0.44584 -0.11189 0.28056 0.0050767 0.38366 0.20805 0.22168 -0.056108 0.51004 0.21822 0.49763 -0.39099 -0.45913 0.059201 0.12451 -0.11182 -0.034999 -0.57361 0.097322 -0.17341 -0.36038 0.12654 0.23156 -0.15617 -0.16874 0.14447 -0.12862 0.22106 -0.3387 0.46642 0.011119 -0.28222 -0.30038 0.19089 -0.10001 0.01004 0.33725 0.17674 -0.23704 0.022348 -0.20785 0.61278 -0.27521 -0.06286 0.26923 -0.10205 -0.20534 -0.43584 0.24623 -0.014087 0.050745 -0.32338 -0.017618 0.55128 0.20876 0.41111 0.075 0.079949 0.55782 0.12575 0.030097 -0.21282 0.13912 -0.31736 0.38378
Jonathan -0.10335 -0.58828 -0.46363 0.23738 -0.41423 -0.14326 0.60798 -0.33992 -0.17244 2.3595 0.31951 -0.086688 -0.26658 0.030069 -0.45778 -0.49266 0.039665 -0.29609 0.066145 -0.21682 0.1539 -0.036518 -0.20502 0.179 -0.19803 -0.052822 0.19769 0.40556 -0.25157 -0.20612 -0.32699 0.13381 -0.30243 -0.11013 -0.013394 -0.092747 -0.086957 0.039176 0.19774 -0.79815 0.13786 -0.10778 0.21484 0.0046505 0.19346 -0.23578 0.15196 0.38 0.13548 0.15545 0.32483 -0.037335 0.17569 0.12691 0.15823 -0.62081 -0.030356 -0.19495 0.43888 -0.030493 0.039572 -0.046413 0.090444 0.11081 0.59942 0.10273 -0.029796 0.066854 0.037559 0.25063 0.14175 0.14335 0.0029063 0.00022449 -0.57402 -0.035665 -0.030891 0.016263 -0.097622 0.12838 -0.24622 0.35032 0.19517 -0.046559 0.061811 -0.48122 -0.21855 -0.76884 -0.082235 0.085178 0.39033 0.0094852 0.07784 -0.23597 0.30896 -0.40037 0.27134 0.03368 -0.054235 -0.3103 -0.062383 -0.50717 -0.081643 -0.15082 0.0076487 1.6896 -0.11594 0.17422 0.57194 0.039416 -0.096617 -0.48951 0.090704 0.32557 -0.10301 -0.0536 -0.0071091 -0.2348 0.30168 0.25963 -0.61889 0.017595 -0.10252 0.0054278 0.53622 -0.076899 0.30133 -0.21293 0.0091342 0.15394 -0.11087 0.24102 0.24305 -0.055401 -0.19757 0.551 0.3822 -0.36821 0.0033996 -0.10023 -0.54628 -0.19072 -0.10587 0.094945 0.27921 0.10985 0.29875 -0.14907 -0.57535 -0.2295 0.2236 -0.26519 0.052698 -0.2759 -0.10983 0.2942 0.22405 0.16848 -0.1795 -0.053805 0.314 0.074728 0.27026 -0.41018 -0.32465 0.41392 0.29794 -0.26527 -0.15622 0.0083682 -0.49131 -0.46748 0.17562 -0.25319 0.32861 -0.62695 0.31172 -0.61944 0.39593 -0.41011 -0.37 -0.27989 0.41446 -0.27272 0.029247 0.30935 0.50016 -0.015363 -0.28261 -0.052401 -0.30116 0.11805 -0.015506 -0.12408 -0.21628 -0.31962 0.035628 0.14824 0.56424 0.022861 -0.27608 -0.40596 -0.13186 0.12894 -0.25196 0.37735 -0.21021 0.064291 -0.51427 0.010115 0.12262 0.11724 0.082214 -0.23995 -0.084094 0.36703 0.013619 -0.21402 0.27978 -0.18541 0.18337 0.24443 0.13558 0.17609 0.258 0.17337 0.028914 -0.11633 0.20211 0.29364 0.094809 0.12555 -0.25592 0.17795 -0.22623 -0.35196 -0.066878 0.69457 0.063889 -0.22042 0.11545 0.17175 -0.23531 0.18656 -0.076436 0.16315 0.30448 -0.059039 -0.34789 0.28164 -0.46949 0.4947 0.05444 0.33654 -0.082342 -0.6649 0.2241 -0.3585 0.061083 -0.45774 0.35595 -0.12406 0.12621 0.22717 0.21603 -0.19252 -0.52324 0.078687 0.36205 -0.20814 -0.087967 0.20623 0.10842 0.043545 0.040734 0.10318 0.31415 0.18098 -0.048752 0.24892 -0.097333 0.12222 -0.41559 -0.094604 -0.54637 -0.21409 -0.23283 -0.20305 0.14248 0.13383 0.17578 -0.019368 0.00078585 0.43369 0.0060352 -0.1158 0.41144 0.36338 -0.48538 0.11547
Nancy 0.11415 -0.084321 -0.28323 0.38441 -0.15279 0.047437 0.017536 -0.015458 -0.27586 2.2531 -0.30222 0.4512 0.039427 -0.019971 -0.39755 -0.28085 -0.33501 -0.17283 -0.061407 -0.33176 0.47798 0.23831 -0.29066 -0.014248 0.1569 -0.22606 -0.47103 0.20858 -0.0092402 -0.074703 0.45802 0.35879 0.071698 -0.031498 0.2078 0.0021264 0.013511 0.5442 -0.31847 -0.73054 0.35599 0.11251 -0.34737 -0.50429 0.25147 0.012386 0.047268 -0.37663 0.32303 0.028175 0.079337 0.11606 -0.47234 -0.28499 -0.19697 0.065453 0.093803 0.14465 -0.70673 0.20778 0.25154 0.11438 -0.029362 0.08135 0.13219 0.040356 0.11835 0.29287 0.53987 0.057021 0.10381 0.074942 -0.49629 0.3347 0.23692 -0.23431 -0.36846 -0.022436 -0.00025541 -0.573 -0.44593 -0.70121 0.19247 0.064333 -0.31486 -0.95591 0.0035528 -0.64797 0.37286 0.17877 0.29742 0.33194 -0.13727 0.31632 0.28461 -0.39206 -0.051936 0.26359 0.52653 -0.28328 0.17049 -0.11718 0.084288 -0.57807 -0.21086 1.9083 -0.088154 0.096945 0.14619 0.18866 -0.18255 0.36933 -0.12469 0.025356 0.55879 -0.42725 -0.56261 -0.39602 0.70026 0.37588 -0.29017 0.11155 0.14246 -0.14804 0.16335 0.13989 0.2435 0.082315 0.7113 0.10987 -0.21059 0.25987 0.22044 -0.47316 -0.05686 -0.072034 -0.045946 -0.09429 -0.39774 0.45759 -0.57087 0.033272 -0.032044 -0.098027 -0.29162 0.2262 -0.20864 -0.1898 -0.39177 0.14992 0.36452 -0.16576 -0.056718 -0.15062 0.10962 -0.07568 0.16729 -0.29447 -0.37133 -0.084479 -0.10802 -0.20566 0.20834 -0.094617 -0.064291 0.31555 -0.14029 0.03988 0.017338 -0.3202 0.079333 -0.22875 0.41121 0.25954 0.10843 -0.51023 -0.62436 -0.037473 -0.28154 0.36784 0.44848 -0.19567 0.064854 -0.038693 0.060007 -0.27335 0.35149 -0.40655 -0.18003 0.2803 0.18398 0.11623 -0.13968 0.18073 -0.051409 0.30173 0.27154 0.12045 0.44384 -0.013273 0.23011 0.25626 -0.15408 -0.22228 -0.12127 0.12897 0.025942 0.18954 0.074539 -0.22189 -0.17814 0.1052 -0.43003 -0.094871 0.52099 0.36583 -0.14192 0.41941 -0.28252 -0.047122 -0.23153 0.12938 0.16767 0.26006 0.08139 0.11523 0.42532 -0.026944 0.026004 0.03434 -0.25489 -0.24907 -0.26273 -0.21184 0.06532 0.07074 -0.050834 -0.020335 -0.0020329 -0.18402 -0.12785 -0.29831 -0.054102 0.20892 -0.36672 0.017169 -0.44882 -0.33294 -0.14045 -0.14745 0.10225 0.17741 0.11174 0.17282 -0.5716 -0.47558 -0.013615 -0.42205 -0.10323 0.14261 0.089655 -0.57471 -0.22874 0.35298 -0.11633 -0.21795 -0.014678 -0.26871 -0.23632 -0.46609 -0.35467 -0.064808 0.15806 -0.11195 -0.063597 0.088568 -0.21402 -0.16342 -0.6669 0.35812 0.1119 0.2423 0.14877 -0.3205 -0.068729 -0.17185 0.13448 0.39459 0.26239 0.25568 0.63584 0.087811 0.23542 0.42383 0.07739 -0.17183 -0.061146 0.051606 -0.21809 -0.15401
Roger -0.13993 -0.12915 -0.10224 -0.061783 -0.0030182 0.22334 0.22328 0.0028426 -0.0099595 2.2742 0.43289 0.058027 0.016285 0.2658 0.0066477 -0.33018 -0.23908 -0.30526 0.1658 -0.32889 0.050025 -0.14304 -0.0088924 -0.31602 -0.0096907 -0.12287 -0.15083 0.012154 0.35914 0.34404 -0.16884 0.25736 0.21458 0.09045 -0.012912 -0.37081 -0.025862 -0.13981 0.12714 -0.34176 0.51996 -0.15795 0.2744 0.12638 -0.18001 -0.10667 -0.35061 -0.040162 0.22367 0.25991 0.29717 -0.11271 0.11991 -0.054261 0.27772 -0.014742 -0.03693 0.36691 0.070955 0.13535 -0.27637 0.24665 -0.16642 0.19379 0.11269 0.057244 -0.13608 -0.13222 -0.24126 -0.088568 -0.38136 -0.14798 -0.085736 0.36788 -0.16468 -0.12419 0.033367 -0.20662 -0.30117 -0.25283 -0.28905 -0.1856 0.11333 0.068936 -0.41195 -0.65153 -0.22883 -0.60185 -0.093529 0.014309 -0.26823 0.18373 0.28765 0.41697 0.57833 -0.67877 0.13756 0.32764 -0.20606 0.42074 -0.27328 -0.15795 -0.24746 0.11341 -0.33533 1.6557 -0.0013007 0.10243 0.097568 0.15255 0.22755 0.078777 -0.13312 0.44862 0.3912 0.25312 -0.16241 -0.4503 0.087491 0.06981 -0.016725 0.24846 0.029594 -0.11664 0.20975 -0.065273 -0.26897 0.084596 0.037232 0.25661 -0.27876 0.31484 0.11501 -0.4204 0.23389 -0.093953 0.21713 0.45618 0.22681 0.1509 -0.74483 -0.097151 -0.76212 0.028428 -0.048714 -0.061817 0.091763 -0.33696 -0.35205 -0.15272 0.37852 -0.14482 -0.21131 -0.027868 -0.093995 -0.064157 0.27721 0.065234 -0.12916 -0.12958 0.12046 -0.5033 0.23358 -0.4266 -0.30727 -0.084151 -0.19471 0.057655 0.1806 -0.40167 0.043572 -0.74331 -0.049476 0.00024785 0.24327 0.060042 0.56468 0.11635 -0.10612 -0.01495 0.22384 -0.40272 0.33697 0.074168 -0.08587 -0.20304 0.37933 -0.33991 -0.11055 -0.18717 0.065322 0.20968 0.18675 0.1118 -0.34314 0.42931 0.1465 0.07455 -0.31728 -0.161 0.3388 0.176 -0.12156 -0.1536 -0.24297 0.054638 0.021217 0.36134 -0.14563 0.15087 0.0061105 0.17856 0.46864 -0.12999 -0.08315 0.38479 0.17261 0.28749 -0.097086 -0.2376 0.41788 0.61414 0.086346 0.42834 0.41205 -0.067764 0.067378 -0.29318 0.18843 0.021047 0.15642 0.15641 -0.5246 0.23976 -0.22302 0.25916 -0.236 0.049954 -0.17156 0.32666 0.3843 -0.23987 -0.18607 -0.24081 0.13911 0.21428 0.028078 -0.077942 -0.30276 0.25765 0.41302 -0.30992 -0.13232 -0.29815 -0.37454 -0.60099 0.57047 -0.13881 0.25475 0.4525 0.26988 -0.53863 -0.25381 0.39418 0.11488 0.27794 -0.14101 0.1022 0.25903 -0.37597 0.10552 -0.20417 0.39996 0.14518 0.029288 0.11049 -0.18487 -0.14597 -0.24272 0.28045 -0.38391 -0.16837 -0.0077386 -0.043701 -0.18562 -0.31517 0.30294 -0.34647 -0.2918 0.12653 -0.0079826 -0.26026 0.36165 0.32909 0.13822 0.15576 0.3277 0.15976 -0.019326 -0.0828
Rachel -0.2144 -0.10507 -0.29472 0.69779 -0.63116 -0.098922 -0.11177 -0.20868 -0.19244 2.103 0.16735 0.092844 -0.35062 -0.24395 -0.14668 0.14508 -0.1261 -0.414 -0.24107 -0.16576 0.31474 -0.11616 -0.30964 0.043683 0.097498 0.54041 0.10746 0.058809 -0.33316 -0.018085 0.14171 0.63079 0.17719 -0.04575 0.53164 0.021294 0.26611 0.096715 0.12733 -0.51578 0.050009 0.19382 0.0085309 -0.49473 -0.14132 -0.12654 -0.24107 0.14347 0.51049 -0.23976 0.18493 -0.21688 -0.23025 -0.27552 0.069147 -0.050211 0.27916 -0.13123 -0.092771 0.4059 0.17512 -0.1655 0.21961 -0.48296 0.40474 -0.37506 0.001687 0.31156 0.60506 0.19798 0.041356 -0.23643 0.24445 0.33003 -0.42449 -0.22751 0.079801 0.14815 0.087409 -0.33805 0.033078 -0.055822 0.24746 -0.10775 0.41042 -0.55461 0.43108 -0.13603 -0.092894 0.2074 -0.026586 -0.01463 -0.047315 -0.34653 -0.16398 -0.28706 0.22417 0.31434 -0.17185 -0.004299 0.09692 -0.24554 0.049572 -0.67593 -0.19085 1.8434 0.12051 0.012234 -0.1438 -0.33984 -0.21034 -0.29623 0.21402 0.15099 0.27655 -0.42985 0.092679 0.089434 0.5445 0.34108 -0.32189 0.1583 -0.039381 -0.28212 0.22697 0.18502 0.13591 -0.20504 -0.035644 -0.053544 -0.18395 -0.01375 -0.18612 -0.10629 -0.16076 0.0060469 -0.2498 -0.2841 0.21903 0.052271 -1.2408 0.053462 0.22035 -0.11028 -0.1382 0.02103 -0.37293 -0.40498 -0.50193 0.017606 0.28301 -0.049769 0.25988 0.00072435 0.08082 0.0056857 0.25985 -0.24399 -0.085654 -0.043466 -0.34613 -0.1419 -0.13898 -0.37218 -0.19123 0.21661 0.46066 -0.10384 -0.10534 0.18765 0.14275 -0.12712 0.51565 -0.022777 0.29214 -0.23394 -0.24268 -0.39777 -0.10152 0.10904 0.23877 -0.093381 -0.085764 0.26274 0.29179 0.078637 0.60188 0.066722 -0.021536 0.36561 -0.23921 -0.20149 -0.24752 -0.024246 0.2888 -0.17945 0.084199 -0.11445 0.23052 0.081073 -0.73429 -0.013478 0.070539 -0.1235 -0.049621 -0.010509 -0.2485 0.095668 0.10585 -0.18305 -0.20101 0.27611 -0.39662 -0.056172 0.0080252 0.22853 -0.20471 0.048644 -0.092332 -0.15474 -0.17976 0.34891 0.23127 0.47603 -0.027516 0.086874 0.52136 -0.31942 0.33117 -0.31502 -0.22044 -0.46204 -0.089751 0.3256 0.13341 -0.42579 0.057819 0.31108 -0.050498 0.0041733 0.040065 0.20061 -0.025413 0.027756 0.025472 -0.03533 -0.23621 0.094906 0.35414 -0.091835 -0.096864 0.58265 -0.37598 -0.29701 -0.50132 -0.25761 0.24169 0.32826 -0.28202 0.31241 0.10884 0.0065402 -0.23812 0.20294 0.30344 0.052144 -0.24906 -0.3373 -0.17032 -0.19231 -0.65925 0.15041 -0.19004 -0.041222 -0.05726 -0.18019 0.31962 0.1846 -0.25036 0.5362 0.64771 0.10787 0.27866 -0.30308 -0.47924 0.080702 -0.26253 0.13058 0.34627 0.19083 0.51462 0.13108 0.30178 0.3666 0.27038 -0.051632 -0.16329 0.24539 -0.24255 -0.49574
Brad -0.25609 -0.15396 -0.50346 0.25138 0.33952 0.26105 0.30257 -0.11273 0.046391 2.1197 0.19856 -0.03184 -0.44469 -0.008613 -0.36665 -0.078715 -0.18301 -0.35935 -0.29033 0.32755 -0.11633 -0.053637 -0.31589 -0.090069 0.054889 0.10793 -0.076549 0.32448 -0.3783 -0.0071353 -0.092837 -0.34702 -0.044372 -0.036582 0.066447 0.4317 0.14958 0.41407 -0.00073515 -0.54028 0.34552 -0.056781 -0.19483 0.37953 0.046593 0.041634 -0.53288 0.14703 0.02614 -0.0016343 0.37304 -0.17348 0.025698 -0.25498 -0.19006 -0.58404 -0.0060172 0.04696 0.014949 0.47884 0.18709 0.11012 -0.29987 0.037356 -0.041855 0.012758 0.15549 -0.07843 0.35795 -0.021139 0.21553 -0.17305 0.2918 0.34817 -0.82386 0.050522 -0.044454 -0.13776 0.16891 -0.21201 0.38606 0.027904 -0.026739 -0.11496 0.27703 -0.19411 0.18388 -0.39542 0.019627 0.3748 0.28426 -0.24735 0.21075 0.55669 0.15538 -0.3491 -0.42342 -0.29979 -0.099152 0.046956 0.23423 0.42039 0.057573 0.13133 0.30233 1.889 -0.062675 0.33504 0.016672 0.21146 0.30714 -0.056883 0.17517 0.40338 0.14808 0.064289 0.19331 -0.37482 -0.017096 0.61206 -0.066393 0.35268 0.32031 0.076724 0.40608 0.24221 -0.51967 0.52104 0.30191 0.4536 0.3172 0.70415 -0.0089437 0.41537 -0.30064 -0.12406 0.3265 -0.2334 0.058629 -0.14551 -1.1687 -0.20016 -0.17595 0.51038 0.13941 -0.13492 -0.16592 -0.64183 -0.074643 0.12845 0.1364 -0.53371 0.23772 0.031996 0.067226 0.098275 0.35349 0.030168 -0.33902 0.23055 0.20858 0.1337 -0.40881 -0.56269 -0.26002 0.45334 0.11423 -0.22129 0.039015 -0.17528 0.13944 -0.40646 0.15931 0.058924 0.13164 -0.070105 -0.17987 -0.20772 0.40103 0.15782 0.032983 -0.37376 -0.36251 0.20702 -0.23175 0.28544 0.21287 0.12014 -0.095387 -0.11966 -0.21259 0.21491 -0.22424 0.20714 -0.35469 -0.18725 -0.013854 0.13169 0.02942 -0.46341 -0.38674 -0.41141 -0.09165 -0.41818 -0.65491 0.050581 -0.012775 0.10144 -0.35621 0.49632 -0.10433 0.099404 0.48235 0.23474 -0.4772 0.79219 -0.011258 0.0035949 0.02746 -0.17296 -0.22248 0.22229 0.13333 0.40048 0.42337 -0.51213 -0.082212 0.08737 0.015837 -0.013151 -0.0051821 0.10908 0.26508 -0.41608 -0.16802 -0.13486 0.17403 0.28325 0.32487 0.13839 0.46552 -0.36659 0.24266 0.137 0.40531 0.48374 -0.028112 -0.32147 0.13126 0.22298 0.036765 -0.1837 -0.14024 -0.072459 -0.19426 -0.42977 -0.16731 0.17215 -0.10831 0.25391 0.49705 -0.087651 -0.074383 -0.085615 -0.038821 0.32831 -0.17713 -0.15463 0.52676 0.10048 -0.049239 -0.023351 0.15625 -0.31273 -0.42893 0.072558 0.11981 -0.054989 0.11979 0.08649 -0.39215 -0.21741 -0.34306 0.39574 -0.33915 -0.43442 -0.44865 -0.14487 0.0493 0.16221 0.46767 0.31584 0.25845 0.32365 0.10205 0.46215 -0.11424 -0.13349 -0.3556 0.072325
Emily 0.059231 0.052854 -0.71391 0.24168 -0.5113 0.17819 0.16758 -0.093986 -0.36052 2.1138 0.27743 0.509 -0.51341 -0.031957 -0.081749 0.05795 -0.14746 -0.11663 -0.49317 0.0054669 0.051349 0.27283 -0.44751 0.086951 0.10658 0.30675 0.27196 -0.080534 -0.14129 -0.047372 0.32775 0.53633 0.15974 -0.059047 0.43006 0.066684 0.26231 0.23163 -0.040203 -0.70009 0.63346 0.017191 0.077044 -0.27032 0.27765 0.1613 -0.22401 0.010559 0.33212 -0.43898 -0.091703 -0.13377 -0.065199 -0.21278 -0.050473 -0.45182 -0.24293 0.040287 -0.055708 0.31902 0.10485 0.13735 0.24684 -0.26872 -0.41694 -0.043996 0.084814 0.062307 0.47038 0.12229 0.079124 0.13437 -0.19304 0.28453 0.00070199 0.26136 -0.14371 -0.13067 -0.055326 -0.32677 0.15622 0.32708 -0.14382 0.065519 -0.037668 -0.24902 0.35417 -0.35186 -0.1024 0.59703 0.10854 0.16871 -0.20992 -0.43344 -0.28918 -0.25008 0.27748 0.13813 -0.0054651 -0.22052 0.012233 -0.63347 -0.18909 -0.36044 -0.37462 1.9959 -0.28866 0.20362 0.080536 -0.13781 -0.35216 -0.077162 0.057988 0.074806 -0.21626 -0.19609 -0.17633 0.064932 0.13659 0.15362 -0.2888 -0.21024 0.28076 -0.29885 0.21643 0.31149 -0.11252 -0.10597 0.018612 -0.0014173 -0.17859 0.07684 -0.11408 0.20209 -0.002765 -0.01188 -0.24413 -0.29109 0.24598 0.11303 -1.0113 -0.24181 -0.26481 0.036989 -0.11232 0.11359 -0.25966 -0.1445 -0.30934 0.4426 0.24062 -0.088513 0.34279 0.23689 0.38563 0.022594 0.33248 -0.43099 -0.31054 -0.22526 -0.22952 -0.29428 -0.24047 -0.56474 -0.26949 0.30639 0.38069 -0.21775 0.091209 0.081009 -0.065794 -0.19852 0.41723 -0.052815 0.17547 -0.36183 -0.5791 -0.68075 -0.38859 0.24625 -0.070268 0.015465 0.01231 0.26442 0.37346 -0.19295 0.35276 0.18101 0.063068 0.013145 -0.36249 0.348 0.033246 -0.12377 -0.39336 0.037787 -0.074627 -0.13364 0.22471 -0.05915 -0.36757 -0.1467 -0.42889 -0.018977 -0.092692 -0.017323 0.096149 0.27315 0.25247 -0.1982 -0.24457 -0.079315 -0.76864 -0.24787 -0.27991 0.43955 -0.033322 0.037321 0.016196 -0.26226 0.1933 0.17452 0.14976 -0.036037 0.047006 0.20084 0.25175 -0.49278 0.053368 -0.34662 -0.27334 -0.42674 -0.21725 0.1576 0.11293 -0.15967 0.12178 0.25992 0.3249 -0.1743 -0.25234 0.00039397 -0.23093 0.066348 0.036081 -0.018771 -0.53826 0.25387 0.11469 0.098525 -0.0335 0.33176 -0.31482 -0.11104 -0.60732 -0.40693 0.22492 0.073209 -0.17327 0.30938 0.0013785 0.025065 -0.18502 0.12409 0.21198 0.083107 -0.65638 0.13164 -0.40726 -0.097961 -0.56576 0.10329 -0.26959 0.098063 -0.029728 -0.034059 0.15846 0.17765 0.18397 0.18924 -0.097105 0.201 -0.25428 -0.23653 -0.27644 0.10499 -0.14532 0.3388 0.25651 -0.062357 0.17845 0.1968 0.51719 0.63886 0.38691 -0.11217 -0.33024 -0.093377 -0.26347 0.0022614
Heather -0.10999 0.70539 -0.45103 0.25788 -0.051589 0.12415 0.40249 -0.23422 -0.46339 1.723 -0.19436 0.3996 -0.010438 -0.26135 -0.10732 -0.065096 0.44282 -0.075857 -0.57121 -0.31614 -0.16508 0.084554 -0.78473 -0.16696 0.01092 0.061361 0.20386 0.25785 0.28818 0.17638 0.28432 -0.010628 0.28747 -0.018732 0.07436 -0.17657 0.1836 0.28783 -0.459 -0.72402 0.31185 0.082828 -0.044188 0.13506 -0.088379 0.18083 -0.43334 0.039184 0.4804 -0.17496 0.24164 -0.33224 0.12954 -0.10697 0.067853 -0.013318 -0.083691 0.032908 -0.10049 0.18383 -0.36019 -0.1292 0.046681 -0.25648 0.56949 -0.068468 0.38649 0.32268 0.20647 0.0074258 0.067903 -0.069763 0.22317 0.20322 -0.080988 0.22813 -0.13405 -0.17324 -0.18933 -0.70125 0.080701 -0.30798 -0.10827 -0.016599 0.71285 -0.25122 0.4138 0.15404 -0.19808 0.68641 0.4656 0.72936 0.19129 0.43894 0.17436 0.046301 -0.028253 -0.035593 -0.21051 -0.22979 0.10594 -0.68775 0.36923 -0.063933 -0.26852 2.2932 -0.16382 0.023048 -0.04679 0.0089611 -0.4901 -0.4001 -0.38639 -0.1231 -0.068249 -0.29822 -0.42991 -0.054982 0.52287 0.03829 0.2459 -0.010061 0.18054 -0.21433 0.43842 -0.094242 0.066927 0.23979 0.49015 0.10461 -0.053182 0.32693 0.11655 0.079384 -0.17828 -0.56574 -0.26821 0.031017 0.39289 -0.00099783 -0.75329 -0.084239 0.20455 0.18155 0.0023926 0.12577 -0.40444 -0.39753 -0.41592 0.24467 -0.082677 -0.13502 -0.40417 0.29223 -0.23261 0.40463 0.061034 -0.26226 -0.28156 -0.13752 -0.26094 0.23261 0.24133 -0.176 -0.2529 0.0030645 0.076918 -0.26058 -0.45907 -0.075638 -0.34053 -0.27253 0.70186 -0.0045488 0.37019 0.48365 -0.038454 -1.0069 -0.11596 -0.012319 0.19251 0.072558 -0.19523 0.22362 0.38555 0.084293 -0.012272 0.36097 -0.21136 0.54009 0.10944 -0.012561 -0.086878 -0.10187 0.19991 -0.22023 0.22904 0.17691 0.31712 -0.039138 -0.36678 -0.066257 -0.22006 -0.45006 -0.15445 0.41455 -0.035105 0.24302 -0.073564 -0.00088663 -0.20074 -0.017966 0.40269 0.19943 0.21709 0.39428 -0.19912 -0.0084728 -0.13511 -0.11568 -0.3351 0.35531 -0.041828 0.1496 -0.083232 0.31187 -0.08398 -0.49979 0.015594 0.12754 -0.21356 -0.53673 -0.43437 0.18197 0.16147 0.10876 -0.2011 -0.42318 0.47048 -0.12012 -0.12507 -0.39143 0.18455 -0.00075166 0.29241 -0.10994 -0.30694 0.0048148 0.48478 0.16451 0.079311 0.12848 -0.19622 -0.071553 -0.040404 -0.3632 0.061698 -0.046834 -0.10142 0.10004 0.093614 0.11852 -0.20096 -0.26868 -0.38278 -0.0037227 -0.0365 0.19557 -0.72892 -0.4737 -0.40897 -0.20743 -0.14535 -0.051493 -0.0013532 -0.39433 0.012582 0.16207 0.18449 0.25918 0.34053 0.14156 -0.36183 -0.0050446 -0.67547 0.36725 0.16958 0.5376 0.19891 0.32888 0.148 0.15709 0.52867 0.30744 -0.024618 0.0087177 -0.17397 -0.25834 0.15572 -0.21349
Amanda -0.16291 0.11423 -0.29252 0.45262 -0.4461 0.037069 0.29748 -0.27589 -0.087869 2.0339 0.29852 0.13136 -0.14866 -0.084748 -0.38632 -0.35096 -0.40248 -0.32723 -0.24502 0.17092 0.090393 -0.078296 -0.20265 0.21368 -0.0051362 0.3849 0.0072577 0.0027195 -0.35797 -0.1988 0.26601 0.43916 0.22837 -0.063265 0.39714 0.024726 0.19658 0.148 -0.153 -0.58663 0.5444 -0.11958 0.024038 -0.4409 -0.069323 -0.09721 -0.17578 0.12138 0.21418 -0.08568 0.15741 -0.34148 -0.019314 -0.018419 -0.084168 -0.20915 0.16234 -0.18723 -0.40495 0.47838 0.26553 -0.088511 0.43507 -0.30056 0.019735 -0.32411 0.098039 -0.095989 0.76449 -0.065204 0.063381 -0.081932 0.030228 0.31804 -0.10423 -0.013336 -0.11489 -0.14441 -0.054808 -0.17632 0.10285 0.38367 -0.099323 -0.024637 -0.068655 -0.24543 0.46211 -0.36653 -0.0032536 0.27453 0.26352 0.17345 0.19289 -0.086299 -0.1396 -0.0081996 0.064662 0.17513 -0.32211 -0.41337 -0.011299 -0.54337 0.062126 -0.02946 -0.15391 1.9988 -0.11317 -0.0035682 -0.0030837 -0.1331 -0.62363 -0.17428 0.21278 -0.041542 0.11678 -0.28657 0.28431 0.083088 0.24761 0.25975 -0.10923 0.02207 0.23888 -0.56068 0.34297 0.28987 -0.18113 0.096682 0.007227 0.10356 -0.11106 0.22973 -0.14476 0.060567 0.10874 -0.3627 -0.34476 -0.21922 0.59552 0.0057771 -0.98397 -0.34112 -0.27607 -0.085996 -0.38801 0.078548 -0.12868 -0.28499 -0.73849 -0.079855 0.28779 0.041301 0.061908 0.059167 0.00092914 -0.015719 0.34927 -0.31987 0.23517 -0.35846 -0.077107 0.15562 -0.1467 -0.28264 -0.27578 0.18744 0.15444 0.043979 0.050801 -0.020827 0.023864 -0.41645 0.44393 -0.25715 -0.27997 -0.15421 -0.25781 -0.53848 -0.4146 0.14602 0.19911 -0.01142 -0.27397 0.35925 0.12373 0.20643 0.1023 0.14133 0.038393 0.25323 -0.054059 0.092768 0.2318 0.30251 -0.048271 -0.027387 -0.095211 0.22945 0.34029 -0.20879 -0.45179 -0.041782 0.055564 0.37995 -0.33091 0.12358 0.047995 0.79034 0.043892 -0.038356 -0.37 -0.42933 -0.17236 -0.20443 -0.090785 0.55889 -0.26814 -0.1533 -0.046455 -0.42264 0.056493 0.18634 -0.11398 0.30237 -0.0033522 0.20263 -0.0094319 -0.27104 0.27982 -0.24533 -0.37226 -0.25564 -0.32023 0.17533 0.12475 -0.17548 -0.049205 0.28723 0.065515 -0.0089891 0.0026623 -0.20343 -0.2044 0.10002 0.096146 0.018077 -0.28656 -0.030065 -0.0048442 0.17166 0.05903 0.019606 -0.31253 0.16308 -0.55089 -0.26196 0.094796 0.045795 0.13049 0.1975 -0.054695 0.26552 0.030455 0.1462 -0.13734 0.31131 -0.19089 0.15259 -0.49479 -0.24745 -0.8029 0.00047271 -0.064028 -0.00046023 -0.10572 0.071116 0.43764 -0.15962 0.17581 0.15174 0.18481 0.21272 -0.032994 -0.17378 -0.38898 0.10067 -0.23273 0.20304 0.25958 0.086461 0.32347 0.37835 0.57762 0.41426 -0.16188 -0.085822 -0.065477 -0.075031 -0.22284 0.099843
Lauren -0.10831 0.36932 -0.32923 0.57364 -0.4027 0.084656 0.62685 -0.12744 -0.17914 1.5874 0.43895 0.15979 -0.55525 -0.26772 0.079802 -0.15771 0.28175 -0.1289 -0.4878 0.045808 -0.44389 0.12087 -0.71888 -0.0080045 -0.17348 0.075962 -0.064235 0.0074449 0.028739 0.096082 0.39662 0.54264 0.28948 -0.0072491 0.021182 -0.73875 0.27711 0.094357 -0.19061 -0.51023 0.28031 -0.0059852 0.069097 0.072296 0.071673 -0.44672 -0.30492 -0.016572 0.07921 -0.30592 -0.17883 0.091392 0.1691 0.19115 0.087801 -0.28386 0.075964 -0.023271 -0.0063703 0.4804 -0.041741 0.031813 -0.0092168 0.053778 0.16492 -0.25926 0.11299 0.16871 0.6953 0.56693 0.58458 -0.19413 0.51156 0.20763 -0.73639 -0.21248 -0.19223 0.14055 -0.29394 -0.69714 -0.084075 0.036406 0.085296 0.13189 0.44392 -0.41591 0.31354 0.3736 0.074818 0.60513 0.46571 0.41484 0.19768 0.067743 -0.19169 -0.20298 -0.25789 -0.31514 -0.01306 -0.44347 0.10975 -0.13054 -0.32222 0.076388 -0.34579 2.0561 0.065994 0.15779 -0.55122 0.13538 -0.4493 -0.56537 -0.16323 0.025658 -0.11669 -0.44763 0.20391 -0.10952 0.16522 0.0095115 -0.34358 -0.15554 -0.11019 -0.078676 0.8072 0.01201 -0.061856 0.2545 0.075802 -0.27088 -0.21976 0.17366 -0.11104 -0.15107 0.1062 -0.5237 -0.1164 -0.18955 0.31312 0.036125 -0.97489 -0.13521 0.14967 0.10093 -0.59954 -0.0010744 -0.29956 -0.14426 -0.54451 0.067868 0.24957 -0.33644 -0.19397 0.28834 -0.33322 -0.094956 0.048368 -0.26101 0.077102 -0.010906 -0.31717 -0.16213 -0.049845 -0.44275 -0.2211 0.3686 0.59227 0.35321 -0.010347 -0.1315 -0.5601 -0.093051 0.45918 -0.10304 0.4414 -0.22093 -0.44472 0.028023 0.21915 0.15593 0.36551 -0.16513 -0.23182 0.29085 0.24003 0.33562 0.54045 0.46883 -0.024049 0.40815 -0.041367 0.010445 0.24434 -0.079993 0.40768 -0.45343 -0.09597 -0.1701 0.4294 -0.19258 -0.41419 0.27569 -0.3025 -0.15516 -0.28558 0.15606 -0.026111 0.39127 -0.32867 0.62357 -0.032856 -0.054105 -0.046919 -0.3837 0.080607 0.40331 0.10808 -0.60101 -0.45878 -0.06881 -0.30343 0.46605 -0.19741 -0.41183 -0.24019 -0.17073 0.13804 -0.10107 0.25552 0.11076 -0.35274 -0.4232 -0.35169 0.11374 -0.060071 -0.35883 -0.15002 0.047132 0.1063 -0.06932 -0.59948 -0.31626 -0.3778 0.0029023 -0.15807 0.1937 -0.2014 0.083186 -0.14449 0.37933 0.0012282 0.47599 -0.1962 -0.29868 -0.26865 -0.33999 0.72709 -0.010643 -0.22703 0.32559 0.083268 0.45847 -0.11235 -0.0087494 -0.10173 0.038096 0.089291 0.24281 -0.58051 -0.1563 -0.89752 0.16283 -0.49852 0.1165 -0.014492 -0.093767 -0.080097 0.18802 0.62025 -0.03572 -0.063501 0.071875 0.11501 0.037197 -0.52911 0.044451 0.051351 0.37425 0.030227 -0.018082 0.23514 0.40964 0.34926 0.40479 -0.2243 -0.47606 -0.3879 -0.27974 -0.31122 -0.19285
Katie -0.086451 0.16693 -0.064126 0.50124 -0.38354 -0.15982 0.34444 -0.041716 -0.34138 2.062 0.041626 -0.03713 -0.17559 -0.18894 -0.017334 0.36754 -0.19758 -0.4986 -0.33802 0.20112 0.089471 0.036748 -0.59751 0.24582 0.079821 0.10423 -0.25795 -0.045783 -0.3096 -0.051894 -0.20216 0.65244 0.51484 0.0057213 0.58534 0.22033 0.38684 0.2578 -0.053185 -0.61873 0.47705 -0.023342 -0.16649 0.33776 -0.080397 -0.15271 -0.54471 -0.087903 0.067825 -0.29885 -0.016618 -0.034247 -0.17183 0.1269 -0.22629 -0.20451 0.19269 0.044315 -0.029892 0.54049 0.14386 0.051832 0.32632 -0.14099 0.11682 -0.3505 0.38828 0.2991 0.51326 0.38593 -0.0047242 -0.23719 0.31431 0.080837 -0.32765 -0.17027 -0.17402 0.10091 -0.0014752 -0.60194 0.29728 -0.059043 -0.19797 0.10698 0.3663 -0.20335 0.71326 -0.11656 0.033664 0.64185 0.2369 0.2872 -0.066062 0.58317 -0.41145 0.02445 0.013471 -0.019035 0.0093547 -0.36522 0.07581 -0.27064 -0.095442 -0.33304 -0.060559 2.0023 0.15399 0.39444 -0.37875 -0.47873 -0.17847 0.032621 -0.089901 -0.17059 0.2113 -0.61279 -0.028838 -0.046324 0.42403 0.21694 -0.057209 0.099915 0.054539 -0.30927 0.32934 0.25259 0.18174 0.074912 0.0524 0.18525 -0.0239 0.43655 -0.097343 0.11815 0.096947 -0.14213 -0.22893 0.1897 0.19109 -0.17836 -1.2084 -0.29478 -0.11816 0.17782 -0.27406 -0.050705 -0.17693 -0.48016 -0.23254 0.085127 0.23647 -0.04192 0.087983 0.38557 0.012312 0.0060194 0.3185 -0.010094 -0.073308 -0.31066 -0.3572 0.01814 0.12949 -0.65174 -0.08392 0.12359 0.13366 0.066171 -0.25023 -0.19673 0.082233 -0.19286 0.30278 -0.27769 0.29208 -0.14703 -0.72494 -0.1563 -0.52991 0.39576 0.12809 -0.22636 -0.30952 0.17219 0.36317 -0.22398 0.37138 0.53096 -0.022782 0.33014 0.038087 0.10046 0.32136 -0.11514 -0.18522 -0.081994 -0.2009 -0.041654 0.35426 0.047465 -0.42238 -0.2505 -0.33398 -0.28308 -0.16296 -0.051803 -0.048403 0.2532 0.059129 0.054752 -0.22439 0.022558 -0.18241 -0.3776 -0.4925 0.34726 0.04088 -0.15397 -0.14247 -0.24513 -0.21915 0.33059 -0.090675 0.12045 -0.019806 0.047356 0.2524 -0.11724 0.012599 -0.1366 -0.18863 -0.35341 -0.31021 -0.027614 0.22301 -0.10279 0.23858 0.35481 0.23345 -0.093994 -0.33591 -0.046707 -0.20226 -0.17897 0.075179 0.051842 -0.63508 0.12072 0.22942 0.066948 0.11367 0.31511 -0.4509 -0.34853 -0.20603 -0.076944 0.27515 -0.1062 -0.35933 0.028324 0.032141 0.23537 -0.099124 0.075465 0.066362 0.14726 0.025614 -0.027388 -0.24147 -0.34942 -0.79858 0.095697 -0.31247 0.18627 -0.54594 -0.14913 0.32896 -0.013985 0.12257 0.19616 0.18932 0.3175 -0.10954 -0.060411 -0.111 0.24162 -0.46568 0.10825 0.42053 0.29828 0.23108 0.50467 0.24262 0.27244 0.23634 -0.23466 -0.50142 -0.13988 -0.0082703 0.021107
Ellen -0.094301 0.033043 -0.4727 0.38673 -0.38211 -0.24928 0.25742 -0.23417 0.099118 2.1087 0.063848 0.30728 -0.36092 -0.086649 -0.53095 -0.036953 -0.41399 -0.46663 -0.10471 -0.40131 0.54116 0.38032 -0.10221 0.049842 0.2774 0.31767 0.079044 0.046879 -0.27749 -0.29874 0.28913 0.40307 -0.24836 0.18791 0.44343 0.23042 0.36547 0.16655 -0.20035 -0.79171 -0.018559 -0.019904 -0.4301 -0.056161 -0.030738 0.28254 -0.29604 0.22589 0.32369 0.039809 0.15338 -0.1433 -0.14164 -0.20643 0.22012 -0.6639 0.29187 0.31071 0.11993 -0.015251 0.28959 -0.18408 -0.006411 -0.16922 0.25472 0.23178 -0.020363 -0.12417 0.28563 0.18507 0.21126 0.12982 -0.21397 0.31732 -0.20689 0.39302 -0.14899 0.062236 -0.09243 -0.35822 -0.11983 -0.33594 0.062909 0.081987 -0.10729 -0.9606 0.05586 -0.51878 0.20574 0.42809 0.0053267 0.24176 0.10194 0.48162 -0.22211 -0.44678 0.28719 0.27173 -0.1805 -0.39267 -0.0048539 -0.26833 -0.29235 -0.62974 -0.159 1.885 -0.16226 0.0014912 0.0054711 -0.77265 -0.26238 0.04598 0.01967 -0.14667 0.38928 -0.33584 -0.042473 -0.18332 0.45506 0.50046 -0.20512 0.22744 0.15176 -0.7113 -0.02838 0.11602 0.045221 0.0097366 0.11491 -0.061481 -0.19716 0.26722 0.19349 -0.16063 -0.13553 0.26363 -0.12188 0.13906 -0.030191 0.13545 -0.57081 -0.30755 -0.20067 0.24821 -0.06711 -0.10179 0.23516 0.11331 -0.55805 -0.076508 -0.1463 -0.45054 0.37737 -0.35552 0.088532 0.099092 0.20077 -0.62335 0.36973 -0.23137 -0.39722 -0.53036 -0.25145 -0.12325 -0.19052 0.17842 -0.15112 -0.0042641 0.15007 -0.13377 0.38183 0.54607 0.35627 0.25522 0.18034 -0.4909 -0.19761 -0.20904 -0.32127 0.25686 0.024825 0.090488 -0.21543 0.25419 0.051505 -0.060996 0.026545 0.13944 -0.14224 -0.05563 -0.086708 -0.10902 -0.22104 -0.42605 0.27724 -0.059184 0.042068 -0.28862 0.2448 -0.3054 -0.26726 0.15348 0.29384 -0.028704 -0.19616 0.086095 -0.10149 -0.014006 -0.010729 -0.10573 -0.17075 0.25435 -0.47699 -0.23633 0.069173 0.32558 -0.027497 -0.23187 -0.057737 -0.2231 -0.40976 0.25161 0.44703 0.18912 0.032186 -0.010277 0.23337 -0.43177 -0.0067539 -0.33825 -0.017105 -0.39069 0.28168 0.16712 -0.023159 -0.04669 -0.035361 0.36397 0.069084 -0.43137 0.12627 0.2825 -0.094972 0.047285 -0.10463 -0.28309 -0.30655 0.22684 0.00086667 0.028768 0.17968 0.12705 0.11655 -0.44864 -0.39677 -0.50582 0.7081 0.18213 0.30552 0.41754 -0.036836 -0.091056 -0.02464 0.078451 -0.25513 -0.16865 0.037409 0.34237 -0.10029 -0.077332 -0.85481 -0.1097 -0.16436 -0.25632 -0.1814 0.015336 -0.057528 -0.21307 -0.32774 0.20755 0.11266 0.38436 0.0896 -0.4969 -0.1686 0.17452 -0.2151 0.55982 0.11563 0.26821 0.41305 0.19003 0.3781 0.56596 -0.12802 -0.4355 0.025138 -0.018044 -0.28213 -0.051875
Stephanie -0.32142 0.16698 -0.33418 0.36416 -0.36961 0.23278 0.42036 -0.2836 -0.41898 2.0053 0.32921 0.013336 0.15081 -0.087859 -0.10554 0.0077045 -0.072625 -0.25709 -0.4702 0.095728 0.18346 0.34673 -0.45962 -0.10956 0.072758 0.20984 -0.14589 -0.17839 -0.049379 -0.28849 0.40853 0.16663 0.22408 -0.49645 0.31903 -0.19667 0.15946 0.068446 -0.14567 -0.8166 0.55108 -0.0035183 -0.24524 -0.18643 -0.028417 -0.077535 -0.4227 -0.27931 0.13401 -0.19117 0.20619 -0.024459 -0.072194 -0.24252 -0.32031 0.25371 -0.021183 -0.2937 -0.31055 0.3847 -0.29214 -0.47463 0.11363 -0.017337 0.22768 -0.21188 0.21482 0.35153 0.72637 0.25144 0.16034 -0.22015 -0.22155 0.28583 -0.41044 -0.17643 -0.34522 -0.024297 -0.0053146 -0.13439 -0.24771 0.04978 -0.059661 0.1491 0.27727 -0.048954 0.27526 -0.35464 -0.47216 0.43849 0.48605 0.025446 0.065306 0.0060658 -0.19869 -0.34812 -0.13916 0.35071 -0.23357 -0.27617 0.042591 -0.55187 -0.08568 -0.27255 -0.48232 1.9337 -0.19937 -0.24635 0.20923 -0.031585 -0.0795 -0.33744 -0.070818 -0.010897 0.024116 -0.56047 -0.15735 0.084478 0.44384 0.33144 -0.11681 0.020857 0.35807 -0.17897 0.41452 -0.083015 -0.11039 -0.16805 0.21284 0.43774 -0.44371 -0.1901 0.055377 -0.094733 -0.068085 -0.27014 -0.13036 -0.075803 -0.089006 0.34407 -0.56579 -0.35253 -0.13906 -0.0029568 -0.19617 -0.05947 -0.43175 -0.30295 -0.47128 -0.011662 -0.043235 0.03667 -0.045613 0.18011 -0.072006 -0.16175 0.20328 -0.13014 -0.3114 -0.04552 -0.10307 0.02734 0.56898 -0.087618 -0.28832 0.38241 0.42113 0.06901 -0.041223 -0.08243 0.01782 -0.30255 0.54623 -0.18746 0.0971 -0.060577 -0.41151 -0.28259 -0.1742 0.35138 0.37257 -0.084184 -0.092719 0.13517 0.049534 -0.049319 0.27503 -0.037065 -0.1045 0.54199 0.021362 -0.13695 -0.099513 0.084091 -0.004985 0.22392 -0.072343 0.102 0.3654 0.020643 -0.22485 -0.34242 -0.37716 -0.2077 -0.14784 0.23811 0.12635 0.45163 0.1408 0.1275 -0.050744 -0.088506 -0.49393 0.003534 -0.031066 0.5691 0.090264 -0.098382 -0.12257 -0.19247 0.37182 0.10244 0.068371 0.33235 0.13419 -0.074027 0.10789 -0.51829 -0.10803 0.08349 -0.40882 -0.076392 -0.42149 0.17046 -0.051737 -0.095061 -0.20166 0.070055 0.063817 -0.20967 -0.064333 -0.26508 -0.2296 -0.11716 -0.094638 -0.12214 -0.36293 0.037678 0.15366 0.17054 0.059692 0.35126 -0.64229 0.040905 -0.69661 -0.26395 0.065232 -0.26961 -0.35848 0.11799 -0.16084 0.010442 -0.14291 0.076485 0.083406 0.0479 -0.39636 -0.14652 -0.43801 -0.38726 -0.89084 0.13856 -0.24556 0.057812 0.13804 -0.25955 -0.0039338 -0.10542 0.090302 -0.18815 0.13509 0.31985 -0.10176 -0.13169 -0.034328 0.2749 -0.16454 0.15157 0.2845 0.33602 0.61537 0.32498 0.38729 0.42683 0.12054 0.017631 -0.21331 -0.34148 -0.15885 -0.021003
Megan -0.0029006 0.15049 -0.40628 0.92056 -0.29855 -0.081191 0.54304 0.00020955 -0.50206 1.7384 0.27936 0.12697 -0.072927 -0.29484 -0.2334 0.057119 -0.36684 -0.49397 -0.47391 0.73062 0.034642 -0.21674 -0.24779 -0.15212 -0.15959 0.39197 -0.039373 0.032966 -0.3492 0.017825 0.078594 0.58044 0.27677 -0.38816 0.51345 -0.019241 0.057952 0.31953 -0.031693 -0.66776 0.31158 0.050407 0.096694 -0.012153 0.29587 0.14416 -0.80888 -0.13729 0.11159 -0.36474 0.043934 -0.34995 -0.1728 0.067009 -0.23478 -0.15491 0.023295 0.12098 -0.098834 0.72525 0.28139 -0.22138 0.49957 0.054105 0.17805 -0.23159 0.32047 0.078772 0.67847 -0.32335 0.16452 -0.1954 0.46911 0.4266 -0.45302 -0.00068112 -0.51359 0.050329 0.18215 -0.30847 -0.077075 -0.046948 0.062463 0.30971 0.35638 -0.24084 0.86528 -0.10484 -0.45558 0.3843 0.38759 0.43443 -0.52984 0.031521 -0.27941 -0.08002 -0.20143 0.056377 0.23483 -0.3346 -0.23753 -0.40385 0.042972 -0.027317 0.080347 1.8349 0.25858 -0.20795 -0.087099 -0.071027 -0.55918 -0.48512 0.19104 -0.49845 0.081011 -0.29407 0.071822 0.040779 0.14533 0.16132 0.31412 -0.12759 -0.051954 -0.47781 0.093751 0.53093 -0.068606 0.2942 0.11357 0.45244 0.10677 0.60326 0.040748 0.23641 0.10503 -0.19053 -0.47445 0.023591 0.27191 -0.047544 -0.94786 -0.57469 -0.016554 0.32781 -0.37339 -0.18318 -0.21754 -0.32922 -0.49796 0.41595 -0.10833 -0.11234 0.055292 0.026429 0.15634 0.22216 0.20047 -0.23126 -0.049707 -0.11317 0.01572 -0.073365 0.23294 -0.48716 -0.086314 0.15736 0.38476 0.11086 -0.31376 -0.14811 0.063933 -0.14807 0.55664 -0.059577 -0.022604 0.13427 -0.53596 -0.10404 -0.50158 0.19731 -0.05751 0.023772 -0.20804 0.35785 0.30112 0.0079402 0.27356 0.20004 0.1208 0.42431 0.088423 0.035115 0.067095 0.074996 -0.057898 -0.19868 -0.27773 0.037657 0.23364 -0.1957 -0.64706 -0.10217 -0.20181 -0.11392 -0.13956 -0.054684 0.045481 0.41854 0.22893 -0.044931 -0.24108 -0.067178 -0.09965 -0.22106 -0.32345 0.58596 -0.096669 -0.19478 -0.24996 -0.23037 -0.17202 0.24852 -0.27105 0.19144 -0.19844 0.14848 0.4429 -0.19459 0.37854 -0.35403 -0.50133 -0.32079 -0.48017 -0.11415 0.15581 0.10166 0.19625 0.29678 0.33633 -0.050473 -0.41756 -0.12404 -0.18447 0.013635 -0.027164 -0.092871 -0.41508 0.24526 0.33192 0.205 0.058596 0.14967 -0.42007 0.14079 -0.16281 0.042949 0.19193 -0.089757 -0.03238 -0.24488 0.2036 0.1604 -0.03336 -0.27545 0.35655 0.32383 -0.30047 -0.18998 -0.18194 -0.2021 -0.46437 -0.18749 -0.13482 0.10784 -0.12704 -0.15329 0.25991 -0.01836 0.22566 0.48449 0.40242 0.11896 0.016545 0.13884 -0.41503 0.1032 -0.31924 0.10589 0.41338 0.17684 0.30531 0.17478 0.29437 0.59364 0.056045 -0.1468 -0.33391 -0.12885 -0.22568 0.024732
Courtney -0.26194 0.17494 -0.088159 0.16933 0.01301 -0.15097 0.51014 0.25371 -0.24233 1.8119 0.49689 0.38794 -0.059572 0.0091 -0.30897 -0.13286 -0.0060352 -0.44914 -0.30838 0.3684 -0.16763 0.46024 -0.57694 -0.057747 -0.16369 0.15921 0.065511 0.23773 -0.13194 -0.17868 0.21631 0.42492 0.28806 0.17994 0.52711 -0.13906 -0.016982 0.29105 -0.41165 -0.45068 0.25536 -0.039506 0.19584 -0.18108 -0.15697 -0.42148 -0.26979 -0.097092 -0.11868 -0.20078 -0.036475 -0.32515 -0.048565 -0.078516 -0.21729 -0.26277 -0.36726 -0.20305 -0.0038913 0.38059 0.11777 -0.038157 0.082405 -0.19729 0.077941 -0.07007 0.1704 -0.12938 0.40498 -0.18116 0.17121 -0.11689 0.014222 0.1996 -0.58992 0.0020436 -0.32614 -0.021357 0.088624 -0.45355 0.23618 0.20642 -0.29903 0.247 0.044576 -0.10939 0.71188 -0.16819 -0.29236 0.4903 0.35201 0.29197 -0.12012 0.10891 0.065332 -0.088359 0.36494 -0.098444 -0.49057 -0.16463 -0.0056605 -0.4982 0.068188 -0.1791 -0.16712 2.093 0.043416 0.065838 -0.10454 0.2057 -0.43277 -0.16851 -0.16992 0.13908 -0.23398 -0.55419 0.17738 -0.29118 0.44695 0.44466 0.074583 -0.222 0.0885 -0.15121 0.19133 0.40797 -0.15107 0.14075 0.42541 0.13273 0.16637 0.44385 0.29 0.077408 -0.081576 -0.61719 -0.37929 -0.21586 0.34138 0.070825 -0.8216 -0.055755 0.074817 0.42356 -0.17844 -0.26413 -0.42058 -0.35537 -0.070647 0.072251 0.2495 -0.037074 0.067715 0.30345 0.23407 0.3191 0.56043 -0.27342 0.023772 -0.15479 -0.12455 0.45565 0.38606 -0.57851 -0.34125 0.16612 0.15514 0.41276 -0.14983 0.33052 0.034495 -0.38583 0.67695 -0.043952 0.021125 0.17334 -0.77497 0.046057 -0.31436 -0.045964 0.13468 0.010829 -0.39114 0.11552 0.028107 -0.25398 0.2656 0.14032 -0.0092225 0.41948 0.17618 0.090837 0.11648 0.27532 -0.188 0.18434 -0.3199 0.034677 0.23962 -0.27797 -0.18622 -0.03888 -0.13914 -0.13731 -0.18699 -0.072895 0.12194 0.16695 -0.091818 0.52775 -0.039412 -0.023038 -0.057232 0.28697 -0.36827 0.48544 -0.038009 0.06259 -0.024319 -0.030474 0.064694 0.26615 -0.077615 0.15376 -0.02407 -3.6792e-05 0.06508 -0.34686 0.026224 0.12703 -0.13404 -0.28568 -0.29672 0.29458 0.15612 -0.19329 -0.079656 0.38965 0.30975 -0.01665 -0.2243 -0.01294 0.020746 0.19756 0.16432 0.46746 -0.35154 -0.070513 0.29727 0.33581 0.15671 0.18623 -0.2244 -0.2833 -0.31836 -0.36372 0.082472 0.1352 0.041147 0.025855 -0.045574 0.053749 0.35549 -0.15048 0.33469 0.23017 -0.23661 -0.081984 -0.28963 -0.4692 -0.58755 0.29884 -0.19632 -0.20508 0.28262 -0.2388 0.1667 -0.092161 0.38322 0.0060937 0.066415 0.20919 -0.33172 0.16929 -0.55493 0.21964 -0.094978 -0.099122 0.37131 0.27587 0.6532 0.075032 0.2314 0.32453 0.29773 -0.0095264 -0.55616 -0.2682 -0.16546 -0.27618
Melanie -0.32674 0.05834 -0.15478 0.67876 -0.2238 0.082346 0.03517 0.019419 -0.33386 1.6334 0.41642 0.13112 -0.14925 -0.63689 -0.08148 0.078357 -0.40655 -0.51926 0.0051071 0.031416 0.017122 0.031817 -0.042522 -0.15095 -0.19936 0.049972 0.10615 -0.18383 -0.066222 -0.084069 0.15153 -0.07322 0.52527 -0.089716 0.3153 0.016574 0.06631 -0.026308 -0.21409 -0.86468 0.58878 0.093704 -0.08039 -0.20516 -0.22226 -0.059753 -0.14791 -0.084221 0.29355 0.11548 -0.049628 -0.13634 -0.22464 -0.038088 -0.28227 -0.17102 0.23774 -0.06758 0.051901 0.27342 0.19239 -0.047726 0.00092334 -0.40888 -0.18517 -0.097404 -0.038923 0.27381 0.62988 0.054454 0.12414 -0.19291 0.05984 0.51892 -0.31594 0.08424 -0.35717 0.083178 -0.007013 -0.47731 0.01468 -0.13937 -0.024044 0.012703 0.15891 -0.25714 0.25625 -0.31962 -0.20492 -0.015717 0.24189 -0.13599 0.22252 0.22878 0.22807 -0.28525 0.15751 0.18979 -0.31665 -0.17615 0.23268 -0.44059 0.054534 -0.1401 0.023329 1.6649 0.15382 -0.31674 -0.1611 -0.22133 -0.2114 0.014742 0.023292 -0.020458 -0.16912 -0.39478 -0.16453 -0.075652 0.58414 0.26335 -0.042655 -0.056453 0.28214 -0.4231 0.23235 -0.13612 0.0033019 0.1035 0.20489 0.13587 -0.34246 0.076875 -0.022399 0.17778 0.24552 -0.10519 -0.093223 0.093198 0.28145 0.21475 -0.75885 -0.33871 0.03332 -0.22062 -0.31499 -0.028704 -0.21134 -0.084422 -0.41674 -0.11015 -0.086925 0.25499 -0.52137 0.15602 -0.1316 0.36483 0.19996 -0.30205 -0.32762 -0.086359 -0.27879 -0.039749 -0.038051 -0.16832 -0.27282 0.0071761 0.39243 0.14945 -0.046643 0.12954 0.12989 -0.10027 0.11347 -0.21677 0.62846 0.18341 -0.092527 -0.45297 -0.22975 0.33968 0.22742 0.01526 0.26552 0.29948 0.24079 0.098142 0.29859 0.34518 -0.1751 0.39721 -0.33899 -0.27075 0.34149 -0.06329 0.22584 0.30014 0.24837 0.19435 0.44792 0.0074976 -0.38893 -0.39713 -0.40164 0.06546 -0.36431 0.14365 -0.046112 0.32143 0.12412 0.17951 -0.2611 -0.21746 -0.26811 0.31854 -0.27378 0.2872 -0.14042 -0.051118 0.11312 -0.2802 -0.0098321 0.17047 0.10523 0.39706 0.3065 0.20085 -0.087941 -0.48167 0.17067 -0.14009 -0.25224 -0.052378 -0.48396 0.47298 0.092337 -0.12344 0.022089 0.21442 -0.082057 -0.29805 -0.11146 0.026726 -0.071618 0.15335 0.14784 -0.073253 -0.27949 -0.25474 0.060737 0.50626 0.11051 0.42377 -0.16059 -0.2084 -0.22072 -0.29481 0.11606 -0.092844 -0.16991 0.34779 0.002125 -0.15652 -0.14633 -0.034459 -0.082845 0.07228 -0.30337 -0.071872 -0.36766 -0.13033 -0.76791 -0.043784 -0.08272 0.0013641 -0.070746 0.031996 -0.062677 -0.20334 0.068102 0.42407 0.27487 0.26726 0.089962 -0.044304 -0.25763 0.056781 0.2656 -0.073242 0.082551 0.2294 0.33837 0.078618 0.55566 0.11696 0.099872 0.094765 -0.27114 -0.057113 -0.078385 -0.096003
Kristin -0.042319 0.020041 0.086692 0.68807 -0.24083 0.41957 0.48705 -0.38581 -0.27105 1.5527 0.2562 0.03011 -0.1981 -0.11814 -0.25024 0.0065108 -0.135 -0.48895 -0.39986 0.2941 0.21635 0.1053 -0.45704 -0.17251 -0.21442 0.52525 -0.35328 -0.027531 -0.20712 -0.013424 0.37584 0.14657 0.18075 -0.23508 0.158 0.006773 0.027687 0.20769 -0.062888 -0.22306 0.17413 0.086798 -0.038128 0.17948 0.14393 0.059395 -0.58199 -0.076929 0.25985 -0.12224 0.30307 0.081776 0.089836 -0.16879 0.22378 -0.2582 0.037213 0.18323 -0.17736 0.56902 0.12874 -0.10463 0.18663 -0.030511 0.094101 -0.256 0.28337 0.13646 0.60012 0.288 0.051158 -0.075774 0.27869 0.39385 -0.47465 -0.29013 -0.20747 0.012396 0.34673 -0.43551 0.11732 -0.34561 0.04562 0.087823 0.059533 -0.13232 0.39057 -0.15128 0.012564 0.37141 0.32933 0.40641 -0.3953 0.31321 -0.33424 -0.23349 0.092222 0.14922 -0.43412 -0.2663 -0.12029 -0.38987 -0.11321 -0.021081 0.058161 1.8124 0.31089 -0.19966 -0.14575 -0.2705 -0.38397 -0.13943 0.079982 0.12355 0.074601 -0.31983 0.068583 0.2823 0.81813 0.0054207 0.1678 -0.29076 0.60488 -0.26324 0.45455 0.16516 -0.035454 0.14366 0.26724 0.24205 -0.02401 0.25975 -0.25237 0.062877 -0.13055 0.070801 -0.23169 -0.084776 0.14441 -0.1952 -0.64163 -0.59855 -0.37218 0.38335 -0.25085 -0.033538 -0.23737 -0.53692 -0.61597 0.085691 -0.19551 -0.032627 -0.00051473 0.26796 -0.07367 0.15171 0.23544 -0.43006 -0.11151 -0.086798 0.011643 0.1417 0.20961 -0.51017 -0.066982 0.066531 0.10245 -0.15186 -0.16112 -0.13226 -0.11657 -0.51926 0.41266 0.011657 0.30685 -0.42196 -0.55575 -0.38522 -0.35746 0.25844 -0.20125 -0.17288 -0.24844 0.41898 0.12871 -0.044622 0.064044 -0.39652 -0.23985 0.48203 -0.16363 -0.42415 0.29622 0.19118 0.11642 0.14628 -0.2218 0.30825 0.54158 -0.17726 -0.87377 -0.039275 -0.14837 0.050051 -0.16605 0.10813 0.013787 0.35773 -0.1254 0.10353 -0.031137 -0.26333 0.034144 -0.038611 -0.3109 0.79048 -0.06791 0.097973 0.04327 -0.28554 0.17538 0.074597 0.20462 0.053513 -0.2577 0.028999 0.3905 -0.31749 -0.10984 -0.30579 -0.094007 -0.2898 0.078652 0.063483 -0.2023 0.0013413 0.17717 0.08552 0.50349 -0.10958 -0.15161 -0.10378 0.011459 -0.25656 0.29358 0.13372 -0.045308 0.14789 0.66241 0.12541 0.027924 0.18681 -0.22171 -0.25596 -0.19852 -0.28789 0.27593 0.12368 -0.2979 0.188 0.30275 -0.053926 0.067585 0.63659 -0.11626 -0.018909 -0.095055 0.19764 -0.35268 -0.46995 -1.0464 -0.035124 -0.39939 -0.30722 -0.26276 -0.052263 -0.03055 0.0068721 0.23099 0.13303 -0.095959 0.054385 -0.18671 -0.14574 -0.20657 0.15001 -0.30652 0.17833 0.47368 0.36233 0.46406 0.60785 0.53916 0.37265 0.26188 0.08852 0.0046967 -0.39897 -0.27796 -0.30815
Betsy 0.016348 -0.086386 -0.28088 0.25985 -0.25611 0.30209 -0.13942 0.16874 -0.095885 1.5886 0.17198 0.11985 -0.51739 0.047635 -0.18615 -0.10052 -0.34156 -0.3233 -0.28118 -0.32854 0.23764 0.26354 -0.43062 0.20978 0.086701 0.063515 -0.24994 -0.22444 -0.56805 0.11869 0.13588 0.2449 -0.13454 0.059259 0.085026 -0.094493 0.175 0.18719 -0.15563 -0.42009 0.1455 0.20535 0.017474 -0.21934 0.15838 -0.030485 0.18791 -0.10773 0.55102 -0.27141 0.17829 0.28998 -0.25021 0.042611 0.080584 -0.075171 -0.12237 0.44765 -0.0099977 0.21517 -0.21858 0.16877 0.44509 -0.2235 0.012355 -0.027758 0.52869 0.43456 0.72104 0.42029 0.1231 -0.0746 -0.083959 0.32902 0.17605 -0.098857 -0.055829 0.24725 0.019509 -0.46163 -0.12279 -0.039768 0.0071376 -0.066649 -0.17302 -0.321 0.49137 -0.32098 -0.085802 -0.092473 0.351 0.21346 -0.064644 0.25693 0.38147 -0.31642 0.14035 0.055445 -0.068533 -0.11913 0.14067 -0.27741 -0.25615 -0.34875 -0.045321 1.6288 -0.3423 -0.073171 0.070739 -0.24039 -0.032036 0.46851 0.20077 -0.035316 0.52983 -0.45695 -0.29945 -0.72939 0.47407 -0.12412 -0.073194 -0.49897 0.556 0.043835 0.071669 0.11779 0.074803 0.034131 0.34674 -0.085819 -0.25332 -0.041334 -0.021423 0.09459 -0.32996 -0.053507 0.19503 0.43609 0.25294 0.17112 -0.39154 0.017259 -0.14874 -0.36755 0.17541 -0.25086 -0.07764 -0.12707 -0.35017 0.049206 0.28178 -0.22945 -0.036967 0.3308 0.19019 -0.20285 0.19351 -0.28336 -0.55473 -0.50477 -0.1767 0.21452 0.020046 -0.37799 -0.054438 0.13267 -0.051451 0.19766 0.34739 -0.32704 0.047502 0.010591 0.48578 -0.10573 0.14333 -0.44916 -0.22497 -0.10995 -0.30684 0.11534 -0.00029068 -0.36561 -0.057698 0.20879 0.27033 -0.014944 0.1498 0.044515 -0.10361 0.19644 0.27258 0.23789 -0.0022351 0.0026436 -0.021866 0.40559 0.37185 0.36171 0.42918 0.26268 -0.37016 0.030973 -0.21897 -0.29615 -0.22873 0.25042 0.30146 0.19202 0.048062 -0.087054 -0.082263 -0.0089758 -0.1326 -0.28873 0.027004 0.12888 -0.10183 0.24778 0.041342 -0.42111 -0.36078 0.21588 0.64952 -0.23931 0.16664 -0.3053 0.41053 -0.22573 0.014285 -0.0026029 -0.053687 -0.13405 -0.21272 -0.10079 0.29754 -0.12245 0.01437 -0.11787 0.25209 -0.37155 -0.29153 -0.24208 0.048656 0.18904 0.036688 0.28985 0.054362 0.075539 0.35533 -0.040684 0.19846 0.27693 -0.46933 0.063002 -0.67322 -0.66811 0.27446 -0.094761 0.017143 0.46498 -0.19499 -0.13113 -0.021323 0.11673 -0.12171 0.16894 -0.057434 0.12097 -0.56742 -0.022976 -0.37625 -0.12374 -0.050526 0.081357 -0.043676 0.11315 0.035574 -0.12776 0.041299 -0.13756 -0.021486 0.17556 -0.14012 -0.36083 -0.37112 0.045326 0.15148 0.0056418 0.16211 0.33239 0.19641 -0.38162 0.30782 0.53012 -0.0097779 -0.31684 -0.42768 -0.29727 -0.48276 0.043852
Colleen -0.014571 0.1182 -0.32035 0.22621 0.067774 0.42328 0.30855 0.0067861 -0.068217 1.7506 0.28319 0.36919 -0.16855 -0.11408 -0.044169 0.12031 -0.32506 -0.37981 -0.57644 -0.12662 0.091941 0.052723 -0.24861 -0.24365 -0.14128 0.14375 -0.082606 -0.063782 -0.029346 -0.15936 0.25816 0.13758 0.17875 -0.17814 0.26545 0.22083 0.049768 0.13836 -0.035216 -0.96274 0.6154 -0.0278 -0.089358 -0.24919 0.32104 -0.087783 -0.51632 -0.20844 0.63382 -0.2703 0.55663 0.10059 -0.021143 0.17517 0.074933 -0.020434 0.11666 0.32685 -0.040556 0.51513 -0.30654 -0.14265 0.12868 0.21492 0.1759 0.067008 0.10796 0.24293 0.54125 -0.3075 0.224 -0.08964 0.43688 0.2102 -0.2432 0.030625 0.032391 0.10557 0.050042 -0.33588 -0.15849 -0.10518 -0.11123 -0.10649 -0.080428 -0.19426 0.4148 -0.33367 0.0038533 0.33252 0.65215 0.42893 -0.26595 0.69172 0.096352 -0.25718 0.28071 0.13197 -0.28821 -0.38872 0.065908 -0.42192 0.034107 0.042722 -0.21508 1.765 0.1966 0.182 0.091769 -0.091225 -0.15336 0.22504 -0.091302 0.1343 0.080815 -0.13985 -0.35214 -0.28486 0.30106 0.21078 -0.26615 -0.23504 0.29168 -0.081448 0.49146 -0.07449 0.12946 0.086096 0.36054 0.35366 -0.436 0.078692 0.024294 -0.11072 0.054842 -0.17381 -0.211 0.10927 0.070818 0.03174 -0.051348 -0.39625 -0.14802 0.23935 -0.33871 0.05293 -0.37373 -0.081344 -0.27836 0.41992 0.01814 -0.15478 -0.082709 0.34282 0.18474 0.08484 0.54823 -0.36148 -0.14536 -0.19109 -0.17775 0.3056 0.26677 -0.31854 0.010893 0.15263 -0.19125 -0.18872 -0.26604 -0.25109 -0.22042 0.21391 0.6894 -0.15163 0.18681 -0.19841 -0.23336 -0.037202 -0.73488 0.14202 -0.12645 0.065612 0.024678 -0.15236 0.34486 -0.41025 0.26586 0.34413 0.011797 0.11754 -0.24209 0.34246 0.14766 -0.1024 0.21085 -0.0096643 0.19119 0.061641 0.68209 -0.36962 -0.16782 0.11413 0.089401 0.062476 -0.40859 0.10545 -0.0037343 0.13902 0.3899 0.27262 0.13602 -0.10789 -0.028185 -0.0084655 -0.29421 0.40498 0.2469 -0.09496 0.14855 -0.064289 -0.37597 0.11152 0.11983 0.248 -0.43929 -0.11963 -0.019383 -0.40584 -0.29177 0.080743 -0.34817 -0.029418 -0.38308 0.16045 0.11629 -0.14242 -0.14935 0.18153 0.39799 -0.4904 -0.27611 0.079281 0.28351 0.035559 0.19544 -0.13608 -0.35972 0.14391 0.30762 0.0066323 0.049199 -0.13789 -0.26854 0.029772 -0.72809 -0.17037 -0.18938 -0.1438 -0.13818 -0.16275 -0.11528 -0.16564 -0.20277 0.048173 -0.28375 -0.016127 -0.19605 0.060505 -0.33494 -0.60461 -0.737 -0.10581 -0.092711 0.035339 -0.067908 -0.0090129 -0.14126 -0.16469 -0.1158 0.065599 -0.11619 0.12859 -0.06451 -0.21977 0.051503 0.045586 -0.12294 0.11088 -0.035501 0.26078 0.53726 -0.083657 0.3012 0.53845 -0.44363 -0.33278 -0.3479 -0.1017 -0.078817 -0.070738
