rose -0.54658 0.4933 0.1835 -0.19284 0.52094 -0.89706 -0.34275 0.43683 -0.42444 1.6789 -0.33148 -0.27656 -0.092048 -0.41024 0.35241 -0.21457 -0.084627 1.0005 -0.019612 -0.48808 0.029324 0.069434 -0.29835 0.10659 -0.06321 0.43336 -0.39819 0.096811 -0.21948 -0.17549 -0.24518 0.52031 -0.2906 -0.18356 -0.10699 -0.28278 -0.49128 -0.43549 -0.067685 -0.4168 0.39315 -0.077408 0.7833 0.18965 0.95404 0.047557 -0.019512 -0.53968 0.40177 0.1039 -0.43469 -0.15643 -0.17846 -0.0053763 0.56627 -0.59283 -0.32709 0.025171 -0.36336 -0.6123 -0.19923 0.0065835 -0.50059 0.072123 -0.059191 0.34608 -0.217 -0.21041 -0.019694 -0.1669 -0.47452 0.19712 0.027716 0.12987 0.080732 0.16237 0.13509 0.024208 -0.1347 -0.21912 -0.071682 0.38474 0.11914 0.19263 -0.13133 -0.33149 1.1271 0.47539 -0.41837 -0.013638 0.5287 -0.2719 0.63285 -0.37323 0.0044075 -0.090598 -0.10976 0.27539 -0.18185 -0.21849 0.38794 0.58772 -0.50377 -0.3571 -0.80029 -0.68067 0.15019 -0.38832 0.16431 0.43973 -0.48408 0.60467 0.5745 0.097525 -0.084432 0.13354 0.09599 -0.066819 0.74041 -0.05212 0.11979 0.56676 -0.29919 0.21895 -0.80781 -0.055426 0.10561 0.15525 0.28766 -0.26663 0.47766 -0.25802 0.32105 0.19848 0.37289 -0.467 0.19519 -0.012305 -0.20516 0.55206 -1.7381 0.11185 0.09489 -0.13016 -0.85763 0.4334 0.08579 0.41431 0.3125 -0.10153 0.48988 -0.24077 1.1088 0.3367 -0.08887 -0.67104 0.047154 0.39683 0.26532 0.14015 0.73667 0.44753 -0.20609 -0.49071 -0.20145 0.17925 0.26348 -0.41777 -0.38297 0.047922 -0.30038 0.50389 -0.10781 -0.039799 -0.22445 -0.18083 0.2637 -0.41434 -0.11639 -0.59804 -0.23142 0.24577 -0.29333 -0.3112 -0.10949 -0.36005 -0.54223 0.0071806 0.25744 -0.30672 -0.05027 -0.013956 -0.31321 0.17279 0.35994 -0.28108 0.28476 0.15019 -0.45717 -0.29052 0.27756 0.21355 -0.51673 -0.080322 -0.038788 -0.14025 0.3408 -0.6473 -0.31276 -0.4672 -0.17667 0.37217 0.17115 -0.072577 0.20384 0.2101 -0.62531 -0.10532 0.40495 -0.020553 -0.60075 0.6923 0.12044 0.36806 -0.45981 -0.16709 -0.014915 -0.0070599 -0.40581 0.16514 0.11303 0.31152 -0.32411 0.17534 -0.58515 -0.60714 -0.31878 -0.13613 0.3129 -0.36156 -0.89868 -0.221 -0.28214 -0.21928 -0.10263 -0.26037 0.084724 0.56774 0.037301 0.052219 0.25709 0.61858 -0.02154 -0.13647 0.34048 0.31614 0.56276 0.33854 -0.1226 0.18712 0.04835 0.41142 -0.076632 0.078611 0.057944 -0.61695 0.71744 -0.57437 -0.90319 -0.082412 -0.30732 0.2387 0.16618 0.23509 -0.28206 -0.21144 -0.22275 -0.21628 0.3629 0.20811 0.2564 -0.12821 0.10878 0.0073951 0.43871 0.099706 0.3946 0.24965 -0.38867 -0.17802 -0.36419 0.72031 0.68935 -0.13461 -0.20508 -0.28853 -0.17733 -0.21528 0.22911 -0.17906
violet -0.17866 0.52803 -0.13908 0.16224 0.34892 -0.14477 -0.10971 0.051295 -0.6857 -0.44758 0.32874 -0.22319 -0.24569 -0.74979 -0.048529 0.40401 0.22585 1.2796 -0.11953 -0.94282 0.13259 0.10347 -0.3007 0.39685 -0.31339 0.15685 -0.22821 -0.0061196 -0.17144 0.066416 -0.141 0.0048652 -0.069213 -0.075083 -0.25873 -0.094239 0.21988 -0.18381 -0.044024 -0.50075 0.75825 -6.4898e-05 0.084224 0.22196 0.6863 -0.047217 -0.20761 0.02812 0.42769 -0.79062 -0.26842 -0.34091 -0.1867 -0.21846 0.40266 -0.32897 -0.29136 0.21083 -0.47635 -0.35254 -0.099205 -0.13534 0.18014 -0.23834 -0.51125 0.48278 -0.25739 -0.13085 -0.37135 -0.16743 0.0092719 -0.040647 -0.65896 -0.038631 -0.22258 0.14429 -0.020565 -0.2274 0.014237 -0.30238 -0.27109 -0.0079418 -0.0066358 0.83524 0.28437 -0.82464 1.458 0.80713 -0.10869 0.019096 0.68936 0.46214 1.0483 0.0411 0.352 -0.0080662 0.28595 -0.12347 -0.47439 0.030558 0.83717 0.22548 0.22791 -0.62333 -0.23213 -1.04 -0.39035 -0.23664 -0.5575 0.21911 -0.44353 -0.12995 -0.15023 -0.17357 -0.34791 0.68663 -0.44882 0.28215 0.090034 0.18849 0.31352 0.35636 -0.46995 0.2269 -0.352 -0.080329 0.1147 -0.15665 0.15847 -0.2279 -0.30704 -0.33292 -0.0059409 0.16595 0.074352 -0.50978 -0.12329 -0.13154 0.055974 0.4667 -1.6895 0.65133 0.26736 0.068849 -0.51235 0.34074 -0.045341 0.48315 0.31274 -0.60598 0.4411 0.02127 0.34698 0.021409 -0.42618 -0.10914 -0.5109 -0.25191 -0.33832 0.6001 -0.11543 0.11651 0.053445 0.39929 0.3256 -0.10038 0.18213 -0.1314 -0.13161 1.0775 -0.37878 -0.079916 0.26329 -0.15828 0.098115 0.24995 -0.44045 -0.4158 0.33239 -0.20425 -0.26877 0.12117 0.10443 -0.1993 -0.080231 -0.38278 -0.54649 -0.21277 -0.22847 -0.13681 -0.065201 0.084151 -0.34409 -0.18483 0.30822 -0.09178 -0.13051 0.38986 -0.36288 -0.17355 -0.20164 0.39821 -0.45924 0.28799 -0.043898 -0.33572 0.28865 -0.35854 -0.27405 -0.011625 -0.20631 0.36259 0.083027 -0.13967 -0.022526 -0.19504 -0.27295 -0.21783 0.36312 -0.43452 -0.17683 0.23441 0.12434 0.1872 -0.48294 0.19316 0.19071 -0.39234 -0.15397 0.22999 0.053762 0.32078 0.27719 0.72927 -0.40148 -0.2381 -0.21519 -0.23891 0.75896 0.24209 -0.23977 0.059403 -0.27022 -0.45544 -0.38353 0.39933 -0.37316 0.38009 -0.1195 -0.48211 -0.0019135 0.25048 -0.32403 -0.027004 0.27076 0.28671 0.21074 0.30249 0.22963 0.48695 0.012907 0.28644 0.060657 0.71173 0.17929 -0.38646 -0.18792 -0.21291 -0.48038 -0.039091 -0.4607 0.23815 0.15009 -0.17835 -0.16442 -0.46355 -0.48339 0.21155 -0.12741 0.42242 -0.12097 0.063796 -0.056571 -0.39485 0.12146 0.46903 0.4772 0.31686 0.37861 -0.63757 -0.11205 0.5457 0.37186 -0.13649 0.046823 0.38218 0.58633 -0.41645 0.092321 -0.020313
lily -0.27846 0.58525 -0.29158 -0.35578 -0.1449 -0.31388 -0.37461 -0.16263 -0.56745 0.33044 0.028844 -0.19227 -0.12321 -0.59261 0.11837 0.27523 -0.51043 0.55049 0.14887 -0.18515 -0.079651 0.56705 -0.5092 0.13637 -0.37473 -0.19759 -0.29635 0.032461 0.25487 0.3488 -0.28087 0.61413 0.0045863 -0.48359 -0.62112 0.17386 0.25842 -0.45752 -0.57706 -0.34693 0.64373 0.017652 0.48467 0.30414 1.0616 0.43742 -0.020799 -0.19874 0.55725 0.061101 -0.87902 -0.29757 -0.32637 -0.11943 0.26409 -0.26805 -0.16789 0.054939 -0.25989 0.18996 0.19784 0.35185 -0.101 -0.14874 -0.44368 0.033403 -0.91082 -0.00011743 -0.064523 -0.56568 -0.70825 0.18958 -0.014589 0.31667 -0.12111 0.26946 -0.15237 0.20916 -0.032877 -0.2204 0.13885 0.27191 -0.063773 0.17983 -0.29194 -0.35739 1.4986 0.69436 -0.61028 0.21514 -0.062746 -0.12791 0.45381 -0.062773 0.12816 0.46084 -0.033737 -0.48037 -0.059242 0.074596 0.0068564 -0.20064 0.13681 -0.15304 -0.10026 -0.6391 -0.10884 -0.19325 0.40016 -0.39699 -0.38453 0.45467 0.070568 0.017949 0.37496 0.21164 -0.18211 0.13614 0.093663 0.031661 0.27925 0.35634 -0.010628 0.21479 -0.46877 0.023949 0.070259 -0.26351 0.14593 0.14413 -0.14181 -0.86556 0.068769 0.16887 -0.43238 -0.65265 0.11111 0.030685 0.24302 0.45709 -2.0153 0.28591 -0.10724 -0.01854 -0.56999 0.54371 0.10219 0.45092 0.10799 0.068572 0.48248 0.37136 0.39292 0.32936 0.075157 -0.10327 -0.5853 -0.098381 -0.23088 0.62311 0.14582 0.043489 -0.61531 0.23299 1.2111 0.045162 0.15997 -0.18888 -0.05961 0.327 -0.37652 0.0051226 0.21026 0.13169 0.086047 0.048445 -0.14259 0.1836 0.095679 -0.27517 0.24333 0.3841 0.27713 0.057886 0.19469 -0.26522 -0.58074 -0.09971 -0.23059 -0.25718 -0.55903 0.38507 -0.071046 -0.083647 0.40555 -0.11885 0.20133 0.11193 0.11964 0.60002 -0.23231 0.052147 -0.12037 0.085587 0.19931 -0.6155 0.11962 -0.12364 -0.0022834 -0.017688 -0.4216 1.0052 0.23875 -0.059435 -0.13368 -0.083924 -0.40934 -0.14621 -0.09657 -0.71025 -0.41249 -0.045212 0.45326 -0.074657 -0.10302 0.60881 0.50495 0.12301 0.12237 0.1487 0.42019 0.061397 0.1177 0.29862 -0.48925 -0.44107 0.30477 0.071231 0.4691 -0.28608 -0.80298 -0.42783 -0.047664 -0.37383 -0.45729 0.32365 -0.27077 0.11686 0.26531 0.21215 -0.12361 -0.016926 -0.0069395 0.40011 0.36957 0.37871 0.51792 0.20172 0.09763 -0.34409 0.13667 0.040489 0.064587 0.028685 0.16632 -0.7498 0.71086 -0.14079 -0.43778 -0.098287 -1.0759 -0.070861 0.11837 0.33507 -0.14126 0.085746 0.095943 0.14648 -0.59464 0.35723 0.61513 -0.31713 0.22674 -0.26635 0.34753 0.04289 0.19765 0.065403 0.30381 -0.81539 -0.10534 0.27718 -0.031512 -0.24639 -0.17254 -0.052624 0.1035 -0.21882 -0.16092 0.12867
iris -0.17208 0.44369 -0.58052 -0.70833 0.31312 -1.0235 -0.054441 0.15867 0.022085 -0.1441 0.11838 0.12172 -0.21249 -0.57073 -0.11429 -0.035007 -0.39109 1.4348 0.11947 -0.86422 0.21353 -0.20077 -0.06512 -0.16563 -0.28054 -0.078617 -0.55453 -0.19793 0.13917 0.21176 0.24148 0.50468 0.32455 0.024063 -0.61024 -0.040436 0.54242 0.095107 -0.36426 -0.50936 0.40614 0.21568 0.10785 0.27941 0.17769 0.16995 -0.042529 -0.30908 0.30495 -0.08138 -0.28622 -1.0094 -0.011152 0.059453 0.01142 -0.024313 -0.17866 0.59579 -0.73706 -0.13677 0.21239 0.19886 -0.11935 -0.092309 -0.30075 -0.62436 -0.19839 -0.1123 0.019358 -0.11496 -0.076361 0.27447 -0.28477 -0.050637 -0.46345 -0.24438 -0.43065 0.283 -0.00079764 -0.16786 0.093986 0.41053 0.36171 0.22079 -0.034941 -1.0539 1.2966 0.62397 0.17444 -0.15307 -0.31562 0.25507 0.88007 0.44373 0.59835 0.043609 -0.2884 -0.26496 -0.48651 0.264 0.17748 -0.41112 -0.62653 -0.46471 0.19586 -1.5399 -0.074412 -0.082274 0.0018124 0.47546 -0.2975 0.79644 0.23544 0.14075 -0.18443 0.56116 -0.285 0.29926 0.052467 0.18747 0.28053 0.46677 0.10727 0.31108 -0.091489 -0.36375 0.44755 -0.28613 -0.39287 0.5951 -0.29734 0.081714 -0.018564 0.54344 0.077288 -0.65213 0.47477 0.0051629 -0.24848 0.1132 -0.87594 0.22482 -0.38134 -0.12241 -0.36763 0.55386 0.036125 0.21555 -0.24236 0.21345 0.3062 -0.12775 -0.10409 0.58709 -0.16937 0.40415 -0.2328 -0.35674 -0.25912 0.50062 0.15646 0.11307 -0.29042 0.27006 0.38945 0.026471 -0.21956 -0.13266 0.14588 0.67034 -0.38399 0.18441 -0.089759 0.12218 -0.45481 0.6438 0.1738 -0.2995 0.38684 0.12671 -0.14493 0.78861 -0.10724 -0.35626 -0.057734 0.17351 -0.93029 0.11195 -0.044044 -0.30555 -0.31827 0.038099 -0.039889 -0.12103 -0.026643 -0.17053 0.44594 0.086644 -0.32518 0.51517 -0.33293 0.53125 0.30393 -0.10264 -0.4368 -0.83164 -0.13403 0.19875 -0.53074 0.1085 -0.054977 -0.071306 0.036265 -0.77931 -0.7274 -0.42199 0.063044 -0.28666 0.55251 -0.5157 -0.085598 0.075007 0.24873 -0.13455 -0.66102 0.40747 0.71035 0.030179 0.37715 0.19519 0.089874 0.33154 0.090425 -0.11978 -0.1861 -0.62488 0.26058 -0.26478 0.9302 -0.34079 -0.27868 0.12224 0.13313 -0.44596 -0.37234 0.092894 -0.43151 0.63199 -0.24604 0.0058324 0.036692 -0.16807 -0.22719 0.049407 0.038468 0.084663 0.056058 0.33766 0.48787 0.15547 -0.14485 -0.50831 -0.33168 -0.2273 0.0505 -0.81082 0.40058 -0.6853 -0.21218 0.090626 -0.32219 0.32781 -0.056326 -0.38821 0.071046 0.86109 -0.46362 -0.49191 -0.078019 -0.049619 0.29545 -0.071462 -0.29896 -0.55149 0.14239 -0.076879 0.19399 0.028165 0.047668 -0.86172 0.11029 0.46176 0.20632 -0.42435 0.14109 0.075704 0.35333 0.092808 0.22917 0.34754
poppy 0.059868 0.6634 -0.014714 0.16353 -0.12119 0.17754 -0.090132 -0.31908 -0.14168 0.4806 0.12124 -0.17232 -0.11308 -0.34079 0.55501 0.12524 -0.21649 0.088709 0.053016 -0.079674 0.47262 0.81564 -0.050394 -0.037637 -0.65723 -0.077607 0.044008 0.14137 0.2379 -0.25272 -0.18032 0.019703 0.4049 -0.042007 -0.27141 0.22916 -0.45811 0.06098 0.023851 0.44604 0.27703 0.16961 0.82276 0.00022847 0.43226 -0.18075 0.13587 0.45564 0.23452 0.057224 -0.98657 -0.10534 0.17929 0.28785 0.62335 -0.40826 -0.13087 0.47191 -0.44617 -0.38922 -0.24261 -0.030235 -0.059011 -0.018967 -0.1401 -0.73529 -0.65988 0.13297 0.281 -0.24721 -0.77266 0.28247 0.31926 0.54358 0.39684 -0.42002 -0.70041 0.52467 -0.11674 -0.62685 0.59914 0.09218 0.36566 0.38629 -0.63787 -0.25354 0.91948 0.56247 -0.046444 0.078884 -0.35359 0.17859 0.90527 0.41686 -0.74947 0.40197 0.16779 -0.22998 -0.51737 -0.023139 -0.35587 -0.18663 -0.16783 -0.55124 -0.33928 -1.2014 -0.041099 -0.78677 0.14173 0.33236 -0.50082 0.32406 -0.39288 0.27262 -0.21871 0.17575 -0.051942 0.12228 0.0057556 -0.28381 -0.36325 0.28921 -0.16404 0.37446 -0.4115 -0.067687 0.45065 -0.030043 0.37188 0.48233 0.386 -0.33819 -0.14207 0.24662 -0.59224 -0.85235 0.27974 -0.12755 0.117 0.075 -1.8192 0.47254 0.20598 0.42708 -0.68142 0.12514 -0.36849 0.13858 0.56602 -0.52007 0.29121 0.53769 -0.13687 0.29593 -1.1152 0.0014218 -0.51755 -0.18836 -0.4666 0.48545 0.19527 0.26909 0.34491 0.75209 -0.1421 -0.23828 -0.30737 -0.87426 0.147 -0.23907 0.18933 -0.080581 0.35437 -0.60354 0.12653 0.038924 0.06086 -0.27962 -0.01869 0.51401 0.13139 0.06943 0.49153 -0.6348 0.037275 -0.013721 -0.33604 -0.06472 -0.0043657 -0.37402 0.10164 0.57595 0.92305 -0.011719 0.2697 -0.050885 0.46126 -0.16787 -0.38508 0.03203 -0.15268 -0.11064 0.11005 0.083565 0.099427 -0.17499 0.31209 0.093882 0.27067 0.35246 -0.036134 1.0116 0.36731 -0.28988 -0.39534 0.32283 -0.28109 0.15401 -0.044705 0.29467 -0.067173 0.67622 0.087373 -0.42068 -0.098759 0.39095 0.45667 0.057956 -0.19513 0.059176 0.070799 0.21794 0.2155 -0.054246 0.1834 -0.40412 0.0090558 0.090402 0.24284 -0.43871 -0.67119 -0.45978 -0.50286 -0.38409 -0.040336 0.27593 0.15803 -0.26796 0.65478 -0.43371 0.061176 -0.31708 0.02483 -0.16435 -0.15067 0.1882 -0.32986 0.39306 -0.22667 0.32907 -0.18954 0.067584 -0.30591 -0.24091 -0.57827 -0.29127 0.20573 -0.68969 -0.39508 -0.10203 -0.097209 0.42348 0.12852 -0.29935 0.04755 0.043206 0.12107 -0.207 -0.15968 0.49054 0.60885 -0.1837 -0.021884 -0.29991 -0.18254 0.20644 0.63541 0.0045386 -0.21082 -0.51368 -0.41798 0.11815 0.39659 0.0069099 -0.20205 0.34776 0.41873 -0.075356 -0.27851 0.71022
daisy -0.31845 0.61177 -0.25537 -0.23216 0.30477 -0.32365 -0.32009 0.066039 -0.3432 -0.4187 0.10088 -0.7194 0.028399 0.1279 -0.19248 0.19248 -0.29507 0.77701 0.23011 -0.45336 0.23488 0.42049 -0.063458 -0.085474 0.065394 -0.049089 -0.32126 -0.056857 0.045556 0.09187 -0.63503 0.39135 0.31447 0.089508 -0.34133 -0.16692 0.13268 -0.16733 0.02655 0.079951 0.26639 0.50783 0.30069 0.25894 0.72987 0.022076 0.12402 0.023787 0.34906 -0.075899 -0.044986 0.36308 -0.052533 0.21783 0.13401 -0.11859 -0.49575 0.26534 -0.15094 -0.43714 0.16974 0.16708 -0.0070419 -0.075289 0.21287 -0.6622 -0.40916 -0.087193 0.35298 -0.41056 -0.36625 -0.11614 0.13374 0.65155 0.16498 -0.24312 -0.40741 0.26352 0.018378 -0.15967 0.21474 0.044728 0.11148 -0.025786 -0.306 -0.47532 1.4428 1.1308 0.22354 -0.055819 -0.15485 0.16582 0.64825 -0.47428 0.10372 0.25951 -0.49937 -0.37098 -0.27034 0.15214 -0.067896 0.3557 -0.43026 -0.4135 -0.14176 -0.7028 -0.25129 -0.39895 0.25959 -0.06545 -0.171 0.22408 -0.13708 0.19259 0.2844 -0.34735 -0.18405 0.42572 -0.097607 0.3342 -0.14066 -0.56939 0.18343 0.37003 -0.12226 0.27833 0.42815 0.247 0.57161 -0.039871 0.18874 -0.43922 -0.2922 0.17933 -0.20658 -0.57064 0.64293 0.45179 -0.068176 0.12673 -1.9497 0.4102 -0.15355 -0.46413 -0.86412 0.12152 0.11148 -0.074052 0.11348 -0.41645 0.38179 -0.022532 -0.23492 0.17023 -0.43281 -0.12983 -0.39996 0.10733 -0.0005393 0.10038 -0.28076 -0.031848 0.11519 -0.25001 0.36991 -0.4646 0.49628 -0.20779 0.28465 0.33121 -0.50713 -0.32031 -0.12455 0.25975 0.47932 -0.14952 0.030167 0.40905 -0.0022404 0.58311 0.12489 0.29896 0.14721 0.095497 0.26115 -0.27228 -0.63917 0.062059 0.074006 -0.12122 -0.53588 0.74911 -0.22735 0.37505 0.054383 -0.084976 0.19119 -0.20597 -0.41023 0.27915 -0.45332 -0.070803 -0.31262 0.26791 0.18848 -0.25248 0.3845 -0.3616 -0.045639 -0.20199 -0.37528 0.93676 0.53491 0.22345 -0.25887 0.074397 -0.62569 0.33213 -0.1633 -0.52678 -0.25685 -0.23882 0.45721 -0.38922 -0.0085945 -0.035354 0.4632 -0.168 -0.081915 0.20661 -0.35631 0.035481 0.10951 0.57754 0.15618 -0.034037 0.15585 -0.081918 -0.13355 0.011886 -0.85876 -0.42963 0.17578 -0.15312 0.25216 -0.031523 -0.17791 0.47518 0.0038919 0.20879 0.085324 0.073805 -0.63442 0.19954 -0.15681 -0.34285 -0.32202 0.24188 -0.32913 -0.34219 -0.24849 0.024101 -0.62705 0.038695 -0.30468 -0.0024762 0.74459 -0.0237 -0.67214 -0.19441 -0.99068 -0.084659 -0.17332 0.2495 0.0036339 0.13375 0.10637 0.3349 -0.27583 -0.34114 0.34131 -0.43739 -0.3181 -0.13266 0.69627 -0.34968 0.18052 0.40946 -0.11163 -0.56643 -0.0058153 0.50623 0.47328 0.032568 -0.11827 0.005716 0.10491 0.091125 -0.41823 0.21422
orchid -0.017762 0.35909 0.017657 -1.0187 0.37929 -0.20349 -0.3638 -0.2151 -0.55289 0.28717 -0.27019 -0.20924 -0.20606 -0.39662 0.24835 0.5902 -0.089912 0.57344 0.7667 -0.34721 -0.31198 0.48615 -0.27221 0.037383 -0.5518 -0.019136 0.15525 0.2996 0.22753 -0.29141 -0.32505 -0.37631 0.34055 -0.5848 -0.89258 0.4018 0.34575 -0.30182 -0.38322 -0.39434 0.45856 -0.30858 0.20449 -0.37926 0.9808 0.55146 -0.24122 -0.15041 0.55317 -0.37161 -0.43086 -0.91241 0.30976 -0.18849 0.44119 -0.45582 0.43052 -0.23188 -0.72754 0.1537 -0.57515 0.12281 -0.29476 0.18673 -0.43777 0.066723 -0.52922 0.2999 -0.79441 -0.4096 -0.41096 0.085827 -0.23438 0.16595 -0.21604 0.47105 -0.28587 0.17822 -0.49798 -0.61456 -0.51591 0.23593 0.11306 -0.45199 -0.73939 -0.53247 0.55776 0.91167 -0.37946 0.10839 0.26176 0.23396 0.71623 -0.073027 -0.056763 0.51963 -0.09819 -0.42893 -0.35895 0.34962 -0.14311 -0.45096 0.12333 -0.39748 -0.2234 -1.2069 -0.2081 -0.15547 0.29913 0.30307 -0.25463 0.40417 0.0085206 0.53314 0.094457 0.27451 -0.67722 -0.23605 0.7541 0.1306 -0.14883 0.3604 -0.032861 -0.14333 -0.25428 0.22087 -0.050588 -0.38108 -0.092094 0.12187 -0.29675 -0.34648 -0.26076 -0.016526 -0.41348 -0.59554 0.35283 -0.024306 0.82086 0.19829 -1.4399 0.0046149 0.074453 -0.046189 -0.48448 0.45088 -0.3169 0.46196 0.15782 -0.26668 0.46109 0.28717 0.22626 -0.098382 -0.14894 0.4287 -0.017446 -0.30957 -0.32429 0.73241 0.043875 -0.0949 0.13575 0.51817 0.74713 0.17488 0.26363 0.0090329 0.075642 0.70063 -0.47955 0.23933 0.5377 0.090822 -0.49498 0.31468 0.22006 -0.11791 0.20727 0.45024 0.19915 0.58175 0.18215 -0.42938 -0.016374 -0.64533 -0.58225 -0.31677 0.17949 -0.24108 -0.14722 0.46078 -0.46918 0.16676 0.12252 -0.16134 -0.25816 0.34831 0.30076 0.47 -0.065436 -0.26875 -0.23879 0.3198 -0.089305 -0.2024 0.4175 0.32366 -0.0963 -0.33783 0.1163 0.47803 0.20069 -0.64883 -0.36684 -0.20138 -0.26807 -0.31945 -0.010856 -0.86288 -0.36789 -0.37641 0.37403 -0.16371 -0.0421 0.63835 0.49397 0.18961 -0.47155 0.69755 0.29002 -0.17675 -0.052745 0.1141 -0.34976 -0.397 -0.42754 0.015875 0.72553 -0.044496 -0.50433 -0.32571 0.14143 -0.14902 -0.1059 -0.077664 -0.31976 0.78356 0.14879 -0.3656 -0.17132 0.22333 -0.40975 0.45404 0.15806 0.32986 0.12382 0.45038 0.69302 -0.19117 -0.20327 0.31173 0.37046 -0.050672 0.049927 -0.69223 0.67405 0.083227 -0.67551 0.51963 -1.1156 -0.37932 0.28135 0.12079 -0.0083074 0.1693 -0.58039 0.15465 -0.3345 0.097328 0.17905 -0.088954 0.17897 -0.047648 0.2058 -0.17131 0.083402 -0.12706 -0.21265 -0.60959 -0.17116 0.46267 0.31665 -0.51824 -0.3852 0.20301 0.11058 -0.21525 0.19706 0.16621
clover -0.15617 0.48149 -0.19613 -0.32701 -0.079478 0.019529 -0.24749 0.070398 -0.76494 -0.047522 -0.32476 -0.30087 -0.10193 -0.34807 0.3293 -0.088704 0.16918 0.59211 0.49233 0.21207 -0.12371 0.54375 -0.88938 -0.08532 -0.3722 -0.50147 -0.44139 0.10372 -0.13947 -0.0084523 -0.066869 -0.082906 0.2618 0.073558 -0.54374 0.067117 0.17989 0.088594 -0.32958 0.25368 -0.28429 0.59722 0.14214 0.069643 0.46524 0.006705 -0.22527 -0.17826 0.13125 -0.21483 -0.32552 0.42552 -0.15786 0.28683 0.58539 -0.37347 0.012369 0.17118 -0.43564 -0.15025 -0.16033 0.16019 0.0068837 0.0071093 0.40596 -0.35366 -0.74269 0.15251 -0.088268 -0.55864 -1.3492 0.84834 0.44847 0.53346 0.11481 -0.16984 0.25511 0.17409 0.0023715 -0.31397 -0.1826 0.12718 0.3622 0.24813 -0.24238 -0.20732 1.1924 0.66888 -0.23136 0.44568 0.14543 -0.08058 -0.10376 0.21794 -0.28148 0.041242 -0.37648 -0.54347 -0.97873 -0.34886 -0.34318 -0.15409 -0.33033 0.051123 -0.49642 -1.1528 -0.25884 -0.13521 0.1617 0.21883 0.020896 0.76022 0.10129 0.045615 0.4247 0.17726 -0.31915 0.086512 0.10045 -0.18038 0.29741 -0.039011 0.040185 -0.30702 0.11397 -0.38455 0.46585 0.061395 0.073083 0.12321 -0.16451 -0.73794 -0.14009 0.036993 -0.64957 -0.21808 0.86955 0.020418 -0.23544 -0.37705 -1.6523 0.079163 0.099993 -0.2245 -0.43164 -0.24528 -0.47729 -0.20242 0.23175 -0.31044 -0.11376 0.18864 0.4524 0.20721 -0.57829 -0.15363 -0.14259 -0.15591 0.033067 0.1754 -0.13028 -0.1296 -0.33518 -0.20948 0.25143 -0.11153 -0.1487 -0.79893 -0.54747 0.2453 0.23991 0.44177 0.15398 0.055542 0.16895 -0.22298 0.22779 0.17109 0.58049 0.88971 0.11345 0.05865 0.16946 0.15468 -0.92227 -0.38028 -0.78904 0.50049 -0.0013619 -0.33392 -0.24651 0.13917 -0.17155 -0.24887 0.44288 -0.11727 0.18658 -0.046623 -0.4863 -0.1443 -0.02765 -0.21228 -0.65524 0.24328 0.052207 0.21004 0.61463 -0.45328 0.44846 -0.21209 -0.17864 0.99709 0.34164 -0.020204 -1.1633 -0.38814 -0.18731 0.21108 0.19934 -0.1723 -0.52595 -0.38025 -0.081676 0.15026 0.23937 0.63752 0.86045 -0.20538 0.024613 0.16109 0.10196 0.51708 -0.41251 0.8242 -0.22622 0.2439 0.17653 -0.23757 0.52822 0.076969 -0.16113 -0.10423 -0.54253 -0.26305 0.098676 -0.16601 -0.08783 0.5373 0.28264 0.053753 0.090594 -0.24331 0.40958 0.012164 -0.24063 0.13202 0.084018 0.48501 0.45344 -0.016771 0.012292 -0.12087 -0.075965 -0.061053 -0.18664 0.048719 -0.095969 -0.35246 -0.76376 0.35145 -0.3999 0.01655 0.42074 -0.046229 -0.059948 -0.40371 -0.50695 -0.42617 -0.26029 0.32197 -0.18484 -0.37692 -0.84987 -0.8514 0.30934 -0.032461 -0.098001 -0.076683 0.22386 -0.72316 -0.14811 0.45835 0.13079 -0.42971 -0.452 -0.17244 -0.099765 -0.31138 0.31787 -0.61137
lilac 0.35838 0.28308 -0.29949 -0.28785 0.30755 -0.59676 -0.32783 -0.50482 -0.47635 -0.41046 0.13428 -0.1292 -0.38795 -0.32022 -0.090091 0.40061 0.068337 0.6283 0.45696 -0.92133 -0.18033 0.18627 -0.40791 0.5747 -0.27104 0.2865 -0.38544 -0.16892 0.15828 0.052167 -0.2077 0.11631 0.064105 -0.27473 -0.045337 -0.099207 0.56925 0.10079 -0.27163 -0.039777 0.35564 0.29317 -0.3184 -0.1104 0.61193 0.0091155 -0.30158 -0.35163 0.69036 -0.2597 -0.34802 -0.5406 -0.39628 -0.064411 0.46686 -0.37156 -0.42047 0.035441 -0.91009 -0.058845 -0.12221 -0.49625 0.074916 -0.10385 -0.31973 0.50226 0.042234 -0.033113 -0.25631 0.14013 -0.41699 0.2557 -0.18789 0.21206 0.19706 0.29237 -0.29437 0.25158 -0.37579 -0.87907 -0.43746 0.10931 0.28897 0.40942 -0.040056 -0.43496 1.4827 1.0549 0.38618 -0.19908 0.67856 0.46966 1.339 0.45413 0.13441 0.39639 -0.13079 0.027626 -0.09188 0.00085474 0.61409 0.17891 -0.095612 -0.41731 -0.26061 -0.9346 0.011848 0.16388 -0.037039 0.23742 -0.44462 0.19559 0.07188 0.28886 -0.42855 0.48847 -0.47923 0.38523 0.1763 -0.44643 0.23992 0.26005 -0.26239 0.16871 -0.16681 0.095702 0.10251 0.021002 0.2374 -0.44664 -0.093778 -0.21508 -0.16035 0.30786 0.19077 -0.28437 0.11471 -0.12343 0.24734 0.58469 -1.6088 0.64263 -0.17061 0.28777 -0.23308 0.13655 -0.19541 0.20084 0.31632 -0.15908 0.11374 0.15512 0.46024 0.25371 -0.64645 -0.14854 -0.4007 -0.065253 -0.43547 0.32581 -0.31063 0.25012 -0.074167 0.13019 0.06662 0.032635 -0.19286 -0.23781 0.34344 0.61659 -0.5644 0.20214 0.38046 -0.27654 -0.18578 0.38384 0.001186 -0.066881 0.42275 0.31167 -0.12785 0.23331 0.07432 -0.48152 -0.25514 -0.11177 -0.41815 -0.44516 0.19461 0.14948 -0.15616 0.20089 0.014469 -0.24127 0.32126 -0.34059 -0.063035 -0.067139 -0.19236 -0.083293 -0.41514 0.52728 -0.62349 0.050104 0.19265 -0.045199 0.3183 0.16025 -0.42341 0.056544 -0.048963 0.97707 0.2067 -0.1566 -0.10754 0.17693 -0.56104 -0.18087 0.3575 -0.2625 -0.076149 0.23145 0.47652 -0.013849 -0.56095 -0.064035 0.64959 -0.17877 -0.30683 0.37012 0.33208 0.33254 0.13716 0.21149 -0.38249 -0.50881 -0.017298 -0.3912 0.89966 0.47034 -0.64989 -0.091565 -0.36068 0.080649 -0.34367 -0.090677 -0.24755 0.40862 0.091243 -0.032603 0.073916 -0.085227 -0.41749 0.15664 -0.08973 -0.057836 -0.12863 0.2008 0.21856 -0.027334 -0.088929 0.46484 0.011275 0.57109 -0.26403 -0.26138 0.27734 0.04089 -1.1119 0.075985 -0.8545 0.65492 0.05516 -0.17447 -0.36641 -0.37882 -0.13634 -0.035199 0.093875 -0.013302 0.089109 0.015433 -0.16798 -0.64462 -0.061473 0.37759 0.19153 0.084007 -0.097487 -0.70785 -0.060404 0.5741 0.24863 -0.44052 -0.18718 0.2497 0.48679 -0.15796 0.16243 0.52667
tulip -0.55932 0.14844 -0.29115 -0.68804 0.49466 -0.19585 -0.3873 0.43606 -0.19796 -0.13459 -0.043092 -0.38067 0.21984 -0.27228 0.30836 -0.20385 -0.29323 0.43919 0.88652 -0.64736 -0.107 0.037835 -0.17114 0.99668 -0.098686 -0.042732 0.1234 -0.057032 0.2199 1.1776 -0.06592 -0.21169 0.44343 0.11174 0.35733 0.78648 0.51792 -0.24888 -0.1616 -0.16139 0.45358 0.022898 0.30534 -0.13219 0.47366 0.13707 -0.16604 -0.076291 -0.2903 -0.0089522 -1.0735 -0.010836 -0.10825 0.21895 0.40967 -0.765 0.10336 0.21725 0.39239 -0.075142 -0.34121 -0.37675 0.41271 0.52197 -0.36383 -0.064309 -0.59239 -0.44525 0.54955 0.56146 -0.22163 0.17285 0.12828 0.40782 0.17135 0.27596 -0.21123 0.51725 -0.19409 0.13092 -0.0076896 0.67891 0.40211 -0.029262 -0.54531 0.15264 1.1886 1.0789 0.1418 -0.3476 0.097181 0.11866 0.93898 0.29444 0.25622 0.38422 -0.34461 -0.23257 -0.43501 0.42009 -0.29463 -0.23454 -0.37629 -0.023617 -0.79739 -1.0505 0.011589 0.0099377 0.17828 0.027227 -0.19011 0.57989 -0.17489 0.12318 0.0058653 -0.16063 -0.85933 -0.22381 0.24611 0.41831 0.10586 0.44408 -0.21882 0.39269 -0.028797 0.13727 0.94329 -0.15276 -0.062281 0.2925 -0.090211 -0.37396 -0.84634 0.16039 -0.20814 -0.46264 0.18872 0.40309 -0.073798 0.39406 -1.1552 0.40453 -0.33323 -0.27504 -0.19114 0.15871 -0.26144 0.40846 0.7365 0.038923 0.59304 0.52899 -0.32788 0.11194 -0.16794 -0.15925 -0.20621 0.35255 -0.056337 0.30438 -0.18923 0.34453 -0.3701 0.41201 0.48785 -0.097303 0.0045793 -0.19419 -0.18403 0.41725 -0.49559 -0.36864 0.34105 0.073275 -0.071066 0.25783 0.25871 -0.40605 0.48141 -0.2048 -0.18748 0.21412 0.58753 -0.50995 -0.21057 0.10995 -0.75414 -0.35246 -0.10323 0.051087 -0.31391 0.31452 0.43056 -0.035699 -0.39097 0.40047 -0.21706 0.14039 -0.010756 0.15835 -0.2485 0.41278 -0.42687 -0.07386 0.16628 -0.14552 0.60447 -0.096196 -0.20095 -0.1386 -0.13834 0.55767 0.37837 -0.26814 -0.26577 -0.060516 -0.1839 -0.45929 0.15305 -0.81574 -0.39756 -0.05203 0.84104 -0.047413 -0.038302 0.10656 0.61545 0.063259 -0.44328 0.59945 0.52957 0.33369 0.028954 0.19557 -0.35479 -0.33317 -0.10026 0.32817 0.70732 -0.061758 -0.54304 0.074349 -0.26635 0.29211 0.0094013 0.34811 0.10267 0.49578 0.30862 -0.14285 -0.23591 -0.031646 -0.080041 -0.040525 -0.28836 -0.39997 -0.11791 -0.090218 0.30861 -0.38548 0.17752 0.47798 -0.099451 0.38669 0.018435 -0.13585 0.34503 -0.068143 -0.97679 0.31968 -0.52947 -0.22511 0.35674 -0.38662 0.066017 0.16693 0.38792 -0.35182 0.11563 -0.10007 0.58686 -0.37099 0.16923 -0.069293 0.11274 -0.14011 0.42177 0.61224 -0.12343 -0.31258 -0.095993 0.67423 0.083183 -0.1532 -0.26227 -0.36519 -0.01309 0.048107 -0.057227 0.61391
magnolia -0.0192 0.73418 -0.5413 -0.91498 0.049385 -0.28082 -0.25417 0.20972 -0.29151 -0.050442 -0.14878 -0.33639 -0.45568 -0.45296 -0.44245 0.32454 -0.051755 0.51624 0.58517 -0.57349 -0.38854 0.018198 0.17439 0.52948 -0.28534 0.20125 -0.069913 0.013066 0.29779 -0.39733 0.20615 0.35622 -0.16136 -0.18926 -0.45073 -0.026413 0.4492 0.42606 -0.75425 -0.028915 0.099878 0.24678 -0.052713 -0.053698 0.68927 0.45671 0.12569 -0.44747 0.46184 -0.23718 -0.62547 -0.83533 -0.14489 0.20778 0.4006 -0.68272 0.062815 -0.12466 -0.27881 -0.40336 -0.037195 -0.013008 0.093483 0.28487 -0.025237 0.16191 -0.051584 -0.043765 -0.024893 0.17612 -0.51246 -0.042059 -0.28789 0.2248 0.30009 0.65859 -0.19546 0.36708 -0.42936 -0.69831 -0.085336 0.40573 0.25413 0.17046 -0.37928 -0.066517 1.1809 0.70761 -0.10099 -0.40574 0.13023 -0.12315 0.51976 0.20958 0.18252 0.71137 0.045967 -0.16332 -0.27351 0.073079 0.063094 -0.10527 0.012097 -0.32907 -0.23196 -1.0629 0.46696 0.18354 0.14888 -0.23697 -0.29182 1.0562 0.070229 0.10412 -0.10225 0.49415 -0.13064 0.076189 0.23566 -0.30226 -0.059503 0.20901 -0.44142 -0.25654 -0.20518 -0.37354 0.56127 0.1053 -0.093778 0.19341 -0.012124 -0.47346 -0.10574 0.10873 -0.043025 -0.7987 0.28286 0.0012056 0.4347 0.28976 -1.0907 0.25121 -0.20493 0.12557 -0.7439 0.22813 0.015391 0.42535 0.14826 -0.18381 0.2468 -0.075433 0.15006 0.11604 -0.40357 -0.31973 -0.015663 -0.23266 0.23685 0.77734 0.16825 0.51375 -0.36545 0.64729 0.46274 -0.38085 0.06031 0.020752 0.23934 0.033531 -0.13466 -0.025261 -0.11507 0.85804 0.0037649 0.063367 0.0040213 -0.28366 0.067343 -0.24003 -0.45443 0.59168 -0.090163 -0.29693 0.035598 0.10803 -0.70072 -0.25791 0.27076 -0.49032 -0.12091 -0.26703 -0.33297 0.38943 -0.07321 -0.29481 -0.20413 -0.041728 0.29166 0.092411 -0.19557 -0.21593 -0.13488 -0.017228 0.071064 -0.087389 0.1387 0.51424 0.23083 -0.31976 -0.17381 1.0052 0.70966 0.094113 -0.6193 0.20019 0.41625 -0.12094 0.62157 -0.22763 -0.4455 -0.010781 0.3852 0.47624 -0.084158 0.35193 0.11993 0.14633 0.071825 0.055025 0.54525 0.14946 -0.27391 -0.13934 -0.54749 -0.84348 0.11206 -0.278 0.78415 0.23566 -0.42636 -0.42227 -0.020406 -0.13206 -0.42054 -0.14547 0.25259 0.57687 0.13976 0.12643 -0.23197 0.11913 -0.069886 -0.17203 -0.23354 -0.25819 0.078397 -0.18821 -0.054749 -0.59803 0.10436 -0.20425 0.12956 -0.13868 0.022134 -0.44555 0.33563 -0.31689 -1.0518 0.32752 -0.8722 0.18564 -0.037048 0.11222 0.16875 -0.21434 -0.23032 -0.21638 -0.14537 -0.19147 -0.034095 -0.20078 -0.25166 -0.45212 -0.009045 0.020245 0.36789 -0.32697 -0.17206 -0.68834 0.10891 0.52303 0.011535 -0.15443 -0.40686 0.07301 0.64038 -0.414 -0.21297 0.34058
peony -0.06052 0.33785 -0.46682 -0.85181 0.11859 -0.27746 0.10616 -0.33671 -0.34052 -0.66665 0.083617 -0.64238 -0.70746 -0.13212 0.3067 0.21293 -0.53516 -0.0089063 0.6627 -0.42873 -0.05389 0.33564 -0.16524 0.37089 -0.8063 0.10003 0.029436 0.14817 -0.081629 -0.2238 -0.33591 0.49958 0.23586 -0.0021757 -0.38971 0.13211 -0.22595 -0.38708 -0.40896 -0.39917 0.27765 0.49671 0.22477 0.094017 1.0936 0.50125 -0.27548 -0.22785 0.39745 0.12268 -0.61548 -0.61231 -0.04553 -0.13079 0.36569 -0.33634 0.30266 -0.0055776 -0.84624 -0.19828 -0.2003 -0.083723 -0.31268 0.3073 -0.16572 0.18752 -0.10991 0.3897 -0.26759 -0.11084 -0.29742 0.17755 -0.066791 0.22954 -0.1144 0.48002 -0.21285 -0.2303 -0.53494 -0.63035 -0.21548 -0.069285 0.05942 -0.092134 -0.36747 -0.48062 0.97948 0.4348 -0.034387 -0.0029074 0.19044 -0.14672 1.1122 0.024598 -0.21882 0.64301 -0.34339 -0.33309 -0.056681 0.21288 0.41352 -0.018613 -0.29302 -0.48239 -0.45637 -1.235 0.10263 -0.23677 0.50285 0.034199 -0.73067 0.85534 0.028653 0.46007 -0.070009 0.55879 -0.63366 0.22155 0.80725 -0.15124 -0.19691 0.4342 0.056903 0.37475 -0.34668 -0.25091 0.13893 -0.095159 0.32727 0.063844 0.37745 -0.53273 -0.37926 0.049495 -0.52824 -0.90964 0.31225 -0.18036 -0.01689 0.60606 -0.92585 0.19195 -0.14858 -0.21858 -0.12693 0.36916 -0.26663 0.12795 0.33312 0.046029 0.48689 0.57079 0.46198 0.58479 -0.49145 -0.26632 -0.20079 -0.072478 -0.11611 0.85918 -0.10452 0.32131 -0.23779 0.26222 0.89957 0.030221 0.22914 -0.10648 0.19433 0.583 -0.5229 -0.06496 0.16825 0.19938 -0.097367 -0.039092 -0.10194 -0.19819 0.4127 -0.034379 -0.061299 0.54841 0.36363 -0.31917 0.03767 -0.35605 -1.0386 -0.50317 -0.1473 -0.018537 -0.42101 0.20233 0.05415 0.32073 0.31251 -0.27245 0.20304 -0.17011 0.19789 0.080984 -0.45749 -0.098482 -0.34136 -0.19033 0.40116 -0.088592 -0.062691 0.30734 -0.15907 -0.25729 -0.34666 0.87443 0.95856 -0.66697 -0.50201 0.010943 -0.38088 -0.44352 0.32781 -0.90123 -0.40293 0.015556 0.62003 0.13479 -0.23052 0.24014 0.76348 0.25586 0.31615 -0.12913 0.43858 0.00060194 0.029218 0.022562 -0.81639 -0.67398 0.12261 0.031519 0.98158 -0.053102 -0.79504 -0.4894 -0.26618 -0.22074 -0.41671 0.065932 -0.65304 0.56805 0.35314 -0.12993 -0.33098 0.042861 -0.4161 0.33473 0.077346 -0.065128 0.10454 0.1079 0.022673 0.043578 -0.047477 0.21342 0.10195 0.17946 -0.42733 -0.71518 0.44101 -0.069771 -0.82106 0.1066 -0.8732 0.16733 0.06438 -0.17942 -0.20943 0.3474 0.048671 -0.080557 -0.41906 0.39229 -0.12837 -0.17071 -0.27314 -0.60343 0.18619 0.20091 0.094714 0.043893 0.0090436 -0.87889 -0.00096449 0.62112 0.45666 -0.50416 -0.2962 -0.10863 -0.26087 -0.065929 0.2531 -0.086091
pansy -0.59552 -0.22071 -0.45656 -0.5077 0.27245 -0.27974 -0.023019 0.026002 -0.72421 -0.23897 -0.08742 -0.11572 0.23234 -0.40542 0.23471 0.34086 -0.18845 -0.67226 0.60256 -0.39305 0.42891 0.12842 -0.28969 0.058652 -0.35097 -0.21469 -0.3621 0.11477 0.42388 0.14186 -0.19901 0.64168 0.33237 -0.14602 0.093803 -0.17181 0.064512 -0.14628 -0.57452 0.41849 0.45098 0.25299 0.034154 -0.17947 0.60951 -0.26022 0.36454 0.063947 0.42636 0.033376 -0.16051 -0.37009 0.050317 -0.29292 0.17645 -0.19004 0.013051 0.14488 -0.36689 -0.28945 0.28029 0.46659 -0.55065 0.10662 -0.12245 -0.025353 -0.59724 0.66937 -0.56341 -0.33457 -0.31069 0.091465 0.15205 -0.3394 -0.16673 0.20496 -0.29945 0.39729 -0.025299 -0.096542 -0.46571 -0.042494 0.50034 0.099812 -0.88789 0.060892 1.1073 -0.0002818 -0.11463 -0.34661 0.18031 0.43374 0.60636 0.50556 0.1834 -0.17246 -0.17338 -0.47068 -0.082837 0.52919 0.37665 -0.1279 0.063546 -0.66684 0.099858 -1.2902 -0.33679 -0.0082347 -0.079238 0.42328 -0.31491 0.157 0.010868 0.051065 -0.097292 0.28785 -0.65425 -0.25972 0.18415 -0.3617 0.10821 -0.082471 -0.0055448 0.46742 -0.16744 -0.32551 -0.3082 0.09382 0.66938 0.14839 -0.11736 -0.078141 0.0054997 0.19591 -0.35067 -0.53322 -0.055895 -0.11659 0.14253 0.68877 -1.6923 0.72723 -0.305 0.20027 -0.18397 0.54693 -0.19024 0.12517 0.0019511 -0.46202 0.12288 0.20618 0.28281 0.50885 -0.74433 0.17144 0.32375 -0.4456 -0.23931 0.12034 -0.1396 0.49339 -0.21622 0.26625 0.22829 -0.32827 0.12239 -0.5842 -0.37638 -0.050222 -0.37493 -0.35944 -0.048167 0.60448 0.38124 -0.51901 -0.21501 -0.10619 -0.55509 0.40802 0.25474 0.14382 -0.061388 -0.27534 -0.37095 -0.20092 -0.23562 0.3545 0.36685 -0.33245 0.09427 0.29508 -0.45381 0.031231 0.49367 0.08027 0.25745 0.17112 -0.031272 0.3699 0.12984 0.31179 -0.15295 0.061938 0.41919 -0.084358 0.3387 -0.31455 0.13581 0.022456 -0.43649 1.0248 0.36883 0.33454 -0.1693 0.44442 -0.090857 0.47555 0.0039229 -0.55412 -0.20647 -0.23767 0.88704 -0.41534 0.28642 -0.12183 -0.18328 -0.24899 0.090377 0.33588 -0.20534 0.81146 0.61034 -0.14469 -0.29649 -0.34705 0.43934 -0.43667 0.66674 0.012126 -0.38485 -0.13929 -0.23904 -0.22352 -0.44654 0.26885 0.028966 0.4278 0.20684 0.3969 -0.29141 -0.49676 0.020976 0.03955 0.098156 -0.32962 0.03545 0.37082 -0.026784 0.22812 -0.48928 0.41172 -0.008531 -0.016797 0.34031 0.2436 0.11236 -0.15016 -0.10516 -0.08098 -0.28113 -0.079608 -0.1562 -0.067373 -0.28035 -0.03729 0.11556 -0.037882 -0.21368 -0.18645 -0.14828 -0.034912 -0.52035 -0.056521 0.55287 0.23527 -0.38871 -0.33366 -0.13653 -0.19071 0.12083 -0.16488 0.22981 -0.45421 -0.0082841 0.32371 0.02368 0.62467 -0.2017 0.37527
carnation -0.47341 0.52521 -0.33384 -0.038959 0.52909 -0.18573 -0.28762 -0.044332 0.0053873 -0.47302 -0.049127 0.11798 0.0089522 -0.04173 0.28235 -0.37703 -0.066878 -0.24986 0.48741 -0.50721 -0.30147 -0.24647 0.043534 0.21355 -0.058539 -0.34654 -0.10558 0.16722 -0.08065 0.19747 0.16206 0.22272 -0.014577 -0.26094 -0.36662 -0.067119 0.14957 -0.03533 -0.41149 0.84037 0.1983 -0.28881 0.35493 -0.10963 1.3833 0.37823 -0.77489 0.017666 0.36998 -0.23588 -0.35636 -0.69987 0.15889 0.081945 1.0078 -0.62134 0.31516 0.42785 -0.22692 -0.65581 -0.45239 0.12733 0.014135 0.4242 -0.55261 -0.12471 -0.75234 -0.17888 -0.56999 0.10279 -0.59616 0.53991 -0.0033855 -0.24422 -0.062365 0.57946 -0.21596 0.15341 0.49914 -0.34072 -0.26399 0.050615 0.18866 -0.45206 -0.042602 -0.88364 1.358 0.80464 -0.029968 -0.10067 0.059933 0.43192 0.79604 0.1167 -0.42936 0.6126 0.095298 -0.38981 0.055937 -0.27986 -0.2595 -0.11856 0.16918 -0.12998 -0.0038553 -1.5106 0.076457 -0.027923 -0.19656 0.020259 -0.78208 0.82907 0.015072 0.32133 -0.22483 -0.076609 -0.2035 0.48868 -0.09736 0.4169 0.58873 0.072975 -0.17001 0.39099 -0.57086 0.62568 0.18904 0.011211 0.35924 0.26437 0.27067 -0.22254 -0.071837 -0.31459 -0.49972 -0.66188 0.59829 0.36932 0.0064658 0.061598 -0.87651 0.082201 0.098322 -0.28097 -0.40602 0.12115 -0.41349 0.24526 0.022418 0.066834 0.93276 0.296 0.42024 0.057738 -0.32878 0.42824 0.20065 -0.016277 -0.0082138 0.68056 0.31928 0.28814 -0.28035 0.038171 0.78765 -0.34974 -0.40244 0.28533 0.19416 0.31532 -0.51938 -0.11866 0.37595 0.20087 0.29995 -0.11996 -0.16093 -0.42292 -0.075136 0.291 -0.025544 -0.26225 0.24034 -0.41476 0.052514 0.16594 -1.0598 -0.61896 -0.17373 -0.58632 -0.24456 0.10709 -0.4194 0.55962 0.4069 -0.05253 0.035184 0.24674 0.1081 0.43434 -0.05333 0.31101 0.049526 -0.34013 -0.11434 -0.32369 0.43804 0.23865 0.32181 -0.073154 -0.42471 1.197 -0.1521 0.099337 -0.41306 0.21503 -0.08449 -0.16699 -0.074497 -0.028709 -0.61774 -0.1501 -0.038359 0.32063 0.18183 0.593 0.63257 -0.20635 -0.39941 -0.23999 -0.31248 0.03837 0.24036 -0.28744 -0.29722 -0.75276 -0.028134 -0.28317 0.43609 0.36233 -0.82375 -0.08841 -0.14408 -0.30761 0.10833 0.22595 -0.088533 0.47493 0.45232 -0.25759 -0.58173 0.22584 -0.11714 0.14488 -0.06333 0.0021186 -0.37097 0.3681 0.084173 -0.21318 -0.066649 -0.072106 0.1472 -0.017014 -0.22283 -0.25933 0.5471 -0.00064412 -1.0005 0.42904 -0.54342 0.37394 0.65268 0.27445 -0.72664 0.055786 0.081456 -0.060127 0.064736 0.26333 0.16325 -0.73768 -0.60114 -0.49561 0.52234 0.04951 0.29905 0.022704 -0.30786 -0.97967 0.21007 0.86701 0.64325 -0.22342 -0.31673 -0.12515 0.5216 -0.49025 0.5908 0.28001
hyacinth -0.44444 0.29423 -0.088185 -0.54434 -0.092959 -0.0013706 -0.12155 -0.32458 -0.70877 -0.80218 0.23149 -0.16623 0.11847 -0.16535 -0.49169 0.33336 0.025074 -0.33224 0.56186 -0.6752 -0.16622 0.47637 0.1036 0.06748 -0.1582 -0.054907 -0.17428 -0.034766 -0.16109 0.29447 -0.27272 -0.12576 0.26096 -0.16863 -0.16868 0.01056 0.89431 -0.0888 -0.36811 -0.3614 0.12855 0.20834 0.3434 0.019715 0.69731 0.13594 -0.41251 0.18671 0.42753 0.45913 -0.86887 -0.51363 0.11159 0.10479 0.59534 -0.7153 -0.12758 0.11582 -0.69775 0.30358 -0.057624 -0.37186 -0.34615 -0.031722 -0.11695 0.5262 -0.12527 -0.47573 -0.44247 0.27893 -0.78964 0.43702 0.21346 0.1195 -0.29699 0.31187 -0.49532 0.31045 0.061329 -0.43245 -0.0045092 0.85923 -0.13428 0.098143 -0.36146 -0.33025 1.0879 0.3732 -0.35158 0.31251 0.23434 0.015967 0.72466 0.38067 -0.28711 -0.14701 0.048314 0.099497 -0.50528 0.04704 -0.0041842 -0.36645 -0.44357 0.25645 -0.45441 -1.5068 -0.13222 -0.15261 -0.015194 0.021813 -0.12294 0.20712 -0.033077 -0.27611 -0.24277 0.20245 -0.53575 0.21721 0.29168 -0.18563 0.1613 0.039936 0.19898 0.24479 0.027269 -0.24608 0.27044 -0.52519 0.022191 0.58896 0.12915 -0.64713 0.024314 0.66593 0.057428 -0.078725 0.34334 0.58023 0.16705 0.93266 -0.44127 0.32354 -0.050033 0.39295 0.074758 0.23751 0.026728 0.58434 0.074833 -0.32289 0.50945 0.30272 0.55031 0.22277 -0.34817 0.016675 -0.017433 -0.034968 -0.27363 0.70436 -0.47229 -0.43855 -0.92437 0.22897 0.47159 0.19987 0.056107 -0.18981 0.27808 0.95776 -1.0277 0.38034 0.65897 0.19538 -0.33034 0.44553 -0.013479 0.017874 0.62224 -0.04679 0.24052 0.22296 0.090475 -0.043034 -0.0053881 -0.33358 -1.0769 -0.61411 -0.21665 -0.90649 -0.39983 -0.33504 0.32587 0.21625 -0.093274 0.0027233 0.31749 0.55742 0.21498 0.32453 0.079615 0.7099 0.1582 0.5107 0.44187 -0.55368 0.076013 0.35615 0.54181 -0.15756 -0.66844 0.84222 0.54824 -0.24634 -0.32862 -0.054873 0.28083 0.13629 0.05701 -1.0773 -0.55475 0.14382 0.93054 -0.0028153 -0.33048 0.35076 0.72953 0.040555 0.15063 -0.13351 0.58572 0.25608 0.22637 0.1505 -0.36081 -0.77896 0.26205 -0.067882 0.83913 -0.046983 -0.21091 -0.36247 -0.47786 -0.36201 -0.23068 0.38515 -0.25522 0.17888 0.53485 0.098203 -0.31698 0.0096704 0.18299 0.33413 0.3505 0.28185 0.76213 0.34593 0.060997 -0.21771 -0.16317 0.1849 0.11665 0.079851 0.25047 -0.2806 0.067823 0.016979 -0.8134 -0.050055 -0.47906 0.02151 0.81794 -0.45888 -0.10648 0.12818 -0.1396 0.066367 -0.048556 -0.20411 0.061365 -0.29898 0.21084 -0.54593 -0.097802 -0.29995 0.73725 0.088328 0.39239 -0.58631 0.16715 0.20587 0.049481 -0.64927 -0.48122 0.85378 0.40347 -0.14837 -0.45751 -0.15478
daffodil -0.057474 0.5364 -0.058229 -0.42764 0.18609 -0.38012 -0.21651 0.33736 -0.22537 -0.29699 0.20896 -0.22981 0.44733 -0.078067 -0.0022294 0.67666 -0.21867 -0.38698 0.55688 -0.52503 0.074407 0.1671 -0.65427 0.53798 -0.47611 0.36777 0.068245 0.056229 0.2953 0.76936 -0.056396 -0.12009 0.33765 0.27869 0.022277 0.4247 0.10161 -0.16023 0.36483 0.13782 0.19587 0.12203 0.19076 0.2846 1.115 -0.18655 0.08819 -0.51986 -0.021393 0.067004 -0.77239 -0.28125 0.15473 -0.2908 0.63857 -0.58764 0.16519 0.080267 -0.54368 -0.29751 -0.10465 -0.11872 0.090739 -0.10395 0.17574 0.16892 -0.5078 0.13277 0.26567 0.034032 -0.50482 0.0085679 0.17879 -0.082598 -0.050368 -0.10765 0.15885 0.31392 0.052862 -0.1807 -0.63681 0.4604 0.011771 -0.18768 -0.28556 -0.10257 1.055 0.47766 -0.050844 0.21966 0.14106 0.08315 0.59071 0.085862 -0.17802 0.22162 -0.55145 -0.45743 0.30432 -0.019643 -0.40713 -0.4044 -0.014059 -0.16911 -0.67458 -1.3813 -0.15913 0.0799 0.0701 -0.15677 -0.12331 0.25433 -0.48267 0.056593 0.25726 0.36898 -0.52515 0.16965 0.61007 -0.40936 0.67884 -0.0074372 -0.11728 0.23146 0.071048 -0.15272 0.54554 -0.20013 -0.052754 0.26655 -0.19967 -0.26985 -0.15669 0.34805 -0.4303 -0.49971 0.42139 0.45237 0.55384 0.29003 -0.92148 0.82912 -0.23339 0.077335 0.0029213 0.38571 -0.42588 0.31338 0.11951 0.010343 0.03863 0.17813 0.24407 0.41954 -0.69501 -0.006973 -0.05138 -0.27834 -0.048936 0.10349 -0.44153 0.030824 0.11613 0.49989 0.75474 0.28582 -0.019836 -0.22153 0.12665 0.76893 -0.8413 0.15066 0.12776 0.11437 -0.38979 -0.14435 0.13501 -0.66792 0.22829 1.0689 0.17112 0.33325 0.48842 -0.61976 -0.13775 -0.41162 -0.71944 -0.35339 0.070029 -0.49206 -0.74764 0.39134 0.52211 -0.1934 0.54148 0.29188 0.16875 -0.061707 0.415 0.020853 -0.15801 0.15048 -0.020093 0.017934 -0.058863 -0.46533 0.46209 -0.40097 0.20346 -0.11935 -0.11887 1.0827 -0.12272 0.03893 -0.72841 -0.097288 -0.28985 -0.021159 0.33911 -0.72275 -0.38835 -0.12507 1.2925 0.12464 0.12678 -0.088721 0.59753 -0.45214 0.033864 -0.05903 0.26453 0.16327 -0.051144 0.29143 -0.080706 -0.32882 -0.11429 -0.070829 0.44017 0.142 -1.0764 -0.26534 -0.58208 -0.14507 -0.51112 0.35436 -0.038626 0.38376 -0.02385 -0.22627 -0.31089 -0.22613 -0.22945 -0.026497 0.11696 -0.042086 0.099366 0.15897 0.15569 0.044169 -0.094858 0.38817 -0.53581 -0.076583 0.16688 -0.12371 0.62204 -0.20805 -0.50469 -0.13798 -0.50276 -0.16028 0.17254 -0.073881 0.088082 0.121 -0.25263 -0.32064 -0.27679 0.011109 0.46486 -0.39553 -0.33712 0.049646 0.061288 0.019488 0.27349 0.036145 -0.10146 -1.0659 0.077047 0.53464 0.39154 -0.29175 -0.4543 -0.0052395 0.062285 0.017156 -0.069203 0.61999
marigold -0.067641 -0.18301 -0.23106 -0.40674 0.044804 0.16471 -0.61893 0.014505 -0.61759 -0.80251 0.070401 -0.34521 -0.24393 -0.26301 -0.22172 0.064397 -0.10774 -0.35339 0.15047 -0.71129 -0.26163 0.43132 0.22264 0.4622 0.1544 -0.60984 -0.2774 0.25701 -0.16055 -0.20458 0.23408 -0.3672 0.42388 0.3964 -0.5346 0.26129 0.46864 -0.067691 -0.32109 0.60726 0.46195 0.16236 0.60108 0.021905 0.71425 0.037436 0.18904 0.10386 0.28613 -0.24448 -0.27849 -0.43802 -0.0032495 0.54815 1.1354 -0.2567 0.012892 0.20715 -0.68564 -0.33286 -0.045081 -0.3312 0.50853 0.47691 0.02944 -0.15018 -0.41459 0.60333 0.059404 -0.13203 -0.39192 0.62821 -0.084244 0.32176 0.0012072 0.18322 0.35412 0.42823 -0.38981 -0.90658 -0.22338 0.20539 0.36438 0.025724 -0.31131 -0.98402 1.1674 0.39547 -0.46419 -0.11429 0.31167 0.31969 1.0279 -0.022727 0.13699 0.3892 0.085561 -0.51122 -0.37168 0.040465 0.1418 -0.058428 -0.0030245 -0.51049 -0.62627 -1.4025 0.19905 0.13866 -0.096746 0.044136 -0.40426 0.27995 -0.026653 0.083215 0.016408 0.43087 0.040091 0.12216 0.3731 -0.40429 0.042151 -0.025535 -0.18606 0.60375 -0.26833 -0.16235 0.31292 -0.084676 0.67902 -0.10087 -0.31882 -0.36956 -0.2394 -0.062111 -0.64699 -0.67044 0.12475 -0.036189 -0.0072637 0.32948 -0.69032 0.56994 -0.39212 -0.018835 -0.40938 0.65011 -0.31357 -0.35825 0.56523 -0.65688 0.48788 0.059303 0.095893 0.34773 -0.33055 -0.19512 0.10652 0.07666 -0.39477 0.3703 -0.002617 -0.10266 -0.073309 0.044686 1.0882 -0.34098 0.037333 -0.80693 0.046447 -0.096265 -0.27358 -0.32278 0.34819 0.21629 -0.38478 0.004485 0.085702 -0.19426 0.17387 0.038489 -0.27263 0.27839 -0.080504 -0.15526 0.1353 -0.69992 -1.0971 -0.1071 -0.093915 -0.43242 -0.44126 0.077402 0.2211 0.17097 0.20121 -0.18842 0.42549 0.24071 -0.19209 -0.045851 -0.032092 -0.0041676 0.12677 0.12745 0.066108 -0.22559 0.66143 -0.1714 0.34882 -0.022475 -0.5852 0.76359 0.82709 -0.18062 -0.77199 -0.25674 0.077014 -0.24572 0.29812 -0.60363 -0.94189 0.01292 0.36044 -0.20151 0.45844 0.54774 0.39902 -0.20657 0.097052 0.086384 -0.036699 0.71309 0.053112 0.65499 -0.37464 -0.63031 -0.053124 -0.30715 0.44433 0.26211 -0.48328 -0.15089 -0.095365 -0.40947 0.25386 0.053296 0.32291 0.34329 0.32107 0.18608 -0.070682 0.20882 -0.84679 -0.4134 0.033092 0.13898 0.083866 0.15695 0.46618 -0.037908 -0.12169 0.36376 -0.18172 -0.10809 0.050657 -0.3016 0.39368 -0.42757 -0.83698 -0.092094 -0.5679 0.34498 0.31364 0.00271 -0.36333 0.15545 -0.37459 -0.28009 0.10102 0.45643 -0.00093297 -0.054105 -0.080616 -0.83484 0.2074 -0.0023796 0.29012 -0.092025 0.50879 -0.36787 -0.12539 0.13961 0.16508 -0.43327 -0.2669 0.64468 -0.042789 -0.17984 -0.14704 0.048429
crocus 0.18472 -0.053791 -0.41307 -0.77059 -0.022325 -0.23604 -0.24464 0.053614 -0.83108 -0.50185 0.36988 -0.27197 0.19833 -0.26222 0.12618 0.84879 -0.34115 -0.59704 0.3897 -0.39895 0.40372 -0.27387 -0.19347 0.42441 -0.48834 0.0031991 -0.13314 -0.014721 -0.21468 0.63809 0.19703 -0.37358 0.55051 0.078401 0.062835 0.37702 0.98868 0.015359 0.10364 0.13374 -0.01586 0.070745 0.18424 0.099261 0.71049 -0.071117 0.040492 -0.45294 0.24617 -0.10786 -0.90825 -0.37706 -0.39661 -0.076937 0.35705 -0.65151 -0.051458 0.6403 -0.37218 -0.4388 -0.096631 -0.378 -0.13704 0.0035217 0.44555 -0.14925 -0.25993 -0.069137 0.4995 0.43971 -0.81837 0.23777 -0.045948 0.27489 -0.46044 -0.20784 0.20261 0.19162 0.15062 -0.21309 0.1996 0.52676 0.072919 -0.09685 0.091515 -0.17114 1.2575 0.11722 0.34851 0.33995 0.39341 0.41813 0.91431 0.058741 0.069241 0.36314 -0.30071 -0.7658 0.40275 0.39389 -0.18041 -0.55185 0.18986 -0.0044853 0.0014951 -1.5376 -0.15667 0.11348 0.33089 0.19745 -0.44969 0.024448 0.048851 -0.36829 -0.25127 0.3088 -0.58592 0.16946 0.59866 -0.40688 0.17211 0.0094461 -0.67301 0.46251 -0.32089 -0.40576 0.50678 -0.069267 0.065767 0.60444 -0.098099 -0.53484 -0.040734 0.80827 -0.15322 -0.15633 0.31585 -0.15792 0.54843 0.88113 -0.39776 0.67681 -0.2326 -0.13688 -0.39436 0.61822 -0.11302 0.47332 -0.024887 0.027104 0.19954 0.087218 0.29933 0.34194 -0.49254 -0.036785 0.25063 0.030709 -0.21389 0.18306 -0.042378 -0.17325 -0.34065 0.2562 0.43124 -0.0095195 -0.16022 -0.58439 -0.081141 -0.025833 -0.51762 -0.15903 0.3775 -0.0422 -0.8059 -0.011634 0.025857 -0.34056 0.24103 0.45785 0.1027 0.55846 0.38735 -0.27457 0.12569 -0.28939 -0.75204 -0.53251 0.19758 -0.78114 -0.26412 0.16372 0.61227 0.069486 0.32639 0.65341 0.13798 0.15221 0.4403 -0.13922 -0.095324 0.18713 -0.10762 -0.34525 -0.20106 -0.27935 0.17412 -0.44725 0.38805 -0.44155 -0.18234 0.75907 0.53244 -0.58278 -0.86053 0.031324 0.22106 -0.25173 0.39719 -1.4273 -0.32292 0.16833 1.039 -0.40512 -0.22516 0.41551 0.79379 -0.30955 -0.029316 -0.49811 0.78599 0.4336 0.50058 0.19323 0.23146 -0.75176 -0.15598 -0.093634 0.30025 0.29719 -0.30169 -0.043876 -0.44598 -0.10824 -0.13833 0.55617 -0.29833 0.30951 0.26462 -0.088575 -0.35886 -0.47979 -0.431 -0.19894 0.064868 0.22383 -0.34872 0.29792 0.3374 -0.10041 0.17152 -0.21279 -0.36643 0.22847 0.024597 -0.33369 0.59799 0.061476 -0.89314 -0.44716 -0.18555 -0.081412 0.1954 -0.39167 -0.17091 0.50291 -0.62471 -0.027718 -0.070497 0.12433 0.86185 -0.46349 -0.25376 -0.41472 -0.026453 0.085785 0.3002 -0.33246 0.19407 -0.45447 -0.58726 0.39113 0.052827 -0.52627 -0.41046 0.11038 0.40915 0.32355 -0.38851 0.31419
buttercup -0.096563 0.65376 0.06005 -0.089811 0.25859 0.086098 -0.27548 -0.034398 -0.051093 -0.84643 0.21724 -0.59527 0.072581 0.06451 -0.014964 0.70694 0.46041 -0.57523 0.38634 -0.11662 0.33379 -0.55183 -0.69271 1.1133 -0.32417 -0.29925 0.30279 -0.0084206 0.061233 0.19266 -0.09451 0.36822 0.18359 0.11242 0.060408 -0.21275 0.65918 0.88568 -0.40513 0.48247 -0.073705 0.5007 0.072382 0.22063 0.55028 -0.14897 0.28399 -0.67035 -0.047983 -0.39665 -0.40151 0.20241 -0.21237 -0.085316 0.21782 0.008294 -0.32937 0.70267 -0.11731 0.0096857 -0.075023 0.38228 -0.20805 0.70014 -0.12227 -0.42241 -0.38611 0.25163 0.026924 -0.27816 -0.23544 0.17977 0.28849 0.15943 0.096049 0.18831 -0.4688 0.13332 0.20515 -0.68148 -0.35731 0.20748 0.33895 0.18944 -0.15268 -0.065857 1.7122 0.29885 0.2239 0.10817 0.38404 -0.27993 0.5836 -0.3749 -0.067947 0.24759 -0.005224 -0.29428 -0.39447 0.11157 0.10663 0.2861 -0.22475 -0.4359 -0.49612 -0.86753 0.58875 -0.38818 -0.64714 -0.018977 -0.010856 0.18102 -0.27799 0.31769 0.21254 0.22093 -0.11845 -0.22339 0.71834 -0.066112 0.12645 -0.17549 0.39889 0.56536 0.083197 0.11066 0.68751 -0.46626 0.35098 0.16496 -0.3121 -0.79077 0.0038932 0.76963 -0.22702 -0.27362 0.33217 -0.22729 0.24457 0.46305 -1.0687 0.27289 -0.10652 0.37342 -0.28506 0.29449 0.27284 0.49387 -0.52628 0.059781 0.032579 -0.04005 0.023781 0.37857 -0.39361 0.3661 -0.067494 0.089699 -0.29721 0.11207 -0.19542 -0.080524 -0.032849 0.24252 0.33856 -0.49289 0.41368 -0.51419 0.032417 0.14659 -0.67195 0.044944 0.76814 -0.46899 -0.16453 -0.84595 -0.034708 -0.38261 -0.34602 0.77853 -0.059107 -0.035836 0.55564 0.072089 -0.50405 -1.2817 -0.58664 0.3975 0.56613 -0.85672 -0.52618 0.15751 0.61508 -0.14107 0.17173 -0.034234 0.31269 0.42731 0.19405 0.30731 -0.35436 -0.23921 -0.18209 0.14512 0.45354 -0.55925 0.20854 0.27773 0.61975 -0.14994 -0.08521 0.82931 0.86954 -0.015932 -0.038923 -0.29652 -0.27227 0.06943 0.55891 -0.10862 -0.22824 -0.50096 0.77692 -0.17598 -0.017053 -0.28302 0.063057 0.17422 -0.074602 -0.0056598 0.0019171 0.22873 0.56139 0.16235 -0.39548 -0.017359 -0.035571 -0.48366 0.39235 0.3973 -0.43112 -0.19509 -0.77023 -0.10354 0.03894 -0.25393 0.26355 0.689 -0.236 0.30518 0.25432 0.01911 -0.20879 -0.021368 -0.15901 -0.59087 0.057936 0.38548 -0.20079 -0.24058 -0.64438 0.035654 -0.13689 0.19514 -0.2428 -0.46775 -0.022622 0.18856 -1.0527 -0.052915 -0.24223 -0.083621 -0.17987 -0.44461 0.24581 -0.13854 -0.081132 0.023006 0.035163 -0.18945 -0.46799 -0.013011 -0.44983 -0.99413 -0.022679 -0.07805 0.34188 0.41639 0.62011 -0.99396 -0.093577 0.1795 0.32169 -0.24263 -0.25841 0.46682 -0.31351 -0.16157 -0.23508 0.39035
aster -0.24673 -0.10083 -0.51614 -1.1846 0.14438 0.42741 -0.43359 -0.43349 -0.61384 -0.82729 0.35502 -0.43397 -0.18152 -0.38183 0.020178 0.69195 -0.35218 -0.22279 -0.0173 -0.0020056 0.23007 -0.051618 -0.82834 0.19947 -0.033018 -0.42239 -0.086342 0.11977 0.30457 0.28696 -0.21732 -0.25854 1.0257 0.023648 0.12392 0.47523 0.19882 -0.0057187 -0.39966 0.36997 0.16404 0.058156 0.15709 0.14046 0.58923 0.50986 0.14029 -0.17966 0.28774 -0.016949 -0.86824 -0.3298 -0.14757 0.15098 0.36083 0.025949 -0.54605 0.53196 -1.0541 -0.30954 0.5249 0.67143 0.17328 -0.33986 0.39341 -0.089135 -0.20462 0.24352 -0.013709 0.021074 -0.52949 0.40243 -0.7728 0.13393 -0.47302 -0.16094 -0.44114 0.2469 0.40655 -0.57569 0.10526 0.0078771 0.50342 0.13926 0.32732 -0.92616 1.1253 0.32912 -0.13626 -0.03728 0.085686 0.13538 0.79964 -0.26955 0.027523 0.56364 -0.061717 -0.86958 0.28215 0.40626 -0.15422 -0.40476 -0.13926 -0.5215 -1.0062 -1.0514 -0.58019 -0.7157 0.16158 -0.0089655 0.077072 0.68218 -0.17578 0.31638 0.11196 0.35757 -0.19329 -0.31304 0.20112 -0.69422 -0.094019 0.47459 -0.1524 0.43861 -0.40472 0.094465 0.6155 -0.079566 0.33642 -0.074407 0.038391 -0.4282 -0.32085 -0.033631 -0.11162 -0.59076 -0.18997 -0.38924 0.029048 -0.4868 -0.20309 0.35893 -0.17107 -0.27338 -0.11932 0.36777 0.21607 0.023952 0.1904 -0.051754 0.10606 -0.17417 0.12937 0.33245 0.036085 -0.077866 -0.29353 0.063247 -0.19771 0.058168 -0.18518 -0.22841 -0.036226 -0.0034803 0.65964 0.079765 -0.0099434 -0.27573 0.024987 0.084001 -0.84243 -0.7225 -0.26963 0.185 -0.22654 -0.33922 0.48273 -0.062226 -0.3475 0.33278 -0.34464 0.74156 -0.027479 0.42439 -0.16377 -0.46759 -0.97958 0.15669 0.40922 -0.35075 0.32752 0.23708 -0.35477 0.016709 0.51623 -0.20076 0.20787 -0.4704 0.030931 0.18572 -0.1844 -0.39675 0.11518 0.35 0.085984 -0.16999 0.78744 -0.2225 0.087405 -0.22185 -0.029743 0.54394 0.79224 -0.020422 -0.095178 -0.16023 -0.11139 0.12598 0.25391 -0.71288 0.21239 -0.40611 0.47056 -0.29397 -0.32256 0.3149 -0.31974 0.039858 -0.38317 0.84313 0.14388 0.034687 0.029067 0.67528 -0.42238 -0.61481 -0.094449 -0.1012 -0.15932 -0.12077 -0.32708 0.01315 -0.22892 -0.46108 -0.15565 0.30322 -0.25647 0.53244 -0.24479 -0.37084 0.059669 0.32421 0.34401 -0.38035 0.30519 -0.082199 -0.026216 -0.30248 -0.069235 -0.83976 -0.86365 0.12341 -0.039083 0.10779 -0.30318 -0.34767 0.28647 -0.15782 -0.92451 0.32162 -0.3323 -0.13682 -0.043967 -0.2489 -0.19686 -0.38859 -0.0017235 -0.20933 0.2726 -0.25672 0.33757 -0.27835 -0.54278 -0.057734 0.3531 -0.62058 0.37632 0.11797 0.2688 -0.43943 -0.20896 0.16792 0.012812 0.27512 0.21247 -0.057935 -0.16319 0.36822 -0.18168 0.42402
azalea -0.20495 0.80473 0.14903 -1.2101 0.13188 -0.39175 -0.034189 0.26225 -0.46936 -0.47309 -0.12732 -0.2407 -0.10324 -0.38551 -0.30295 0.4008 0.020555 -0.43311 0.083045 -0.4525 -0.047581 0.11489 -0.61746 0.73074 0.087911 0.084213 -0.36794 0.22406 0.3918 0.14004 0.082876 -0.18545 0.14032 -0.060518 -0.53389 0.16766 0.52743 0.53447 -0.64078 -0.092641 0.41604 -0.10544 -0.30053 -0.097497 0.40323 -0.047068 0.18108 -0.60597 0.36999 -0.56821 -0.67219 -0.5474 -0.0026712 -0.086086 0.55347 -0.19857 0.24711 0.025845 -0.66695 0.076388 -0.46703 0.42619 0.36882 0.19948 0.35627 0.077725 -0.22233 0.014834 -0.28309 -0.34137 -0.34002 0.16943 -0.4976 0.23447 0.27367 0.062008 0.11132 -0.05652 -0.23827 -0.47928 -0.038173 0.044557 0.26384 -0.049526 -0.52983 -0.15193 1.01 0.42258 0.17717 -0.41828 0.20087 0.41808 1.2192 0.27448 0.17565 0.53699 0.13862 -0.35077 0.29189 0.81438 0.09143 -0.1927 -0.055412 -0.33728 0.056938 -1.1173 0.18972 0.18658 0.46992 -0.24029 -0.42993 0.9226 -0.18133 0.21828 -0.13916 0.09545 -0.51619 -0.25936 0.48946 -0.52677 -0.31738 0.44063 -0.5785 -0.33487 -0.09117 -0.68524 0.2301 0.42452 0.046329 -0.094104 0.25738 -0.6727 0.29517 0.50474 -0.23472 -0.73774 0.2102 -0.12929 0.17684 0.19418 -0.69439 0.44593 -0.16898 -0.056756 -0.83518 0.37694 -0.44588 0.28953 -0.052201 0.23869 -0.44221 -0.021766 -0.07613 -0.26316 -0.25399 0.085125 -0.17199 -0.16644 -0.1831 0.28973 -0.46484 0.59481 0.034487 0.25894 0.29817 0.39379 -0.025577 0.31041 -0.68643 0.12669 -0.41117 0.56457 -0.234 0.16369 -0.38302 0.40992 0.17428 -0.20157 -0.46653 0.091354 0.33582 0.88339 0.28621 -0.6995 -0.40647 -0.1476 -0.49964 -0.33789 0.091214 -0.33332 0.13329 0.19427 0.039268 -0.34176 0.049256 0.036751 -0.11493 0.37757 0.66886 0.48606 -0.084124 -0.034045 0.13166 0.18141 0.15659 0.14323 0.34803 0.2993 0.21974 -0.31893 -0.27349 1.0389 0.67616 -0.25027 -0.69977 0.2414 0.30516 -0.23028 0.59628 -0.63187 -0.44756 -0.045454 0.65609 -0.093521 -0.41717 0.05524 0.19734 0.055405 -0.41913 0.47946 0.15713 -0.26117 0.061247 0.4777 -0.46538 -0.60684 0.18814 -0.30987 0.51064 0.48606 -0.57449 -0.91501 -0.28652 0.095912 -0.12407 -0.14396 -0.58687 1.0956 -0.11956 -0.55404 -0.85224 -0.095368 -0.011752 0.54053 0.32232 -0.19178 0.010925 0.24755 0.15149 -0.22463 -0.37755 -0.22882 -0.098087 -0.039026 0.07569 -0.11749 0.45618 0.36448 -1.2548 0.38599 -0.45087 -0.26517 0.07239 -0.80407 0.58009 -0.33654 -0.37595 0.19612 -0.28676 -0.31495 -0.091042 0.16807 -0.17537 -0.48602 0.036236 0.080275 0.17245 -0.08755 -0.01947 -1.1675 0.38378 0.13028 -0.44517 -0.21424 -0.32103 -0.37739 0.39928 -0.064057 0.21523 0.11259
petunia -0.21169 0.26456 -0.28954 -0.36983 0.16431 0.14507 -0.12528 -0.0046905 -0.31759 -1.0139 0.095172 -0.49164 0.36951 -0.71127 -0.036765 0.32395 0.15724 -0.57168 0.63551 0.084342 -0.10041 0.63759 0.30979 0.26872 0.057871 -0.15153 -0.14065 0.17878 0.73505 0.54592 -0.55663 0.18929 -0.041738 0.019912 -0.63498 0.082136 0.35328 -0.050616 -0.7903 0.11785 0.90208 0.47096 0.26503 0.56993 0.37151 0.074125 -0.11647 -0.37998 0.73833 0.037655 0.059602 -0.46657 0.27551 0.3978 0.75699 0.18236 0.7466 0.32375 -0.38832 -0.23652 0.065359 0.62104 0.48342 -0.39194 -0.14255 -0.72087 -0.13243 0.29752 -0.13658 -0.13765 0.34272 0.31581 -0.4343 0.34137 0.31963 -0.58687 -0.36032 0.37096 0.44404 -0.44832 0.28736 0.3311 0.59489 -0.24989 -0.46307 -0.42525 1.2092 0.3477 -0.41775 0.14181 0.23649 0.4822 0.53256 0.78975 -0.37175 0.85276 -0.0012493 -0.91866 0.05474 -0.16323 0.60477 -0.17998 0.0055449 -1.0111 -0.17637 -1.0855 0.27334 0.10318 0.17982 -0.33982 -0.21414 0.27038 0.035308 0.039085 -0.20343 0.22821 -0.35498 -0.2455 0.41045 -0.20744 -0.42484 -0.1852 -0.057483 0.19283 -0.32033 -0.3876 0.17772 -0.62325 0.37987 0.67715 -0.093949 -0.49748 0.00062523 -0.006507 -0.92394 -0.61439 -0.29049 0.2294 0.53607 0.7122 -0.85157 0.26307 -0.11163 -0.36831 -0.3054 0.80813 0.0074148 -0.12855 0.73164 -0.36396 0.35002 -0.028195 0.044529 -0.1957 -0.46745 -0.17909 -0.48489 -0.12849 -0.38434 0.23851 -0.29557 0.693 0.093458 -0.70816 0.0078354 -0.049677 0.15167 -0.84221 -0.096573 0.36914 -0.30378 0.29906 0.52137 0.34493 0.043685 0.10369 0.071289 0.010738 -0.41483 0.17336 -0.047074 0.21631 -0.038464 -0.098374 0.23701 -0.65301 -0.28989 -0.13502 0.25478 -0.26462 -0.023971 0.44073 0.37753 -0.53644 0.37506 0.053888 0.067495 0.81792 -0.35091 0.48821 0.30876 -0.21451 -0.10881 -0.25111 0.18973 -0.13144 1.0455 -0.38149 -0.20689 0.069497 -0.66533 0.33096 -0.10615 -0.23594 -0.38724 -0.068632 -0.59644 0.031628 -0.25708 -0.94817 -0.62135 0.38246 0.79063 -0.77703 0.0075969 -0.14148 0.38112 0.17983 0.23737 -0.21184 -0.57739 0.23705 0.18714 0.55238 -0.63785 -0.45307 -0.15589 0.28087 0.35283 -0.012519 -0.58217 -0.5744 -0.78998 -0.37214 0.096707 -0.032245 -0.16885 0.59451 0.11453 -0.12102 -0.67453 -0.5069 -0.10613 -0.16159 0.65291 -0.30641 -0.24532 0.11002 0.18433 0.40897 -0.60374 0.3671 0.025315 -0.54105 0.4847 -0.050744 0.81662 0.21638 -0.83642 0.17636 -0.63788 -0.34064 -0.0073909 -0.067854 -0.39626 -0.45648 0.12133 -0.25751 -0.1148 0.030217 -0.095306 0.38382 -0.22975 -0.43576 0.66839 1.0168 0.30104 0.46926 0.34969 -0.29045 0.48709 -0.21881 0.34938 -0.66859 0.49874 -0.056239 -0.13254 0.13823 -0.24453 0.044171
bluebell 0.4547 0.70049 -0.53763 -0.04697 0.29432 0.12439 -0.2437 -0.057653 -0.8475 -0.94679 -0.18201 -0.50455 -0.9963 -0.067439 0.092033 0.40002 0.16482 -1.0358 0.57036 -0.74888 0.29684 0.081814 -0.057955 0.43263 -0.32912 0.3993 -0.013607 0.25774 -0.13677 0.81484 -0.36584 -0.20948 0.074396 0.1592 -0.13332 0.58709 0.71099 0.23049 -0.33685 0.22609 0.13187 0.2444 0.33758 0.58242 0.53712 1.0953 -0.19751 -0.0064485 0.41964 -0.034044 0.042808 -0.33546 -0.11599 0.28455 0.62946 -0.68076 -0.05593 0.73529 -0.79733 0.20825 0.078852 0.34001 -0.2011 -0.0021593 -0.22499 0.50824 0.12678 -0.13122 -0.40713 0.092663 -0.13767 -0.44604 0.099081 0.2144 0.081433 -0.10607 -0.014012 0.085125 0.047961 -0.72033 0.14456 -0.23281 -0.021596 -0.031517 -0.21166 0.015169 1.1326 0.43809 -0.27565 -0.39326 0.19211 0.048949 1.0151 -0.56156 0.0352 0.32919 0.34898 -0.34275 0.15212 0.54224 -0.083798 -0.078496 -0.02562 0.10779 -0.26254 -1.3185 -0.11933 -0.049833 -0.02913 -0.18334 -0.23818 0.63511 -0.33491 -0.49572 0.02227 0.6279 -0.0034414 0.063668 0.017335 -0.15283 0.244 0.14464 -0.072962 0.15765 -0.1288 -0.023145 0.71036 -0.35469 0.079714 0.2698 0.29962 0.083495 -0.030608 0.35765 -0.15562 -0.86644 0.58131 0.020301 0.70997 0.25945 -0.37032 0.39358 0.011834 0.13659 -0.17686 -0.31427 -0.34287 0.62119 -0.21748 0.10659 -0.37604 0.068596 -0.53038 0.29506 -0.70169 0.33528 -0.16923 0.038386 0.25452 0.29972 -0.85512 0.078212 -0.5124 0.51166 -0.061775 0.24056 0.4707 -0.65308 0.1019 0.35862 -0.34658 -0.24327 -0.04203 0.38442 -0.27372 -0.096879 -0.014055 -0.4504 -0.11069 0.02265 -0.4214 -0.15597 0.17151 0.094719 0.16584 -0.6402 -0.39482 -0.39408 0.54828 -0.21418 -0.4386 0.23297 0.34526 -0.08081 0.0069151 -0.042139 0.0035643 0.21482 0.29435 0.036373 -0.85462 0.25661 -0.6072 -0.30862 0.19532 -0.10085 0.53164 -0.30285 -0.41765 -0.459 -0.38021 0.64268 0.24921 -0.22725 -0.70681 -0.20913 -0.012665 -0.011848 0.56521 -0.55175 0.20844 -0.18907 0.65869 -0.010646 -0.5379 0.20225 0.19283 0.22879 0.27787 -0.16813 0.086325 -0.19988 0.014417 0.53834 -0.098331 -0.44275 0.28963 -0.38852 0.079064 -0.065445 -0.071685 -0.35753 -0.57341 -0.6497 0.10339 -0.32589 0.10459 0.24533 -0.027056 -0.7365 0.016276 -0.49099 -0.069741 0.31427 0.20839 -0.15431 0.14043 0.29679 -0.36195 0.1921 -0.25232 0.81806 0.35918 -0.076556 0.17068 -0.22649 0.763 0.081214 -0.52304 0.1401 -1.0473 -0.10182 -0.061597 0.033686 -0.085467 0.18865 -0.14939 -0.24826 0.4379 -0.60516 0.15807 -0.47061 -0.60327 -0.21283 -0.058904 -0.29926 0.19582 -0.15483 0.21098 -0.52007 -0.25194 -0.21615 0.1883 -0.45936 -0.13431 -0.16111 0.24767 -0.039229 -0.1924 0.41456
zinnia 0.043935 -0.26153 -0.33187 -0.54927 0.61748 0.24016 -0.40424 -0.19759 -0.83597 -1.2946 0.86523 -0.83235 0.32617 -0.031401 0.19671 0.60421 0.072084 -0.90553 0.14792 0.10585 -0.060541 0.42156 0.59522 0.46527 0.20541 -0.085428 -0.10374 0.1129 0.76038 0.60845 -0.28302 -0.16864 0.38318 0.012263 -0.76656 -0.019344 0.36148 -0.23239 -0.16433 0.40349 0.20786 0.46474 -0.35066 0.022987 0.39176 0.35324 -0.31959 0.35679 0.44378 -0.68729 -0.33673 -0.2549 0.14273 0.36548 0.62287 -0.34395 0.23009 0.20842 -0.30469 -0.1791 0.080703 0.25573 -0.089926 0.084389 0.6331 -0.04704 -0.4031 0.5142 -0.43791 -0.098389 -0.013472 0.34319 -0.10162 0.55396 0.027915 -0.079227 -0.51005 -0.079522 0.31984 -0.14763 -0.25869 0.4969 0.49411 -0.072695 -0.23638 0.14791 0.86191 -0.030117 -0.43785 -0.26185 0.057391 0.44949 0.93914 0.23475 -0.206 0.95112 -0.61316 -0.83392 -0.40016 0.44116 0.19787 0.0051029 -0.4674 -0.3016 -0.43185 -1.2317 -0.2265 -0.23165 -0.18064 0.42062 -0.37242 0.94893 1.0227 0.32884 0.18648 0.034224 -0.54789 -0.29443 0.40718 -0.25324 -0.38269 -0.0061594 0.13977 0.35985 -0.22779 0.31045 0.17978 -0.18417 0.80493 0.84562 -0.49536 -0.1239 -0.14564 0.17571 -0.61572 -0.38879 0.2847 0.50964 0.33563 0.81615 -0.2222 0.62843 -0.51006 0.31089 -0.32063 0.75018 -0.41047 -0.092581 1.0341 -0.70907 0.38669 -0.27438 0.24933 0.43197 -0.7207 -0.61167 0.077175 0.038475 -0.17695 0.44855 -0.059138 0.22498 -0.12011 -0.23688 0.38259 0.37741 0.38382 -0.65037 0.72591 -0.29074 -1.037 -0.07828 0.43423 0.022937 -0.09903 -0.32918 0.078605 -0.30657 -0.33913 0.60156 0.26601 -0.0028583 -0.1899 0.053796 0.25918 -0.71428 -1.1225 0.13308 0.40563 0.076988 -0.44276 -0.057154 0.052426 -0.43322 0.041803 0.18849 0.064559 0.20146 -0.13576 0.16737 -0.045503 -0.32858 -0.48499 -0.060235 -0.30051 0.066875 1.0414 -0.13834 -0.14896 0.33149 -0.17579 0.3297 0.67151 0.072046 -0.84717 -0.16163 -0.56484 -0.19565 0.29924 -0.31042 -0.48178 -0.31946 0.84645 -0.35745 0.17343 0.023775 0.29167 0.18111 -0.27012 0.0022544 0.15259 0.0042174 0.011376 0.6008 -0.018319 -0.58182 -0.0021967 0.10244 0.38737 0.17564 -0.25285 -0.48412 -0.63093 -0.12865 -0.20275 0.25815 0.13094 0.55598 0.62916 0.17991 -0.38205 0.43604 -0.44489 0.072276 0.46111 -0.18855 0.034705 0.057229 0.20796 -0.12807 -0.31464 0.11462 -0.42753 -0.28195 -0.13911 -0.10638 0.065814 -0.23053 -0.91514 0.64799 -0.60748 -1.2566e-05 0.092989 -0.35187 0.11542 -0.34577 -0.43565 -0.6619 0.10587 -0.18032 0.58942 -0.35642 -0.39207 -0.32268 0.15775 0.26521 0.73648 0.41899 0.31064 -0.53447 -0.45116 0.23581 0.34101 -0.41616 -0.19205 0.67208 -0.40045 -0.22058 -0.2075 0.61793
gladiola 0.23801 0.095884 -0.12098 -0.39277 -0.13603 0.12821 -0.35146 -0.23765 -1.0786 -1.3382 0.62724 -0.066246 -0.082928 0.10117 0.87129 0.46862 -0.19917 -1.2741 0.46058 -0.090802 0.12197 0.29608 0.20583 -0.20689 0.086094 -0.3978 -0.1496 -0.10777 -0.44042 0.51905 0.11458 -0.15247 0.21145 -0.2986 -0.33903 0.34428 0.33607 -0.09669 -0.13609 0.29151 0.39225 0.39162 -0.24007 0.20896 0.71721 0.18406 0.15224 0.061974 0.29803 0.30202 -0.67948 -0.21492 -0.0060091 -0.050116 0.74455 0.44735 0.095024 0.12939 -0.052451 -0.37963 -0.38367 0.30663 0.38606 -0.28138 0.19393 -0.26137 -0.93585 -0.15805 -0.33696 -0.020136 -0.23163 -0.14002 -0.44236 0.42323 -0.40442 -0.3974 -0.26459 -0.076617 0.20933 0.39613 0.19304 -0.05152 0.36681 -0.12696 -0.060025 -0.26529 1.2647 0.066461 -0.29179 0.39888 -0.092647 -0.19115 0.68183 0.28848 -0.035026 0.95359 -0.52783 0.062789 0.57453 0.059772 -0.094437 -0.23431 -0.37953 -0.22168 -0.13629 -1.3676 -0.69788 -0.35704 -0.44999 -0.22156 0.033503 0.33914 0.011079 -0.27073 0.62504 0.060504 -0.12927 0.11367 0.34529 0.13354 0.014698 0.39566 -0.3255 0.92406 0.033692 0.34283 0.38817 -0.075737 0.10943 0.29458 -0.54942 0.80561 -0.51288 0.10061 0.0069104 0.21415 0.13448 0.38092 -0.12112 0.43821 0.08549 0.0013888 -0.34489 0.10871 -0.71568 0.23387 -0.039456 0.082431 0.02241 -0.075341 0.1155 0.18161 0.12022 0.40939 -0.35162 0.25662 0.024416 -0.27478 -0.82593 0.28398 -0.38148 1.0426 -0.1579 0.19982 0.40043 0.1106 0.26857 -0.11222 -0.18617 0.070493 -0.79629 0.37815 0.058834 0.32698 0.71819 0.13264 -0.24805 0.092092 -0.36264 0.1181 0.052502 0.42801 -0.051676 0.15523 0.45756 -0.67596 -0.43055 -0.95557 -0.058574 -0.55037 0.00049587 0.94006 0.40051 0.30774 -0.24659 0.027681 0.26683 -0.14699 -0.17576 -0.25521 0.2096 -0.35157 0.065805 -0.013742 -0.57144 -0.32405 -0.24154 -0.14765 0.11843 -0.24997 0.041487 0.58556 -0.25035 -0.25954 -0.43255 -0.62936 -0.29262 -0.32184 0.37065 -0.46351 -0.50342 -0.64526 1.0264 -0.57304 -0.023331 0.88007 0.44268 0.47753 -0.42296 -0.90275 0.42933 0.24054 -0.17064 0.0080293 -0.24139 -0.92673 0.40147 0.67061 0.58692 -0.12267 -0.32894 0.10251 -0.2389 -0.30804 -0.22367 0.37259 -0.072356 0.3279 0.61653 0.16892 -0.6192 0.27554 0.22053 -0.061143 0.32981 -0.6235 -0.012597 -0.31344 0.13382 -0.13996 -0.6489 0.37296 0.29996 -0.36651 0.05583 -0.59707 0.62635 -0.088629 -1.2638 -0.63155 -0.59181 -0.21478 -0.10178 0.52508 0.22346 0.38747 0.0027072 0.71643 0.57819 0.059334 0.19679 -0.14544 -0.11124 -0.31659 -0.013771 0.49281 -0.28801 0.60259 0.13737 0.11223 0.27092 0.37511 0.4152 -0.46776 -0.43862 -0.42219 -0.016706 -0.56071 -0.024818 0.36819
