club 0.76403 0.42953 0.47178 -0.15449 0.54381 -0.24401 0.15307 -0.16164 -0.066635 2.4885 -0.8401 0.085278 -0.054887 0.046325 0.31755 0.15542 -0.34725 0.54816 -0.082057 -0.078287 -0.17507 -0.38472 0.22453 -0.027589 -0.058745 0.38661 -0.52756 0.16297 -0.034329 -0.2517 0.15086 0.035287 -0.094176 -0.10334 -0.23711 0.55887 -0.15883 -0.31015 -0.24185 -0.0075725 -0.0016586 0.29271 0.028427 0.22971 -0.32325 0.03075 0.65671 0.19689 -0.083851 0.098874 -0.10765 -0.064102 0.17017 0.099164 -0.22333 -0.397 0.021903 0.014654 0.13609 -0.20451 -0.30161 0.47773 -0.36496 0.12612 -0.63164 0.075651 -0.31218 0.17372 -0.34007 0.42995 0.12132 -0.12187 0.17843 0.017403 -0.39649 0.34258 -0.14969 -0.26394 0.067276 0.32439 -0.57794 -0.19518 -0.22639 -0.11129 -0.5945 0.51969 0.10496 0.83882 0.12018 0.083751 0.089537 -0.054918 0.2577 -0.59445 -0.26685 0.050837 0.51595 -0.0060456 -0.052437 0.65668 -0.19007 -0.09084 -0.24496 0.0014662 0.20265 -0.29858 0.56406 0.1997 -0.040308 -0.15329 0.36806 0.11114 -0.24864 0.10956 0.422 0.20344 0.3608 0.59988 -0.24665 -0.051255 0.26564 0.29917 -0.02913 -0.10493 -0.12359 0.35821 -0.25708 -0.17317 -0.047949 0.58532 0.17806 -0.2179 -0.37049 -0.25116 0.46458 -0.47287 0.29922 -0.20945 0.32799 -0.48341 -1.943 -0.44788 0.39637 -0.039739 0.24351 -0.372 0.40837 -0.10821 -0.019051 -0.22028 -0.28517 0.033477 -0.73501 0.13497 -0.11958 0.34712 -0.38225 0.37292 -0.4543 0.22608 0.13181 -0.18411 0.52975 -0.48225 0.54967 0.07288 -0.055054 0.18192 -0.12298 0.17504 -0.10481 0.16106 -0.4835 -0.38722 -0.050632 -0.20278 -0.10432 0.51444 0.20183 0.47307 0.01628 -0.13632 -0.13463 -0.23052 -0.25633 0.097402 -0.29774 0.16415 0.086318 -0.53372 0.32287 0.18187 -0.27197 -0.032034 0.091218 -0.090277 0.062752 -0.39892 0.53951 1.1838 0.89906 -0.049115 0.24313 -0.23272 -0.17865 0.32704 0.48791 0.22444 -0.16254 -0.38056 -0.53179 0.70987 -0.0866 0.062535 -0.23128 0.54265 0.23227 -0.23829 -0.23524 0.48608 -0.32953 -0.33723 -0.46561 -0.13198 -0.082869 0.40235 -0.30491 0.10624 0.46259 0.56572 0.137 -0.0046185 -0.13367 -0.35189 0.25992 0.31833 -0.60612 0.22747 0.04 -0.17906 -0.0017209 0.18506 -0.062019 0.13266 -0.42214 0.27689 0.053017 0.47292 -0.53786 -0.13656 0.52686 -0.33893 0.42219 0.0069095 0.25977 0.076331 -0.34792 -0.44123 -0.04207 0.20454 0.063294 0.38305 -0.36387 -0.040431 -0.25535 -0.010624 -0.15133 -0.05006 -0.69172 -0.36136 -0.60683 -0.53524 0.054325 0.68247 0.22087 -0.44119 0.40546 -0.26459 -0.098402 0.20674 -0.30952 0.12902 0.037771 0.36704 -0.11639 0.054423 0.36242 -0.078401 0.51728 0.067684 -0.077904 -0.11904 0.43339 -0.029688 0.046112 -0.020332 0.11334 -0.59714 -0.057886 -0.23773
gun -0.026288 -0.10623 -0.0042898 -0.05349 -0.05735 -1.0748 -0.12427 0.12635 0.020809 2.0249 -0.37965 -0.3307 0.16938 0.0173 -0.59926 0.0047627 -0.14734 1.0948 -0.097137 0.0013277 0.89714 -0.049359 0.53972 -0.45364 0.081101 -0.062482 -0.65423 0.13018 -0.25336 -0.23112 -0.39525 0.47664 -0.31078 0.42551 0.25381 -0.33936 0.52165 0.20058 0.20705 -0.22546 0.275 0.03269 -0.015908 -0.73889 0.47373 0.52179 -0.13003 -0.091897 0.0018752 0.47038 0.17994 0.23851 -0.52587 0.65012 -0.72671 -0.38911 0.25377 -0.032459 -0.37742 -0.54359 -0.16408 0.11103 -0.016942 0.27944 0.23023 -0.46384 -0.023397 0.17065 -0.18876 -0.46527 -0.35001 -0.69284 0.22051 0.59536 0.030803 0.14999 0.22288 -0.56725 -0.09945 0.75278 -0.71098 -0.50167 0.42897 0.021035 0.61502 0.40179 0.40645 -0.19775 0.62624 -0.060988 0.22928 -0.065027 0.088082 -0.65142 -0.39006 -0.58973 0.34974 0.253 -0.31986 -0.052573 -0.32564 0.57672 0.079075 0.26575 -0.066129 -0.95154 -0.36766 -0.18318 -0.26095 -0.19249 0.13949 0.10454 -0.23825 -0.11053 0.2012 0.49353 0.14664 -0.27033 -0.083401 0.025378 7.3352e-05 0.10838 0.50601 0.042499 -0.19109 -0.037427 -0.49425 -0.27767 -0.15122 0.19763 -0.029777 0.17424 -0.2113 -0.0094031 0.077326 -0.017113 0.25143 0.16725 0.13213 0.11982 -2.186 -0.25295 0.54206 -0.1546 0.22436 0.23218 -0.24071 -0.18431 0.56155 -0.0064787 -0.24551 0.062742 -0.25003 0.25687 -0.58514 0.11043 -0.41455 -0.11956 0.29913 -0.27476 -0.36178 -0.21249 0.071857 0.48774 -0.29656 0.2909 -0.3124 -0.2689 0.22201 -0.10617 0.40426 0.15521 -0.096759 0.31479 0.030982 -0.59648 -0.32732 0.39323 0.22024 0.22258 -0.13559 0.095282 -0.41779 0.1925 0.11021 -0.021237 -0.082844 0.052221 -0.063008 0.42076 -0.030095 -0.054735 -0.03475 0.23401 0.34866 0.20929 -0.31146 -0.0093208 -0.065222 -0.50643 0.074477 0.24972 -0.022731 0.43286 -0.12428 0.251 -0.0089513 0.28613 -0.18913 0.022039 0.32083 0.32404 -0.080339 0.047907 0.75227 -0.4212 -0.52398 0.89775 -0.43438 -0.32589 0.43246 0.018891 -0.06497 0.11534 -0.071386 -0.49776 0.015197 0.49723 0.0079016 0.19384 0.08242 -0.088126 0.18412 -0.6811 0.074271 0.19629 0.029416 0.36499 0.061806 0.17806 -0.15634 -0.121 0.49949 -0.50019 0.048548 0.87859 -0.5227 -0.039931 0.13362 -0.16291 -0.29051 0.2466 -0.20179 0.096208 -0.58307 0.54453 -0.34718 0.4114 -0.41933 0.0057037 -0.70658 0.31773 -0.10578 -0.55023 -0.50823 0.74736 0.10203 0.015911 -0.21157 0.33956 1.0032 -0.30599 0.32609 -0.13571 0.98299 0.7566 0.24106 -0.36117 -0.18844 -0.54579 -0.3465 0.010858 -0.51103 0.038002 0.10085 -0.45066 0.15724 0.17128 -0.059998 -0.075122 -0.065777 -0.90814 -0.14721 0.25636 0.33113 -0.031432 -0.48319 -0.23804 -0.25355 1.2814
tank 0.45842 0.43787 -0.058085 0.19072 0.060936 -0.29693 -1.2216 -0.020169 0.012674 0.89143 -0.59064 -0.60598 0.23051 -0.32708 -0.56462 0.042205 -0.34334 1.9976 -1.211 -0.3408 -0.029447 0.036412 -0.0076208 -0.22383 -0.071708 0.46663 0.05779 -0.13576 0.41878 0.57402 -0.3514 0.15893 -0.25293 0.16935 -0.65995 -0.58965 0.18185 0.49761 0.66947 -0.40595 0.59598 0.06097 -0.10266 0.1373 0.45284 0.39935 -0.55111 0.11148 -0.29518 -0.20715 0.49799 0.17384 0.60999 0.10044 -0.26201 -0.078855 0.42396 -0.55432 0.62959 0.36091 -0.14227 -0.43624 0.22067 -0.13889 0.080926 -0.49046 -0.21074 -0.17331 -0.42752 -0.047921 -0.55025 -0.28699 0.10469 -0.5078 -0.016726 0.38593 -0.12883 0.26766 -0.13007 -0.33415 -0.51567 -0.27898 0.3684 -0.056326 0.077121 0.13455 0.69564 0.78722 -0.61562 0.28661 0.015382 -0.0086516 0.85188 -0.11211 0.25652 -0.50117 -0.1481 0.11832 -0.0087288 0.17123 0.069743 0.25573 -0.1384 0.011785 -0.71616 -1.1364 -0.27836 -0.17773 -0.67589 -0.50976 0.038291 -1.0082 -0.35497 0.32667 -0.099346 -0.17018 -0.057128 -0.40792 0.014457 0.02844 -0.31831 -0.29792 0.33023 -0.58307 0.39974 -0.51593 -0.20958 0.081439 -0.49696 -0.36099 -0.21167 0.39136 -0.45777 0.21352 0.37371 0.35402 0.22777 -0.012529 -0.125 -0.43351 -1.6562 -0.05846 0.62145 0.35147 -0.013926 0.028884 -0.48006 0.39165 0.10451 0.34318 -0.24037 -0.038336 0.096392 -0.020786 -0.15869 -0.0078632 -0.064588 0.49935 -0.2873 0.37602 0.27831 0.046619 0.001624 0.56298 -0.095639 -0.10668 0.052612 -0.031546 0.30232 -0.064052 -0.079423 0.16015 0.29816 -0.0041616 0.36167 -0.42087 -0.059865 0.91638 0.6365 0.039495 -0.24037 -0.21676 -0.88473 0.066079 0.086944 -0.42329 -0.11881 -0.086488 -0.071396 -0.022796 -0.066668 0.7542 0.14234 -0.0027866 0.11986 0.4662 -0.26065 0.027097 -0.1433 -0.08717 -0.011812 0.96864 0.37448 0.023913 0.40364 0.50818 0.2576 -0.2026 -0.50252 -0.14535 -0.49243 0.28054 -0.2123 0.031162 0.9295 0.38261 -0.55577 0.24079 -0.61102 0.01158 -0.2838 0.27873 0.70979 -0.30244 0.22113 -0.34767 0.26218 0.81568 -0.35506 0.15179 0.42087 -0.44076 0.2478 -0.29383 0.19174 0.00677 -0.036865 0.53059 0.28812 -0.085725 -0.33602 -0.20304 -0.1976 0.6473 -0.035365 0.37092 0.11362 0.16246 0.32274 0.28049 -0.19418 -0.3433 -0.15617 0.24795 0.10323 -0.19982 0.035124 0.1244 -0.29694 -0.54142 0.27791 0.35587 -0.25032 -0.57854 0.075505 -0.18689 0.44765 0.47202 -0.11624 0.43277 1.173 -0.10506 0.17596 -0.38609 0.17746 -0.091627 -0.37115 -0.096943 0.24891 0.13834 0.27907 -0.20775 0.022135 -0.48939 -0.45492 0.16839 -0.24434 -0.17278 -0.37009 0.34196 -0.032756 -1.0483 0.53612 -0.33956 -0.10521 -0.28944 -0.5919 0.24146 0.1701 -0.15908
knife -0.71819 -0.13996 0.45992 -0.40439 -0.19704 -0.32808 0.23487 0.11207 -0.32267 1.0185 -0.19709 0.33112 0.20629 0.10954 -0.22377 -0.22095 -0.25498 1.3006 0.32432 0.13946 0.62872 -0.10332 -0.27344 -0.49074 -0.1473 0.18313 0.044448 0.5307 -0.791 -0.67314 -0.13738 0.59392 -0.49489 -0.076832 0.40364 -0.30291 0.58445 0.47166 -0.027029 0.077826 0.18101 0.5365 0.22858 -0.79523 0.47625 0.29587 -0.42512 -0.77947 0.053994 0.26986 0.31723 0.16122 -0.072448 -0.12689 -0.70452 -0.29205 0.14784 -0.07399 0.053683 -0.12098 -0.39167 0.17926 0.29153 -0.31136 0.11842 -0.61123 0.12884 0.19264 0.080902 -0.36432 0.084533 -0.18409 -0.59535 0.18789 -0.41768 -0.89617 0.42051 -0.8578 -0.61834 0.46685 -0.45336 -0.32201 0.31075 -0.10467 0.05847 0.80147 0.76727 0.5371 0.43998 0.23541 -0.171 0.086592 0.072497 -0.9366 -0.30244 -0.42337 0.38774 0.0035788 0.2006 -0.46998 -0.0033628 0.072721 0.0089942 0.22963 -0.46574 -0.94756 0.020202 0.10678 0.92257 0.32794 0.03744 -0.029171 -0.26592 0.10728 -0.009034 1.0543 0.55115 -0.21982 0.099019 -0.02073 0.092884 0.099797 1.0544 -0.0070243 -0.029881 0.50361 0.059089 -0.70692 -0.25616 0.33712 0.0066697 -0.28865 0.0084622 0.22875 -0.41089 0.01475 0.031746 -0.0403 0.10339 0.23065 -2.3153 0.20867 -0.20431 -0.029882 -0.58741 0.24074 -0.80845 0.54648 0.6264 0.010886 -0.53981 0.072095 0.46932 0.28578 -0.29883 0.00094854 -0.50997 0.39013 -0.25762 0.44548 0.1184 -0.3401 -0.023787 0.33083 0.31433 -0.27094 -0.42787 -0.58817 -0.28782 -0.36374 -0.22869 -0.074632 -0.66436 -0.16576 -0.68053 0.016059 -0.28441 0.21543 0.60612 -0.27175 -0.11638 -0.20228 0.00099479 0.13142 0.0012455 0.11109 0.44167 -0.052239 -0.58049 0.19422 -0.76789 0.067377 -0.28805 -0.59085 -0.10479 0.35629 0.17827 -0.43975 -0.15581 -0.10813 0.053375 -0.021753 -0.032192 0.026648 -0.034472 0.49403 -0.34723 0.22076 0.093201 0.32382 0.72225 0.33722 -0.71273 -0.62451 0.23617 0.062532 -0.015962 0.10244 -0.73595 0.2228 0.35262 0.15834 -0.0063881 0.22513 -0.12622 -0.2283 0.10902 0.072102 -0.56999 0.25933 -0.11635 -0.57476 0.43796 -0.13463 0.20175 -0.70692 -0.44989 0.49151 -0.074118 0.065625 0.34239 0.44516 0.40617 -0.8578 0.50808 0.14831 -0.26643 -0.40546 -0.46628 0.71985 -0.11882 -0.18443 -0.024136 0.21335 -0.31491 0.25376 0.6221 0.15327 0.49059 0.075228 -0.38279 -0.061527 -0.20307 -0.46513 -0.23025 0.65511 0.14726 0.13123 -0.81213 -0.46719 0.30743 -0.24147 -0.050977 0.22371 0.28697 0.84779 -0.0060439 0.03362 -0.29857 -0.64224 -0.17762 0.72613 -0.20718 -0.44999 0.42376 -0.74829 0.34279 0.15178 -0.2906 -0.28189 0.47158 0.14364 -0.19049 0.261 -0.19853 0.080074 -0.23276 0.044099 -0.39404 0.25278
bomb -0.37307 -0.19416 0.28201 0.60656 -0.33597 -0.095476 -0.71375 0.2331 0.015106 1.9754 -0.1667 -0.42395 0.22931 0.06658 -0.49473 -0.3533 -0.060299 0.44116 -0.093027 -0.41462 0.32456 0.49607 0.055104 0.3282 0.067917 -0.18089 -0.83737 -0.020413 0.067311 -0.18049 0.02474 -0.32511 -0.10658 0.50451 0.42612 -0.52036 0.031094 0.4015 0.37355 0.26225 0.034617 -0.35925 0.10885 -0.086848 0.49888 0.31325 -0.11115 -0.061731 -0.34754 0.39277 0.075091 -0.030777 -0.13363 0.52553 -0.2223 0.41102 -0.20738 -0.31131 0.34596 -0.41534 0.046317 0.11633 0.16386 -0.025813 0.31501 -0.0049603 -0.48641 0.073599 -0.66562 0.34562 -0.58697 -0.3489 -0.051404 0.42232 0.13243 -0.70146 -0.30367 -0.44671 0.12338 0.27089 0.32909 -0.15905 0.099354 -0.21873 -0.17008 0.4151 0.29783 -0.26885 -0.73871 0.18971 0.5131 0.89898 -0.23159 -0.42974 -0.53533 -0.41644 -0.039981 0.27016 -0.52411 0.033734 -0.33252 0.3908 0.74037 0.14068 0.40126 -0.83743 -0.33252 0.014708 -0.034086 -0.083379 -0.37782 0.090641 -0.7972 0.23443 -0.23289 0.38687 -0.082597 0.56216 -0.79873 -0.40042 0.13546 0.21649 0.40965 -0.44652 -0.084702 0.10581 0.052329 -0.22277 -0.36276 0.45307 -0.30504 0.34505 -0.13559 0.29506 0.18081 -0.24608 0.64475 0.10998 -0.36009 -0.13035 -2.1377 0.1884 0.41794 -0.14118 -0.078927 -0.037997 -0.02173 0.022406 0.67342 -0.070397 -0.067485 0.37815 -0.015005 0.34208 -0.51861 0.069418 -0.52205 -0.016868 -0.0063329 0.27862 0.186 -0.060151 0.15777 0.48022 -0.43005 -0.034583 -0.074124 0.028029 0.18889 0.56116 -0.13962 -0.17378 -0.047066 -0.40687 0.35376 -0.2383 -0.43774 0.2434 0.12485 -0.22849 -0.11221 0.33504 0.054801 0.11333 -0.058407 -0.015402 0.55688 -0.17394 -0.026133 0.29966 0.05759 -0.030595 -0.2913 0.30092 -0.16945 0.25489 -0.30774 -0.45635 0.33693 -0.071974 0.039748 0.30494 0.58027 0.45689 0.99997 -0.38785 -0.26777 -0.06667 0.33378 0.34215 0.31126 0.066925 0.30194 0.34761 0.51363 -0.8629 -0.65638 0.17419 0.069906 -0.53868 0.25378 0.44393 0.36105 -0.084047 -0.23824 -0.025858 -0.2763 0.54271 0.048464 0.17857 0.47524 -0.20973 -0.29512 -0.54735 -0.19747 0.034083 0.34315 0.60701 -0.084673 0.21611 0.24747 0.21074 -0.14932 -0.42305 0.14494 0.23751 0.060139 0.58909 0.43164 -0.24943 -0.68936 0.1494 -0.012728 -0.12255 0.14777 0.14746 -0.33464 -0.40334 -0.4765 -0.21948 -0.52895 -0.033777 -0.10655 -0.74306 -0.25616 -0.34962 0.4187 0.45825 -0.27057 0.36469 0.43181 0.16581 0.27127 0.13535 -0.048407 -0.20088 0.2912 -0.017735 0.13419 0.11976 0.32199 -0.33087 -0.13562 -0.65609 -0.21254 0.21344 0.29615 -0.038312 0.14153 0.34796 -0.075677 0.21131 0.38615 -0.0066352 -0.10329 -0.58141 -0.16307 0.23922 0.023595 0.58796
blade -0.19004 0.36412 0.50193 -0.63448 -0.067459 -0.092858 0.25875 0.64365 -0.49802 0.042514 0.60221 0.06204 -0.053653 0.34167 -0.17578 -0.24042 0.060623 2.2202 -0.43588 0.30344 0.32849 -0.29078 -0.092087 -0.56994 -0.02062 0.084534 -0.20753 0.01546 -0.97804 0.035181 -0.54689 0.25758 -0.96145 -0.2827 0.45378 0.093988 0.058585 0.27111 0.099956 -0.48629 0.023633 0.75361 -0.14194 -0.6663 0.61841 0.12221 -0.68282 -0.84115 -0.11922 0.45269 0.45972 -0.001198 -0.44974 -0.067139 -0.68045 0.012341 -0.26875 0.046048 -0.13785 -0.098846 -0.34325 0.31538 0.074779 0.034797 0.086633 -0.45281 0.11393 -0.24458 0.080712 -0.0052542 -0.091153 -0.44752 -0.60184 0.34667 -0.89283 -0.48447 0.50258 -0.29427 0.10225 0.14753 -0.38038 -0.04392 0.17916 0.0079932 0.19608 0.70028 1.0688 0.86933 0.32501 0.028565 0.076073 0.21227 -0.16802 -0.15227 -0.20921 -0.2215 0.53026 -0.36649 -0.27399 -0.36253 0.14103 -0.011422 -0.28841 0.19828 -0.60266 -1.3929 -0.1529 -0.44758 0.51812 -0.16322 0.092116 -0.20412 0.4278 0.21107 0.085499 0.9941 0.090016 0.062852 -0.45597 -0.10922 0.039067 0.15698 0.54322 0.043834 -0.15866 0.56205 -0.033777 -0.83412 -0.27222 0.29208 -0.16444 -0.031551 0.24245 -0.072658 -0.27605 -0.11179 -0.32443 -0.00084225 -0.025416 0.4242 -1.8434 -0.030799 -0.38437 0.11298 -0.60595 -0.081247 -0.71626 0.27359 0.80286 -0.079068 -0.89242 -0.10937 0.42426 0.76025 0.17668 0.3315 -0.78066 0.55021 -0.11563 0.40327 0.57038 -0.38506 -0.40643 0.10931 0.44054 -0.017983 -0.041434 -0.28583 -0.45596 -0.34172 -0.083292 -0.32059 -0.6972 -0.41754 -0.72866 0.33594 0.42541 0.0057429 0.89334 -0.34587 -0.086713 -0.36455 -0.45716 -0.14774 -0.16403 0.30848 0.075572 -0.20587 -0.71568 0.39146 -0.67341 0.48926 -0.3719 -0.35752 -0.56385 -0.0084589 0.38473 -0.6499 -0.82639 0.26802 0.13228 0.01788 -0.17914 -0.19506 -0.33201 0.63473 -0.42381 0.0017217 -0.1216 0.12154 0.43134 -0.021965 -0.49895 -0.19673 0.097241 0.318 0.097973 0.15662 -0.4033 0.24397 0.0555 -0.4129 0.0095397 0.2776 0.054301 -0.17264 0.40285 -0.31977 -0.51908 0.7365 0.42411 -0.30855 0.6413 0.47078 0.40204 -0.30268 -0.57997 0.59966 -0.20054 0.043116 0.48836 0.64775 0.39216 -0.26586 0.44624 -0.15111 -0.25983 0.18171 -0.38438 0.57243 0.33205 -0.237 -0.12092 -0.20396 -0.06514 0.062367 0.032209 -0.19481 0.43336 0.30838 -0.015372 -0.31384 0.10395 -0.20261 -0.16456 -0.0065364 -0.2498 0.13958 -0.048441 -0.35809 0.85552 -0.28751 -0.54806 0.14985 0.39164 0.85385 0.15082 -0.056757 -0.072746 -0.43378 -0.12568 0.79971 0.075682 -0.51014 0.53044 -0.40929 -0.13166 -0.39703 -0.1114 -0.76542 0.2273 -0.17915 -0.049906 -0.017328 -0.60384 -0.12482 -0.26254 0.16085 0.18375 -0.13232
sword -0.45921 -0.49594 0.54708 -0.27731 -0.42566 -0.75152 0.12289 0.67135 -0.68368 1.4652 -0.14677 0.11766 0.45337 0.24365 0.18492 0.098772 0.09154 0.36568 -0.47434 0.01753 0.68246 -0.15354 -0.72466 -0.79644 -0.21383 0.11521 -0.36841 0.017977 -0.90793 0.20691 -0.39254 0.42828 -0.77991 -0.29478 0.16822 -0.35625 0.06603 0.54547 0.22591 -0.31197 0.027691 0.069122 -0.097482 -0.61697 1.2286 0.010048 -0.1603 -0.042164 0.33546 0.099344 0.16631 0.31241 -0.39961 -0.17243 -0.31802 0.24262 0.25947 0.01127 -0.36637 -0.41322 -0.34577 0.041486 0.42273 -0.47222 0.21416 0.11852 0.25285 -0.08049 0.45785 0.30607 -0.73566 -0.29824 -0.52524 -0.091005 -0.17636 -0.44066 0.73835 -0.77083 -0.19925 0.45138 -0.72595 -0.43587 0.25796 0.41919 0.38875 0.64917 0.84958 -0.13611 -0.54335 -0.4123 0.26221 0.22714 -0.096428 -0.20373 0.12268 -0.16079 0.22681 -0.2169 -0.038193 -0.0045967 -0.22253 0.41087 -0.34786 0.031459 -0.63363 -0.96948 -0.53381 0.1022 0.4778 -0.53988 0.29805 -0.12895 0.11741 0.080668 -0.10684 1.0164 0.30511 0.28607 -0.23843 -0.13792 -0.16621 -0.45305 0.69725 0.9619 -0.09338 0.26064 -0.60735 -0.60399 -0.53357 0.34574 0.11613 0.20088 0.14725 -0.42784 -0.30537 -0.18912 -0.20336 -0.1656 -0.21057 0.27609 -2.5222 -0.19223 -0.026846 -0.24734 -0.27236 0.2734 0.26622 -0.060763 0.23672 -0.43886 -0.073517 0.33753 0.37811 0.59717 -0.39343 -0.32895 -0.19352 0.21561 -0.086703 0.69401 0.39767 -0.46089 -0.26352 0.64124 0.24416 -0.028531 -0.087231 -0.36601 -0.49854 -0.1735 -0.54514 0.716 -0.1298 0.19696 -0.37161 0.22635 0.37816 0.21478 0.31328 -0.90058 0.090981 -0.57748 0.20242 0.085625 -0.2918 0.22784 -0.21719 -0.25528 -0.17225 0.44913 -0.55032 0.39064 -0.46252 -0.15955 0.094992 0.20147 -0.25503 -0.59054 -0.14314 0.083927 -0.097914 0.44491 -0.23467 0.64644 -0.24488 0.87779 -0.014632 -0.26959 0.02024 -0.43387 0.42783 -0.30192 -0.27888 -0.33148 0.24985 -0.0059422 0.13321 0.32742 -0.36199 0.46055 -0.035271 -0.55942 0.075402 -0.040984 -0.0051589 -0.085282 0.0879 0.1605 -0.11766 -0.025911 0.35465 -0.54821 -0.29792 -0.11678 0.017154 -0.10333 -0.31646 0.35769 0.084344 -0.16099 -0.046766 0.22727 0.11993 -0.60321 0.56357 -0.24915 0.27619 -0.34555 0.24552 0.23814 0.20039 -0.27302 0.14568 0.18197 0.16902 -0.032366 0.78373 0.098303 0.22884 -0.078691 -0.10752 -0.040059 0.41049 0.38796 -0.15419 0.037088 -0.033006 0.15568 -0.16299 -0.54278 0.22072 -0.19166 -0.64512 0.16086 0.35796 0.69614 0.18386 0.073072 -0.11377 -0.25341 0.18822 0.34724 0.30302 -0.3893 0.70135 -0.50077 0.04963 -0.15702 0.39777 -0.83005 -0.02549 -0.50218 -0.6024 0.073854 -0.65844 0.66348 -0.064959 0.32102 0.2336 0.28648
rifle 0.16107 -0.0086155 -0.2411 -0.13798 -0.44829 -1.1517 -0.0081865 0.26155 -0.27723 1.1706 -0.34 -0.3417 0.16494 -0.10674 -0.23831 -0.04342 -0.069945 1.1656 -0.3603 0.22829 0.72029 -0.62109 0.56115 -0.70757 -0.064697 0.2599 -0.68879 0.12662 -0.48638 -0.0083995 -0.031407 0.20715 0.062757 0.74601 0.11885 -0.35843 1.0507 -0.21411 0.50272 -0.31754 0.092768 0.013619 0.15964 -0.5888 0.77221 0.49806 0.11285 0.12123 -0.027606 0.6262 0.24358 0.14854 -0.9486 0.68853 -0.48761 -0.51918 0.15501 -0.2953 -0.24467 0.15473 -0.25023 -0.049394 0.30781 0.25431 0.051944 -0.52501 0.20961 -0.22116 -0.03251 -0.057344 -0.24956 -0.74605 0.068628 0.79851 0.15111 0.19602 0.39641 -0.82365 -0.53523 0.78187 -0.80888 -0.60222 0.41517 0.55694 1.0978 0.51735 0.69898 0.26569 0.80773 -0.052647 0.28227 0.197 -0.13103 -1.0206 -0.10574 -0.14057 0.50985 -0.09472 0.0035221 0.25822 -0.31867 0.58302 0.16678 0.4203 -0.20401 -1.1207 0.17944 0.31333 0.3786 -0.58342 0.45965 0.0066057 -0.19474 -0.21309 -0.1546 0.50511 1.0023 -0.29134 0.059046 -0.2585 0.33014 -0.21192 0.45343 0.16084 -0.27274 -0.13516 -0.13254 -0.046141 -0.32338 -0.16622 0.39489 -0.01763 -0.24732 0.010455 0.10769 -0.4129 0.30785 0.25641 0.54149 0.2758 -1.6589 0.096277 -0.053539 -0.35483 0.64209 0.28215 0.36211 -0.51419 0.53975 -0.18151 -0.060888 -0.01865 -0.069647 0.14167 -0.68643 0.19187 -0.54407 -0.015306 0.37234 -0.085349 -0.12869 -0.25379 0.33535 0.34998 -0.076229 0.12145 -0.57707 -0.31511 0.50807 -0.12855 0.32556 -0.251 -0.52361 -0.078479 -0.23273 -0.61176 -0.14476 0.066634 0.16722 0.42049 -0.1034 -0.20463 -0.37191 0.44435 -0.16488 -0.016685 -0.18997 -0.014419 0.43029 0.62957 0.1344 0.043099 0.50938 0.085068 0.18282 0.24782 -0.57626 -0.52692 -0.20487 -0.89827 0.11264 -0.22259 0.16106 0.62864 -0.49143 0.29683 0.16879 -0.22791 -0.31587 -0.040923 0.15528 0.52531 -0.18015 0.24399 0.71584 -0.40712 -0.65296 0.59968 -0.097225 0.12313 0.71346 0.17746 0.59405 0.59646 0.27505 -0.20291 0.76178 0.65031 0.45792 0.97836 -0.24866 -0.44225 -0.054849 -0.73849 0.32003 -0.19142 0.14256 0.18891 -0.051389 0.18832 -0.88295 0.25 0.21078 -0.18188 0.13013 0.98363 -0.01378 -0.17816 0.25267 -0.14664 0.12174 -0.061712 -0.4959 0.034457 0.026995 0.27438 0.21788 0.86332 -0.6395 0.35899 -0.91226 0.14337 0.38183 -0.36281 -0.1238 0.79219 0.19078 -0.089344 -0.59613 0.55385 1.024 -0.29749 0.25605 0.11304 0.62566 0.68595 0.34966 -0.56646 -0.061478 -0.73771 -0.25257 0.1853 -0.47111 -0.48897 0.32976 -0.5564 -0.23953 0.064722 0.041001 0.13587 0.13786 -0.5362 -0.41345 0.43538 0.5549 -0.1072 -0.69739 -0.42231 -0.54045 0.69608
arrow 0.43677 0.11281 -0.02335 -0.073827 0.053865 -0.053689 -0.12293 0.56214 0.08351 0.26423 -0.21877 0.19102 0.062416 -0.052485 0.047754 -0.33236 0.12454 1.6485 -0.16502 -0.15872 0.11715 -0.056299 -0.60386 -0.2944 0.43851 -0.056435 -0.45764 -0.34606 -0.59346 0.1633 -0.16949 0.14046 -0.38768 0.45348 -0.076386 0.08166 -0.096036 -0.13854 0.12432 -0.10448 -0.48078 -0.19243 -0.19653 -0.71261 0.47873 -0.27808 -0.10115 0.16185 0.18309 0.033033 -0.035227 0.54324 -0.39033 0.084114 -0.45646 -0.28041 0.1368 0.34697 0.051003 -0.75319 -0.28305 0.15554 0.36626 -0.16391 0.56938 -0.2454 -0.44702 -0.12648 0.12539 0.028662 0.024698 -0.037611 -0.13199 -0.045496 -0.20728 -0.32619 0.11599 -1.0287 -0.20935 0.074287 -0.19482 -0.15757 0.17003 0.54184 0.53931 0.24302 1.1563 0.30862 0.30171 0.086508 0.31831 0.040155 0.052646 -0.81089 -0.29159 -0.17233 -0.0041626 -0.062698 -0.14486 0.039906 -0.36253 0.022874 0.26968 -0.070016 -0.38406 -0.71715 -0.52009 0.37088 -0.12754 -0.15328 -0.35154 0.26901 0.15123 -0.21219 0.018742 0.11967 0.1738 -0.018731 -0.56318 0.36719 -0.35537 -0.20533 0.74924 0.57666 -0.091768 0.32798 -0.3204 0.10829 -1.0571 -0.083361 -0.14019 0.087395 -0.055676 0.057752 0.49957 -0.52148 0.017607 -0.062403 -0.52044 -0.075879 -1.8468 0.31769 -0.73618 -0.30362 0.15074 -0.11501 0.26708 -0.1116 0.10296 0.17437 -0.23871 -0.13942 0.12137 0.58852 -0.36063 -0.295 -0.36267 0.80207 0.11851 0.1033 -0.11385 -0.60298 -0.47971 -0.018839 0.26607 -0.010331 -0.4204 -0.16919 -0.31549 0.38423 0.27516 0.11113 -0.46852 -0.45762 0.47971 -0.4538 0.57383 0.062543 -0.2266 -0.64847 -0.44933 0.080937 0.62704 0.60255 -0.34658 0.13155 -0.19831 -0.9517 -0.34859 -0.43627 -0.015719 -0.58427 0.003817 -0.089093 0.32315 0.48902 0.081506 -0.017359 -0.49481 0.17705 -0.0098795 0.12254 -0.081459 0.1234 0.12192 0.91868 0.085686 0.02695 -0.019883 -0.75793 0.58175 -0.054707 0.44564 0.19631 -0.064369 -0.49063 -0.033981 0.60889 -0.23925 0.12506 0.6672 -0.43948 0.044598 0.47275 0.21958 0.3498 0.41011 0.082043 0.21722 0.028185 -0.20048 -0.22533 0.3221 0.12366 -0.048746 -0.016555 0.19817 0.39774 0.48064 0.31764 0.075961 0.30181 0.42819 -0.31022 0.026854 -0.57293 0.043367 0.17695 -0.3911 -0.25365 0.055136 -0.33205 -0.070185 0.23928 -0.081319 0.44435 0.69914 0.33209 0.22948 -0.014826 -0.069286 -0.1595 0.09564 -0.59132 0.28505 -0.024892 0.30593 -0.2275 0.417 0.26182 -0.16919 -0.24147 -0.51055 -0.4872 -0.08833 -0.39464 0.037249 -0.29569 -0.028832 -0.41431 -0.042691 0.063164 -0.44422 -0.27089 0.28517 -0.52009 -0.34549 -0.16698 0.22305 -0.41044 -0.053062 0.19458 -0.13825 -0.30989 -0.15159 -0.22174 -0.47488 0.20785 0.48295 0.38249
missile -0.22723 -0.58187 0.48536 0.28457 -0.11011 -0.40576 -0.50695 0.14372 0.024382 1.3236 0.22532 -0.69772 -0.12365 -0.094183 -0.3271 0.087243 -0.11905 0.58112 -1.1358 0.16779 0.55478 0.45648 0.18856 0.26898 -0.3654 -0.072988 -0.40702 0.072516 0.080019 0.12743 0.045166 -0.079838 -0.11753 0.70641 -0.087254 -0.38326 0.12113 0.12605 0.6447 0.45055 -0.28264 -0.041021 0.1658 -0.061389 0.72258 0.37027 -0.70397 0.054666 -0.11348 0.39613 0.11656 -0.39592 -0.87606 0.47124 -1.1363 0.2384 -0.21469 -0.27931 0.22226 -0.54639 0.16018 0.50656 0.33946 0.10638 0.5585 -0.10511 -0.073348 0.4415 -0.34065 -0.11474 -0.74997 -0.50511 -0.7915 0.66602 -0.5738 -0.91389 -0.88231 -0.62096 0.14856 -0.088606 -0.033497 -1.0837 0.070225 0.31496 0.40855 0.18061 -0.18817 -0.21027 -0.31564 -0.29048 0.63009 0.97823 -0.38622 -0.53502 -0.36871 -0.012202 0.19706 -0.39569 0.15409 0.44751 -0.0031044 0.30657 0.27913 0.20949 -0.30974 -1.8401 -0.36079 0.018261 -0.59435 -0.044663 -0.18467 -0.05572 -0.53676 -0.038703 0.35267 0.60685 0.24036 0.37082 0.13709 -0.014131 0.24188 0.60124 0.30059 0.018296 0.1082 -0.14614 0.23485 0.47523 -0.45962 0.40244 -0.23908 -0.26649 -0.20375 -0.36543 -0.13235 -0.74111 0.59427 0.20683 -0.35081 -0.23449 -0.89777 0.20371 0.2563 0.14412 0.046628 0.1617 0.01883 -0.25533 0.285 -0.26767 -0.25136 0.22273 -0.52639 0.57697 -0.40118 0.12057 -0.41405 0.475 0.36309 0.36149 0.36619 -0.52196 -0.20153 0.32962 -0.26436 0.26208 0.19415 -0.11281 1.2443 0.091083 -0.14506 0.41504 -0.64157 -0.067741 0.59767 -0.52829 0.17053 0.60102 0.0063781 0.36676 -0.63844 -0.21714 0.14502 0.61317 -0.4474 -0.34828 0.33176 -0.12576 -0.36486 0.60408 1.0492 -0.15598 -0.46161 -0.085917 -0.20894 -0.39915 -0.036481 -0.78164 0.20669 -0.073912 0.31866 0.073897 0.61102 1.091 1.1578 0.0080344 -0.48468 -0.28649 -0.15836 0.017416 0.25119 -0.78763 0.016551 -0.1566 0.72686 -0.3623 -0.81946 0.55038 -0.096435 -0.53396 0.62257 -0.020956 0.6551 0.1174 0.2904 0.14247 0.19376 0.10439 0.43433 0.5123 0.11347 0.38666 -0.067178 -0.78353 0.4693 -0.083116 0.28571 0.33718 0.40714 0.10783 0.37887 0.013918 0.025352 -0.15676 0.037018 0.31549 0.32225 0.57508 -0.03509 -0.24486 -0.67804 -0.015851 0.15389 -0.32826 0.092469 0.11567 0.11196 0.055138 -1.0271 -0.16939 -0.25152 -0.017161 0.11722 -0.41226 -0.86785 -0.35459 -0.23176 0.46299 0.025391 0.15212 1.091 0.0564 0.43058 -0.59326 0.38062 -0.10489 0.45266 -0.70022 0.52999 -0.17609 0.41679 -0.56827 0.3069 -0.55008 -0.026114 -0.0086964 -0.086285 0.13256 0.54514 0.43952 -0.036085 0.12778 0.094119 0.30107 -0.083153 -0.21785 -0.75776 0.38145 0.33346 -0.1499
whip -0.59331 -0.27142 0.53894 0.15091 0.14176 -0.0077186 -0.19482 0.79599 -0.019786 0.9687 -0.21767 0.034856 0.034863 -0.037836 0.16373 0.053731 0.23475 -0.033454 -0.052445 0.01202 0.51425 0.33058 -0.20058 -0.43344 -0.31658 0.12531 -0.12939 -0.3445 0.10728 -0.81138 -0.03417 0.078973 -0.66436 -0.16681 0.61646 -0.20291 -0.080721 -0.18024 -0.23341 0.071033 0.20565 -0.28566 -0.24021 -0.031957 0.27946 0.53965 0.031787 0.27049 -0.1006 -0.14186 0.20339 0.40243 -0.2638 0.25497 -0.0051864 0.47685 0.26108 0.11223 -0.31516 -0.50511 -0.38795 0.39545 -0.21215 0.65001 -0.22882 -0.19772 -0.20873 -0.17231 0.3045 0.073862 -0.016744 0.23768 -0.53639 -0.016544 -0.45913 -0.28201 0.42422 -0.3329 -0.47273 -0.4647 -0.52883 -0.70471 -0.42344 -0.0061874 -0.090979 0.44457 1.1408 0.37414 0.083294 0.17354 0.23386 0.22048 -0.25244 0.14855 -0.49559 0.18012 0.12387 0.13681 -0.052995 -0.23336 0.081056 -0.15291 -0.15789 -0.14251 -0.34423 -1.1266 -0.020916 0.090348 0.39939 -0.31262 -0.042298 -0.48643 -0.035064 0.17251 0.39839 0.45827 -0.40567 -0.53502 -0.27446 0.49057 0.063152 -0.2121 0.064995 -0.005936 -0.51116 0.0022603 0.12582 -0.58093 0.027187 0.57428 -0.59316 0.28024 -0.053119 0.493 0.35778 0.391 0.44414 0.2635 -0.36545 0.013918 -2.3799 0.11481 1.0266 -0.02311 0.074192 -0.32203 -0.11191 0.17955 -0.14186 -0.025536 0.39058 0.17318 0.24796 -0.23496 -0.35042 0.050745 0.35829 -0.086502 0.073793 0.69489 -0.13901 0.26587 0.1114 -0.060824 -0.059849 -0.21038 -0.095473 -0.054573 -0.10552 -0.14785 0.015719 -0.21241 0.12068 -0.29833 -0.35148 -0.30415 0.38444 0.048001 -0.15188 -0.024302 0.07246 -0.39727 0.27735 -0.3386 0.09329 -0.11275 0.16553 0.26767 -0.14439 -0.0053741 -0.166 0.017655 -0.19194 0.22345 0.10185 0.16587 -0.27899 -0.38277 -0.65383 -0.28074 -0.18336 -0.18566 -0.28762 -0.37271 0.17942 0.3606 -0.040138 -0.03074 0.44958 -0.18133 0.15474 -0.27187 -0.39777 0.4806 -0.093268 0.50515 -0.47079 0.15559 -0.57265 0.36482 -0.0069179 -0.21457 -0.042256 -0.095059 0.23145 0.042583 -0.52971 -0.34197 -0.13043 0.23359 -0.54831 -0.34184 -0.38398 0.073661 -0.3258 -0.23444 -0.048752 -0.11913 0.33408 -0.042522 0.15232 0.11645 0.1887 -0.33615 0.25328 -0.14015 -0.46671 -0.0043352 -0.19771 0.49521 -0.30489 0.28045 -0.18146 0.17749 -0.029429 0.12076 0.14241 0.058856 -0.0928 -0.098089 -0.49367 -0.16697 0.1774 -0.16093 -0.15351 0.44382 -0.2912 0.061447 -0.24646 -0.14518 0.3018 0.22635 -0.22947 0.71713 -0.29433 0.087957 0.17844 0.009414 -0.37691 -0.20773 0.079802 0.0083123 0.029189 0.80674 0.37466 -0.48058 0.52854 -0.20019 -0.022022 0.058598 0.23494 -0.16129 0.29362 -0.32045 -0.65401 0.40864 0.52372 -0.18236 0.031479 -0.063431
pistol -0.012506 -0.15987 -0.12129 -0.20036 -0.034712 -0.98685 0.17412 -0.030302 -0.45352 0.91377 -0.28638 -0.21156 0.71609 -0.10006 -0.42914 0.24511 -0.021263 1.0753 -0.017077 -0.20751 0.75979 -0.26767 0.51242 -0.8372 -0.24132 -0.25276 -0.56849 0.16248 -0.13128 -0.18063 -0.20275 0.033557 -0.31317 0.46147 -0.10737 -0.2928 1.1138 0.1099 0.18075 -0.46742 0.31687 0.16751 0.078609 -0.78309 0.50307 0.54548 0.3705 0.09947 -0.2768 0.31161 0.3257 0.39197 -0.77792 0.24055 -0.50569 -0.36302 0.35638 -0.30443 0.016345 -0.3986 -0.32812 -0.33634 0.58449 0.078133 -0.059585 -0.38121 -0.081814 -0.25101 -0.10455 -0.31514 -0.24144 -0.50778 0.070693 0.76086 -0.078513 0.12563 0.68267 -0.77044 -0.30211 0.70758 -0.84453 -0.79434 0.1022 0.11556 0.86608 0.63361 0.79619 0.14703 0.56805 -0.033252 0.21997 0.1038 -0.088684 -0.85134 -0.1174 -0.29868 0.83912 -0.061934 -0.54615 -0.083398 -0.43909 0.4324 -0.062652 0.44497 -0.43851 -1.0912 -0.20862 0.021449 0.07542 -0.39476 0.45734 0.26359 -0.32695 0.1498 -0.20224 0.4832 0.50232 -0.093069 0.038724 -0.052316 0.28989 -0.29131 0.36436 0.30454 -0.45917 0.1342 -0.65885 -0.52989 -0.40932 0.14366 0.28371 0.07259 -0.042269 0.014113 0.032474 -0.19408 0.4882 0.24145 0.32059 0.38508 -1.705 -0.39538 0.32938 -0.26595 0.1205 0.26169 0.19265 -0.20251 0.397 -0.037572 -0.33936 0.32744 0.16219 0.21841 -0.47421 0.11471 -0.39119 0.14709 0.42995 -0.13318 -0.22248 -0.31363 0.50897 0.15282 -0.067951 -0.0035096 -0.45621 -0.25851 0.42618 -0.40613 0.20267 -0.30478 0.013018 0.12158 -0.41278 -0.50836 -0.24355 0.18034 0.042418 0.050233 -0.11284 0.1218 -0.46937 0.34309 -0.24432 -0.084114 -0.072249 0.24171 0.46886 0.5942 -0.011234 0.13991 0.40591 0.36891 0.49205 0.2419 -0.86615 -0.24506 -0.063062 -0.58978 0.047151 0.01316 0.010929 0.45188 -0.46568 0.48796 0.28122 0.10372 -0.57052 -0.010438 0.014502 0.36915 -0.47083 0.22718 0.3912 -0.068204 -0.55023 0.75051 -0.093911 -0.072795 0.75219 -0.30038 0.35711 0.24923 0.26248 -0.21257 0.54579 0.771 0.15919 0.58243 -0.40142 0.049014 -0.090201 -0.69814 0.13038 0.2191 -0.22672 0.2413 0.066789 -0.17009 -0.32062 0.19054 0.12801 -0.32129 0.1567 0.68399 -0.14999 -0.19461 0.20729 0.27191 -0.02465 -0.077044 -0.46215 0.034417 0.098563 0.34134 0.37543 0.45262 -0.50743 0.21387 -0.70092 0.10363 0.086409 -0.33824 -0.35884 1.0769 0.060215 -0.059892 -0.82556 -0.018367 0.94639 -0.45598 0.25354 -0.020816 0.70272 0.57499 0.39545 -0.50076 -0.12427 -1.0301 -0.18818 0.20528 -0.51392 -0.016517 0.29775 -0.66506 -0.0082705 0.43188 0.10813 0.13117 0.46395 -0.47066 -0.27903 0.22016 0.57235 0.19377 -0.57565 -0.23719 -0.053004 0.939
shotgun -0.19994 0.13831 -0.13634 -0.19806 -0.017114 -0.90319 0.17711 0.1048 0.13048 1.0002 -0.63522 -0.12437 0.40709 0.18355 -0.54614 0.40545 -0.17447 0.89241 0.34394 0.12542 0.30032 -0.028076 0.47527 -0.48261 0.22563 0.0050086 -0.58113 0.48738 -0.2049 -0.47796 -0.23576 -0.44997 0.39407 0.60754 -0.16538 -0.27438 0.91549 -0.33612 0.14935 -0.10734 -0.052692 -0.13593 -0.25525 -0.065877 0.57384 0.41938 0.47639 0.25095 -0.28894 0.82057 0.40518 0.37955 -0.5701 0.63851 -0.23193 -0.26533 0.1668 -0.15927 -0.20867 -0.25221 -0.14026 0.20542 0.71495 0.11477 0.15135 -0.57925 0.27509 -0.072981 -0.33032 -0.0846 -0.089737 -0.40651 -0.037257 1.1229 -0.1991 0.13881 0.43955 -0.46844 -0.37166 0.85114 -0.5801 -0.6788 0.25819 -0.12599 0.55544 0.50315 0.80104 0.18809 0.34808 0.29941 0.18389 0.14861 0.024587 -0.59691 0.15904 0.067454 0.39933 0.16363 -0.22082 -0.11766 -0.52232 0.34139 0.1896 0.56623 -0.20551 -0.9785 -0.048512 0.06303 0.47391 -0.46596 0.50039 -0.31843 0.016707 -0.16109 0.04392 0.30119 0.27011 0.14014 -0.19236 0.3035 0.086378 -0.23498 0.46326 -0.039024 -0.53283 0.002265 -0.49096 -0.32775 -0.43827 0.22797 0.15426 0.16941 0.086381 0.0044391 0.027602 0.0024759 0.57525 0.19164 0.51274 0.3844 -1.6811 -0.28889 -0.16816 -0.53127 0.45522 0.54852 0.014606 -0.49009 0.48896 -0.42509 -0.098045 0.080962 0.18059 0.10063 -0.6152 0.079817 -0.15295 -0.5392 0.25657 -0.41247 -0.40453 -0.79269 0.41851 0.25323 0.25303 -0.0073233 -0.17888 -0.38651 0.066804 -0.15439 0.035693 0.23656 0.079708 0.31779 -0.40216 -0.92947 -0.4684 0.090789 0.068638 -0.14275 -0.15937 0.11164 -0.35437 0.64878 -0.20247 0.16578 -0.011705 0.044864 -0.1019 0.52701 0.1204 0.14908 -0.06083 0.26329 0.22695 0.71993 -0.97903 0.043367 0.08911 -0.35074 -0.31594 -0.074373 -0.0022518 -0.17293 0.023317 0.10086 0.37112 -0.055873 0.015572 0.069965 0.17818 0.31283 -0.31335 0.56339 0.58414 -0.036239 -0.45684 0.50265 -0.2213 0.073986 0.57407 0.095062 -0.082359 0.25608 0.22536 -0.40354 0.35483 0.12121 0.68306 0.61434 -0.56695 -0.21048 0.058167 -0.83822 0.093544 0.071145 0.081415 0.00011169 -0.47017 0.32314 -0.46607 0.083718 0.22489 -0.2866 -0.0044917 0.54171 0.19354 0.20926 0.52443 0.045272 -0.20727 -0.39058 -0.44495 0.12507 -0.3541 0.011608 0.068753 0.070822 -0.75745 0.10205 -0.94049 0.085926 0.54831 -0.61715 0.156 1.1373 0.13509 -0.080929 -0.73375 0.13466 0.62035 -0.18444 0.29169 -0.017135 0.59079 0.43299 -0.019811 -0.24584 -0.022691 -0.98012 -0.16906 0.23572 -0.81176 -0.38921 0.62166 -0.18743 -0.22486 0.060658 0.16016 0.15957 0.038584 -0.40901 -0.090126 0.16259 0.011287 0.05795 -0.91269 0.18682 -0.19226 0.55483
cannon -0.17038 0.047094 0.21037 -0.40573 -0.099398 -0.89939 -0.44712 0.29398 0.38677 0.79047 0.11523 -0.93337 0.151 0.040626 -0.19781 -0.20589 0.39213 0.80252 -0.71878 0.015251 0.97962 -0.036704 -0.35955 0.13684 0.2259 -0.020992 -0.74159 -0.17833 -0.36955 0.34708 -0.36087 0.42704 -0.22456 0.64313 -0.54875 -0.59038 -0.15585 0.32478 0.68057 -0.080169 -0.068274 0.29642 -0.61926 0.067349 0.42555 0.47085 0.031409 -0.017794 -0.41968 0.47889 0.2073 -0.076941 -0.52056 0.24666 -0.17077 -0.33162 0.11945 0.22044 -0.4374 -0.14187 -0.11143 0.1038 0.61397 0.31346 0.25241 0.25953 -0.0087257 0.1494 -0.43458 -0.03729 -0.44218 -0.21977 -0.22313 0.61241 0.25391 0.20693 0.078043 0.02197 0.1713 0.35365 -0.36523 -0.34018 0.54253 0.75793 0.64214 0.52195 0.39778 -0.038511 -0.27516 -0.29464 0.25213 0.30299 0.097887 -0.64536 0.23931 -0.33718 0.26811 0.18452 -0.12457 0.21942 -0.54169 -0.23393 -0.20501 -0.028931 -0.5151 -1.2524 -0.20443 0.27719 0.031921 -0.54713 0.12067 -0.059888 -0.047576 -0.28631 0.46822 -0.26 0.052208 0.1886 -0.44153 0.18055 -0.31411 0.46513 0.65369 0.030263 -0.29087 -0.26606 -0.37532 -0.17386 -0.45804 0.4301 0.16831 0.67173 -0.31687 0.18574 -0.13374 -0.20793 0.14307 0.30512 -0.37114 -0.48624 -2.1823 0.51653 0.035625 0.18656 0.7918 -0.064058 0.14633 -0.26219 0.21925 -0.013403 0.66625 0.12572 -0.33014 0.79574 -0.71324 0.13747 -0.36215 0.050953 0.4933 0.16848 0.16591 0.07113 -0.31862 0.085102 0.21453 -0.29066 -0.2004 0.095547 0.19162 -0.0061393 0.16501 0.39185 -0.34126 -0.074964 -0.10283 -0.032655 -0.078919 0.37101 0.018751 -0.079149 -0.28468 0.10722 0.18078 0.36403 0.28682 -0.35208 -0.12591 -0.14257 0.52965 0.27966 0.027713 0.089208 0.39055 0.461 -0.33546 0.014341 -0.38909 -0.27636 0.20301 -0.30681 -0.4101 -0.068153 0.44452 -0.01386 -0.022236 0.19399 -0.36614 -0.26757 0.010125 -0.055047 0.28243 0.019784 0.18752 0.15487 0.60576 -0.34861 -0.21266 0.99089 0.13172 -0.41571 0.51334 0.28209 0.79616 0.27796 0.35388 -0.51828 -0.38472 0.37892 0.44022 0.047096 0.22829 -0.03804 -0.055228 -0.25607 0.089456 0.21647 -0.079197 0.43018 0.17857 0.28982 0.078457 -0.26287 0.26097 -0.72152 -0.097824 0.74641 -0.090992 -0.019754 0.020006 -0.18217 -0.18329 0.38328 0.091759 -0.081612 0.1789 0.0039296 -0.35805 0.63079 -0.38867 -0.045122 -0.66304 0.069056 -0.14699 -0.5692 -0.23721 0.12976 0.030131 -0.15149 -0.4818 0.18664 0.3796 0.10732 -0.13812 0.26379 0.39663 0.1136 0.095562 -0.7007 0.46998 -0.3435 0.097449 -0.16493 -0.25426 -0.38592 0.061957 0.36461 -0.12722 -0.05578 0.28445 0.23411 -0.1361 -0.56327 -0.12046 -0.031865 -0.092437 0.43002 -0.51856 0.19766 -0.13404 0.22872
firearm 0.1958 -0.0046856 -0.48615 -0.044176 -0.027132 -0.69552 0.12943 -0.21733 -0.46402 1.671 -0.44573 0.2956 0.31603 0.35591 -0.70004 -0.31646 -0.19073 0.94608 0.70797 0.19317 0.769 -0.3383 0.56867 -0.26392 0.065669 -0.32101 -0.4106 -0.09242 -0.61425 -0.38163 -0.37676 -0.078537 0.13143 0.80321 -0.33127 -0.11581 0.7982 0.15606 0.30461 -0.24561 -0.023715 -0.048343 0.21481 -0.59682 0.40254 0.36857 0.025949 0.30713 0.45117 0.78881 0.16392 0.1813 -0.30273 0.061063 -0.38483 -0.15876 0.63243 -0.33148 -0.43267 -0.73018 0.4439 -0.052318 -0.24658 0.24361 -0.07505 -0.46834 -0.20851 0.1177 0.018749 -0.34767 -0.129 -1.1309 0.31488 0.37348 -0.038987 0.23898 0.16452 -0.74435 -0.18711 1.0028 -0.64199 -0.73004 0.17185 0.12382 0.78598 0.60225 0.51361 -0.10033 0.7464 -0.24968 0.16356 0.078712 0.11248 -0.85565 -0.44868 -0.20185 0.3766 0.45333 -0.25364 -0.1924 -0.60609 0.28627 0.15034 0.66819 -0.23741 -1.8874 -0.13904 -0.49422 0.022952 -0.025875 0.37594 0.74881 -0.26887 -0.43879 -0.33472 0.76853 0.44226 0.089872 0.014027 -0.20937 -0.30332 0.34445 0.32653 -0.023622 -0.028039 0.12896 -0.54223 -0.35465 -0.28215 0.15777 0.50602 -0.31985 -0.38543 0.2853 0.054182 0.078039 0.4661 0.21723 0.29964 0.47575 -0.071032 -0.3684 0.33143 0.0027232 0.18342 -0.10642 0.12324 -0.42059 0.32543 -0.047864 -0.17406 0.32238 -0.1781 -0.082832 -0.17975 0.12975 -0.57494 0.045314 0.53522 -0.35271 -0.16849 0.087089 0.79907 0.60553 -0.13718 0.5539 -0.2887 -0.022768 0.21341 0.10269 0.49252 0.025208 0.35603 0.97054 -0.09454 -0.21801 -0.24536 0.18328 -0.019038 0.18 0.070451 0.31683 -0.20299 0.41171 -0.16247 0.31282 0.021554 0.30599 0.20017 0.35288 0.12459 0.12424 0.22399 0.31165 0.88058 0.50645 -0.50826 -0.087118 0.3217 -0.40826 -0.040402 0.36849 -0.096081 0.51805 -0.38782 0.66253 0.022219 0.40265 -0.15199 0.31928 0.68006 0.34467 -0.023763 -0.085185 0.5335 -0.079479 -0.634 0.66247 -0.15657 0.39595 1.0426 0.041928 -0.30812 0.1983 -0.10043 -0.47381 0.32705 0.45428 -0.087486 0.13238 -0.26209 0.061395 -0.043061 -0.78206 -0.16525 0.1358 -0.076156 0.087913 -0.066209 -0.27651 0.0012613 -0.0059798 0.67018 -0.12409 0.11056 1.0652 -0.26899 0.21924 -0.23013 0.27091 -0.20192 0.34736 -0.26599 0.2198 -0.85938 0.53201 0.34298 -0.20904 0.0042528 0.39921 -0.69446 0.18043 0.29997 -0.267 -0.50529 0.9988 0.24011 -0.41669 -0.43521 -0.64927 0.91431 -0.5767 0.51013 0.08224 0.89875 0.49934 0.37971 0.0036607 -0.51553 -0.96311 -0.2426 -0.12467 -0.37805 -0.025848 0.097462 -0.44904 -0.016435 0.4657 0.15097 -0.10109 0.03825 -0.58633 -0.63512 0.34221 -0.061754 -0.18845 -0.7481 -0.23735 -0.37819 1.111
axe -0.24245 -0.25144 0.50003 -0.28271 -0.19014 0.015834 0.54801 0.48011 -0.66438 1.0283 0.066845 -0.16753 0.030226 0.1427 -0.058484 -0.22171 -0.095535 -0.081275 0.81044 0.14275 0.64217 0.29214 -0.32804 0.038987 0.26581 0.17837 -0.4823 0.2903 -0.17984 -0.03103 -0.78519 0.09604 -0.20453 0.19041 0.67963 0.19534 0.19754 0.66777 0.20777 0.11262 -0.15728 0.32347 -0.4415 0.095797 0.67157 -0.092851 0.053679 -0.37694 -0.01658 0.53281 0.042042 0.25779 0.485 0.34993 -0.41702 0.17103 -0.23747 0.38583 0.062378 -0.35524 -1.0217 -0.060537 -0.037648 -0.10363 0.057306 0.16123 0.43256 -0.3636 0.099959 -0.18714 -0.16502 0.018325 -0.36043 0.33312 -0.2378 -0.30142 0.47277 -0.73844 -0.09302 0.23266 -0.18713 -0.4311 -0.079075 0.55915 0.11359 0.55321 0.95654 0.044313 0.06821 -0.012566 0.54838 0.38913 0.22272 -0.1296 -0.38978 -0.29944 0.029242 -0.018961 0.051641 -0.23072 -0.17057 0.2851 -0.11183 -0.085356 -0.66267 -0.98036 -0.16318 0.22806 0.52245 -0.48478 0.023494 -0.08026 -0.035346 0.55769 -0.19259 0.67611 0.62986 0.57109 -0.13933 0.10219 0.090212 -0.57784 0.38208 -0.089477 -0.64159 0.43033 -0.062511 -0.34859 -0.57858 0.09242 0.0192 0.1883 0.01444 -0.24393 0.00085376 -0.006243 -0.12962 0.093771 -0.091806 -0.17777 -1.7521 -0.051331 -0.041999 -0.59742 -0.46615 0.23821 0.10541 0.048314 0.75953 -0.30237 -0.11839 -0.12193 0.025238 0.36386 -0.15173 -0.21925 0.29699 0.009394 0.22653 0.32726 0.40422 -0.4547 -0.63628 0.12706 -0.15614 0.20393 -0.54602 -0.27842 -0.65241 -0.42765 -0.63737 0.028353 -0.15168 -0.37336 0.10741 0.25125 0.3876 0.28999 0.6946 -0.38521 0.1723 -0.089318 0.09345 0.45028 -0.062821 -0.036012 -0.2986 -0.44368 -0.065739 0.039716 -0.53206 0.53861 -0.63686 -0.094095 -0.13658 0.007578 -0.31167 -0.71856 -0.024155 -0.019458 0.1671 0.1267 0.28532 0.19193 -0.33052 0.46135 -0.45503 0.075085 -0.15822 -0.64689 0.089147 0.034102 -0.50318 0.013035 0.049119 0.2373 -0.33882 0.051063 -0.39542 0.42564 -0.13583 0.24712 -0.4163 -0.23056 0.20846 -0.0011225 -0.11569 0.095664 0.33536 -0.064213 -0.058799 -0.61491 -0.36234 -0.15204 0.62773 -0.74837 -0.17932 0.49343 -0.12446 0.21152 0.48641 0.3701 0.29456 -0.59955 0.55455 0.062519 0.56512 -0.57632 -0.12347 0.58025 -0.23379 -0.68925 0.0783 0.21862 -0.28371 -0.12696 0.069711 0.048903 0.044886 -0.038143 -0.20947 0.091133 0.42385 -0.35962 0.2328 -0.086444 0.19272 -0.028139 -0.46147 -0.13585 0.39864 -0.1028 -0.084256 -0.14183 -0.18747 0.62691 0.16033 0.19752 0.11019 -0.4803 -0.40901 0.48452 -0.034356 -0.026986 0.53729 -0.52839 -0.13038 -0.18347 -0.068249 -0.29686 -0.33014 -0.080117 0.25402 0.048342 -0.20036 0.33852 -0.58815 -0.22609 -0.1697 0.029347
spear -0.3319 -0.32856 0.27544 -0.15068 0.065865 -0.20137 0.26284 0.39451 -0.52103 0.71086 -0.41036 -0.27623 0.56615 0.03352 0.039806 0.036233 0.12074 0.021736 -0.26152 0.21702 0.73811 0.19541 -0.7641 -0.15666 0.0032123 0.25041 -0.17532 0.4581 -0.71176 0.28437 -0.31604 -0.18503 -0.52206 -0.13751 0.23036 -0.30897 -0.23102 0.30462 0.47845 0.097973 -0.35556 0.017535 -0.65527 -0.66928 1.0883 0.10645 -0.20397 -0.29254 0.49847 0.38322 0.087753 0.37884 -0.10071 -0.12168 -0.37014 0.24689 -0.024813 0.13075 -0.077545 -0.051882 -0.21948 0.0095584 0.012297 -0.20525 0.21803 -0.21303 0.17196 -0.28537 0.13013 0.075436 -0.83988 -0.38147 -0.22416 0.29961 -0.44809 -0.64959 -0.088919 -0.78612 -0.29744 0.11254 -0.44711 -0.64842 0.14281 0.9388 0.20896 0.42162 1.4336 0.14163 -0.48994 -0.12741 -0.0038928 0.268 0.48242 -0.38675 0.12316 0.16162 0.11836 -0.036 0.1517 -0.018436 -0.051577 -0.092159 0.2929 -0.11523 -1.0269 -1.2817 -0.50848 -0.098014 0.45783 -0.43244 0.54532 -0.23283 -0.029917 -0.35593 0.28684 0.17264 0.72193 0.70335 -0.18754 0.31526 0.22825 -0.084254 0.30252 0.45981 -0.62668 0.11633 -0.51453 -0.21606 -0.74084 0.68 -0.24318 0.0054044 0.085679 -0.46876 -0.058505 -0.56434 0.17451 0.034337 -0.32348 -0.015647 -2.0623 0.030752 0.19338 0.15899 0.035072 -0.012342 0.30689 0.33346 -0.10222 0.20567 -0.51946 -0.25711 0.17784 0.14841 -0.47639 0.32491 0.11821 0.25383 0.32236 0.83598 0.56358 -0.14757 -0.079323 0.27665 0.64922 0.26198 0.029532 0.32936 -0.7856 -0.097134 -0.48813 0.11839 -0.16171 -0.26106 -0.41775 0.0042924 0.31069 0.27763 0.33542 -0.75256 0.14026 -0.17749 0.36462 0.14166 -0.20265 0.14384 0.032442 -0.33579 -0.45933 -0.16386 -0.52784 0.24896 -0.5812 0.19869 -0.33646 0.15981 -0.056972 -0.44441 -0.28193 -0.371 0.18608 -0.27702 0.11312 0.61218 -0.1079 0.54665 -0.28615 -0.14486 -0.11659 -0.1017 0.10246 -0.25639 -0.17148 0.32017 -0.018241 -0.013557 0.063033 0.14862 -0.35095 0.068825 0.2037 -0.15779 0.24616 0.36171 0.25589 -0.039767 0.021332 -0.078777 0.1107 0.0048852 0.12922 -0.60742 0.38207 -0.27578 0.094977 -0.45 -0.35301 0.4269 0.069823 0.10501 -0.25548 -0.21229 0.18681 -0.20238 0.60438 -0.0046092 -0.26938 -0.37074 -0.18233 0.29997 0.014339 -0.074348 -0.38094 -0.11045 0.23992 -0.25005 0.93573 -0.17305 0.39878 0.16381 -0.1902 0.044127 0.2028 -0.10392 0.10012 0.18032 -0.13735 -0.40059 -0.58559 -0.32383 0.18177 0.21512 0.051169 0.28021 0.46581 0.54876 0.19363 -0.040331 0.010678 -0.13415 0.40689 0.54067 0.057744 -0.16714 0.5857 -0.39583 -0.67851 0.01111 0.75416 -0.27498 0.12357 -0.29814 -0.57341 -0.47611 -0.60889 0.62098 -0.73854 -0.33938 0.070875 -0.12479
grenade -0.27998 -0.21386 0.064253 0.40649 -0.48375 -0.71023 -0.61209 -0.021993 -0.013497 0.41091 -0.28684 -0.37435 -0.04236 -0.22934 -0.30967 -0.3167 0.029071 0.11316 -0.30833 -0.37217 0.50348 0.12418 0.027604 -0.25069 0.31237 0.26767 -0.72584 0.36238 0.055853 -0.46234 0.39351 -0.1756 -0.58822 0.95164 -0.29932 -0.85101 0.32745 0.24073 0.47167 0.052122 0.22845 -0.25536 -0.29706 -0.2828 0.36264 0.62121 0.12918 0.12439 -0.45857 0.91595 0.10705 -0.10736 -0.58587 0.95852 -0.11652 -0.29685 -0.28288 -0.13792 0.31435 -0.47142 -0.31576 -0.29426 -0.01182 -0.18314 0.37552 -0.039121 -0.11488 -0.25896 -0.34004 0.3898 -0.58575 -0.21986 -0.1899 0.72558 -0.35376 -0.082916 0.31155 -1.026 -0.14947 0.37922 0.016728 -0.18942 0.19681 0.24975 0.34951 1.0008 0.29839 -0.39891 -0.37655 0.27983 0.415 0.73557 -0.03193 -1.0946 0.038594 -0.41388 0.011089 0.22234 -0.74152 0.2622 -0.54583 0.44822 0.54708 0.064977 -0.066888 -1.3984 -0.29922 0.25388 0.38722 -0.085472 -0.071616 -0.30659 -0.64519 -0.39056 -0.055564 0.041765 0.52892 0.34092 -0.79379 0.0046878 -0.2451 -0.049505 0.50545 -0.28032 -0.26824 -0.62511 -0.32521 0.073652 -0.32456 0.76652 0.11429 0.2028 0.014914 0.1525 0.088598 -0.54402 0.64382 -0.039838 -0.04913 0.28522 -1.6824 0.59069 -0.15354 0.09007 0.19866 0.35316 -0.029109 0.13045 0.38984 -0.22068 -0.36243 0.23171 -0.03605 0.11558 -0.52766 0.13227 -0.50329 0.061605 0.27632 -0.12531 0.046134 0.062617 0.55816 0.15169 0.13434 0.12245 -0.50066 -0.087043 0.01828 -0.18623 0.17193 0.018797 0.20811 -0.083343 0.074699 -0.88585 -0.17814 0.42954 0.49267 -0.66921 -0.29092 -0.14692 0.20615 0.0083563 0.094096 -0.00872 0.25212 -0.15644 -0.0048118 0.16642 -0.085882 0.17011 0.43882 -0.049585 0.2658 0.47898 -0.41511 -0.53283 -0.018411 -0.20988 0.016505 0.15684 0.86305 0.70354 0.38439 -0.099052 -0.33692 -0.24831 -0.28898 0.032323 0.29398 0.46937 -0.18 0.1854 0.48365 -0.5184 -0.68957 0.26914 -0.2642 -0.48267 0.17074 0.17577 0.43582 0.33304 -0.043619 -0.58076 0.36423 0.23519 0.19794 0.27763 0.003418 0.37121 -0.030592 -0.50927 -0.039957 -0.37467 0.49941 0.60483 -0.19106 0.57719 -0.20729 0.27613 -0.091173 -0.23413 0.44254 0.40687 -0.12433 -0.0048428 0.32976 0.01195 -0.67802 -0.2003 -0.15803 -0.12329 0.15058 0.53319 -0.094017 0.051987 -0.24475 0.076122 -0.80797 -0.1006 -0.25304 -0.70255 0.28559 0.58793 0.48566 0.037567 -0.55617 0.12707 0.83199 -0.043187 0.24491 0.022487 0.3623 0.37733 -0.038844 -0.46596 0.11115 -0.41886 0.22765 -0.15737 -0.2754 -1.0555 0.30045 -0.40457 0.19215 0.12702 0.59968 0.20065 0.16826 -0.16676 -0.17917 0.10905 -0.12724 -0.1455 -0.4447 0.042861 0.032698 0.76641
dagger -0.18622 -0.4231 0.67744 0.064014 -0.14594 -0.29097 0.081536 0.25791 -0.36304 0.5533 0.072645 -0.026634 0.51818 -0.16008 0.29031 0.14613 0.095775 0.10336 -0.2233 -0.056827 0.63789 0.25328 -0.43171 -0.80729 -0.22951 -0.23006 -0.16253 0.28565 -0.53994 0.34196 -0.20372 -0.22233 -0.60349 0.20434 0.23332 -0.1684 0.30128 0.30215 0.17713 -0.20605 0.056235 0.50535 -0.13455 -0.94864 1.302 -0.16141 0.052351 0.11607 0.37461 0.22498 0.3628 0.23146 -0.2568 -0.39051 -0.49854 0.059018 -0.20204 0.018316 -0.32169 -0.32102 -0.65697 -0.17326 0.1056 -0.59754 -0.15331 0.17441 -0.26707 -0.2149 0.2685 -0.33976 -0.64723 -0.2114 -0.28101 -0.28395 -0.45528 -0.51965 0.29816 -0.74919 -0.44783 0.13554 -0.38197 -0.40596 -0.10214 0.3696 0.069325 0.62374 0.99881 -0.041039 -0.37325 -0.11271 0.47275 0.42278 0.094762 -0.74912 0.14879 0.067471 0.24407 -0.24711 -0.23995 -0.081146 -0.27745 0.14743 0.13706 -0.027263 -0.83511 -1.1403 -0.37206 0.0010862 0.097801 -0.33805 0.020271 0.40534 0.047475 0.022024 -0.28326 1.0093 0.095108 0.2456 0.13706 -0.32595 0.3939 -0.62658 0.76982 0.30275 0.043759 0.68401 -0.36293 -0.74806 -0.63411 0.077362 0.17275 0.23204 0.27411 0.17692 -0.48427 -0.27749 0.12455 -0.08101 -0.046432 -0.11031 -1.7134 0.22604 -0.050667 -0.19198 -0.68998 0.11811 -0.13219 0.15282 0.90153 0.13473 0.28632 0.2541 0.43259 0.51721 -0.31324 -0.056458 -0.41543 0.44328 0.43379 0.79957 0.061087 -0.13806 -0.03151 0.36113 0.34159 -0.076689 -0.43143 -0.028913 -0.38623 -0.23068 -0.54163 0.61781 -0.33293 0.091405 -0.50834 -0.023279 0.18244 -0.15178 0.39477 -0.4961 -0.29138 -0.18741 -0.071493 0.27841 -0.39704 0.17139 -0.20363 -0.13369 -0.14065 0.30745 -0.4101 0.15042 -0.31974 -0.69461 0.22015 0.58553 0.036351 -0.45925 -0.65146 0.17908 -0.10142 0.37232 -0.38969 0.51269 0.035291 0.31706 0.20063 0.036674 -0.19095 -0.30178 0.36612 -0.21252 -0.39764 -0.18041 0.52384 0.12286 -0.31822 0.0561 -0.44492 0.14563 0.20363 0.019651 -0.16366 -0.1794 -0.2136 0.071598 -0.059331 0.044805 0.27938 0.096077 0.16122 -0.23283 0.38834 3.6961e-05 0.064063 -0.38149 -0.57709 0.75406 0.23083 -0.2036 -0.13934 0.61684 0.004738 -0.48769 0.67853 -0.22644 -0.093409 -0.18727 0.021609 0.16167 0.017218 -0.00039395 -0.38159 -0.13446 -0.046955 -0.35084 0.68365 -0.29463 0.099741 -0.12802 -0.43944 -0.16171 0.6346 0.15316 0.30932 0.33303 0.2032 0.11395 -0.75217 -0.68649 -0.13005 -0.01759 -0.62413 -0.14044 0.20698 0.17076 0.26699 -0.31699 0.095735 -0.62373 -0.13259 0.15754 0.2029 -0.62945 0.76122 -0.27828 -0.077812 -0.30873 0.57119 -0.14464 0.20807 -0.24374 -0.22451 -0.23094 0.00021265 0.55522 -0.51864 0.24023 0.20877 -0.24899
dynamite -0.35865 0.2175 0.063408 -0.11754 -0.37646 0.35337 -0.20921 -0.41742 0.099694 0.48192 0.049912 -0.039591 0.391 0.33496 -0.036732 -0.35282 0.36618 0.14416 -0.16874 -0.18619 0.30686 0.11005 -0.086163 0.063913 -0.26243 -0.18204 -0.29709 0.20969 -0.27166 -0.53778 0.013039 -0.17498 -0.23477 0.20512 0.065953 -0.2366 0.36673 0.26531 -0.11053 0.33758 -0.33915 0.28593 -0.07845 -0.10468 0.023777 0.20053 0.44722 -0.34616 0.040326 -0.15647 0.22084 0.71423 0.057668 -0.032751 0.28045 0.19671 0.15416 -0.26018 0.33322 -0.34017 -0.29694 -0.17624 0.10061 0.35432 0.10166 -0.18609 -0.046991 -0.040384 -0.6648 -0.13769 -0.50578 -0.33778 -0.20082 0.56254 -0.051551 -0.20711 -0.0013378 -0.21582 0.12665 -0.077854 -0.12742 -0.22929 0.31417 0.026125 0.10337 0.37797 0.20821 -0.22066 -0.48507 0.069609 0.24001 0.34542 0.141 -0.55117 0.097913 -0.01593 -0.083764 0.2243 0.0072441 0.049631 -0.60037 0.10417 0.40818 -0.23572 0.18365 -1.2026 -0.080123 0.21841 0.38594 -0.66122 0.24446 -0.069098 -0.40059 -0.1459 0.055359 0.027767 0.16123 0.60552 -0.64055 0.060139 -0.20744 0.37299 0.16347 0.15762 -0.49312 0.15008 -0.37985 0.11526 -0.28966 0.16023 0.0036379 0.036435 0.082196 0.25077 0.2062 0.70238 0.878 -0.066504 -0.2635 -0.24288 -2.198 0.28107 -0.090168 -0.23582 0.007659 -0.045307 0.27497 -0.26108 0.78561 -0.2054 0.28684 -0.10916 0.148 0.41637 -0.11665 -0.019908 -0.20477 -0.40023 0.17323 0.23871 0.0086515 -0.38536 0.02718 0.22916 -0.14846 0.023945 0.22292 0.10158 0.13663 0.30848 -0.066738 0.24802 -0.16167 -0.21267 -0.16594 -0.39851 -0.076872 0.004662 -0.30568 -0.3189 0.17061 0.43753 0.66955 0.35767 -0.056202 -0.060851 0.30032 -0.52409 0.13853 0.084512 0.24473 0.10045 0.63818 0.072737 -0.37496 0.64919 -0.31093 -0.12378 0.88769 -0.18737 0.099256 -0.23126 0.77277 0.14452 -0.11469 0.090515 -0.099406 0.28545 0.20141 0.019292 -0.12427 0.22415 -0.035758 0.25721 0.19176 -0.084999 -0.39586 -0.07324 0.18201 -0.273 -0.37067 0.47099 0.33644 0.24101 0.19836 -0.52052 -0.06679 0.06255 0.19193 -0.18311 0.21629 -0.29767 -0.4436 -0.48295 -0.37641 0.19362 0.04655 0.58375 0.0085773 0.15915 0.17327 0.0057015 0.033973 -0.42409 -0.070015 -0.022586 -0.47162 -0.072797 0.030698 -0.10769 -0.71668 0.10823 -0.47606 0.14469 -0.16034 -0.16425 -0.15414 -0.10046 -0.43311 0.030636 -0.242 0.043661 -0.30064 -0.66171 0.22322 0.11912 0.61891 0.0077207 -0.47187 -0.12743 0.13655 0.40722 -0.24359 0.28404 -0.096079 -0.47977 -0.13108 -0.0038301 -0.42321 -0.092833 -0.19251 -0.20649 -0.37194 -0.61156 0.45029 0.24768 0.2135 0.10851 0.30567 0.037828 0.010964 -0.14032 0.3702 0.19006 0.027835 -0.17238 0.14225 -0.018696 -0.057846 0.073201
mace -0.3612 0.044218 0.24091 0.11528 -0.11801 0.16265 -0.50516 0.11854 -0.14884 -0.03414 -0.19881 -0.36997 0.52484 -0.10256 0.22766 -0.15071 0.18325 -0.48139 -0.26815 0.33687 0.73131 0.39766 0.032191 -0.7578 -0.088465 -0.78014 -0.65053 -0.39582 -0.36257 0.0094589 -0.55811 0.066474 -0.30391 0.3065 -0.042818 0.041789 0.18465 0.3178 0.1099 -0.12068 -0.12683 -0.20473 -0.36761 -0.23112 0.55065 0.4931 -0.087308 -0.094155 0.31527 0.10773 0.14617 -0.11592 0.11467 0.55995 0.035031 0.43649 0.024591 0.4929 -0.52176 -0.64131 -0.36917 -0.19486 -0.10703 -0.01453 -0.22207 0.0079407 0.33272 -0.093404 -0.15356 0.18618 -0.39571 -0.23849 -0.10734 0.36171 -0.01353 0.20522 0.63663 -0.11835 -0.29906 0.018275 -0.32809 0.11079 0.27311 1.1407 -0.067758 0.69616 1.5237 0.2457 -0.37905 -0.13333 0.51292 0.25399 0.48418 -0.52294 0.04198 -0.14947 1.0378 0.034617 -0.278 -0.5045 -0.024885 -0.063159 0.084857 0.13851 -0.53125 -1.7067 -0.37674 -0.2848 0.30664 -0.29323 -0.28624 -0.098993 0.016336 0.050354 0.0072037 1.185 0.72012 0.60604 -0.14247 0.12189 -0.10664 -0.17587 0.70552 0.18923 -0.25458 -0.12022 -0.50718 -0.81284 0.042234 0.65509 -0.2629 0.26983 0.0046456 -0.78482 -0.83053 -0.57353 0.067218 0.31207 -0.15296 0.23612 -1.2581 0.24778 0.081304 0.46821 0.20087 -0.040748 0.18141 0.39047 -0.0042148 -0.214 0.46143 0.30916 0.20312 0.22276 -0.88983 -0.27564 0.025114 0.3925 0.01306 0.31535 0.67935 -0.1067 -0.11735 -0.032185 0.13438 -0.3652 -0.42011 -0.92572 -0.29795 -0.077572 0.10954 0.21031 0.33744 0.49682 -0.48577 -0.40163 0.24067 0.6386 -0.079296 -0.3395 -0.044338 -0.0012633 0.3648 0.26456 0.082783 0.02605 -0.40454 -0.53076 -0.38304 0.42862 -0.67884 0.19131 -0.25021 0.48551 0.5896 0.57507 -0.56069 -0.52765 -0.46899 0.44075 0.036753 -0.10662 0.34302 0.30191 -0.13804 0.093327 0.49888 0.17351 0.61351 0.080106 0.15543 -0.0021883 -0.23256 0.28725 -0.12455 -0.20316 -0.32577 -0.089269 -0.29164 0.2145 0.23484 0.71591 -0.20362 -0.32416 0.3758 -0.058251 0.15122 -0.17554 -0.038983 -0.19454 0.088386 -0.29023 -0.26796 -0.20687 -0.25706 -0.17731 -0.39031 0.012101 0.064425 0.32902 0.19381 0.29075 0.29211 -0.97641 0.15533 0.076717 0.073857 -0.29704 -0.033553 0.22175 -0.41698 -0.36468 0.10406 -0.11811 -0.26033 -0.25937 0.66782 -0.57007 0.007052 -0.057851 -0.023475 -0.16199 0.59373 -0.38096 -0.21821 -0.010123 -0.3054 -0.57616 -0.66489 -0.18275 0.20657 0.37751 -0.076596 0.51764 0.29669 1.0936 0.1995 -0.4396 0.087177 -0.30583 0.20693 0.044094 0.24529 -0.40338 -0.28119 -0.10334 0.64136 -0.14997 0.5822 -0.29959 -0.063877 -0.25201 -0.24422 -0.040196 -0.66966 0.44763 0.053222 -0.38796 0.021818 0.10542
hatchet -0.2562 -0.42556 0.4253 -0.0077921 -0.2648 0.15069 0.26695 0.42609 -0.41425 0.71816 -0.11354 -0.14878 0.1365 -0.37653 -0.44477 -0.39088 0.19636 -1.0236 0.29397 0.32089 0.53237 0.048849 -0.085262 -0.25264 -0.021776 0.079385 -0.34363 0.18558 -0.17801 0.17586 0.29763 0.28919 -0.34661 0.23144 0.17468 0.13869 0.41105 0.23455 -0.053038 0.36788 -0.30775 0.090538 -0.18847 -0.72225 0.22366 0.1616 0.25211 -0.95316 0.37422 0.17221 0.33272 0.523 0.38405 0.066018 -0.63235 -0.0094239 -0.16612 0.60122 -0.13901 -0.34275 -0.91491 0.32663 0.10017 -0.10658 -0.29956 -0.35917 -0.45461 0.010455 0.042214 -0.45164 -0.2104 -0.054173 -0.70329 0.4441 0.2058 -0.46078 0.19285 -0.50323 -0.12005 0.13577 -0.32043 -0.50117 0.42169 -0.10007 -0.54895 0.62241 0.9491 -0.20637 -0.010522 0.50643 0.036883 -0.014906 -0.25627 -0.037562 0.33197 -0.20122 -0.38845 -0.038515 0.43972 -0.75807 0.37261 0.30068 0.18729 -0.18519 -0.40514 -1.1749 -0.26186 0.23597 0.65816 -0.071808 -0.0074829 0.44101 0.093138 0.36481 0.103 0.51437 0.65236 0.38401 0.055706 0.033438 -0.044168 -0.71178 0.16834 0.19066 -0.83949 0.72358 -0.23322 -0.10663 -0.68975 0.24503 -0.11029 -0.091737 0.15688 0.0015715 -0.30455 0.38135 0.0068988 -0.2132 0.2239 -0.2675 -1.4209 -0.084362 -0.37705 -0.39647 -0.39168 -0.14095 -0.18501 0.027622 0.87356 -0.092809 -0.072926 -0.043588 0.13224 0.15376 -0.12055 0.27833 -0.37522 -0.11242 0.35439 0.11315 0.31381 -0.055312 -0.28183 0.26452 -0.16696 0.29366 -0.69029 -0.32922 -0.43344 -0.32708 -0.47001 -0.23766 0.25898 -0.17196 -0.094036 -0.66798 0.18214 0.039773 0.33607 -0.020223 0.17288 -0.23001 -0.43386 0.59459 0.1116 0.44881 -0.229 -0.40597 0.021768 -0.068746 -0.358 0.24221 -0.37536 -0.13667 -0.34203 0.51464 -0.13382 -0.37594 0.45471 -0.65858 -0.16362 -0.39996 0.377 0.033195 -0.048402 -0.16775 -0.54229 0.052391 -0.26853 -0.31334 0.17118 0.18378 -0.47285 -0.1013 0.47011 -0.16977 -0.0029042 -0.097574 -0.44394 0.052577 -0.010941 -0.054375 -0.3811 -0.14047 0.034199 -0.045369 -0.32306 -0.069107 -0.34752 0.069637 0.1395 -0.39834 -0.16248 0.09038 0.061619 -0.23756 0.14341 0.46202 0.11229 0.27365 0.048013 -0.032307 0.18162 -0.59373 0.35089 0.084478 0.2761 -0.18704 -0.15216 -0.095531 -0.27245 -0.5006 -0.31472 0.064838 -0.1143 -0.59967 -0.12617 -0.34543 0.12767 -0.20183 -0.22571 0.31238 0.54084 -0.29781 0.51115 0.23248 0.12455 0.098285 -0.62505 0.01442 0.027775 -0.29786 -0.28827 0.1238 -0.018254 0.25736 -0.0063314 0.40541 -0.32663 -0.5664 -0.40568 0.42861 -0.38724 -0.11983 0.4888 -0.31054 -0.4764 0.40058 0.17296 -0.093738 0.11779 -0.22197 -0.050787 -0.024875 -0.20436 -0.074223 -0.80033 -0.86967 -0.50586 0.066113
slingshot -0.29802 0.15746 -0.041788 -0.15851 -0.19841 -0.0049126 -0.036057 0.76657 0.16725 -0.4885 -0.16389 -0.57384 0.095865 0.19873 -0.17245 -0.30951 0.11661 -0.35976 0.23805 -0.30421 0.43119 0.42652 0.02375 -0.13478 -0.20249 0.20272 -0.081742 -0.52147 -0.065335 0.35187 -0.0085894 -0.4376 -0.55321 0.42882 0.32636 -0.12056 0.33876 0.048044 0.22773 0.14873 -0.14638 0.091083 -0.44816 -0.47922 -0.44563 0.4157 -0.39257 0.0083707 -0.35259 0.65406 -0.031626 0.35609 -0.093372 0.23348 -0.18343 -0.11164 0.17884 0.13563 0.35942 -0.11816 -0.48713 -0.13775 0.20306 0.05973 0.36592 -0.46466 0.070462 -0.4278 -0.041504 -0.52946 -0.69412 -0.062341 -0.7275 0.40097 -0.39218 -0.2718 0.039896 -0.69816 -0.58037 0.14188 -0.73891 -0.36293 -0.36497 0.8949 0.42624 0.88379 0.74128 -0.2877 -0.50465 0.02438 0.18731 0.35531 -0.26828 -0.40507 -0.23627 0.10495 -0.25443 0.070032 0.025838 0.34348 -0.27781 -0.023299 0.14954 0.026191 -0.69012 -1.3422 -0.35974 0.21451 0.039751 -0.44224 0.62551 -0.56129 -0.39558 -0.14846 0.42794 0.019879 0.45438 -0.0025873 -0.013431 0.46436 -0.099085 -0.65798 0.21549 -0.018992 -0.31203 0.003246 -0.16295 0.26041 -0.95528 -0.036975 -0.6035 -0.088511 -0.95669 -0.43911 0.0096254 -0.14121 0.34404 0.27869 -0.20151 0.31263 -1.4936 -0.053656 -0.031156 -0.58525 0.049186 0.13414 0.42778 -0.58519 0.66376 -0.10202 0.43966 -0.28258 -0.050453 0.084259 -0.37629 -0.083983 -0.017626 0.42057 0.38485 0.093056 0.027693 -0.1692 0.01807 -0.28102 -0.059643 0.26977 -0.2393 -0.078028 0.36252 0.38554 0.037014 0.28508 0.2221 0.080416 -0.38775 -0.59771 -0.4821 0.23602 0.097603 -0.23996 0.33927 0.12784 0.38071 0.25372 0.33147 -0.74742 0.26173 -0.1354 -0.021517 -0.056632 -0.87443 -0.52468 0.096772 -0.036125 -0.064176 0.089279 -0.20707 0.069916 0.13758 0.09171 0.13304 0.0026694 0.22323 0.26176 0.28111 1.1629 -0.11733 0.11399 -0.25106 -0.079193 -0.38107 -0.057927 0.11369 0.0044965 0.022843 0.045746 -0.51332 0.76945 0.077602 -0.38193 0.77587 -0.37365 0.35223 -0.20347 -0.064217 -0.058448 -0.43355 0.059273 0.49585 0.42016 0.37352 -0.15846 0.16846 -0.16 0.54517 0.047018 -0.01694 0.44556 0.25099 0.15238 -0.36939 -0.11016 -0.20414 -0.089122 0.1715 0.081616 -0.32157 -0.29574 -0.0073938 0.52711 -0.15485 -0.13864 -0.33408 -0.36662 0.19913 -0.25697 0.10633 0.3658 -0.016175 -0.050759 -0.25478 0.057551 0.0034824 -0.23583 0.32113 0.67599 -0.42635 0.26301 -0.22947 0.37445 0.14567 -0.16342 0.29625 -0.070835 0.0094982 -0.23471 -0.23694 -0.46295 0.60582 -0.65382 -0.61283 -0.369 -0.10074 0.030866 0.26406 -0.73549 0.0010653 -0.18482 0.20807 0.15805 0.11295 0.00030205 0.5297 -0.20518 -0.16645 0.18747 -0.2122 -0.12761 0.12143 0.45163
harpoon 0.15542 -1.1766 0.28649 0.17956 -0.29993 -0.47032 -0.18322 0.72211 -0.12736 -0.49396 -0.016828 -0.49359 -0.30556 0.34342 0.062485 -0.50276 0.66412 -0.72734 -0.031215 -0.16437 0.62602 0.55149 -0.26623 -0.024499 0.044358 0.15819 0.21452 -0.24051 -0.66044 0.17563 -0.14199 -0.21579 -0.47434 -0.10284 0.0099663 -0.43097 0.10904 0.57038 0.46705 0.49051 -0.52428 -0.051436 -0.090967 -0.39669 1.1174 0.48504 -0.056771 -0.01064 -0.11987 0.68057 0.10111 0.39526 -0.084411 0.14004 0.016313 -0.44758 -0.060978 0.10173 -0.08927 -0.34061 -0.35476 -0.50139 0.11775 0.66519 0.0093764 -0.23606 0.064582 -0.16238 -0.62906 0.20187 -0.062966 -0.25447 -0.44951 0.69911 -0.42471 -0.18406 -0.38618 -1.0199 -0.69978 -0.13016 -0.28901 -0.18591 0.41436 0.53183 0.10799 0.34077 0.93884 -0.26181 0.15905 0.2503 0.19746 0.46312 0.28532 -0.39635 -0.20955 -0.19232 -0.44501 -0.13454 0.16125 -0.15221 -0.51215 0.083378 0.27867 -0.1189 -0.79484 -1.6082 -0.32694 0.43708 0.1646 -0.6308 0.53958 0.14683 -0.44633 -0.090517 0.45046 0.32016 0.42651 0.38614 -0.46739 1.023 0.39576 -0.14432 1.0516 -0.2804 -0.048966 -0.0040916 -0.80962 -0.070246 -0.90134 -0.033215 -0.073109 0.16115 -0.4247 0.20754 0.12693 -0.090853 0.33535 -0.11558 -0.32387 -0.44129 -1.147 -0.32783 0.26379 -0.27041 0.86671 0.069327 -0.29724 -0.64062 -0.02524 0.32172 0.1798 0.1973 -0.32474 0.72726 -0.11082 0.074833 -0.37824 0.19088 0.56586 0.54439 0.36704 -0.88051 0.0023818 0.2491 0.81485 0.75528 0.23933 0.20874 -0.15384 -0.046743 0.0015832 -0.036161 -0.16306 -0.22512 0.23902 -0.45343 0.0041262 0.40255 -0.017761 -0.21564 -0.3745 -0.14476 0.7167 0.093673 -0.029162 0.20496 0.43679 -0.54135 -0.4666 -0.40157 0.24767 -0.13871 -0.25567 -0.20747 -0.035922 0.54908 -0.13238 0.017641 0.052214 -0.22865 0.042853 0.2888 0.23896 0.4391 0.51189 0.04994 -0.35913 0.67823 -0.17664 -0.20933 -0.17041 -0.17375 -0.18726 0.24739 -0.2116 -0.053713 0.11671 0.56359 0.2884 -0.21921 0.15479 0.45545 0.85068 0.2077 -0.53554 -0.3296 -0.086465 -0.1683 0.020526 0.34597 0.35577 -0.099116 0.48924 -0.59392 0.08737 0.064387 -0.072138 0.34182 0.10046 0.13001 -0.14898 -0.16267 0.22525 -0.22476 0.38844 -0.016551 -0.33279 -0.72396 -0.53688 0.30494 -0.20527 -0.36871 -0.1424 -0.25441 0.054285 -0.2426 0.052981 -0.29325 0.37252 -0.069934 -0.089738 0.17047 0.13399 -0.035903 0.25472 0.11932 -0.20138 0.36888 -0.40423 0.17962 0.13232 0.39377 -0.18946 0.18866 0.67308 0.3263 -0.018848 0.11258 0.45287 -0.18185 -0.089148 0.40885 -0.57529 -0.4608 0.68026 -0.42582 0.31296 -0.53517 0.032519 0.013049 0.17223 -0.39594 0.16193 0.15463 0.025814 0.28723 -0.97197 -0.086303 0.156 -0.26809
teargas 0.55807 0.44042 0.51755 -0.14653 -0.7951 -0.87064 -0.69455 0.031736 -0.19086 -0.36461 -0.090438 -0.46192 0.43737 -0.12892 -0.51859 -0.18844 -0.054289 -1.3069 -0.3849 -0.40518 -0.1304 0.3861 0.025841 0.12872 0.11106 0.13415 -0.8409 0.067843 0.015526 -0.78408 0.59091 -0.40633 -1.0749 0.013321 -0.26647 -0.089396 0.24919 0.24644 0.5666 -0.84351 0.44822 0.088741 -0.41482 -0.38312 0.17041 0.3833 0.074717 0.30707 -0.29993 0.73507 -0.6731 0.0078942 -0.82486 0.64992 -0.32125 -0.41975 -0.76817 -0.5417 -0.95674 -0.15938 -0.49697 -0.1203 -0.52138 -0.20104 -0.19099 -0.017105 0.12077 0.28932 0.0027428 0.098065 -1.003 -0.027369 -0.71431 1.4516 0.38326 -0.058441 0.56902 0.12432 -0.44945 -0.3271 0.042768 -0.15496 0.056468 0.39541 -0.044772 0.72465 -0.089297 -0.55903 -0.14802 0.36732 0.10529 0.0060321 0.8687 -0.55673 0.43968 -0.15699 -0.19154 0.48385 0.11659 -1.0676 0.16447 0.90274 0.018671 0.068274 0.41092 -2.0333 -0.11937 0.48815 -0.10018 0.34039 -0.21182 -0.72051 -0.47003 -0.080403 -0.51879 0.34081 0.93646 1.3792 -0.60263 0.014187 -0.75705 0.32571 0.053211 -0.31984 -0.25767 -0.907 -0.35575 0.57967 -0.10332 0.59505 0.22031 0.53428 0.004356 -0.10187 -0.0049485 -0.47344 0.51292 0.95178 -0.69273 0.85268 -0.35341 1.2658 0.33398 -0.13069 0.75446 -0.045717 -0.063493 0.062768 -0.70001 -0.223 0.32039 0.50762 0.052215 -0.32857 -1.0037 0.28596 -0.038767 0.28868 0.018631 0.032422 -0.011045 -0.42123 -0.036337 -0.22794 0.68837 0.37388 -0.40647 -0.18618 -0.66217 0.54911 0.23599 0.23603 -0.21227 0.35824 -0.16625 0.20036 -0.75488 0.38965 0.14298 -0.76817 -0.01319 0.37677 0.41872 0.23521 0.26555 -0.29021 0.5473 0.36588 0.25229 -0.29623 0.34093 -0.41097 0.13231 0.15922 0.80463 0.063134 -0.36124 0.019796 -0.2704 -0.52803 0.31773 -0.11126 0.46591 -0.10773 0.32034 -0.24015 0.033707 -0.16091 0.72991 0.3925 0.25296 0.2905 0.19994 0.15365 -0.02552 -0.94697 0.47494 0.16441 0.57192 0.16554 0.1373 0.89198 0.34358 0.18841 -0.18197 -0.38026 -0.61994 -0.28583 -0.39215 -0.2029 0.7502 0.66441 0.092922 -0.48829 0.13449 0.028873 0.11585 0.048 0.18209 -0.23774 0.36433 0.35585 -0.056971 -0.92976 -0.021944 0.76454 0.45185 -0.35528 -0.21609 0.54409 -0.7854 0.40388 0.073079 0.077435 0.56737 -0.30924 -0.053517 0.014925 -0.50158 -0.030701 -0.15982 -0.061627 -0.013429 -0.40777 0.12782 0.72515 -0.61007 -0.40103 -1.1033 -0.20142 0.28601 0.25015 -0.039963 0.36807 0.50314 0.45333 0.12375 -0.7977 0.19435 0.023407 -0.051017 -0.46909 -0.49656 -0.068658 -0.59423 0.1632 0.60215 0.24536 0.28958 0.01204 0.26463 -0.30263 0.6753 -0.11675 -0.62034 -0.039835 0.072044 0.15466 0.043817 0.48287
