love 0.13949 0.53453 -0.25247 -0.12565 0.048748 0.15244 0.19906 -0.06597 0.12883 2.0559 -0.44339 -0.10174 0.27118 -0.12429 -0.45753 0.055878 -0.30395 0.79543 -0.2906 0.51908 0.16909 -0.32743 0.20606 -0.083885 0.19696 0.32847 0.087838 -0.12784 0.30979 0.20692 -0.085855 0.5479 -0.42344 0.34573 0.22921 -0.21538 0.091481 -0.27801 -0.34183 -0.13067 -0.24061 0.25755 0.13109 0.32772 0.20634 0.29093 -0.4216 0.48984 0.24333 0.037458 -0.16604 -0.17116 -0.1662 -0.31993 0.54011 0.26113 -0.52505 -0.13453 -0.12183 -0.038383 0.13733 -0.35703 -0.70702 0.045393 -0.080799 -0.037749 0.021431 0.22084 -0.073788 -0.26571 -0.25704 0.13375 -0.20073 0.12515 0.10129 0.2928 -0.057409 0.094001 0.021467 -0.16589 0.28369 0.2415 0.12153 -0.21843 0.31459 -0.56409 0.032922 -0.27864 0.29464 -0.22066 -0.097385 0.048704 -0.2443 0.30807 0.1167 0.38387 0.13172 0.17848 -0.39812 -0.3939 0.25316 -0.15681 -0.17198 -0.11697 0.20308 0.058334 0.032858 0.065567 -0.025386 -0.019887 0.2489 0.072835 0.0011936 -0.39003 0.18767 -0.16083 -0.028072 0.23153 0.27805 -0.014002 0.028585 -0.34755 0.1415 0.053722 0.71957 0.39155 0.028079 -0.038999 0.058233 0.04528 -0.43391 -0.15049 -0.39168 -0.0053075 0.0014706 0.017932 -0.27675 -0.23026 -0.044797 -0.11469 -3.2899 0.036923 0.36969 0.052848 -0.53959 -0.22668 -0.11084 0.27184 -0.27381 -0.39751 -0.15191 0.40173 0.25833 0.10584 0.039291 -0.14396 -0.16432 -0.64371 -0.3486 -0.24962 0.054873 0.3909 -0.10165 0.0016311 0.17129 0.21923 0.35316 -0.4935 0.093036 0.1298 -0.11907 -0.1133 0.60814 -0.37138 0.47935 0.20217 -0.27977 0.073912 0.12773 -0.36454 0.21015 -0.36394 0.15769 -0.17778 -0.13651 0.0394 -0.536 -0.42339 -0.044968 -0.16835 -0.088618 -0.26202 -0.13446 -0.56185 -0.014444 0.145 -0.04111 -0.37047 0.18296 0.468 -0.3303 -0.21653 0.014545 -0.097622 0.30537 -0.15802 0.13984 0.22848 -0.08337 -0.040741 -0.45021 -0.079202 -0.00894 -0.50169 -0.13536 0.31606 0.33749 -0.25901 0.26496 0.14153 0.11648 0.19042 -0.0036783 0.30213 -0.072898 0.061077 0.29146 0.13043 0.102 -0.10795 -0.51278 0.14385 -0.52894 0.062404 -0.1509 -0.23326 -0.20287 -0.093445 -0.011326 0.22487 0.13957 -0.014241 -0.018765 0.38323 0.064715 -0.10319 -0.66647 -0.10057 0.077504 0.37604 0.24435 0.05035 -0.39705 -0.11248 -0.14296 0.33583 0.17513 -0.050436 -0.13719 0.055704 0.055732 0.31925 -0.26293 0.30683 0.094407 0.3444 0.30324 0.41765 -0.10427 0.4185 -0.67893 -0.16072 -0.82023 -0.014762 -0.091018 -0.0089553 -0.026122 -0.13455 0.19263 0.33113 -0.15297 -0.36822 -0.14649 -0.31547 0.13963 0.29885 0.67198 0.22049 -0.18279 -0.24811 -0.12438 0.17844 -0.099469 0.0086822 0.089213 -0.075513 -0.049069 -0.015228 0.088408 0.30217
family -0.012915 0.37364 -0.13332 -0.28754 0.34285 -0.13437 0.31249 -0.46877 0.21565 3.2295 -0.60759 0.008392 0.20983 0.07127 -0.33174 -0.094412 0.18584 0.92464 -0.096517 0.3251 -0.32978 -0.44535 -0.19465 0.61653 0.35656 0.23991 0.023272 -0.0056761 -0.40104 0.10889 0.14322 -0.25958 0.19049 -0.048593 0.3117 0.14619 0.42143 -0.33318 -0.23139 0.33957 0.18446 -0.069072 -0.034697 0.39787 0.31212 0.16392 0.22275 -0.55881 0.90957 0.56981 -0.30839 -0.55751 0.2697 0.42272 0.13441 0.043661 -0.32969 0.35517 -0.17976 0.32357 0.7668 0.44923 -0.009315 0.27116 -0.019999 -0.19384 -0.40713 0.61171 0.026768 0.10776 0.038864 0.30081 -0.46167 0.028184 0.2719 0.0165 0.3411 0.037714 0.27917 -0.2292 0.27357 0.48887 -0.2164 -0.088514 0.2501 -0.053824 -0.26612 -0.2558 0.67827 -0.01708 -0.4715 0.7063 -0.11441 -0.063951 -0.066221 -0.14912 -0.23585 0.0016436 0.29966 0.063799 -0.16305 0.1039 0.11411 -0.015701 -0.1639 -0.5748 0.53179 0.16553 0.17352 -0.052326 0.19145 0.61443 -0.28908 0.15707 0.10432 -0.46177 0.10873 0.017484 0.24907 0.29331 -0.24475 -0.23587 0.061943 -0.50885 0.26354 0.27505 0.11891 -0.63304 0.032903 -0.18007 -0.16546 0.35532 -0.31508 -0.1267 -0.44512 -0.41261 -0.018702 0.11607 0.088905 0.46327 -1.0943 -0.52057 0.28967 0.27642 -0.48415 0.14251 -0.41909 0.049144 0.23235 -0.25545 -0.23363 0.40964 0.25269 -0.035397 0.055025 -0.01912 0.47061 -0.0037647 -0.19984 -0.44163 0.11137 0.0070371 -0.099708 -0.26599 0.36623 -0.30737 0.20532 -0.25539 0.738 -0.14372 -0.15177 0.2087 0.19895 0.74802 -0.30085 -0.47795 -0.33736 -0.096518 0.077442 0.071109 0.12901 -0.4894 0.13566 0.27888 0.070616 -0.13539 0.0098341 -0.10204 -0.45962 -0.28689 -0.75236 -0.046523 -0.34242 0.028467 0.065694 0.31724 -0.12947 -0.29666 0.23819 0.18218 -0.32881 -0.35064 0.3522 -0.30338 0.027287 -0.00096586 0.11985 0.2748 -0.5695 -0.44809 -0.87168 0.43277 0.13849 0.33947 0.10876 -0.46341 0.64621 0.021731 -0.052799 0.080196 0.0047035 -0.36527 0.12008 0.42333 -0.29899 0.10917 -0.28959 0.13482 -0.31021 0.23182 -0.51991 -0.42218 -0.097269 0.50212 0.20288 -0.17373 -0.15953 -0.12366 0.33349 0.13642 -0.3128 0.2854 0.39363 0.42642 0.169 -0.015048 -0.35797 -0.074418 -0.1635 -0.25843 0.72654 0.35199 0.010222 -0.085916 0.2842 -0.052945 -0.13079 -0.29727 -0.23161 -0.087496 -0.67446 0.16051 0.12182 0.10235 -0.25236 -0.074293 -0.11251 -0.067368 -0.53673 0.10827 -0.32336 -0.037511 -0.51284 -0.32566 -0.30596 0.17299 -0.36574 0.28095 -0.52343 0.14988 0.14183 0.20204 -0.30628 0.16899 0.17395 0.71511 0.21232 0.34286 -0.55915 -0.013525 -0.4698 -0.10413 -0.30038 0.29717 0.15169 0.11328 0.11281 -0.3807 -0.062887 -0.22051
health -0.32881 0.21108 0.043552 0.13979 -0.52884 -0.051644 -0.33082 -0.12381 -0.027482 3.2725 -0.95697 -0.18551 -0.1315 0.19451 -0.17047 0.26562 0.22098 1.7486 -0.64204 -0.077755 -0.02453 0.6374 -0.030614 -0.62041 0.23933 -0.36727 0.060124 0.23843 0.26267 -0.37098 -0.60564 -0.069927 0.33869 -0.4265 0.34224 0.013294 0.10972 0.060027 -0.41023 0.44138 0.29172 0.33538 -0.5154 -0.29832 -0.23043 0.15725 -0.43485 0.21103 0.2104 -0.080232 -0.79495 -0.26638 0.69827 -0.38734 -0.087617 0.092663 0.22422 0.61503 0.11925 -0.53161 -0.041816 -0.30765 -0.16384 -0.12057 0.53617 0.20648 0.32788 -0.019545 -0.27603 0.30034 -0.60207 -0.26588 0.20489 -0.10422 0.73177 0.25777 0.10356 -0.29657 0.15593 -0.11592 0.03437 0.19574 -0.21414 0.38057 -0.25573 -0.3961 -0.3381 0.085079 -0.2412 0.10286 0.036657 -0.11592 -0.16387 -0.30408 -0.47404 -0.4956 0.066344 0.021715 -0.096796 -0.050327 -0.19369 -0.041357 0.31388 -0.13101 -0.35704 -1.6251 0.10732 -0.062876 -0.5127 -0.20636 -0.0051127 0.38329 -0.59936 -0.51844 0.20495 -0.026191 -0.0088076 -0.0062742 0.31784 -0.010431 0.32659 0.56179 0.019495 -0.73675 0.062946 0.16263 0.36373 0.048501 0.15951 -0.312 0.060345 -0.39996 0.23356 -0.34421 0.2709 0.21531 -0.049184 -0.35621 -0.057325 0.0073295 0.22404 0.27215 0.67054 0.029539 0.22605 -0.21835 0.21361 0.24876 -0.41475 -0.079038 -0.32564 -0.43497 0.41842 0.18752 0.010096 -0.08193 0.47166 0.11185 -0.4266 -0.013805 0.50503 0.52691 0.13217 -0.4379 0.059767 0.1371 0.64892 -0.31629 -0.14315 -0.55207 0.1771 -0.28379 0.407 0.074761 -0.13422 0.23964 0.17042 0.71176 0.71834 0.63868 -0.32481 0.016447 -0.14155 0.3102 0.37969 -0.17846 -0.15653 0.095415 -0.73072 0.14173 -0.33896 -0.048991 0.24626 -0.515 -0.16697 0.46497 0.016621 -0.0033207 0.57353 0.24674 0.00097843 -0.29414 -0.15266 0.14994 -0.47668 0.56139 -0.20623 0.18259 -0.12693 -0.42322 -0.51254 -0.04517 -0.24755 0.2195 -0.27637 -0.86335 0.51941 0.29018 -0.38674 -0.19382 -0.72564 -0.046659 -1.0637 0.28793 -0.11768 -0.27369 -0.15231 0.12132 -0.056115 -0.038326 -0.44486 0.11362 0.23695 -0.48947 -0.22704 0.21016 0.14257 -0.47739 0.091464 -0.11329 -0.70159 -0.25456 0.35839 -0.093338 -0.15415 0.17727 0.084677 -0.36589 -0.27441 -0.43006 0.40131 0.16713 0.25995 -0.27959 -0.10164 0.48964 -0.46979 0.26124 -0.20056 -0.24723 -0.75513 0.063123 0.36439 0.29707 -0.080736 -0.42967 -0.30026 -0.032673 0.19879 -0.14637 -0.45976 -0.20188 -0.037192 0.1492 0.086076 0.56872 0.062187 0.43064 -0.16964 0.53078 -0.81827 -0.041262 0.25041 0.10046 -0.19745 0.30148 -0.081346 -0.065166 -0.041397 0.1175 0.092175 0.054948 -0.0033672 -0.076881 -0.05531 0.057904 0.016996 -0.23823 0.15785 0.24124
friend 0.07781 0.17561 -0.59164 0.25467 0.35536 -0.012292 0.20112 -0.66995 -0.31542 2.5369 -0.47548 0.1707 -0.11695 -0.38549 -0.27835 0.055296 -0.064078 -0.079487 -0.34494 0.35774 -0.21811 -0.41706 -0.64098 0.036701 0.25344 0.34272 -0.04791 -0.092455 -0.080844 -0.0086637 0.30313 0.2896 0.061777 0.060687 -0.01842 -0.30602 0.14682 -0.49091 -0.29218 -0.40193 0.36411 -0.13362 0.26271 -0.15217 0.0061636 0.3129 -0.10259 -0.3986 0.51418 -0.1792 -0.1092 0.040899 0.15443 0.14247 -0.16709 0.010487 -0.49335 0.085772 0.1322 0.19391 -0.2414 -0.27869 -0.15202 0.068752 0.3137 -0.277 -0.12181 0.3377 -0.13723 0.33939 -0.11314 0.020617 -0.16057 0.24231 0.0038482 0.35326 -0.0096347 -0.23555 -0.32013 0.28366 0.10229 0.19685 -0.059373 -0.1854 0.1799 -0.45729 0.6303 -0.31245 0.31529 0.02139 -0.29945 0.14386 -0.16443 0.25517 -0.11417 -0.37181 0.060008 -0.086672 -0.039532 0.32137 0.066685 0.0096489 0.50555 -0.12575 -0.21114 0.38425 0.13929 0.17109 0.1701 -0.11413 0.12128 -0.24111 0.052386 0.26319 0.022112 -0.019803 -0.015769 -0.24763 0.030424 0.10945 0.22978 -0.35119 0.72809 -0.20763 0.62868 0.087142 -0.21424 -0.069316 -0.40411 0.18423 -0.38387 0.061937 -0.22763 0.35271 0.049149 -0.33885 -0.16799 0.26675 -0.13637 -0.032153 -2.3097 -0.18342 0.011095 0.13269 -0.34031 -0.34762 -0.29551 -0.11052 -0.53525 -0.30782 -0.16805 0.33401 -0.38182 -0.25845 0.14774 0.21321 0.20519 0.020232 -0.029435 -0.6414 0.1033 -0.10655 0.023528 -0.47305 -0.109 -0.45158 0.12598 -0.010257 0.29757 0.1974 -0.2506 0.077568 0.54502 0.21065 0.030645 -0.18441 -0.30108 -0.10272 -0.20489 0.093007 0.14178 -0.42252 -0.098239 0.25605 -0.024678 0.26789 -0.21485 -0.1023 -0.21647 -0.43018 -0.44709 0.077053 -0.41606 -0.010182 0.21882 0.0010619 0.19402 -0.10831 0.39491 0.066868 -0.564 -0.10744 -0.37649 -0.22632 0.1637 0.33439 0.3476 -0.12175 0.0049535 -0.33996 -0.37911 -0.53179 -0.25522 0.12019 0.098629 -0.026616 0.17257 -0.0024376 -0.44958 -0.20691 -0.12843 0.070049 0.075926 0.52512 0.084008 -0.10056 0.26087 0.44333 -0.24152 0.17092 -0.28207 0.15183 0.0061362 -0.050025 -0.092243 -0.18859 -0.43935 0.57676 -0.16021 0.31295 3.7985e-05 0.24841 0.03778 0.089665 0.17232 0.10635 0.027202 -0.20939 0.17235 0.12455 0.15935 0.063692 -0.25054 0.22869 0.15568 0.27283 -0.061089 -0.61089 -0.10583 0.1203 -0.024005 0.23791 -0.27022 -0.21587 -0.27053 0.039957 -0.10879 0.3637 -0.27205 -0.076876 0.25047 0.087826 -0.36081 0.14852 0.18155 0.001527 -0.29401 -0.086911 0.061126 0.03399 -0.097012 -0.014318 0.35987 -0.091116 -0.066815 0.20913 0.4014 0.044707 -0.309 0.11652 0.19711 0.017036 0.05398 0.42092 0.5826 -0.28945 0.22655 -0.076056 -0.12362 0.16777
happy 0.036775 0.40917 -0.52141 -0.067184 0.087702 -0.048564 0.40947 -0.42818 0.19304 2.3925 -0.11441 -0.22952 -0.16061 0.035533 -0.53179 0.19764 -0.48827 0.57439 -0.064301 0.47053 -0.29647 -0.15927 -0.052798 0.10121 -0.054461 0.036129 -0.16118 -0.34139 0.45834 -0.20144 -0.29067 -0.51888 -0.062106 0.14084 0.016413 0.050826 0.13243 -0.033663 -0.42228 -0.30086 0.06202 0.26338 0.077223 0.27307 0.13392 0.30183 -0.16546 0.057011 -0.0034585 -0.071113 -0.27287 -0.10297 0.07457 -0.32104 0.36696 0.27051 -0.15776 0.2978 -0.18988 0.097477 0.035665 -0.49749 -0.52759 -0.046148 0.021715 -0.11047 -0.18007 0.20295 0.15254 -0.045976 -0.21846 -0.066865 -0.21355 0.017509 0.66474 0.25527 0.24864 -0.094851 -0.012857 0.46896 0.052031 0.62488 -0.12662 0.063972 -0.15719 -0.45907 0.32286 -0.17502 0.64181 0.091587 -0.075871 0.11718 -0.13864 0.24951 -0.40664 0.08845 -0.29196 -0.51624 -0.074847 -0.012822 -0.088844 -0.19935 0.052734 -0.13588 0.231 -0.34368 0.30607 -0.21223 0.08178 0.10097 0.33585 -0.17491 0.019115 0.15998 0.38803 -0.35932 0.31682 -0.18614 0.11732 -0.068517 0.50785 -0.0035486 0.20069 0.25218 0.38309 0.19359 0.43857 -0.29954 -0.14219 0.087962 -0.14229 0.10075 -0.58986 -0.12672 0.036944 -0.050421 -0.19875 -0.051368 -0.023402 0.08744 -2.4938 0.15427 0.12373 -0.0086429 -0.17007 -0.519 -0.29962 0.24369 -0.20535 -0.24942 -0.079362 0.40986 -0.10753 0.098907 -0.063449 0.05373 0.26206 0.13207 -0.067694 -0.56168 -0.18867 0.14453 -0.22469 -0.28404 0.20909 -0.46989 0.30992 -0.13283 0.041392 0.11146 0.17015 -0.059407 -0.16098 -0.2211 -0.0035877 -0.22357 -0.01852 -0.23026 -0.18824 0.32997 0.16287 -0.52067 0.17308 -0.024264 -0.041321 -0.3241 -0.44122 -0.11114 0.22684 -0.10883 -0.1278 -0.16696 0.051048 -0.12131 0.18038 0.19793 0.134 -0.37113 0.36008 0.092685 -0.30263 0.16565 -0.10863 -0.29565 0.26143 0.13369 -0.090181 0.021989 -0.093353 -0.20325 -0.2008 0.20721 0.17208 -0.20199 0.043315 0.17768 0.57448 -0.45917 -0.077197 0.12051 0.07209 -0.095313 0.10973 0.22375 0.045804 -0.13573 0.14041 -0.11364 -0.46605 -0.43262 -0.058678 0.19043 -0.40867 0.30509 0.18542 0.095309 -0.42329 -0.15225 -0.13827 0.18119 0.14755 -0.053628 0.031298 0.65695 -0.1717 0.23649 -0.34742 -0.17438 -0.085304 0.37687 0.21322 -0.13184 -0.35197 -0.14072 0.2332 0.21014 -0.14763 0.047515 -0.27979 0.090331 -0.15565 0.42803 -0.019297 0.012198 0.036031 -0.10396 0.11014 0.13458 0.2775 0.36225 -0.35591 -0.16877 -0.41201 0.070133 -0.27769 0.13739 -0.057831 0.19277 0.11131 0.53696 0.0093424 -0.26107 -0.38663 0.040653 0.18617 0.26312 0.12212 -0.030012 0.096286 0.47376 -0.21633 0.10798 -0.17703 0.22116 0.6726 0.065036 -0.017414 -0.048585 -0.090863 0.28591
gift -0.16359 0.17215 0.23634 -0.29095 0.15401 -0.40109 0.2512 -0.32574 0.11279 2.1002 -0.5766 0.48324 -0.18073 -0.27672 0.033837 -0.37426 -0.34725 1.3009 0.67521 0.17974 -0.37582 -0.25017 -0.33452 0.021518 0.071528 0.44516 -0.14814 0.36324 -0.2803 -0.015649 -0.09128 -0.17636 -0.18646 0.36362 -0.11131 0.13225 0.064653 -0.51066 0.31553 -0.13962 0.059904 0.28374 0.1192 -0.39021 0.46042 0.12742 -0.51022 -0.43192 0.3053 0.11162 0.1701 -0.36783 0.58884 -0.023914 0.37581 -0.19709 0.073208 0.50987 -0.46252 -0.099427 0.23692 -0.26679 -0.2789 -0.16215 -0.13795 -0.29338 0.22785 0.5152 -0.25036 -0.17138 0.046588 0.24803 -0.36627 -0.18163 0.47833 0.92903 0.38402 -0.18034 -0.35164 0.395 -0.0044371 0.75001 0.12223 0.19088 -0.020034 -0.50984 0.18884 0.9415 0.20623 -0.69746 0.1491 0.44727 0.0020472 0.33858 -0.36807 0.16618 -0.42884 -0.34529 0.2396 -0.24632 -0.24792 -0.49072 -0.3539 -0.21603 -0.16245 0.047199 0.26194 0.46696 0.068554 -0.082366 0.34952 0.15964 -0.24109 -0.18845 0.18618 -0.25361 -0.017022 0.2789 0.26842 0.40851 0.82114 -0.043182 0.37363 0.60107 0.21712 -0.19077 -0.42833 -0.041053 0.16353 0.088221 -0.20697 -0.18955 -0.19603 -0.5583 -0.64811 0.039691 0.10345 -0.23566 -0.15062 0.12322 -1.8625 0.41594 0.4319 0.28112 -0.48009 -0.30128 0.40879 0.22069 -0.21384 0.082167 -0.10178 0.018595 -0.19094 -0.054527 -0.071862 -0.47588 -0.046577 -0.23698 -0.43605 0.18838 0.37107 0.50975 -0.014458 0.04164 -0.3142 -0.27513 0.21917 0.25766 0.40808 0.34716 0.10467 0.22534 0.69159 0.56554 0.17627 -0.27742 0.071715 0.053169 0.066253 0.16687 0.17787 -0.20599 0.82819 -0.039072 -0.1087 -0.23177 -0.16066 -0.076505 0.087873 0.34141 -0.55745 -0.019827 -0.448 -0.55146 0.60863 -0.15328 -0.21918 -0.19284 1.1313 0.27566 0.32891 -0.36735 -0.48069 0.060633 0.52478 0.34851 0.50093 0.42434 0.13116 0.13526 -0.11273 0.35618 -0.45963 -0.22443 0.258 -0.11668 0.10118 -0.5369 -0.52343 0.32687 -0.34926 -0.21097 0.13483 -0.057223 -0.60591 -0.35945 0.36978 0.24346 -0.32766 0.029189 0.10638 -0.19596 -0.089569 -0.47454 -0.3436 -0.52009 -0.18991 0.040403 -0.25156 0.15755 0.049441 0.42534 -0.15107 0.36668 0.61071 0.052997 -0.44245 -0.16932 -0.42407 -0.21473 0.059323 0.17454 -0.27413 -0.061751 0.34083 0.82423 0.039334 -0.22928 -0.072899 0.24405 -0.16981 -0.18043 -0.26744 0.1397 -0.066332 0.86014 0.25552 0.25023 0.015128 -0.013934 -0.88189 0.20257 -0.053673 0.33976 -0.39451 -0.010508 -0.47273 0.38535 0.46025 -0.35854 -0.28761 -0.094016 0.59207 -0.14403 0.017589 0.040082 0.28799 -0.04213 -0.35172 0.11857 -0.52019 0.53173 0.25875 0.13025 0.19224 -0.5344 -0.014468 0.32722 -0.021374 0.17092
peace -0.014716 0.2794 -0.096438 0.1616 0.17271 -0.59026 -0.59679 -0.12215 -0.22401 2.8973 -0.055058 -0.32255 -0.029401 -0.20335 -0.37394 -0.09897 -0.14174 0.5651 -0.47123 0.7261 -0.086446 0.4071 0.29562 0.045698 0.19745 -0.44133 -0.11531 0.028713 -0.10581 0.66649 0.11381 0.018328 -0.62119 0.11455 0.28847 -0.58489 0.55691 -0.56054 0.1369 0.2428 -0.23975 0.057518 0.44593 -0.25867 0.17294 -0.28848 -0.24556 0.42437 -0.47394 0.0070548 -0.082796 0.33416 -0.15516 -0.17471 0.12968 0.29528 -0.20562 0.25375 0.39375 0.012629 -0.25801 0.3119 -0.050057 -0.85827 0.024528 0.043257 -0.39264 0.32236 -0.30012 -0.39852 -0.68572 -0.11971 -0.048069 0.13901 0.15011 -0.086798 -0.44393 0.17695 -0.31548 -0.081752 0.18319 0.78646 -0.13198 0.18251 -0.31804 -0.29963 -0.21199 -0.71822 0.31462 -0.073806 0.14282 -0.0085753 0.14633 0.53526 -0.41879 -0.16252 -0.057211 -0.42574 -0.068578 -0.27221 0.12511 0.26176 -0.09889 0.041639 0.17496 -1.1043 0.2178 0.40255 -0.13674 0.7526 -0.10259 0.42975 0.016931 -0.21545 0.21933 -0.309 0.39893 0.10175 -0.14342 -0.55082 -0.045923 -0.14856 0.10413 0.66591 0.55528 -0.050838 0.21286 0.45855 0.061561 -0.0479 0.33202 -0.36851 -0.22879 -0.29761 -0.57258 0.70371 0.23554 0.23485 -0.078221 0.30687 -1.6844 0.19864 0.22522 -0.22109 0.15309 -0.059626 0.14284 0.65932 -0.62836 -0.63014 -0.54095 0.18608 0.55213 0.13496 -0.27326 0.38498 0.23379 -0.11362 -0.60688 0.12294 0.35166 0.51759 -0.0057761 0.35001 0.25765 -0.19957 0.32754 -0.65329 -0.22867 0.032656 0.035811 0.42813 0.69736 0.2985 0.6508 0.27919 -0.41388 -0.12305 -0.20174 -0.89183 0.070363 -0.36709 -0.1201 0.047685 -0.059094 -0.15738 -0.18022 -0.68502 0.055091 -0.044861 -0.34008 -0.056081 -0.30614 0.067476 0.27952 0.36357 0.17787 -0.63746 0.17007 0.35229 -0.050125 0.75147 0.25413 0.084079 0.42873 -0.38924 -0.074776 0.15784 -0.34768 -0.50269 0.20158 0.33824 0.49438 0.51569 0.53694 -0.42408 -0.20352 0.085978 0.32531 0.106 0.10957 -0.15213 0.14894 0.284 0.30529 0.316 0.064293 0.17293 -0.43271 0.11692 0.21133 0.17849 -0.5106 0.068557 0.33222 0.038213 -0.16322 -0.064862 -0.79333 -0.23737 -0.23925 -0.18727 0.14757 -0.17552 0.28386 0.16219 0.13075 -0.30017 0.13918 -0.70285 -0.011252 0.12021 0.066118 0.22796 -0.39298 0.41646 0.19903 -0.2579 -0.45508 -0.0093336 -0.25794 0.011347 0.13414 0.48989 -0.32699 -0.9491 0.048245 0.15742 0.052601 -0.28401 0.060441 0.16467 -0.59954 0.18568 0.058485 0.54893 0.58411 0.39058 -0.041051 0.34735 0.35524 -0.73799 0.0489 -0.20526 0.082013 0.14447 -0.24265 0.80515 -0.046803 -0.18536 0.036163 0.34756 0.063999 -0.1138 0.17273 -0.092405 0.25978 0.26872 -0.0281 0.39567
vacation 0.3104 0.069014 0.19369 -0.77551 0.57373 0.24866 0.11869 -0.14767 -0.022964 2.8197 -0.93265 -0.2408 0.18777 0.14896 0.21329 -0.79066 0.14088 1.0266 0.35279 0.4513 0.28633 0.17398 -0.24042 0.53431 -0.13876 0.011835 0.018396 -0.44819 -0.027452 1.1108 -0.040424 -0.48629 -0.13286 0.66228 0.003309 -0.018716 0.71497 -0.40131 -0.41296 0.14478 -0.16971 -0.038036 -0.080138 -0.42987 -0.00059302 0.63482 0.24898 -0.050986 1.0049 -0.38869 -0.28025 -0.37386 -0.16012 -0.36623 0.18446 -0.019357 0.13795 0.19397 0.28827 0.00057047 0.65368 0.15033 0.083447 -0.065231 -0.037823 -0.025255 -0.28061 0.84663 -0.2208 0.33448 0.42418 0.2688 -0.38853 0.016091 -0.14934 0.026553 -0.14699 0.49558 -0.44375 -0.1353 -0.033092 0.33946 0.080763 -0.015522 -0.066064 0.69642 0.045776 0.74744 1.2744 -0.16043 0.065815 0.27091 -0.40361 -0.033263 -0.56162 0.086936 -0.47869 -0.011304 0.66093 0.40166 0.2289 0.26539 -0.33661 0.17478 0.71431 -0.20918 0.32886 -0.3172 -2.4431e-05 -0.16677 0.33578 -0.098625 -0.2558 0.13677 -0.0086066 -0.85598 0.77571 0.35293 -0.62479 -0.15507 0.49579 0.21425 -0.20841 -0.11419 0.099504 0.58407 -0.58717 0.084944 0.4262 0.12442 -0.38326 -0.30433 -0.41869 -0.57388 0.081827 0.22739 -0.24975 -0.0072968 -0.47341 0.13605 -1.1554 0.16855 -0.0071834 0.049914 -0.17696 0.24895 -0.30519 0.44121 0.56463 -0.41161 0.33171 0.1006 -0.23034 -0.76192 0.16687 0.29989 0.9462 0.18647 0.1029 0.16522 0.46782 0.13773 0.0981 -0.16425 0.46389 0.3925 -0.057196 0.45146 0.46845 -0.064862 -0.50639 0.12778 -0.3517 0.45925 0.27894 0.27774 0.06776 -0.67345 -0.21373 0.51108 0.080603 -0.74986 -0.36802 0.21408 0.59299 -0.46443 -0.043566 0.072255 -0.21757 -0.059975 -0.17404 0.013586 0.16669 0.085532 0.051981 0.00018399 -0.21027 -0.18986 0.26663 0.56701 -0.55922 -0.45863 0.13521 -0.28761 0.2678 -0.34408 0.032426 0.12719 0.48236 0.14991 -0.20492 -0.093196 0.34023 0.24904 -0.14794 0.032395 0.77562 0.34782 -0.13423 0.28017 -0.25076 -0.17998 -0.091408 0.40847 -0.1895 -0.21665 -0.34913 0.54604 -0.29908 0.10579 0.041608 -0.039008 0.38797 0.28544 -0.034112 0.37415 0.35343 -0.41144 -0.20194 0.70545 -0.47618 -0.64899 0.19837 0.41408 0.10203 0.35936 0.1085 -0.12554 0.20423 -0.42763 -0.15373 -0.042179 0.40568 0.11464 -0.43163 1.0748 0.10718 -0.72425 0.16596 0.36084 0.13967 -0.34172 0.17602 -0.11178 0.36967 -0.44253 -0.36344 0.14774 -1.1195 -0.081599 -1.2009 -0.49773 0.15808 -0.57497 0.1609 0.082886 -0.36747 0.19578 0.22706 -0.21669 0.078159 -0.39155 0.10234 0.54501 0.81738 0.44178 -0.043576 0.011567 0.4742 0.68852 0.18024 -0.12141 -0.089579 0.063524 0.83639 0.18218 -0.29454 -0.22217 0.20988 -0.10816
freedom -0.095083 0.091098 0.1995 0.39786 0.22701 0.046113 0.29415 0.31919 0.03051 2.7011 0.15142 0.016533 -0.28934 0.56975 -0.28327 -0.019553 -0.45802 0.8378 -0.53578 0.92206 -0.16789 -0.045466 0.73469 -0.028443 -0.026528 -0.37213 0.30493 0.11897 -0.34591 0.68684 0.0094168 0.22778 -0.49406 0.13741 0.26297 -0.085612 0.31187 -0.48248 -0.22324 0.24324 0.43387 0.15286 -0.12722 -0.10292 0.03542 -0.082525 -0.12221 0.12668 0.25427 0.04422 -0.40684 0.21088 -0.33693 0.16328 0.44302 0.29357 -0.015708 -0.34997 0.58213 -0.27583 0.15297 0.1968 0.36875 -0.19133 0.014724 -0.34503 -0.10966 0.23209 -0.026429 -0.66789 -0.5398 0.25362 -0.39463 -0.26177 0.19668 -0.49289 0.17059 0.71616 -0.088458 0.48444 -0.33302 0.475 0.077043 0.14895 -0.064776 0.1589 -0.40403 -0.60662 0.36529 -0.20678 -0.2592 0.41297 0.20639 0.11425 -0.07269 0.08774 -0.45129 -0.038042 -0.3571 -0.60167 0.25336 -0.14222 0.17324 -0.023079 -0.19567 -1.6657 -0.13073 0.52468 -0.36903 0.93252 0.17339 0.74851 0.16572 -0.48723 -0.16302 0.17549 0.14358 0.24684 -0.30236 -0.40876 0.026502 0.084111 0.20285 0.62787 0.1608 -0.11701 -0.0089697 0.26757 -0.026109 -0.0068223 -0.026003 -0.065957 -0.38255 -0.33643 -0.05845 0.38501 -0.20735 0.40061 -0.15551 0.13884 -1.2412 0.089692 0.27139 -0.16061 0.37332 -0.062385 0.26917 0.43245 -0.48045 -0.40014 -0.0055302 -0.29539 0.33219 -0.05366 -0.022477 0.21354 0.23736 -0.080681 -0.098997 0.079094 0.16027 0.22979 -0.050174 0.21483 -0.16011 -0.19121 0.59065 -0.61349 -0.12086 0.21499 0.22375 -0.081023 0.68738 -0.33474 0.74512 0.65995 0.16696 -0.4559 -0.090202 -0.38727 0.22868 -0.20762 0.27315 0.0014409 0.45891 -0.30278 -0.40432 -0.34387 0.17265 0.39911 -0.52741 -0.19336 0.233 -0.27472 0.19389 0.65356 -0.1175 -0.23864 -0.044382 0.34386 0.10038 0.26231 -0.014614 -0.30701 0.022185 0.34639 -0.18355 -0.48106 -0.078092 -0.18107 -0.14093 -0.014879 0.27632 0.54605 0.23284 0.037688 -0.092058 0.27638 -0.30619 0.26811 -0.045455 0.23639 -0.0076855 -0.24664 0.083764 -0.29888 0.041608 -0.23913 0.29683 0.1008 -0.25566 0.026265 -0.031897 0.010176 0.50355 0.33893 0.10888 -0.073946 -0.0023425 0.43475 -0.10407 -0.072741 0.19309 0.049887 0.33908 0.073229 -0.23453 0.063741 -0.37641 -0.09026 0.094326 0.35453 0.018685 -0.49833 -0.86083 0.42185 0.0047784 -0.14283 -0.13608 -0.19421 -0.36762 0.10196 -0.44847 0.54633 -0.26682 -0.34134 -0.014555 0.040636 0.42709 0.25039 -0.12335 -0.26042 -0.29972 0.25637 0.27472 0.11091 0.16537 -0.033942 0.17034 0.25468 -0.24455 -0.36449 -0.0023643 0.34413 -0.1693 -0.032662 0.19457 0.34354 0.31397 -0.48132 0.015993 -0.20855 -0.48117 -0.2918 0.15316 0.17853 0.26859 0.49426 -0.10934 0.74525
honest -0.71589 0.34239 -0.77676 0.26212 -0.10379 0.36726 0.467 -0.14406 0.57709 2.5908 -0.19493 0.46129 -0.2373 -0.043423 -0.30095 -0.053903 -0.23759 0.15635 -0.24841 0.29752 0.099266 -0.29722 0.22548 -0.4931 0.22942 -0.16271 0.32375 0.037569 0.26653 -0.38514 -0.17016 0.13253 -0.42223 0.15191 -0.3886 -0.21369 -0.39359 0.013482 -0.22987 -0.13661 -0.088542 0.099442 0.20842 -0.11473 0.15513 -0.30508 0.13929 0.032686 -0.1218 -0.38747 -0.35288 0.28165 -0.0028459 -0.23328 0.2842 -0.068136 -0.28643 0.0031849 -0.060303 -0.20183 0.24796 -0.4061 -0.13044 -0.30089 0.10163 -0.18775 -0.027313 0.040484 -0.15165 0.22969 -0.16759 0.31553 -0.20501 0.12645 0.33705 0.19353 0.22681 -0.17862 -0.062395 0.88885 -0.049873 -0.38343 0.30835 -0.093348 0.033592 -0.16029 0.16864 -0.1925 0.2871 -0.45915 -0.39384 -0.12322 -0.34652 0.66304 -0.12701 0.065862 -0.23818 -0.3426 -0.36193 -0.3564 0.43184 -0.16313 0.068116 -0.12506 0.20784 -1.2616 -0.00048677 -0.14999 -0.47973 0.12695 0.18727 -0.34854 0.20395 -0.44458 -0.16939 0.21927 -0.23069 -0.66979 -0.11441 -0.21627 0.0023849 -0.23709 -0.44389 0.20523 0.47847 0.32127 -0.15912 -0.52501 -0.39909 -0.34794 0.047087 0.39448 -0.54658 -0.37994 0.096018 0.44948 -0.090901 -0.35076 0.19446 -0.3615 -1.7768 0.23066 0.25819 0.0095288 -0.46108 -0.4601 -0.77023 0.12362 0.1599 0.04689 -0.045764 0.092141 0.24997 -0.048706 0.32313 0.77722 0.25334 -0.4385 -0.52149 -0.41696 -0.27845 -0.10494 0.41291 0.2676 0.018886 -0.23223 -0.14192 -0.67305 -0.2463 -0.12876 -0.15115 -0.23308 0.23216 -0.13229 -0.051294 0.037774 -0.36219 -0.20227 0.046318 0.17976 0.10175 -0.22877 0.045662 -0.039116 -0.040168 0.1704 -0.1628 -0.34247 0.22562 0.026437 0.0019499 -0.071434 0.36622 0.10136 -0.19717 -0.068228 -0.050953 -0.21894 0.51371 -0.058988 0.16982 0.17148 -0.031181 -0.17639 -0.55808 0.14058 -0.15874 0.13624 -0.12446 0.076766 -0.19748 0.12563 -0.20974 -0.27372 0.20784 0.40651 0.18435 -0.023556 -0.3356 -0.16227 0.14826 0.1288 0.25197 0.1906 0.28587 -0.17313 -0.25574 0.34427 -0.073269 -0.58201 0.0029597 0.18179 -0.12186 0.31393 -0.052402 -0.29398 -0.09631 -0.28925 -0.14536 0.16732 0.54735 -0.52848 0.17867 -0.20559 -0.17467 0.095612 -0.033554 -0.33145 -0.088028 0.49854 0.53314 -0.20674 -0.4343 -0.025225 -0.052709 -0.064089 0.05632 -0.48266 -0.047138 0.062537 -0.57107 0.18295 0.35643 -0.057096 -0.34681 -0.51452 0.66645 0.4391 0.57892 0.20026 -0.29721 0.1235 -0.19958 0.035003 -0.22517 0.47378 0.074869 -0.1604 0.36786 0.30718 0.15974 -0.16976 0.089733 0.25862 -0.071084 -0.01958 -0.41605 0.21011 -0.098815 0.44979 -0.53927 -0.068958 -0.59925 0.022476 0.48818 -0.004069 0.4124 -0.31128 -0.19297 0.24207
lucky -0.21025 -0.11536 -0.26877 0.067342 -0.1791 -0.20468 0.12107 -0.45216 0.15805 2.1304 -0.27758 0.047423 -0.20439 -0.39124 -0.090224 0.10449 -0.39556 0.29988 0.68902 -0.029012 -0.24129 -0.25233 -0.32598 -0.00027291 0.1641 -0.44297 -0.27407 -0.033391 0.29373 -0.12318 -0.24605 -0.37315 0.20352 0.24694 -0.23273 0.26364 0.2182 -0.2846 -0.09109 -0.26465 0.033259 0.35353 0.075074 0.035331 0.16664 -0.17407 -0.30862 -0.14514 0.20103 0.1053 0.073809 0.28179 0.13265 -0.038621 -0.12228 0.10272 0.14854 0.3718 -0.21375 0.11682 -0.27592 -0.51125 -0.33487 -0.31569 0.14371 0.085024 0.2283 0.39807 0.13777 0.36989 0.26794 0.10739 0.011697 -0.17285 0.017135 0.30567 0.14156 -0.0029662 -0.32413 0.3677 0.29511 0.26547 0.16166 0.16063 -0.020912 -0.1905 0.48497 0.01966 -0.10178 -0.11202 -0.11053 0.37824 -0.31136 0.028479 -0.20956 -0.12995 -0.27307 -0.31309 -0.29469 0.86269 -0.2225 -0.30557 0.081238 0.085783 0.11274 -0.16322 -0.18855 -0.17903 -0.06071 0.23327 0.50212 -0.206 0.13752 0.063428 0.083187 0.07949 0.069083 0.19085 -0.28608 -0.096039 0.34359 -0.11753 0.19986 -0.35274 0.29999 0.16546 -0.40398 -0.34355 -0.4238 0.19616 -0.1191 0.20149 -0.14959 -0.16409 -0.17091 -0.25227 0.10865 -0.068244 -0.14861 0.33521 -2.7154 0.15189 0.09145 -0.12658 -0.18618 -0.48384 -0.34331 0.2337 0.009011 -0.34025 -0.15403 0.16766 -0.058083 -0.062438 -0.091638 0.1114 -0.043833 0.24177 -0.029082 -0.39258 0.077604 -0.27207 -0.016155 -0.035843 0.42087 0.011084 0.35437 -0.035384 -0.1866 0.22577 0.019379 0.092854 0.28162 0.22098 -0.22605 -0.2254 -0.0097056 0.13483 -0.25834 0.35739 -0.011519 0.13971 0.018101 -0.050757 0.13867 -0.34575 -0.084553 0.014809 0.18147 0.20891 0.30863 -0.053245 -0.17961 -0.18319 0.51256 -0.091134 0.15356 -0.19626 0.086986 -0.24396 -0.16857 -0.45512 -0.21168 -0.092714 0.10449 -0.023621 -0.13387 0.16631 0.21046 -0.23105 0.053283 0.16429 -0.26192 0.088408 -0.23042 0.26249 -0.17752 -0.32005 0.01398 0.11142 0.1344 -0.0059468 0.20981 -0.16705 0.29143 -0.27304 0.057886 -0.027457 -0.1148 -0.20327 0.063198 -0.14853 0.03726 -0.04174 -0.2001 -0.12866 -0.1696 0.082625 -0.044663 0.28685 0.15028 0.025232 -0.098579 0.66492 0.3005 0.098127 -0.12445 -0.24262 -0.14743 0.70942 -0.1225 0.098078 -0.33797 -0.17239 0.13947 0.39424 -0.28334 0.070489 -0.14777 0.060006 0.16604 0.056118 -0.53393 0.029855 0.054681 0.067426 0.16825 0.23705 -0.096279 0.3148 -0.58063 0.06292 -0.38866 0.17386 -0.38715 0.15689 -0.31524 0.18739 0.026073 0.26658 -0.2392 -0.060794 -0.49776 0.17574 0.53412 -0.17942 0.11156 -0.19146 0.34003 0.70965 -0.30527 0.10506 -0.15295 -0.11049 0.45076 -0.077362 -0.0066377 -0.25802 0.21342 -0.2728
pleasure 0.12654 -0.18054 -0.094949 -0.2568 0.19167 0.10932 0.33805 -0.12662 -0.36246 2.2956 0.074418 0.18982 0.049227 -0.41612 0.13436 -0.27188 -0.56708 0.74458 -0.25837 0.65367 -0.21978 -0.15549 -0.067185 -0.032914 -0.16549 0.29751 0.73581 0.21366 -0.31485 0.197 0.074647 0.14685 -0.81988 0.6039 0.099871 -0.36797 0.053727 -0.098576 -0.26032 -0.26006 0.16701 -0.077746 -0.27194 0.12703 -0.078414 0.34165 0.027456 0.42509 0.3711 -0.019119 0.019342 -0.20982 -0.12174 -0.032526 0.41655 0.31883 0.14627 -0.090259 -0.38592 -0.24786 0.12401 -0.16352 -0.052216 0.075097 -0.23472 -0.042035 0.4357 -0.59739 -0.20963 0.14111 0.45334 -0.21348 0.023902 -0.09514 0.14921 -0.3849 0.0048634 0.12662 -0.41395 0.30879 -0.16316 -0.16651 -0.37169 -0.1538 -0.023903 -0.44926 0.18433 0.66599 0.30876 0.12401 -0.12669 0.3945 0.28793 -0.13742 -0.16371 0.24259 -0.35768 -0.32207 -0.35277 0.003614 0.205 -0.11806 -0.10277 0.066076 0.25512 -0.7572 0.51751 0.3317 -0.12149 -0.26047 0.17973 0.07476 0.11578 0.38912 0.20357 -0.37635 -0.22821 -0.25501 0.32878 0.13179 0.29339 0.23165 0.11705 0.46347 -0.052909 0.23207 -0.38099 -0.2007 0.13371 0.031875 0.12226 -0.46121 -0.4624 -0.32971 -0.052227 0.22125 -0.053361 -0.16466 0.24817 0.31296 -1.7682 0.20304 0.23588 -0.16103 -0.057352 -0.85477 -0.087329 -0.033526 -0.15925 -0.22209 0.075422 -0.0090075 0.16622 0.097868 0.499 -0.020084 0.23001 -0.099538 -0.05007 -0.17574 -0.06958 0.14343 0.43854 -0.019074 0.27922 -0.38481 0.43425 -0.24513 0.18542 0.06669 -0.10737 -0.38881 0.56901 -0.23752 0.26728 0.46951 -0.087529 -0.38261 -0.3076 0.1214 0.46014 0.060384 0.00097954 0.34179 0.24159 -0.20328 -0.10693 0.024632 -0.13078 -0.18612 0.20818 -0.027666 0.095079 -0.15298 -0.069491 -0.034684 0.2765 -0.20004 0.058695 0.17162 -0.28186 0.069134 -0.29804 -0.087248 -0.14164 0.30561 0.17035 0.096453 0.095312 -0.33288 -0.64702 -0.46684 -0.11019 0.42398 -0.039602 0.10719 0.45999 -0.33141 0.52568 0.071404 0.2234 -0.09891 -0.01006 0.38838 -0.38195 -0.10117 0.059882 -0.049389 0.13261 0.094929 0.098105 0.089673 -0.45107 -0.05861 -0.016811 0.41588 -0.10906 0.04002 -0.45399 0.22512 0.46277 -0.016795 -0.013671 0.085903 0.10745 -0.19065 -0.92243 -0.13722 -0.21969 0.17426 0.10195 -0.023579 0.15345 0.0053194 -0.46507 0.71344 0.67433 -0.30421 0.34086 0.22961 0.34005 -0.11183 -0.22163 0.16857 -0.20626 0.25136 -0.074048 0.32896 -0.15599 -0.42542 -0.66704 -0.28443 -0.87469 0.1796 -0.14897 -0.041188 0.42323 0.025093 0.11653 0.36755 0.52328 -0.28631 0.24674 -0.25677 -0.019833 -0.27897 0.75311 -0.10867 -0.086957 0.33135 -0.024048 -0.25392 -0.41071 -0.20969 0.18383 0.32188 0.063785 -0.1157 -0.37196 0.056354
honor 0.052258 -0.11572 0.33144 0.19995 0.17367 -0.44142 0.46143 0.2365 -0.14205 3.1632 0.095027 -0.16737 0.10291 0.33678 -0.081923 0.0040412 0.096064 0.13035 -0.29595 0.46636 0.069096 -0.47801 -0.090155 0.19121 0.033028 -0.0099775 -0.38908 -0.25073 -0.32638 0.72714 0.51491 -0.022169 -0.34192 0.5907 -0.37109 -0.1414 0.019688 -0.30869 0.20124 0.51982 -0.060771 0.26025 0.5795 0.043692 0.72235 -0.16828 -0.1041 0.30008 -0.16834 -0.18799 -0.17467 0.0021172 0.034073 0.16874 0.2663 0.083981 0.041773 0.34929 -0.48361 0.19541 0.080843 0.0010778 0.28841 0.02125 0.25019 0.020399 0.38359 -0.43965 0.24842 -0.09801 -0.055881 0.00095508 -0.32797 -0.26588 0.15414 0.34863 0.3402 0.25423 -0.14787 -0.024154 -0.39568 0.53825 -0.075113 0.094047 -0.21769 -0.47459 -0.43379 -0.16548 -0.286 -0.27825 -0.35085 0.064499 0.16783 0.14272 -0.27221 0.062597 -0.16482 -0.41958 0.67213 0.23685 -0.23551 0.1218 0.12516 0.21992 -0.14283 0.088626 0.070607 0.63859 0.26917 -0.38962 -0.091778 0.30849 0.33267 0.25692 0.20608 0.22195 -0.17512 -0.090871 -0.26681 -0.056001 0.25223 -0.019492 0.15896 0.97784 0.30933 -0.19713 0.33285 0.13348 0.015493 -0.28044 -0.17528 0.41908 -0.37274 -0.14114 -0.41027 -0.46417 -0.018561 0.11406 0.58782 0.26431 -1.0913 0.37031 0.052667 0.42886 0.073925 0.28044 0.32971 0.14694 -0.37303 0.010244 -0.61207 0.27702 0.44871 0.30811 -0.17395 -0.017399 -0.1344 -0.25008 0.099416 -0.0022517 0.032003 0.18354 -0.19357 0.17265 -0.00027202 -0.46092 -0.039556 0.14091 0.22364 0.0086836 0.094926 0.11935 0.95166 -0.043389 0.093334 0.087619 -0.27243 -0.19793 -0.34925 0.13415 0.03257 0.061926 0.12796 -0.023823 -0.13545 0.047598 -0.19208 -0.32928 -0.1469 0.41071 -0.29131 -0.061011 -0.49698 -0.77045 0.62579 0.41774 0.070434 -0.27464 0.31895 0.4099 0.16361 -0.029704 -0.26226 0.1038 -0.12948 -0.070997 0.18619 0.11299 0.12111 -0.16776 -0.011937 0.7477 -0.26163 0.01582 0.0027002 0.64407 0.14788 -0.72931 -0.038542 0.32551 -0.2448 -0.10024 -0.26578 -0.20855 0.43934 -0.076897 0.54387 -0.3481 -0.33793 0.34014 -0.39934 -0.11874 -0.35827 0.03076 -0.62018 -0.015567 -0.13451 0.57243 -0.059095 0.15526 -0.014114 -0.3995 0.23625 -0.11864 0.59089 -0.13328 -0.25177 -0.42206 0.26351 -0.33722 0.067157 0.57291 -0.54876 -0.085636 -0.49804 -0.0013023 0.11232 0.026745 -0.084761 0.043488 -0.10996 0.24618 -0.45932 0.32886 -1.0086 -0.062904 0.3694 -0.10989 -0.25108 0.40023 -0.16671 -0.1792 0.2044 0.32655 0.17134 0.266 -0.24461 0.0030957 0.19824 0.15025 -0.37096 0.129 0.095254 -0.33013 -0.40155 -0.16881 -0.059866 -0.47222 0.011904 0.3791 -0.2568 -0.17609 -0.20722 -0.084625 -0.16379 -0.45318 0.18149 0.34043 0.03184 -0.21533
heaven 0.36336 -0.1737 0.18297 -0.66724 0.51248 -0.32395 0.40334 0.52678 -0.15515 2.0398 -0.00047145 0.053091 -0.41859 0.26919 -0.058778 0.28007 -0.29123 0.82109 0.14533 0.60614 -0.012785 -0.17695 -0.19062 0.44358 -0.20101 0.086828 0.44605 0.27717 -0.10125 0.11013 -0.22531 0.46802 -0.24045 0.25481 0.2594 0.16976 -0.64327 -0.1886 -0.088699 0.54999 -0.087946 -0.075225 -0.069589 0.017222 -0.23171 -0.11137 0.026728 -0.33234 0.054518 -0.021652 0.054466 0.16274 -0.24684 -0.1727 0.4312 -0.56184 -0.12386 0.061508 -0.3991 -0.34294 0.060855 -0.2869 -0.099444 -0.50242 -0.35502 0.084185 0.16214 -0.24653 -0.24492 -0.16142 -0.39725 0.095244 -0.15345 -0.095908 -0.34095 0.041679 -0.0064302 0.32792 -0.02502 0.44318 -0.21325 0.28902 -0.27119 -0.39167 0.3908 -0.52283 0.94787 -0.69951 -0.18058 -0.073307 -0.16322 -0.19439 -0.18824 -0.12158 0.074243 0.42296 -0.20339 -0.67818 -0.24126 0.29653 0.12866 0.042843 0.23043 0.066825 0.001721 -0.37487 0.093016 0.27693 0.09009 0.088235 0.21755 0.30323 0.15871 0.10823 0.47349 0.40069 0.079798 0.41138 -0.21558 -0.31806 -0.15181 -0.19921 -0.072144 0.34689 0.30291 -0.079995 -0.13441 -0.45658 0.15525 -0.018228 0.0036246 -0.15999 0.18483 -0.49893 -0.10319 -0.044972 0.070986 -0.0286 -0.28923 0.47407 -2.726 0.21532 0.12339 -0.2913 -0.14482 -0.22668 0.59209 0.25251 -0.32319 -0.55338 0.097941 -0.70571 0.029495 0.18284 -0.0080386 -0.21117 -0.29377 -0.17583 -0.17518 -0.0088082 0.24044 -0.14778 -0.086374 0.3274 0.17478 -0.02411 0.11199 -0.15699 -0.13275 0.71645 0.36654 -0.023639 1.019 -0.66483 0.30926 0.35819 -0.13159 -0.19343 -0.46459 -0.90141 0.21303 -0.25191 0.22252 -0.042807 0.30377 -0.30286 -0.30327 -0.1659 0.27769 -0.25702 -0.22725 -0.44989 -0.069252 -0.0057432 -0.17952 -0.086799 -0.080168 -0.22803 0.28548 0.21552 -0.69752 0.46702 -0.29385 0.17584 0.27525 -0.41937 0.033404 0.021935 -0.054327 -0.27733 -0.0023017 -0.34764 0.15607 -0.066994 -0.13062 -0.40151 0.03893 -0.21025 0.048374 0.16843 0.11799 -0.37507 -0.27091 0.28739 0.036016 0.19479 -0.29218 0.0034133 -0.62091 0.27291 -0.070506 0.27305 -0.35804 -0.086802 0.2578 -0.26521 0.18715 -0.56102 -0.40001 -0.73994 -0.15946 -0.21691 0.016281 0.11417 -0.027698 -0.2097 -0.06924 -0.11046 0.10355 -0.28322 0.57931 -0.30861 0.20492 0.04857 -0.2934 0.77429 0.13856 0.14978 -0.078793 0.35651 -0.20094 -0.23137 -0.15905 -0.29987 0.26683 0.076901 0.36497 0.28679 -0.42727 0.33308 -0.094378 -0.055542 -0.20447 0.41631 -0.033464 0.2985 0.35927 0.15087 -0.0035783 -0.17427 0.46114 -0.72277 0.16095 -0.45269 -0.1548 -0.23621 0.49613 0.28733 0.24196 -0.10714 -0.20245 -0.029163 0.13441 -0.059429 -0.44493 0.13701 0.1788 0.41773 0.30057 -0.19579
diamond -0.3334 0.45183 0.40684 0.068227 0.19571 -0.16831 0.36045 -0.2176 -0.72753 0.85838 -0.10702 -0.11739 0.12067 -0.0090308 0.57343 0.075518 0.10809 1.6987 0.079087 -0.65497 0.49585 -0.46602 -0.73853 -0.36536 -0.11615 -0.21489 -0.42856 0.21421 -1.3433 0.096301 0.064481 0.050293 -0.19041 0.41041 -0.28744 -0.28274 0.51859 -0.65061 0.47083 -0.33868 0.04434 0.79899 0.57593 -0.29832 0.5384 -0.73974 -0.31121 -0.56616 -0.72086 -0.36174 0.14422 0.77923 0.30686 -0.25122 0.209 -0.18339 -0.93091 -0.0014614 0.25324 -0.73499 -0.18798 -0.11623 -0.15374 0.42292 -0.23499 -0.011038 0.316 0.76289 -0.26669 0.14632 -0.19064 -0.11668 -0.30622 -0.15604 -0.1928 0.31983 0.030167 0.37139 0.34711 -0.10365 -0.12683 0.54254 -0.20876 0.28925 -0.17228 0.30212 0.82741 1.2805 -0.19766 -0.29243 0.47608 -0.024255 0.2038 -0.53553 -0.11728 0.15641 0.31901 0.025225 -0.10559 -0.058053 0.47897 0.47489 0.10374 -0.43582 -0.45397 -0.92181 -0.3503 0.21233 0.33821 0.77692 0.11145 0.14404 0.16893 0.32011 -0.032748 0.11249 0.05023 0.32058 0.1078 0.01534 -0.082479 0.26672 -0.10113 -0.21362 0.098906 -0.0097866 -0.28038 -0.047115 -0.21309 -0.45359 0.15191 0.024774 -0.45053 -0.17747 -0.27447 0.40616 0.52632 -0.19741 -0.14059 0.058397 -2.2345 -0.17195 -0.060037 0.243 -0.30631 -0.63715 -0.34978 0.36528 0.32502 0.067912 0.31783 -0.12547 0.21594 0.48035 0.12494 -0.19418 0.049923 0.18299 -0.52736 0.29046 0.43748 -0.29022 -0.061805 0.035633 0.68011 0.29425 0.26527 -0.4266 -0.21286 0.63171 -0.63868 0.26993 -0.077246 -0.10769 -0.19172 -0.44658 0.12762 -0.089451 0.37611 0.57777 0.072132 0.26028 0.11159 -0.35698 -0.53887 -0.12713 0.027654 0.41653 -0.36049 0.36092 -0.52153 -0.32672 0.14112 -0.36608 -0.13215 -0.028002 0.024355 0.42985 -0.16022 -0.049397 0.042688 -0.89078 -0.15546 0.46292 -0.58026 -0.43981 0.33155 -0.21758 -0.60338 0.014763 -0.081898 0.89542 0.076284 -0.090641 0.53081 -0.39438 -0.90088 -0.21595 0.2166 0.12162 -0.40641 0.22168 -0.98426 0.28593 -0.10395 0.4147 -0.90082 0.16018 0.028624 0.18322 0.3379 0.13757 0.080976 0.67736 0.095668 -0.11748 0.1012 0.12683 0.07822 0.27822 0.63486 0.08188 -0.17782 0.3137 0.15579 -0.2174 0.15979 0.49985 -0.099235 0.36331 0.46569 0.30013 0.40288 -0.1364 -0.21014 0.35798 0.12033 0.78029 -0.54024 0.095325 0.33713 0.19781 -0.35419 -0.17718 -0.17943 -0.24997 0.45844 -0.031387 -0.29442 -0.26844 -0.95931 0.099077 0.37467 0.62419 -0.21875 0.075566 -0.35673 0.21021 -0.25169 -0.73376 -0.37972 -0.20763 0.84995 -0.54508 0.07834 -0.41558 -0.74912 0.16049 -0.049188 -0.39429 -0.11124 0.41783 -0.0015344 0.16911 0.4188 -0.06412 -0.78738 -0.051785 0.021638 0.74065
gentle -0.013608 0.55833 -0.80839 0.27544 0.24013 -0.16275 0.24975 0.14159 0.16499 1.4724 0.66208 0.60379 -0.056055 -0.058931 -0.36533 -0.12127 0.35174 1.1446 0.039472 -0.41582 -0.64047 0.6036 0.048137 0.093455 -5.2725e-05 0.16142 0.73992 0.31368 0.16817 -0.60154 -0.24774 0.42144 -0.70171 -0.585 0.58561 -0.30347 -0.12457 -0.52077 0.15251 -0.49638 -0.014836 -0.099603 0.085168 -0.42282 0.46162 0.22427 -0.32896 -0.2276 -0.28283 -0.68942 -0.029054 0.024127 -0.15712 0.45592 0.02935 0.20506 -0.018043 0.62493 -0.57849 0.020065 0.18859 0.017125 -0.0038126 -0.15072 -0.61883 0.34729 -0.016686 0.10672 -0.24384 -0.25314 -0.37267 -0.10058 -0.51003 0.021868 0.53836 0.016087 -0.056577 0.31047 0.011524 -0.82786 0.56928 -0.22697 -0.5538 0.10447 0.13367 -0.94038 0.14571 0.75776 0.25326 -0.080021 0.28612 -0.055346 0.37751 0.24391 -0.3543 -0.39091 0.032703 -0.023758 -0.15418 -0.2565 0.44813 0.16735 -0.78572 -0.0075484 0.019226 -1.592 -0.046477 -0.43659 -0.10497 -0.34084 0.36275 -0.44899 0.3206 -0.14693 -0.20165 0.10117 -0.046589 -0.037555 0.17559 0.46032 0.14246 -0.20136 -0.63543 0.11141 0.054288 0.046249 -0.17305 -0.20335 -0.18808 -0.32731 -0.18577 -0.73158 -0.34215 0.16632 -0.16025 0.45864 -0.24212 0.0053847 0.32496 0.19847 -2.017 0.3474 0.049632 0.10815 -0.2017 -0.16178 -0.18639 -0.15912 -0.25601 -0.23794 0.42539 -0.13482 0.25049 0.21643 -0.51991 0.26189 0.0022981 -0.16722 -0.26512 -0.60094 0.27812 0.05022 0.0081914 0.62046 0.47598 -0.23481 -0.83935 -0.85696 -0.24935 -0.39477 0.43014 0.078071 0.067728 -0.28406 -0.041053 -0.18815 0.070351 -0.12502 -0.1063 -0.047682 -0.48191 -0.39163 0.039017 0.068828 -0.037271 -0.33456 0.24314 -0.3186 -0.16353 -0.48273 -0.61121 0.14444 -0.51066 -0.55105 -0.0041401 -0.20206 0.34093 -0.33068 0.71792 -0.11513 -0.73208 0.5893 -0.60009 -0.17065 -0.37753 0.4904 -0.20712 -0.32717 -0.10556 -0.39291 -0.66894 -0.26221 -0.03692 0.050449 -0.23748 0.35817 0.71193 0.14369 0.1431 -0.00063608 0.85698 0.28241 0.2912 0.45844 -0.063349 0.062624 0.14102 0.47874 0.10626 0.13888 0.6162 0.30649 -0.37248 0.51916 -0.3973 -0.16311 0.14747 -0.44757 -0.15959 -0.30656 -0.13627 -0.1147 -0.33204 -0.43891 -0.32868 0.068929 -0.80682 -0.28755 0.066794 0.27412 0.34947 0.15677 -0.078553 0.47964 -0.38957 0.37946 0.13681 -0.016119 0.0029786 0.83748 -0.3622 -0.55322 0.51805 -0.34168 0.24724 -0.27346 -0.26267 0.24947 -0.42838 0.019213 0.1033 -0.032671 -0.83428 0.2688 -0.31775 0.47757 -0.015898 -0.13484 0.40875 0.61336 0.19608 0.026502 0.48058 0.17832 -0.2239 -0.38619 -0.20337 0.10367 0.43098 -0.3516 0.20485 0.11708 0.0047828 -0.13159 0.18182 0.60314 0.90844 0.35178 -0.3878 -0.35966
loyal 0.0075554 -0.32412 -0.022641 -0.20545 0.19028 0.05879 0.36605 0.19938 0.53909 2.3746 0.27175 0.36007 -0.35175 -0.079922 0.18369 0.13013 -0.21506 -0.52649 -0.18026 0.48241 -0.087924 -0.18013 -0.30555 -0.23639 0.54779 0.098168 -0.62809 0.0076085 0.38271 0.097872 -0.18439 0.32367 -0.48552 0.25002 -0.54148 0.12157 -0.38275 -0.46592 -0.06358 -0.29915 0.084667 0.15973 0.75547 0.13747 0.36557 -0.11833 0.21462 0.46436 -0.24379 -0.06486 -0.327 0.1452 -0.0065173 -0.20969 0.018861 0.11373 -0.43416 0.2095 -0.27609 0.27103 -0.20929 -0.11565 -0.25557 -0.78001 0.20169 0.54554 -0.13988 0.14301 -0.17601 -0.02489 -0.14497 0.17376 -0.4096 -0.3111 0.57257 0.6183 0.51812 0.13166 -0.08449 0.33071 -0.3069 -0.26835 -0.21509 -0.23333 0.38333 0.19983 -0.41233 -6.8789e-05 0.2011 -0.3069 0.028446 0.19774 -0.027987 0.8754 -0.26346 -0.50373 0.001456 -0.41996 -0.63249 -0.20275 0.10818 0.022578 -0.57011 -0.099671 0.034767 -1.0782 0.56876 -0.20777 0.15111 0.2451 0.17507 -0.0044662 0.44071 -0.057722 0.0009416 0.36642 0.10115 -0.76936 -0.55985 0.1722 0.2792 -0.14833 -0.033503 0.035897 0.31042 0.083905 0.032638 -0.28524 -0.86662 0.16105 -0.46049 0.31007 -0.50762 -0.26895 -0.64178 -0.367 -0.72838 -0.09547 0.026243 -0.15473 -1.3066 -0.049525 0.65202 0.24991 -0.39921 -0.84416 0.11625 0.064017 0.14238 0.13709 -0.11951 0.40218 0.079876 -0.08164 -0.37685 0.91924 0.075169 -0.095977 -0.42215 -0.41461 0.035171 0.20739 0.038591 0.0453 0.46189 0.0078437 0.44007 0.08355 -0.10732 -0.32371 0.51161 0.48475 -0.19995 0.34202 0.4363 0.23536 -0.33095 0.45101 -0.13072 0.33524 0.65423 -0.58722 0.059084 -0.37145 -0.33574 -0.11697 0.15264 -0.30264 -0.0078138 -0.52088 0.040149 -0.044101 0.19182 0.31525 0.4352 -0.54935 0.44857 0.038955 0.40734 -0.28608 -0.24584 -0.10176 -0.0085447 -0.27929 0.14322 0.43254 -0.015226 -0.029601 -0.23687 -0.77224 -0.38041 0.041555 -0.61133 0.087655 0.3652 0.45864 0.43143 -0.14332 -0.029003 0.11933 0.20538 0.22258 0.16002 0.34376 -0.020147 0.22016 0.033466 0.17609 -0.010691 -0.21035 -0.46129 -0.30619 -0.71791 -0.39604 0.17121 -0.37649 -0.051755 -0.15588 0.25439 0.56988 0.5681 -0.18322 0.065534 0.12299 -0.2481 0.090423 -0.089828 0.064401 0.3226 -0.033906 0.53539 0.75911 0.034017 0.25411 0.060889 0.085735 -0.16149 0.15211 0.015217 -0.10628 -0.45088 0.13554 -0.2478 -0.2348 -0.50014 -0.18337 0.7874 0.23334 -0.12584 0.34947 0.33502 0.23852 -0.59321 -0.16896 -0.17941 -0.066817 -0.20028 0.16946 0.32938 0.41498 -0.17176 0.38419 0.18344 0.22294 -0.11497 0.43026 0.025843 0.51279 -0.055386 0.52661 -0.66467 -0.03938 -0.44996 0.033517 0.23161 0.014682 0.69298 -0.049444 -0.18385 -0.57789
laughter -0.1387 0.43665 -0.25054 -0.36828 0.050865 0.13547 -0.18884 0.28569 0.3211 1.8831 0.18328 -0.14797 0.0388 -0.0060989 -0.051038 0.65825 0.23596 -0.01568 -0.65761 -0.029819 -0.58094 0.092907 -0.21455 -0.41973 0.006741 -0.20704 0.10815 0.27671 -0.51436 -0.66791 -0.26802 -0.24814 -0.87192 0.44892 0.39168 -0.17361 -0.21334 0.45745 -0.46745 0.081728 0.32807 0.21567 -0.10349 0.31203 0.29627 0.28006 -0.18473 0.028566 0.61254 0.048774 0.61025 -0.097082 0.053253 -0.17865 -0.14377 0.10864 0.29658 -0.07755 -0.19892 -0.20014 -0.0233 0.37644 -0.068466 -0.47734 -0.6122 0.16078 0.092154 -0.67297 -0.28947 0.40972 0.0062825 -0.47129 -0.12044 0.18593 0.23188 0.091308 0.20538 0.44011 -0.071233 -0.2179 0.08487 0.21273 -0.64321 -0.3604 -0.0044701 -0.52863 0.15744 -0.28131 0.27285 0.66254 -0.54616 -0.0047429 0.26384 -0.011755 -0.53955 -0.11242 -0.4877 0.093969 0.135 -0.60464 0.19453 -0.36939 -0.45837 -0.20293 0.40572 -1.0732 0.71965 0.48617 -0.018133 0.23751 0.11644 0.018971 0.12671 -0.18495 0.038622 -0.37536 0.13587 0.060466 -0.0028187 -0.01909 -0.12937 -0.22887 -0.38893 0.21175 -0.47377 -0.1119 0.24138 0.024179 -0.53546 0.0082689 -0.15074 0.2177 0.068354 -0.26862 0.011285 0.2263 -0.3242 0.28056 -0.4413 0.13915 -2.3 0.68357 0.0015091 0.065974 -0.14774 0.097699 -0.0086968 -0.41512 -0.34089 -0.50952 -0.25706 0.19008 0.045835 0.082015 0.56619 -0.095835 0.76233 -0.1765 0.073004 -0.68143 0.091607 0.1218 0.03694 0.057629 0.37545 -0.12526 -0.15686 -0.17002 -0.53426 0.035 0.076951 -0.14546 0.45712 -0.097329 -0.32254 -0.30609 0.45742 -0.9945 0.41503 -0.78558 -0.58835 -0.373 0.24796 0.90457 -0.022367 -0.36233 -0.21609 -0.12399 0.26627 0.046641 0.23762 -0.24664 0.20337 -0.3106 0.11644 0.38387 -0.0018615 -0.91584 0.4431 -0.057114 -0.53497 0.20666 -0.30842 -0.051202 -0.38472 0.063856 0.55737 -0.18265 0.098116 -0.28732 -1.039 0.0046245 0.35716 0.30098 0.36227 -0.26778 0.48869 -0.80118 0.49068 -0.39618 0.091041 -0.040685 0.17001 0.053294 -0.62215 -0.36344 0.17519 0.018901 -0.06697 -0.35222 0.4998 0.43969 -0.52291 -0.16588 -0.54589 0.35187 -0.00019426 0.18481 -0.50532 -0.36139 -0.48598 0.42678 -0.51611 -1.0746 -0.075292 -0.18207 -0.62872 -0.50637 -0.096955 0.43532 0.32192 -0.27248 -0.17525 0.20945 -0.30964 0.18573 0.41734 0.068261 -0.51554 0.2426 -0.75146 -0.11581 -0.54093 -0.040469 -0.25559 0.23139 -0.13792 0.24126 0.19093 -0.37116 -0.69026 0.38129 -0.37714 0.33344 -0.032699 -0.068555 -0.012107 -0.51126 0.035154 0.27951 0.4235 -0.095384 -0.070716 -0.47971 -0.059885 0.5956 0.67021 0.52153 0.15022 0.22538 0.074644 -0.13217 -0.00075676 0.43538 0.022872 0.57832 0.50761 0.12639 -0.31199 0.27166
miracle -0.30701 0.20446 0.095622 0.098067 -0.31333 -0.064273 0.080285 0.40714 -0.042518 1.865 -0.17225 -0.010687 -0.057142 0.35689 -0.37084 0.18227 -0.026664 0.76288 0.35299 0.077961 0.008936 0.069488 -0.45362 0.36803 -0.25483 -0.17891 0.13528 0.13755 -0.050443 0.016719 -0.049492 -0.13206 0.087099 0.26548 0.84178 0.42854 0.43907 -0.22802 -0.011724 0.095592 0.13345 -0.10757 -0.23433 0.18509 0.049746 0.14571 -0.084123 0.37692 0.024768 -0.20077 0.29935 0.33499 -0.038772 0.1255 0.41562 -0.1611 0.63185 0.22861 0.074099 -0.073415 -0.29621 -0.38174 -0.38175 -0.65644 -0.046267 -0.1499 -0.062041 -0.60213 -0.21945 -0.2952 0.12129 0.2838 -0.36916 -0.17427 0.072793 0.012237 0.2137 0.25119 -0.27327 0.024902 0.37514 0.11959 0.15259 0.2686 -0.51113 -0.72739 0.024982 -0.42827 -0.61784 0.086781 0.011741 0.33946 -0.80435 -0.038743 -0.048782 0.13009 -0.11747 -0.38072 -0.030722 -0.015508 -0.074486 -0.2492 0.33756 -0.50719 0.072402 -1.1392 -0.061953 -0.090751 0.16473 -0.1303 -0.097722 0.23122 -0.1502 -0.56264 0.70931 0.2512 -0.27617 0.55237 0.59044 -0.47778 -0.036935 -0.60789 -0.13637 0.20162 0.17493 -0.32803 -0.0076701 -0.37214 0.72449 0.34549 0.18276 -0.37644 0.13197 0.025887 -0.29824 0.08296 -0.094959 -0.21173 -0.47224 0.054131 -1.8941 0.29048 0.34716 0.14792 -0.030574 0.07285 0.015775 0.19899 0.24691 -0.12325 -0.061844 -0.60933 0.035282 -0.24155 -0.486 -0.3055 -0.15861 -0.54505 -0.2683 0.14066 0.14553 -0.25168 -0.13851 0.32249 0.30243 0.25765 0.30773 -0.172 -0.25167 0.047087 -0.026407 0.36158 0.23718 -0.27064 -0.081162 -0.22323 0.18363 -0.085058 -0.35691 -0.35649 -0.208 0.38041 0.060968 0.05758 0.036566 -0.77293 0.27204 0.066676 0.13801 -0.13955 -0.082593 -0.18152 0.0011156 0.069311 0.18304 0.3093 -0.13078 -0.30305 0.66911 0.089708 -0.36091 -0.10684 -0.3185 -0.4479 -0.51985 -0.067641 -0.18632 -0.12727 -0.073394 0.75909 -0.1369 -0.23659 0.18259 0.26535 0.059483 -0.49771 0.14145 -0.53793 -0.53775 -0.78882 -0.25408 -0.18342 -0.22381 0.37362 -0.00097448 0.017542 0.18526 0.34565 -0.56486 0.29502 0.46693 0.35966 0.085364 -0.13709 -0.62821 -0.19546 0.13737 0.19496 -0.70655 -0.097333 -0.28037 -0.23192 -0.23002 0.11449 -0.091955 -0.21321 0.74922 -0.051643 0.065381 -0.107 0.56522 -0.26664 -0.21167 -0.41879 0.21794 0.37723 -0.3242 0.22876 -0.026435 0.30119 0.29813 -0.50655 0.096275 -0.27562 0.33309 0.40311 0.43803 0.065863 -0.39396 0.15678 0.16438 0.3301 -0.44365 0.74633 -0.19779 -0.1045 -0.14372 -0.067931 -0.010164 0.14881 -0.39048 -0.38734 0.33764 -0.0745 0.064501 0.47514 -0.4686 0.028568 -0.11075 0.1355 0.10582 0.47124 0.12539 -0.00069229 0.17852 -0.057146 0.12153 0.22885 0.45486 -0.15341
paradise 0.5578 0.14739 0.12818 -0.64488 0.68205 -0.18589 0.10964 0.55957 -0.43199 1.6539 -0.22745 -0.44587 -0.45709 0.26355 -0.096128 -0.1421 -0.10633 0.67009 0.33674 0.51997 -0.24585 0.13358 0.12092 -0.068284 -0.32362 -0.4115 0.49384 0.23695 -0.026468 0.61491 0.086266 -0.21085 -0.15572 -0.0082696 -0.034692 -0.036161 -0.080944 -0.11559 -0.58352 0.31105 0.13208 -0.17031 0.37528 -0.29176 -0.08557 0.1202 0.18204 -0.36532 0.35491 0.096646 -0.59809 0.14751 -0.33981 -0.094797 0.60489 -0.34736 -0.24687 0.12122 0.020512 0.089184 -0.26639 -0.096156 -0.32102 -0.14811 -0.60074 0.055081 -0.016664 -0.068759 -0.72177 -0.39302 -0.23997 0.22117 -0.45696 0.39718 -0.28878 -0.19511 -0.061078 0.52165 -0.38985 0.10778 -0.1524 0.18826 0.22526 -0.52862 0.030162 0.47537 0.43282 0.25406 -0.2358 -0.14957 -0.41962 0.46322 0.03856 -0.24444 -0.35956 0.45736 -0.38478 -0.3837 -0.38654 0.68094 0.049664 -0.036655 -0.20619 -0.1253 -0.053902 -0.5322 0.067302 0.1697 0.31459 0.27074 0.38538 0.033742 -0.20338 0.6061 -0.11751 0.19768 0.28757 0.68816 -0.48883 -0.8845 0.038571 -0.25199 -0.093648 -0.36763 0.045504 0.14283 -0.12653 0.00038829 0.28131 -0.057364 -0.23482 -0.41694 -0.14591 -0.36202 -0.064399 0.063241 0.066137 -0.39768 0.15051 0.72529 -2.071 0.092211 0.045707 -0.23094 -0.17311 -0.58587 0.58807 0.68134 -0.0773 -0.62815 0.43211 -0.54203 -0.098998 -0.17181 0.10051 0.35662 0.20591 0.13257 -0.12978 0.44229 0.76756 0.099772 0.60961 0.64783 0.35919 0.26379 -0.028524 -0.33092 0.2922 0.43065 0.20654 -0.12943 0.13741 -0.46159 0.15291 0.25772 -0.0010612 -0.30483 -0.46173 -0.23358 0.26822 0.36398 0.10373 -0.27171 0.48117 -0.75158 -0.037861 -0.084263 -0.036744 -0.45935 -0.58474 0.2938 -0.091568 0.19212 -0.20973 -0.020865 -0.039893 0.39895 0.31453 0.59213 -0.50553 0.15109 0.11596 -0.36672 0.050326 -0.40094 0.31698 0.42165 -0.16281 -0.014471 0.14247 -0.12096 -0.17873 -0.19619 -0.10736 -0.15224 0.74813 0.27294 0.23764 -0.47594 -0.22165 -0.089133 -0.16327 -0.20144 -0.18911 -0.22107 -0.084883 0.35867 -0.32907 0.69024 -0.32478 0.20169 0.26424 -0.11126 0.56268 0.22519 0.30031 -0.58169 -0.28719 -0.020547 -0.32806 -0.25768 0.044505 0.064216 -0.10428 0.34808 -0.30388 0.52752 0.14357 -0.29456 0.3358 -0.40499 0.23068 0.35035 -0.11911 0.98675 0.31304 -0.10101 0.20548 0.089627 -0.048869 -0.14974 -0.18735 -0.27162 0.49584 -0.50785 0.25317 0.0070292 -0.64569 0.0147 -1.0224 -0.20961 -0.27634 0.46093 0.33598 0.10134 -0.089554 0.20833 0.010024 -0.10602 0.49567 -1.0431 0.39365 0.25703 0.24796 -0.42225 0.10464 0.31554 0.10099 0.10069 -0.011836 0.10995 -0.11637 -0.1137 0.6781 0.65312 -0.226 -0.018894 -0.039086 -0.032361
cheer 0.010708 0.028711 -0.057419 -0.41524 0.15313 -0.2473 0.21144 0.3459 0.013495 2.0103 -0.037212 -0.65148 0.33146 0.050989 0.049793 0.44516 0.3768 -0.30017 -0.60982 0.14668 -0.27932 -0.20532 0.16405 0.24723 -0.34439 0.40963 -0.34422 -0.0045975 0.14981 -0.2794 -0.10667 -0.28139 -0.40264 0.42363 0.42899 -0.29447 -0.037216 0.13801 0.36367 0.12349 -0.32397 0.039652 0.41741 -0.0090551 0.26308 -0.1636 0.017989 0.35589 0.15589 -0.069155 -0.096326 0.047698 0.25426 -0.24454 0.16132 0.53914 -0.15327 0.5025 -0.45171 0.12214 -0.41265 0.47418 -0.49833 -0.45003 -0.46853 0.0052984 0.055675 -0.036327 0.25865 0.50417 -0.304 -0.033961 -0.24363 0.0083404 0.19754 0.4887 -0.035778 0.35507 0.29214 -0.0074459 -0.18042 0.13355 -0.51284 0.12216 0.2479 0.21718 0.39824 0.3346 0.012962 0.30012 -0.11521 0.27858 0.24412 0.17545 -0.39556 -0.14292 -0.63825 -0.029183 -0.034053 0.13081 -0.24652 -0.55766 -0.18454 -0.47258 -0.042057 -0.47538 0.77943 0.017203 -0.0041993 0.02003 0.022879 -0.41675 -0.26131 0.15014 -0.076246 0.19929 0.010027 -0.18397 -0.3859 -0.13152 0.49302 -0.34639 -0.06718 0.61086 -0.18023 -0.37641 0.53025 0.25258 -0.021742 0.2098 -0.17523 0.16733 -0.46351 -0.057411 -0.11074 -0.51398 -0.43923 0.22479 0.022601 0.12775 -2.2492 0.20844 0.033047 -0.15052 0.23773 0.25003 0.30002 0.23351 -0.029843 -0.0024072 -0.56972 0.32225 -0.040917 -0.081331 -0.064208 -0.32201 0.55225 0.054215 0.12564 -0.58876 0.15508 0.57892 -0.097399 -0.14085 0.16528 -0.10812 0.23813 0.01086 -0.51176 0.053779 0.40123 -0.087054 -0.20535 -0.25113 0.37513 -0.53156 -0.19234 -0.36996 -0.1125 0.32619 -0.48188 -0.18604 0.33987 0.56354 0.23523 -0.37192 -0.32897 0.050531 0.44994 -0.1022 0.23804 -0.12456 0.091001 -0.13637 0.030206 -0.072439 -0.13504 -0.44163 0.56399 0.1449 0.37029 0.20155 -0.063197 -0.36474 0.03804 -0.040057 0.31685 -0.098079 0.41261 -0.14698 -0.69329 0.25591 0.14614 0.3568 0.010379 0.52536 0.36692 -0.48834 -0.085011 -0.00050587 0.11886 0.015697 0.12656 -0.25821 -0.051509 -0.02588 -0.027312 -0.18584 -0.14021 -0.46704 0.021934 0.31291 -0.66392 0.32803 -0.63378 -0.067571 0.48781 -0.21004 -0.2507 0.21555 -0.48904 -0.020734 -0.2176 -0.16905 -0.18876 -0.017083 -0.10295 -0.28381 0.089148 0.30373 0.10521 0.17949 -0.21774 -0.10665 0.17867 0.022732 0.05284 -0.050828 -0.30693 -0.025357 -0.28505 0.17346 -0.13094 0.15102 -0.21487 0.39641 -0.087986 0.18799 -0.1187 0.11154 -0.29262 0.34964 -0.026962 0.3965 0.31007 -0.21236 0.18758 0.16955 -0.21464 0.30205 -0.29176 -0.46873 -0.69351 0.11412 -0.5791 0.0099221 0.26459 0.35682 0.24559 0.16018 -0.28854 0.12434 0.15341 -0.16934 -0.068715 -0.1207 0.07264 -0.26091 0.027568 0.36806
rainbow 0.16132 -0.23768 0.21142 -0.21569 0.422 0.20076 -0.58349 0.52299 0.044387 0.53911 0.079702 -0.1554 -0.11113 -0.079773 -0.11765 0.41119 0.33126 1.2284 0.011396 -0.40772 -0.093278 -0.11764 -0.19576 0.24392 0.10318 0.43791 -0.11098 -0.0045361 -0.0091861 0.20433 0.17973 -0.061248 -0.012414 -0.32216 -0.16487 -0.23329 0.11207 -0.28839 0.13856 0.45423 0.5195 0.19157 -0.33931 0.23896 0.68807 0.16571 -0.35471 0.20923 0.43586 -0.58104 -0.14303 0.42688 0.49971 -0.026911 0.28406 0.046874 -0.13116 0.8764 -0.067661 -0.1003 0.016113 -0.40708 0.015813 -0.63838 -0.36679 -0.15825 -0.2726 -0.065413 -0.25417 -0.43026 -0.37942 0.41015 0.18049 -0.24607 -0.16057 0.17997 -0.35506 0.57676 -0.20533 -0.11403 -0.28396 0.31731 0.30497 0.21435 0.23903 -0.052986 0.94822 0.67277 -0.16575 -0.4134 0.23863 0.27465 0.11056 0.10093 -0.16033 0.03988 -0.40364 0.15449 -0.18426 0.48044 -0.10091 -0.11505 0.10551 -0.14855 -0.39419 -0.63615 0.15865 -0.03493 0.37458 0.26381 0.11422 -0.0021126 -0.44066 -0.45645 0.64421 0.051199 -0.22719 0.37011 -0.17478 0.02218 -0.24594 0.024925 0.1014 0.079864 0.41254 0.25452 0.47074 0.13008 -0.28368 0.016861 -0.092252 -0.53605 -0.13626 -0.050199 0.4049 0.58723 0.10001 0.3846 -0.12097 0.40437 -2.6379 0.38342 0.31839 -0.24902 -0.50435 -0.088687 -0.032358 -0.057344 -0.46983 -0.57478 0.056405 0.16497 0.24712 -0.046516 -0.48991 -0.11389 -0.2596 0.19319 -0.29691 0.13328 -0.1167 0.24287 -0.56828 0.1152 0.19516 0.49378 -0.37938 -0.60409 -0.49749 1.0735 -0.19614 0.47234 -0.028156 -0.17442 -0.15159 0.29613 0.32504 0.0026812 -0.072389 -0.21629 0.04287 0.077727 0.1669 -0.64609 0.1948 -0.33081 -0.041911 -0.17143 -0.8387 -0.063756 0.12304 -0.11933 -0.21346 -0.3863 0.24092 0.73794 0.29806 0.22245 -0.21936 -0.13645 -0.63194 -0.024647 0.18732 0.21221 0.26553 -0.038604 0.46779 -0.21421 -0.17454 0.30621 -0.053163 0.67733 0.18895 -0.072536 0.20504 -0.077982 -0.37107 -0.17809 0.3403 -0.33239 -0.10987 0.13372 -0.26724 -0.041487 0.082814 0.086814 0.17134 -0.10155 -0.14765 0.30449 0.020544 0.45079 0.37128 0.1535 0.34494 0.15803 -0.43219 -0.059711 0.090242 0.0012244 -0.19891 0.027397 0.16428 -0.29212 -0.19443 -0.1192 0.18369 -0.067235 -0.059528 -0.41139 -0.14103 -0.28249 -0.21432 0.44418 0.21731 0.24325 0.092778 0.72612 -0.12118 -0.20905 -0.19209 0.162 -0.33495 -0.080396 0.53512 -0.036178 0.15543 0.20705 -0.19801 -0.20179 -0.93392 -0.0085889 0.056721 0.32338 0.016275 -0.60352 -0.15774 0.072727 -0.2608 -0.34324 0.21653 -0.42691 -0.70341 -0.542 0.080354 0.12445 -0.28599 0.48583 0.74171 -0.10291 -0.50186 0.40907 0.26448 0.10729 0.12362 0.47298 -0.056487 -0.040758 0.14796 0.5468
diploma 0.079396 -0.67593 0.24521 -0.33258 0.45098 -0.24422 -0.14926 -0.61754 -0.29268 1.5833 -0.44665 0.97284 -0.34712 0.13069 0.055126 0.18877 0.41899 1.0357 -0.1042 0.44847 -0.07442 -0.44071 -0.2583 -0.091349 0.12338 -0.09659 -0.2948 -0.28271 0.34642 0.48583 0.022646 0.34734 0.18815 0.07428 -0.036885 -0.13247 -0.54311 0.40216 0.92298 0.25754 0.52898 -0.25649 -9.1382e-05 -0.40316 0.48906 0.2537 -0.15467 -0.36818 0.32671 -0.17908 -0.26396 0.34738 1.1384 -0.24886 -0.054805 0.039493 0.86626 0.25497 -0.42634 -0.53651 -0.19663 -0.67353 0.80618 -0.42551 -0.043806 0.56278 0.19857 -0.24526 0.88365 0.1305 -0.80707 -0.51757 -0.33212 0.19506 -0.31895 0.54328 0.36968 0.69587 -0.5169 0.34044 0.46848 0.095212 0.33874 0.348 -0.29044 0.12822 -0.31669 0.51781 0.044706 -0.37839 -0.10951 -0.26827 0.014806 -0.64078 -0.25514 -0.20547 0.47827 -0.11339 -0.044256 -0.067373 -0.6624 -0.24907 0.49232 0.2982 0.33656 -1.1937 -0.10639 -0.15633 -0.017228 0.11887 -0.03395 0.42521 0.019546 -0.12573 0.24609 -0.33694 0.42456 0.52166 0.25505 -0.33894 0.81579 0.23392 0.35544 0.087423 0.18303 0.098647 0.36413 0.3006 0.49248 0.19511 0.82397 0.013248 -0.036974 0.62915 0.55105 -0.10665 -0.40223 0.64649 -0.26844 0.1303 0.39283 -0.088487 -0.40911 0.13652 -0.38879 -0.21371 0.1926 0.26424 -0.27346 0.31839 0.17185 -0.17406 -0.44989 0.35063 0.67829 0.10049 -0.42675 0.0021129 0.5153 -0.39886 0.54478 0.070135 -0.011778 -0.021611 -0.52808 -0.14305 -0.85095 -0.9263 0.29698 -0.18339 -0.43568 -0.51593 -0.0010552 0.086877 -0.075195 -0.10133 -0.56444 -0.10042 0.20367 -0.091311 0.090438 0.065011 0.13407 -0.02818 -0.010539 0.37244 -0.3279 0.48622 0.65603 0.092105 0.28419 -0.35858 -0.66548 -0.23825 0.98355 0.86431 0.060562 -0.50075 0.72668 -0.65757 0.24156 -0.050158 -0.16792 0.44313 -0.28199 0.029774 0.26507 -0.15268 0.21516 0.57034 -0.19662 0.70607 -0.63797 -0.19692 -0.00067122 0.2274 -0.6993 -0.36722 -0.060779 0.45292 -0.45353 -0.53363 0.012519 -0.61995 0.27203 0.41064 -0.029404 0.10903 -0.047068 0.21932 -0.31066 0.16668 -0.629 0.11732 -0.47947 -0.62188 0.11358 -0.34997 -0.20268 0.53872 -0.0041816 -0.35808 -0.1368 -0.24868 0.22402 -0.57766 -0.14687 0.26574 0.1677 0.40319 0.03226 0.066559 -0.010794 -0.29628 0.23073 0.022321 -0.10334 -0.50751 -0.1909 -0.020396 0.38357 0.54183 0.86059 0.44776 -0.174 0.22627 -0.059999 -0.57216 0.17816 -0.0018393 -0.80896 0.40182 -0.23443 0.20186 -0.63124 0.61382 -0.11979 -0.035839 0.10559 -0.37367 0.049701 -0.36708 0.15756 0.22423 0.20203 -0.56038 -0.1663 0.15138 -0.31291 -0.0098646 0.87649 0.10111 0.44734 -0.09168 0.46616 0.16852 -0.060701 0.26841 0.32281 0.16347
sunrise 0.28152 0.18438 -0.10554 -0.44675 0.33442 0.21795 -0.38721 0.92362 -0.11805 1.3178 0.026054 -0.053739 -0.34067 0.00025825 -0.3085 0.2555 -0.16879 1.0609 0.078794 -0.34548 -0.17753 -0.043239 -0.32621 0.23695 -0.39805 0.19715 0.44687 -0.10496 0.19803 0.32689 0.55146 -0.29933 -0.13845 -0.13761 -0.31292 0.16413 -0.025406 -0.17476 -0.2127 0.10679 0.067596 -0.3709 0.13314 0.21772 0.080131 0.19449 -0.28077 -0.28252 0.20945 -0.0018199 -0.24125 0.0065337 -0.11705 0.18018 -0.011079 -0.15298 -0.13515 0.26747 0.035966 -0.28301 -0.30773 -0.19238 -0.11768 0.0084223 -0.41444 0.0013244 0.38234 0.32657 -0.21893 -0.41635 -0.75076 -0.33413 -0.097447 0.18162 0.39152 0.033889 -0.19626 0.26042 -0.46702 -0.28363 -0.042383 0.40313 0.3084 0.95478 0.5765 0.17826 0.62845 0.53424 0.20644 0.14398 0.077395 -0.13571 0.025865 -0.045141 -0.22291 0.53966 -0.25407 -0.11876 0.22867 0.69281 0.10896 -0.10576 0.38002 0.15768 -0.37649 -0.55498 0.37631 -0.38839 0.40377 -0.092386 0.42388 0.28387 0.16403 0.02709 0.30847 -0.10315 0.21296 0.37682 -0.019293 0.56813 0.045094 0.045153 -0.59658 0.10574 -0.39846 0.043056 -0.17006 -0.098969 -0.3544 -0.18245 -0.026887 -0.63371 0.19633 -0.24992 -0.13857 -0.23747 0.29991 0.48018 0.2449 0.092081 -1.5322 0.082017 0.24983 -0.39678 0.36615 0.61682 0.29316 0.074888 0.12572 -0.8256 0.023346 -0.18457 0.11461 0.075327 -0.32385 0.22692 0.20757 0.18655 0.0352 0.60374 -0.094767 -0.02487 -0.27609 0.37969 0.82448 0.24686 -0.14048 0.30348 0.04753 -0.31658 0.28053 0.20054 -0.017008 -0.6042 -0.32435 0.51869 -0.11787 -0.89368 -0.32332 -0.43251 -0.19108 -0.21862 -0.10773 0.024751 0.15709 -0.098806 -0.31253 0.086279 0.5692 -0.15793 -0.01581 0.25434 0.20419 -0.61659 0.049881 0.27646 0.16302 0.13968 -0.10413 0.11109 -0.59967 0.36484 0.27647 -0.091559 -0.35832 -0.32351 0.13973 -0.19385 0.42264 0.36392 0.56191 -0.038846 0.247 -0.23764 -0.53484 -0.36501 0.18775 -0.35329 0.55337 -0.15576 0.45079 -0.017187 -0.1489 0.48039 0.09428 -0.0057929 -0.12883 -0.15503 -0.33999 0.02325 0.10834 0.5498 0.5858 0.45674 0.15366 0.00032467 -0.3814 -0.88718 -0.29412 -0.08926 -0.56786 0.037092 0.098922 -0.22876 -0.3827 -0.038473 0.19561 0.15842 0.61827 -0.34024 -0.48866 -0.38618 0.38401 -0.27079 0.070211 0.63904 0.063992 0.19163 0.011812 0.0249 0.50891 -0.15001 0.16096 0.015259 0.37253 -0.76145 -0.032992 0.20096 -0.65597 0.20846 -0.77829 0.10586 -0.015588 0.61133 0.7616 0.4111 0.02085 -0.301 -0.015046 0.23585 0.55287 -1.4216 -0.49994 0.42515 0.15633 -0.015002 0.51737 0.16995 0.33175 0.41435 -0.23307 0.32255 -0.081737 -0.061821 0.093253 0.12999 -0.090715 0.23901 -0.091896 0.43036
caress 0.085298 -0.64333 -0.10587 0.36814 0.38633 -0.53 0.21348 0.087992 -0.3978 0.23768 1.1408 0.087379 0.24118 -1.0329 0.0072536 -0.14779 -0.20259 0.071612 0.16876 0.033585 0.21003 0.43585 -0.66279 -0.047366 -0.22801 0.43162 0.64031 0.55221 -0.061667 -0.13 0.22978 0.15221 -1.1645 -0.031714 0.63092 -0.4039 -0.35079 -0.052765 -0.066951 0.095038 0.060362 0.085733 -0.17054 -1.0001 0.19519 -0.17843 -0.098018 -0.26837 0.11889 0.096984 0.079936 -0.52355 -0.83983 0.18302 0.58322 0.53378 -0.22524 0.24063 -0.093791 -0.21546 0.1389 0.37262 -0.27106 -0.45139 -0.36408 0.58668 0.20003 -0.16634 -0.029611 -0.086619 -0.27744 0.4199 -0.047768 0.17679 -0.13665 0.011115 0.31325 -0.12542 0.29133 -0.84344 0.18064 0.071748 -0.53534 0.024142 0.075457 -0.65078 1.289 0.19525 0.33811 0.15087 0.15933 -0.4639 -0.053307 0.035126 -0.40264 0.51099 -0.33482 -0.52568 -0.24912 -0.076343 0.34725 0.016404 0.38999 0.59804 -0.33216 -1.3167 0.58038 -0.18805 -0.77851 -0.13287 0.80423 0.10493 0.13894 0.16006 0.062559 -0.0021601 0.24293 -0.008599 0.52753 0.22791 0.30004 -0.28274 -0.28513 0.48539 -0.06643 0.25653 -0.45641 -0.16688 -0.065058 0.19197 0.28353 -0.94883 -0.4425 0.55713 0.10501 0.52259 0.052126 0.11892 0.40907 -0.087452 -1.9552 -0.14768 -0.60154 -0.0063119 -0.57304 -0.11258 0.19383 0.33332 -0.16572 -0.20199 0.7266 0.082225 0.41329 0.59941 0.053184 0.006528 0.31748 0.18581 0.086714 -0.043152 -0.21169 0.20661 0.47413 0.2902 0.1626 -0.52305 -0.59756 -0.36473 -0.39393 0.070768 -0.0009768 -0.15038 0.69813 0.062597 0.63988 0.33758 -0.13767 -0.098862 -0.37223 0.061048 -0.33425 0.027407 0.1163 0.16207 0.067227 -0.079526 0.042202 -0.36116 0.16459 -0.1161 0.020839 0.097445 -0.40582 -0.65397 0.067556 -0.62631 0.26538 -0.12097 0.0059519 -0.39176 -0.66007 0.092066 -0.45064 -0.18478 -0.058232 0.23582 0.048136 -0.10435 -0.21168 -0.35544 -0.39001 -0.62968 -0.076511 0.10036 -0.23523 0.16153 0.1348 -0.37144 0.7355 -0.35116 0.60373 -0.097076 -0.27946 0.039015 0.037685 -0.43597 0.11347 0.11254 0.35361 0.056059 -0.026556 0.080364 -0.20542 0.061445 -0.37743 0.31242 -0.26575 -0.20945 0.15416 -0.069704 0.056741 -0.010981 -0.03677 -0.23664 -0.41555 -0.46845 -0.82176 -0.21817 0.18608 0.98362 -0.31377 0.10731 -0.088263 0.28853 -0.43822 0.16805 -0.24255 0.04397 0.16007 0.6638 0.028791 -0.12426 0.20139 -0.25498 0.15857 0.0083676 -0.61499 0.37776 -1.1058 0.098396 -0.035113 -0.55628 -0.37391 0.47496 -0.22767 -0.044837 0.13129 0.011788 0.5276 0.40161 -0.10477 -0.6731 0.33405 -0.26755 -0.54133 -0.51237 0.42229 0.34103 0.21234 -0.51004 0.43323 0.27971 -0.16628 -0.12818 -0.027537 0.10375 0.13229 0.077637 0.10525 -0.25318
