guitar -0.09801 0.71755 0.059339 0.13094 0.58409 -0.27626 0.39669 -0.29428 -0.059523 1.2268 0.76804 0.44483 -0.38816 0.43309 0.021978 -0.19511 -0.19687 1.1261 0.05572 0.36902 0.21671 -0.24048 -0.035195 -0.019848 -0.078378 0.24682 0.33743 0.71551 0.66943 -0.045592 -0.083521 -0.107 -0.18164 0.30847 -0.070321 0.47313 -0.34736 0.47427 0.49489 -0.22863 0.38345 0.18268 0.37717 0.13077 0.1556 0.17816 0.44822 -0.33218 0.24407 0.062152 -0.87562 -0.052184 0.3427 0.46016 -0.17725 -0.40085 0.40385 0.2042 -0.038792 -0.54891 -0.78748 -0.094344 -0.13763 0.014939 -0.67018 -0.80557 0.28717 0.27295 -0.27759 -0.0086046 -0.51204 0.12326 0.34861 -0.094395 -0.16584 -0.60737 -0.11059 0.17105 -0.58048 -0.35662 0.19771 -0.24227 0.060179 0.30024 -0.052078 -0.16409 -0.11364 0.18481 0.47405 0.18224 -0.54372 -0.28714 -0.20005 0.49196 0.23304 -0.91792 1.048 0.73722 -0.35273 -0.54423 -0.13202 -0.34617 0.39059 0.7456 -0.4096 0.046571 0.52903 0.24301 -0.39115 -0.23017 0.5823 -0.49192 -0.30233 0.48575 0.68643 -0.0931 0.082733 -0.0765 -0.16083 0.22628 -0.17144 0.088746 -0.059164 0.21965 0.23444 0.37332 -0.29484 0.23455 0.31666 -0.045805 0.55505 -0.014863 -0.11761 0.1019 0.36785 1.014 -0.32456 -0.023548 0.21705 -0.3123 -3.207 -0.030215 -0.22782 -0.52778 -0.49189 0.62579 0.27353 -0.90053 0.25793 -0.64903 0.53578 -0.071742 0.1503 -0.051132 0.17578 -0.68156 0.49269 -0.58597 -0.076249 -0.32982 0.65301 0.51327 0.64482 -0.19518 0.1911 -0.82828 0.050054 -0.37371 -0.15989 0.32705 -0.55875 -0.14968 0.28033 0.22517 -0.098235 -0.19531 -0.22285 0.061534 0.54695 -0.12828 0.12103 -0.0043857 0.22881 0.02866 -0.17813 -0.1589 -0.46157 -0.6378 -0.38311 -0.1968 -0.012094 0.29761 -0.16933 0.060152 -0.40033 -0.085805 -0.49483 0.27823 -0.18073 0.11165 -0.63186 -0.075183 -0.037121 0.62103 0.13186 -0.0201 -0.55132 -0.74534 0.11556 -0.18385 -0.14008 0.63242 -0.00042977 -0.17926 -0.079411 0.78848 0.17647 -0.24303 0.48595 0.49316 -0.060223 -0.14042 -0.50334 -0.13692 -0.057057 -0.0076166 -0.093895 0.31757 0.68031 0.46898 0.039352 -0.707 -0.067639 -0.49736 -0.21164 -0.36259 -0.39303 0.24473 0.048701 -0.27562 0.48381 0.014403 -0.11528 -0.050842 0.078997 0.11119 0.10147 -0.53838 0.01758 -0.34945 0.21806 -0.23268 0.071708 0.98687 -0.24975 -0.7661 -0.37071 -0.045375 -0.29052 0.47016 0.20649 -0.68495 0.18928 -0.87345 -0.062202 -0.21339 -0.23771 -0.39323 0.50592 0.61015 -0.30331 -0.19599 0.12169 0.09132 0.15457 -0.29011 0.27933 -0.26467 0.22787 -0.79805 -0.15904 0.46754 0.012846 -0.20544 0.6329 -0.52026 0.24611 -0.40111 -0.053955 -0.62368 -0.14926 -0.30167 0.73135 0.48821 0.83958 0.49733 0.0029586 0.24761 0.083144 0.45766
piano 0.1249 0.57583 -0.083211 0.25271 0.35943 -0.35288 0.46058 -0.42985 0.20927 1.3796 0.32561 0.79442 -0.39576 0.13092 -0.21421 0.31697 0.077058 1.2884 -0.53226 0.10088 0.045794 -0.21724 -0.057941 0.098242 0.13672 0.26835 -0.10533 0.5208 1.047 -0.089721 0.17663 0.057563 -0.064581 -0.083032 0.27143 -0.26309 -0.4161 0.16622 0.58987 -0.63684 0.29054 0.16451 0.052393 0.59775 0.06334 0.62451 0.36702 -0.3649 -0.0078088 0.33794 -0.313 -0.11301 0.080794 0.62521 -0.20581 -0.56596 0.54342 -0.14232 -0.34175 -0.4936 0.17564 0.025091 -0.1994 -0.017225 -0.96353 0.035903 0.026287 0.37056 0.16998 0.63759 -0.42812 0.27034 -0.07267 -0.031148 -0.25735 -0.40469 0.068561 0.32072 -0.56615 -0.32122 0.21035 -0.18527 -0.0023522 0.52514 -0.55588 0.30009 -0.14816 0.15799 -0.015796 -0.51273 -0.32861 -0.19411 -0.22232 0.23225 -0.1042 -0.73211 1.065 0.4904 -0.31391 0.092838 -0.069541 -0.38725 0.77806 0.68005 -0.56727 0.019207 0.75568 0.28695 0.07096 -0.36574 0.94976 -0.097211 -0.0053934 -0.478 0.36613 -0.25006 0.16628 0.092841 -0.13499 -0.13224 -0.047089 0.61411 -0.079511 0.47307 -0.10674 -0.089181 -0.31498 0.35793 0.4833 0.030613 0.58204 -0.1515 0.22268 0.32563 0.59424 1.3579 -0.62906 -0.15049 0.16056 -0.11719 -2.4431 -0.26049 -0.69582 -0.45491 -0.22311 0.91841 0.24298 -0.65813 -0.12611 -0.32313 0.31986 0.28178 0.52004 0.029557 0.27907 -0.35857 0.38401 -0.62327 -0.047348 -0.28807 0.089271 0.22074 0.12234 0.0056323 0.29755 -0.46342 -0.053762 -0.22925 0.026594 0.14915 -0.41418 -0.13483 0.063285 0.34831 -0.094799 -0.2575 0.080926 -0.49903 0.13364 0.076426 -0.039221 -0.11528 0.76594 0.26046 -0.50026 -0.13227 -0.27957 0.04262 -0.20399 -0.41248 -0.51493 0.59291 -0.18806 -0.40838 -0.31776 -0.33603 -0.15271 0.18603 0.42827 -0.52522 -0.25327 0.13128 -0.083973 0.17061 -0.00072322 -0.52604 -0.27305 -0.50168 0.40998 -0.28337 -0.01433 0.34413 -0.22855 -0.42981 0.46354 0.86852 0.28242 -0.19079 0.57562 0.59531 0.27469 -0.019743 0.10449 -0.13396 -0.0038479 0.23751 0.43693 0.22454 0.37196 -0.23328 0.07586 -0.19773 -0.04411 -0.22641 -0.4161 -0.18286 -0.069273 0.22151 0.18828 -0.36417 0.18387 -0.090345 -0.36249 0.5887 -0.42494 -0.14481 -0.13496 -0.42548 -0.1739 -0.29399 0.41488 0.10761 -0.23007 0.53946 -0.1823 -0.44872 0.085788 0.38125 0.20347 0.42621 0.54026 -0.31645 -0.27511 -0.33059 0.0067158 -0.23972 -0.26459 -0.50416 -0.0027673 0.31404 -0.5344 -0.44014 -0.24572 0.09969 0.10579 0.073459 0.32986 -0.46968 -0.16328 -0.4211 0.24853 -0.11648 0.24369 -0.52173 0.21111 0.053565 0.13 -0.48743 -0.22031 -0.6621 0.28935 -0.68331 1.0263 0.67679 1.184 0.48776 0.3815 0.16204 0.096768 0.51847
drum -0.10723 0.83233 0.052627 -0.31931 0.45144 -0.26744 -0.0057072 -0.28035 0.10402 0.52131 0.68273 0.087197 0.31179 0.098861 -0.20544 0.11318 -0.27944 1.6779 -0.64137 0.51814 0.28015 0.052169 0.3185 0.49694 0.35784 -0.0044713 -0.66224 0.6088 0.38662 -0.23557 -0.19354 -0.31988 -0.27569 -0.24973 0.18626 0.158 -0.79548 0.29606 0.79364 -0.66318 0.55258 0.31975 0.082947 0.24862 0.51718 -0.054557 0.46072 0.17714 -0.46398 0.16473 -0.050473 0.16197 0.22054 0.57024 -0.29108 -0.44978 0.66757 0.39479 0.19183 -0.47454 -0.79728 0.17956 -0.58406 -0.068588 -0.55957 -0.51156 0.19768 0.44462 0.016778 0.35871 -0.43708 -0.29233 0.096927 -0.10175 -0.095929 -0.20752 -0.20306 0.35598 -0.1427 -0.48121 0.2804 -0.13169 -0.075607 -0.027434 0.33165 0.51049 0.070887 0.75781 0.21573 0.13494 -0.24364 -0.58941 0.29478 0.79667 -0.37042 -0.61625 0.58206 0.41089 -0.59457 -0.35211 0.12489 -0.51911 0.07658 0.1745 -0.051923 -0.86635 0.17912 0.49875 0.16914 -0.078533 0.3278 -0.53627 -0.47786 0.30103 0.3461 -0.0088441 0.4179 -0.27112 -0.43739 0.47106 -0.55731 0.1574 0.35521 0.11084 -0.16855 -0.013029 -0.3251 0.185 -0.026308 0.063754 0.76253 -0.43669 -0.31139 -0.087828 0.64979 0.24481 0.065321 0.39951 0.46307 -0.69049 -2.4076 -0.19531 -0.068957 -0.49129 0.43385 -0.042178 0.27582 -0.50223 0.41186 -0.85779 -0.37832 -0.21989 0.11888 -0.18008 0.35808 -0.36495 -0.18942 -0.58138 0.51381 0.023162 0.4005 0.35757 -0.12759 0.087599 0.37972 0.2149 0.12171 -0.038726 -0.38177 -0.029886 -0.19072 0.060825 -0.10174 -0.1925 -0.56869 -0.31142 -0.33754 0.4383 0.3925 0.15796 0.080667 -0.040438 0.32028 0.058936 0.57038 0.029012 -0.50239 -0.31114 -0.4123 0.063232 -0.34584 -0.0067031 0.19063 0.11698 -0.24485 -0.11134 -0.16618 0.17163 -0.39259 -0.72774 -0.040489 0.080002 0.63819 -0.22071 0.42304 -0.26966 -0.2409 -0.48481 0.35328 -0.27641 0.10177 0.41612 0.09994 -0.024763 -0.36483 0.6263 0.097232 0.13116 0.1672 0.070328 -0.0062555 0.48617 -0.0043562 -0.29253 0.32783 0.031764 0.36734 0.36495 0.2409 0.00028231 0.056846 -0.69575 0.14695 -0.28717 -0.15259 -0.087034 -0.59432 0.53483 0.095435 -0.19176 -0.025009 0.08204 0.30944 -0.28618 0.24641 0.27865 0.35229 -0.36091 0.034025 -0.032921 0.051485 -0.61742 -0.17623 0.24903 -0.24289 -0.088306 0.15087 0.18527 0.080137 0.18828 -0.049438 -0.24585 -0.41362 -0.55685 -0.29872 0.2111 -0.24135 -0.50484 0.51969 0.33262 0.3542 -0.022867 -0.086768 -0.43088 0.36736 -0.11188 0.66656 0.009136 0.13237 -0.59176 0.37696 0.0023125 0.25525 -0.33963 -0.10275 -0.33848 -0.41285 -0.31915 -0.07509 -0.22817 -0.34891 -0.46144 0.59155 0.39395 0.38941 0.55221 -0.082169 0.30542 -0.20692 0.13411
bell -0.36139 0.62798 -0.2408 0.18623 0.18194 0.20864 -0.044464 -0.055799 0.16768 0.97938 -0.19305 -0.41044 0.39642 -0.32112 -0.021372 -0.1349 -0.1263 1.4233 -0.14141 -0.050132 0.3543 0.0157 -0.18026 0.1147 0.19633 -0.38745 -1.3072 0.23636 0.2521 0.029647 -0.17408 0.18239 0.62249 -0.32339 0.091492 -0.051027 -0.58434 0.0728 0.030133 0.64489 0.53453 0.045247 -0.25612 0.35118 0.729 0.55032 -0.18326 -0.183 -0.19184 0.60649 0.27939 -0.099028 0.048824 -0.15181 0.32351 0.13411 0.49585 0.70649 0.16467 -0.1097 -0.49781 -0.014365 0.46249 -0.014526 -0.13799 -0.2505 0.23322 0.038716 -0.51027 0.7565 -0.34367 0.20647 0.056694 0.35894 0.14988 0.1143 0.29508 0.24274 -0.15699 -0.087184 -0.29577 -0.32804 -0.18336 0.48155 0.45759 0.80633 1.2089 0.51465 -0.42854 -0.18671 0.18864 -0.2032 0.26568 -0.47405 0.28225 -0.43054 0.33781 -0.30203 0.33583 -0.13009 0.3058 -0.32089 0.4716 -0.21579 -0.61105 -0.72097 -0.045454 -0.079551 -0.12168 0.39935 -0.021825 -0.03933 0.21114 -0.12537 0.46387 0.24612 -0.17612 0.35423 -0.063551 0.59199 -0.12399 0.014103 0.64037 0.19553 -0.38622 -0.011164 0.52503 -0.32032 0.12444 -0.32079 -0.041321 0.28836 0.33662 -0.0026535 -0.26645 -0.11931 -0.010814 -0.079071 -0.33826 -0.036149 -2.2688 0.15757 -0.45277 -0.059299 0.39649 0.43596 0.028764 0.45502 -0.04814 -0.15738 0.15326 -0.23728 0.45521 0.33235 -0.10921 -0.13566 0.42352 -0.39911 0.15111 0.045819 0.46759 0.41875 -0.41878 -0.06928 0.39363 -0.36503 0.46792 0.08451 -0.033829 0.015678 0.60904 -0.016848 0.045787 -0.030203 -0.5176 -0.16623 0.51523 0.050454 -0.11311 -0.28074 -0.026441 0.16817 0.23616 0.3119 -0.2598 -0.47484 -0.1494 -0.29916 0.12096 -0.53582 -0.64024 -0.12823 0.0158 -0.061469 -0.52689 0.030352 0.099859 -0.059497 -0.32621 -0.077428 -0.27922 0.14153 -0.11592 0.30791 0.15535 -0.28619 0.65574 -0.8379 0.88766 0.75673 -0.35079 0.18258 0.037611 -0.15641 -0.013133 0.39977 -0.53543 0.0046929 -0.17657 0.050449 0.052999 -0.049029 0.47424 0.45707 -0.16052 -0.29247 -0.43038 -0.22622 0.10088 -0.38633 0.53364 0.29083 -0.072125 0.51826 -0.054712 0.14771 -0.077499 -0.2253 -0.25633 0.26816 -0.18828 0.014025 -0.28455 -0.5452 0.14194 -0.12099 0.28564 0.15496 -0.0066201 -0.35108 -0.42291 0.21957 -0.65883 0.12838 -0.21659 -0.21745 0.044275 0.10081 0.38485 0.32312 0.37045 -0.19669 0.086023 0.066027 -0.17795 0.0071805 0.0034302 -0.80613 -0.76065 0.15852 -0.019755 -0.30154 0.057138 0.52992 -0.06987 0.28256 0.11221 0.10219 0.22751 -0.0080884 0.028043 -0.042433 0.12813 0.41895 -0.47726 0.57363 0.19912 0.469 0.2097 -0.46214 -0.22233 0.15638 0.29238 0.24642 -0.10116 0.12606 -0.10144 0.01855 -0.31146 0.33802
horn -0.023086 0.50108 -0.08989 -0.12152 0.32865 0.069559 0.74946 0.077742 -0.27826 0.61447 0.24763 0.22567 0.44493 0.057387 -0.26602 -0.11982 0.047178 1.0692 0.45337 -0.12052 0.37365 0.64276 -0.20331 0.20904 -0.38142 0.061522 -0.86075 0.6942 0.16056 -0.30064 -0.24066 0.22545 -0.24767 0.11275 0.19093 -0.3237 -0.30679 0.13393 0.77862 -0.11116 -0.11793 0.11897 -0.065102 0.16263 0.44476 -0.45567 -0.12855 -0.31132 -0.19008 -0.021433 -0.14105 0.7811 0.10925 0.020063 -0.67441 -0.0007079 0.30319 0.22751 -0.55798 -0.69555 -0.57147 0.08595 0.046565 0.25281 -0.58048 -0.71806 0.26239 0.10367 0.23876 0.72531 -0.246 0.18469 0.32363 0.33021 -0.70231 -0.32277 -0.1751 0.11718 -0.16946 -0.11034 -0.3253 0.064618 -0.23269 0.7289 -0.13047 -0.01276 0.65302 0.53831 -0.13638 -0.13519 0.1963 -0.40321 0.25661 -0.25145 0.44176 -0.70327 0.054142 -0.14322 -0.014043 -0.11418 -0.045079 -0.3804 0.98959 -0.032725 -0.5014 -0.98138 0.038253 0.16003 0.22099 0.73771 0.30544 -0.22353 0.17939 -0.15104 0.39133 -0.43958 0.62238 0.15271 -0.42619 0.65393 0.0045563 0.10937 0.77816 0.20389 0.090774 -0.27823 -0.30704 0.12205 -0.5153 -0.0091253 0.58544 0.029139 -0.21965 0.56226 -0.21244 0.29812 -0.25463 -0.082768 -0.30995 -0.12192 -2.1384 0.63201 -0.19077 -0.012191 0.25119 0.27904 -0.1912 -0.57089 0.16905 -0.3805 -0.38169 0.14861 -0.03556 -0.094129 0.21714 -0.25571 0.11553 -0.31573 0.54539 0.12273 0.13731 0.087886 0.020353 -0.045352 0.75514 -0.19702 0.46356 -0.019456 -0.087959 -0.12115 0.026609 -0.03513 0.094099 0.17019 -0.3699 -0.20388 0.3934 -0.32942 0.9188 -0.015829 0.072009 0.26194 0.46511 0.24969 -0.59269 -0.13167 -0.097634 -0.64593 -0.39531 -0.11094 0.031038 0.10201 -0.41999 0.45168 -0.15911 0.17232 -0.14648 -0.17374 0.040595 -0.37989 -0.74487 0.45736 -0.098489 0.20362 0.077387 -0.51598 0.16686 -0.33787 0.47262 -0.086453 -0.089016 0.20956 -0.085752 0.15402 0.40406 0.51487 -0.43204 0.43925 0.35942 -0.0079772 0.13661 -0.51436 0.27183 -0.1784 -0.09449 0.004445 0.22764 0.33766 0.33936 0.18526 0.31511 -0.022226 -0.45119 -0.20941 -0.21626 -0.10484 -0.19369 0.15606 0.33726 -0.65333 -0.18479 -0.23499 0.26834 0.21482 -0.28041 0.20019 0.0069795 -0.038936 0.36999 -0.83439 -0.0037146 -0.068567 -0.030425 0.046363 -0.57863 -0.13746 0.39806 0.26164 0.11102 -0.025822 0.071962 -0.34855 0.069887 -0.081549 -0.041262 0.42092 0.18598 -0.52159 -0.021969 -0.23034 0.42537 0.3877 -0.13253 0.12899 0.29578 0.17337 0.41399 -0.32523 0.094299 -0.44047 0.098575 0.53245 0.10598 -0.0051144 -0.26438 -0.11743 0.37361 -0.54356 0.092308 -0.41118 -0.51053 -0.28828 0.18594 -0.3914 0.41879 0.81062 0.072164 0.70833 0.099092 -0.25092
violin 0.065097 0.72981 -0.24484 0.40116 0.3874 -0.11371 0.63239 -0.016079 -0.071691 0.91335 0.17972 0.67287 -0.30437 0.22747 -0.13939 0.46663 0.30202 0.6717 0.035248 0.35878 0.6256 -0.10371 -0.49436 0.14515 0.40098 0.27695 -0.31966 0.38861 0.80044 0.13551 0.51388 0.3486 0.038715 0.038733 0.23732 -0.12154 0.01081 0.24559 0.91151 -0.56178 0.30139 0.33703 0.4018 0.069671 0.35118 0.34752 0.27919 -0.0041688 0.13294 0.2928 -0.30234 0.058622 -0.068084 0.37049 -0.099548 -0.57312 0.85639 0.15439 -0.3573 -0.36194 -0.087665 -0.087023 -0.1085 -0.18825 -0.8972 -0.14855 0.14234 0.65428 0.12763 0.20079 -0.26499 0.27948 -0.14148 -0.088246 -0.48453 -0.42725 0.2408 0.23776 -0.83191 -0.17064 -0.33717 -0.013438 -0.19892 0.73381 -0.55864 0.32303 -0.12569 -0.17912 0.26126 -0.58117 -0.34227 -0.064365 -0.07376 0.21255 0.01946 -1.0092 0.87722 0.18482 -0.10302 -0.19276 -0.22842 -0.17149 0.77357 0.59943 -0.68837 -0.36245 0.29054 0.17072 0.24362 -0.51817 0.70351 -0.37938 0.065709 -0.46292 0.0067847 -0.32408 -0.14116 -0.055433 -0.018046 -0.035361 0.092823 0.47027 0.37482 0.21702 0.11285 0.070391 -0.39826 0.28902 0.28243 -0.1245 0.65942 -0.06969 -0.10119 0.16737 0.017953 1.054 -0.94098 -0.10053 0.43794 -0.19986 -1.9792 -0.0019233 -0.40102 -0.82767 -0.26062 0.99853 0.10781 -0.751 -0.13921 -0.72007 0.45989 0.092098 0.55046 0.34484 0.18793 -0.37705 0.49597 -0.25998 -0.17762 -0.24265 0.078407 0.29844 -0.073319 0.10775 0.40212 -0.49925 -0.11828 -0.28396 -0.093586 0.29996 -0.22327 -0.51295 -0.1122 0.56639 -0.12882 -0.53448 0.0023323 -0.73204 0.46388 -0.043207 -0.050933 0.045805 0.72438 0.41419 -0.59341 0.0060393 -0.69074 0.092812 -0.32029 0.043348 -0.46207 0.30909 -0.25619 -0.55285 -0.17848 -0.502 -0.032778 0.2222 0.086128 -0.78086 -0.77069 0.054778 -0.69601 0.38888 0.083375 -0.32141 -0.57177 -0.42304 0.28363 0.06951 -0.088851 0.31027 0.097821 -0.28616 0.33773 0.95037 0.1104 0.067014 0.54906 0.32525 0.0039849 -0.33912 0.66687 -0.26057 -0.16186 0.42515 0.16376 0.39415 0.34177 0.078408 0.39749 -0.83072 -0.3971 0.12492 -0.44652 -0.24135 -0.23798 0.53005 0.19835 -0.6953 -0.16605 0.52184 -0.51951 -0.1227 -0.20367 -0.23033 -0.1291 -0.024864 -0.12348 -0.24762 0.25695 0.032846 0.16521 0.34835 -0.29862 -0.74914 -0.023916 0.44604 -0.011227 0.23039 1.0153 -0.61841 -0.032223 -0.13625 -0.006843 -0.27052 -0.24358 -0.71491 -0.23413 0.31799 -0.5422 -0.084686 -0.052222 0.086279 -0.019219 -0.016173 0.52764 -0.23807 -0.37138 -0.31315 0.091436 0.44461 0.62337 -0.31109 0.41635 0.25501 0.065717 -0.17489 -0.42865 -0.67074 0.49683 -0.49312 0.77601 0.28783 1.1997 0.63614 0.014955 0.018366 0.2248 0.31465
flute 0.03835 0.62815 -0.20931 0.21448 0.78128 -0.33813 0.70439 0.32439 0.0048253 0.65154 0.47585 0.55434 -0.13161 0.25146 0.02071 0.43391 0.094246 0.50421 -0.16199 0.20457 -0.017445 0.046568 -0.42829 0.65183 0.27892 0.070002 -0.27463 0.69579 0.42151 -0.21037 0.26789 0.19399 -0.10646 0.24786 0.31313 -0.097587 -0.19032 -0.25798 0.53071 -0.47259 0.32527 0.28804 0.18402 -0.082195 0.43267 -0.17356 0.26791 -0.41334 -0.049817 0.65118 -0.16022 0.14163 -0.25657 0.33291 -0.1112 -0.33324 0.91363 0.14441 -0.6185 -0.48948 -0.17464 -0.36139 -0.11953 0.29343 -0.9153 -0.33174 0.16174 0.7038 0.12193 0.14234 0.039948 0.50967 0.18612 -0.32939 -0.50437 -0.18436 -0.38937 0.74295 -0.23548 -0.18952 -0.24157 -0.51711 -0.2504 0.75741 -0.52801 0.077079 0.42472 0.69564 -0.48612 -0.082701 -0.049185 -0.28964 -0.15632 0.52011 -0.16531 -0.88045 0.937 0.18134 -0.29059 -0.46602 -0.20061 -0.54843 0.29733 0.88423 -0.91979 -0.52029 0.24142 0.087194 0.77597 0.0015089 0.65385 -0.22714 -0.51644 -0.22211 0.23693 0.17406 0.28979 -0.11418 -0.31598 0.40819 0.28137 0.53697 0.44604 0.37365 0.12953 -0.028681 -0.16746 0.27277 0.1507 -0.12162 0.030725 -0.25719 0.095422 0.3815 0.2059 0.97127 -0.29459 0.026774 0.11818 0.048421 -1.9006 0.36045 -0.68035 -0.48292 -0.19226 0.58828 -0.51587 -0.40486 -0.058105 -0.33598 -0.39561 0.35922 0.30397 0.53555 0.13846 0.026194 0.57652 -0.027788 0.12832 -0.089422 0.49864 0.18635 0.093873 0.12564 0.42578 -0.44433 -0.0070831 -0.54588 -0.29349 0.017691 -0.29974 -0.26757 0.020921 0.43956 -0.33398 -0.095521 0.24324 -0.60194 0.56619 -0.094078 0.16887 -0.3171 1.1229 0.39707 -0.40005 -0.05706 -0.71699 0.039472 -0.27625 0.57535 -0.62282 0.5346 -0.73893 -0.39124 -0.045131 -0.56183 -0.34055 0.24808 0.0017359 -0.61514 -0.1722 0.30491 -0.67103 0.059929 0.31308 -0.49555 -0.4861 -0.12679 0.40897 0.089188 0.095385 0.084401 0.26979 -0.18422 -0.084684 0.72246 0.11247 -0.029728 0.37187 0.32602 -0.18463 -0.071905 0.36595 0.29917 -0.13377 0.48002 0.076361 0.21103 0.04565 0.073845 0.243 -0.36921 -0.55674 0.33992 -0.34283 -0.263 -0.088927 0.49455 0.24832 -0.41676 -0.18954 0.43041 -0.23817 -0.14916 0.19052 -0.13013 -0.21424 0.1782 -0.11088 -0.37205 0.54658 -0.14726 -0.14414 0.36909 -0.18956 -0.1947 0.073619 0.23124 0.23742 0.08775 0.7388 -0.24432 -0.10257 -0.32997 0.28046 -0.3819 -0.50097 -0.39223 0.34084 0.19038 -0.69685 -0.12466 0.15029 -0.23914 0.2593 0.23829 0.14996 -0.6883 0.020482 -0.29382 0.21129 0.54291 0.58635 -0.54311 0.2421 -0.036454 0.35125 -0.15674 -0.015504 -0.26461 0.5902 -0.35899 0.63794 0.16923 0.8729 0.99877 -0.13588 0.43047 0.18828 0.13627
trumpet 0.013835 0.47356 -0.28714 -0.11044 0.60024 -0.23629 0.63042 0.15144 -0.090747 1.1404 0.89533 0.32049 0.2186 -0.0042299 0.16485 0.58256 -0.087445 0.18491 -0.3668 -0.088923 0.37254 -0.13321 -0.72338 0.59416 0.16039 0.23549 -0.69089 0.26719 0.68553 0.076721 -0.21865 0.50311 -0.021646 0.024302 0.35846 -0.32464 -0.24324 0.205 0.56979 0.043794 0.36141 -0.34249 0.023247 0.39311 0.48449 -0.0044753 0.0019997 -0.19437 0.26573 0.018813 -0.39501 0.36761 -0.20491 0.16729 0.1983 -0.30089 0.72228 -0.19355 -0.64314 -0.48973 -0.6086 -0.12845 0.13519 -0.28845 -0.40317 -0.49398 0.39966 0.087554 0.10364 0.56592 -0.77866 0.24203 0.22087 0.034046 -0.65222 -0.37541 -0.040896 0.26358 -0.094135 -0.31793 -0.21797 -0.28281 0.038933 0.63311 -0.13855 0.32318 0.33729 0.041699 -0.62741 -0.27279 0.46711 -0.65449 0.28128 0.43257 0.46697 -0.68222 0.29279 -0.12768 0.3169 -0.35264 -0.24255 -0.15821 0.80004 0.49225 -0.92044 -0.60581 0.36735 0.21528 0.47581 0.16135 0.52642 0.067295 -0.34135 -0.030562 0.18825 -0.099039 0.27916 -0.088272 -0.39364 0.12296 -0.033291 0.32544 0.31262 0.89436 0.1114 -0.48653 -0.32554 0.19607 -0.096855 -0.56377 0.5045 -0.22325 0.14948 0.57618 -0.0053979 0.68308 -0.28018 -0.26569 0.39926 0.26712 -1.9258 0.88601 -0.22761 -0.13031 0.095794 0.96735 0.22434 -0.56203 -0.077424 -0.50153 0.18516 -0.036691 0.38643 0.21737 0.34819 -0.42764 0.1256 -0.46278 0.17809 -0.12739 0.44758 0.30224 0.11643 -0.07875 0.53957 -0.43356 0.39663 -0.26757 -0.36635 0.24642 -0.52371 -0.15263 0.26667 0.30406 -0.077174 -0.17434 0.37358 -0.42851 0.9253 0.25748 0.41558 -0.13931 0.88467 0.26783 -0.12575 -0.22081 -0.734 -0.33519 -0.55928 0.087083 -0.34338 0.54456 -0.29827 0.12648 -0.069083 -0.44323 -0.4325 0.41216 0.40882 -0.10132 -0.22802 0.30803 -0.26234 -0.053747 0.17868 -0.71526 -0.040029 -0.45643 0.25662 0.5417 -0.17629 0.57259 0.21051 0.1462 -0.32969 1.081 -0.10192 -0.15407 0.31818 -0.061537 -0.028962 -0.59907 0.44246 0.39331 0.13387 0.15547 0.18442 0.17177 -0.12037 0.52525 0.79688 -0.31171 -0.49895 -0.025266 -0.53981 -0.18778 -0.2098 0.41298 0.17776 -0.33392 -0.47478 -0.55243 -0.29083 0.40658 -0.27412 0.56981 0.17739 0.051821 0.34904 -0.45459 0.2079 0.083545 -0.33639 -0.037734 -0.58495 -0.51596 0.13756 0.044888 -0.17346 -0.018358 0.14247 -0.013639 -0.17043 -0.45023 0.019031 -0.27603 0.3038 -0.61618 0.089282 0.14909 -0.094035 0.0049057 0.40372 0.062524 0.61667 0.025995 0.13867 -0.31853 -0.22456 -0.52125 0.41648 0.46902 0.21894 -0.091752 -0.10384 0.19399 0.52776 -0.2364 0.26658 -0.60897 -0.0074228 -0.18872 0.5554 0.025846 0.25513 0.63763 -0.029935 0.63674 0.19694 0.41864
cello 0.28525 0.57081 -0.20674 0.43869 0.59327 -0.13785 0.31362 -0.18861 -0.0027245 0.37885 0.43922 0.55825 -0.10732 0.16726 -0.066099 0.064481 0.60512 0.48461 0.081071 0.25465 0.36345 0.36626 -0.32186 0.67066 0.019321 0.16376 -0.15482 0.5245 0.70447 -0.038403 0.31508 0.51276 -0.23283 0.029813 0.17652 -0.34602 -0.11532 -0.089065 0.72443 -0.52822 0.69426 0.066265 0.287 0.20374 0.27806 0.539 0.31862 -0.066605 0.23409 0.5414 0.13955 0.13742 0.079237 0.14584 0.092781 -0.5049 0.62555 0.31628 -0.6518 -0.14809 -0.065225 -0.32105 -0.02169 -0.058324 -0.5992 -0.15293 0.024061 0.87033 -0.053639 0.36505 -0.10594 0.38822 0.22796 -0.32937 -0.39072 -0.33238 -0.061724 0.13967 -0.59386 -0.13367 -0.12854 0.4024 -0.20705 0.67414 -0.40409 0.095379 0.2163 -0.046369 0.063817 -0.5254 -0.079663 0.0036604 0.047614 0.1538 0.25113 -0.74387 1.0227 0.21789 -0.3012 -0.37781 -0.26668 -0.42011 0.6626 0.4561 -0.99575 -0.34382 0.27515 0.069477 0.19309 -0.45319 0.7487 -0.41963 -0.06621 -0.548 0.029528 -0.52838 -0.1324 -0.01979 0.05851 0.078345 0.25031 0.14135 0.19211 0.37328 -0.048493 -0.17006 -0.26816 0.45196 0.1556 -0.11191 0.55339 -0.081256 0.29403 0.033655 0.42121 1.1028 -0.95787 -0.36987 0.27376 0.049469 -1.5633 -0.12155 -0.47859 -0.4253 -0.22135 1.0126 -0.074724 -0.47406 -0.23253 -0.69783 0.31237 -0.0016609 0.77374 0.29216 0.3304 -0.35391 0.46763 -0.46808 -0.068775 -0.066825 -0.09433 0.61667 0.095657 0.1509 -0.013354 -0.48563 -0.38483 -0.38227 -0.035831 0.064864 0.09414 -0.64389 -0.18913 0.98451 0.10768 -0.83272 0.086872 -0.70876 0.2836 0.026196 0.16029 -0.054696 0.99715 0.40201 -0.25878 0.069146 -0.82454 -0.051262 -0.41202 0.023085 -0.50771 0.17667 -0.18202 -0.3939 -0.0017424 -0.08246 -0.20679 0.22526 0.24686 -0.50858 -0.28466 -0.11267 -0.55075 0.19483 0.49352 -0.35338 -0.80444 -0.16466 0.19241 -0.02058 0.028228 0.36315 -0.0031129 -0.39992 0.35432 1.1905 0.16498 0.054412 0.5553 0.12522 0.071334 0.053846 0.61959 -0.098202 -0.27053 0.22957 0.082517 0.060433 0.4292 0.21861 0.37366 -0.89655 -0.20419 -0.073695 -0.52551 -0.22309 -0.15709 0.30652 0.17745 -0.56054 -0.1592 0.63848 -0.63295 0.067375 -0.10012 0.16556 -0.2245 -0.00049007 0.10906 -0.29084 0.20656 0.039282 -0.36783 0.44233 -0.21372 -0.82697 -0.11458 0.14364 0.21026 0.14046 1.009 -0.66474 -0.22207 -0.21242 0.061599 0.075418 -0.33084 -0.52032 -0.22286 0.23408 -0.51128 -0.1189 -0.014672 0.12744 0.054738 -0.09346 0.88422 -0.098678 -0.1437 -0.23338 0.0558 0.36867 0.77517 -0.31796 0.24249 0.4328 -0.14608 -0.41339 -0.3163 -0.40441 0.58024 -0.33968 1.0593 0.14612 1.0646 0.8501 0.11102 0.014447 -0.0045789 0.32805
fiddle -0.35544 0.4183 0.041685 0.40187 0.46334 -0.50444 0.5589 -0.31413 -0.41415 1.1811 0.037584 0.58628 -0.21844 0.15934 -0.085229 0.15319 0.079104 -0.5042 0.052028 0.10259 0.067376 -0.00223 -0.4114 0.089057 0.19136 0.12218 -0.27049 0.50049 0.67676 -0.31419 0.15213 0.53576 0.071227 0.27388 0.38996 0.11466 0.056281 0.70668 0.34475 0.0034672 -0.13423 0.42497 0.081193 0.12262 0.1762 0.34047 0.85864 -0.46999 0.28486 0.12121 0.087234 0.23607 -0.054827 0.12053 0.26882 0.22387 0.70184 -0.24687 -0.10247 -0.26307 -0.13081 0.18953 -0.085017 0.14427 -0.26827 -0.13973 0.034027 0.40917 0.64113 -0.14024 0.018754 0.76493 0.13048 -0.076092 -0.30478 -0.4275 0.00081394 0.45319 -0.6364 -0.99405 -0.028854 -0.67882 0.13853 0.27533 -0.64095 0.14187 0.49778 0.27688 0.30739 0.17008 -0.49125 -0.15148 -0.35833 1.048 0.17861 -0.84009 0.51941 0.42572 0.29266 -0.16159 -0.48595 -0.4346 0.39068 0.66224 -0.89117 -0.8232 0.37219 0.053811 0.090938 -0.28026 0.53533 0.2191 -0.21465 0.022619 -0.38988 -0.335 0.02262 -0.47452 -0.35775 0.43168 0.074571 -0.17925 -0.043736 0.35016 0.11701 -0.14645 0.19762 -0.10239 0.33469 -0.15057 0.3628 0.66369 -0.0055627 0.39273 0.061222 0.14602 0.088282 0.26137 0.37445 -0.65623 -1.9763 -0.048857 0.057667 -0.57756 -0.11577 0.50685 0.55611 -0.22507 0.017279 -0.22867 0.48931 -0.44425 0.24975 0.17511 0.15464 -0.49619 0.42261 -0.12509 -0.032233 -0.00045574 -0.24964 0.54813 -0.03871 -0.058465 0.47374 0.074948 -0.14504 -0.59491 -0.46428 0.37761 -0.43022 0.26124 -0.21944 0.32863 -0.16231 -0.37317 0.14422 -0.29441 0.13916 0.047629 -0.53596 -0.1272 0.65976 0.30825 -0.16631 -0.1624 -0.50146 -0.1615 -0.3681 -0.21444 -0.20616 0.21095 -0.17231 -0.23541 -0.05736 -0.37859 -0.63935 0.21627 -0.32374 -0.32977 -0.72014 -0.12009 -0.18944 0.48839 -0.23528 -0.08706 -0.68193 -0.27906 0.64539 -0.17909 -0.21624 -0.088543 0.16323 0.38118 -0.29579 0.84522 0.069041 0.4649 0.12727 0.21528 -0.17732 -0.10099 0.37779 -0.22183 -0.24245 -0.17063 -0.064611 0.24176 0.39666 0.1819 -0.0049083 -0.36848 -0.37661 0.29433 0.18742 -0.073678 -0.12365 0.3285 0.48418 -0.13642 -0.12644 0.38469 0.15278 -0.15972 -0.20829 -0.12775 -0.41578 0.41979 -0.28771 -0.19465 0.43325 -0.66297 -0.5417 0.42069 -0.19195 -0.32607 -0.22765 0.10764 -0.28474 0.038983 0.15896 -0.5747 -0.016173 -0.3147 -0.1118 -0.015134 -0.49522 -0.82991 0.28402 0.23361 -0.42756 -0.015929 0.28926 -0.16066 -0.12849 -0.040765 0.55175 -0.25717 -0.32075 -0.5954 -0.2877 0.47709 -0.37622 -0.42835 0.29598 -0.37232 -0.028448 -0.018995 0.11672 -0.14839 -0.017123 -0.193 0.19467 0.18601 0.35136 0.48919 0.15896 0.11849 -0.18616 -0.10513
harp 0.14027 0.40932 -0.015079 0.049937 0.20035 -0.72479 0.5466 0.051178 -0.2686 0.84023 0.29983 0.41442 0.13818 0.21705 -0.10222 0.16854 -0.060805 0.0077099 -0.24462 -0.10988 0.075201 0.13206 -0.464 0.29612 0.035066 0.10475 -0.40241 0.73887 0.58713 0.01582 0.0433 0.43611 -0.15475 0.035507 0.32899 0.0025806 -0.2804 0.31139 0.23234 -0.17739 0.2284 0.23799 -0.013556 0.11535 0.79349 0.041861 0.43033 -0.22271 0.14145 0.47571 -0.50263 0.1239 -0.40183 0.33885 0.12104 -0.22155 0.94899 0.34478 -0.65302 -0.16596 0.01087 -0.56481 -0.27727 0.21606 -0.83297 -0.28829 0.23566 0.35469 0.071351 0.10984 -0.39344 0.72089 0.23411 -0.47083 -0.2294 -0.17842 -0.27969 0.25421 -0.64318 -0.65403 -0.43514 -0.33388 -0.050316 0.67241 -0.56319 0.073945 0.48846 0.19772 0.12962 0.04421 -0.19882 -0.33257 -0.38548 0.63309 0.15105 -0.71362 0.37014 0.18396 0.32889 -0.5418 -0.61569 -0.73295 0.31782 0.61969 -0.39193 -0.87966 0.11905 -0.29248 -0.085147 -0.48483 0.81974 -0.058235 -0.23815 -0.21986 0.26777 -0.24146 0.21042 0.22371 -0.062366 0.53126 -4.045e-05 -0.083446 0.22996 0.39776 0.29837 -0.59795 0.13884 -0.088621 0.15815 -0.21514 0.31642 -0.19046 0.042582 0.18869 -0.11789 0.53575 -0.40193 -0.16926 -0.0076958 -0.26656 -1.6235 0.11043 -0.086459 -0.68413 -0.045061 0.43666 0.41015 -0.32838 -0.11526 -0.48324 0.28443 0.29502 0.34506 -0.047887 0.054068 -0.30243 0.63567 -0.14601 0.010451 0.25883 0.2718 0.24763 -0.033194 0.10495 0.6587 -0.022537 -0.25707 -0.86855 -0.5276 0.025815 -0.35568 -0.037086 0.42799 0.49822 0.082247 -0.027336 0.21713 -0.44625 0.22577 0.23472 -0.056157 -0.036005 0.54069 0.48043 -0.34869 -0.074086 -0.59059 -0.12632 -0.34281 -0.090348 -0.47144 0.088693 -0.55379 -0.248 -0.074063 -0.13551 -0.38228 -0.035647 0.12918 -0.24825 -0.4148 0.3989 -0.55889 0.60477 0.11886 -0.89101 -0.26306 -0.47883 0.36143 -0.12595 0.023579 0.30751 0.2953 0.11696 0.093512 0.97864 0.070343 -0.0019275 0.37098 -0.18442 -0.054258 -0.4165 -0.11893 -0.021894 0.065337 0.29279 0.34558 0.24756 0.21337 -0.086838 0.39998 -0.38473 -0.31042 0.10532 0.086474 -0.36232 -0.36344 0.16528 0.4286 -1.0395 -0.21479 0.21537 -0.14007 0.0014207 -0.16144 -0.11013 0.14918 -0.13448 -0.24579 -0.32248 0.365 -0.35474 2.4478e-05 0.4792 -0.03863 -0.48629 -0.090421 0.16497 0.34349 0.27737 0.19112 -0.47491 -0.10877 -0.17724 0.21768 -0.1302 0.12391 -0.33611 0.099048 0.13011 -0.42416 -0.20468 0.20901 0.35905 0.43574 0.20456 0.76365 -0.047938 -0.13523 -0.48161 0.31451 0.4826 0.0791 -0.27575 0.12109 -0.32226 0.11136 -0.31126 0.41476 -0.058111 0.055137 -0.22065 0.41407 0.48669 0.55235 0.72467 -0.13079 0.51704 -0.13034 0.044013
banjo 0.088448 0.6973 0.081089 0.17103 0.27669 -0.7465 0.30523 -0.19032 -0.22089 0.67326 0.079902 0.49679 -0.70325 0.29028 0.17553 0.14737 -0.085098 -0.16667 -0.083897 0.01247 -0.060568 -0.29259 0.23194 -0.15789 0.34695 0.11193 -0.082519 0.48221 0.77224 0.0088571 0.12049 0.12777 -0.039688 0.22175 0.24057 0.42773 -0.035655 0.74066 0.36591 -0.34095 -0.25222 0.26633 0.32545 0.14037 0.22507 0.49303 0.57905 -0.51244 0.061321 -0.069856 0.074942 0.35735 0.13334 0.44521 0.47954 0.04195 0.67767 0.20749 -0.3574 -0.29924 0.047537 0.14798 0.45691 0.20549 -0.43946 -0.6965 0.13961 0.42273 -0.19221 0.21011 -0.099947 0.22171 0.2881 -0.069494 -0.26006 -0.3604 0.091908 0.73558 -0.47521 -0.65129 0.024553 -0.23219 0.26898 0.20777 -0.17365 0.19289 0.66709 0.33799 0.13915 0.06068 -0.56338 -0.3283 -0.1911 0.91686 0.29887 -1.024 0.56404 0.44444 0.66715 -0.46008 -0.36915 -0.13464 0.3783 0.76866 -0.83763 -0.5438 0.19856 -0.013628 0.022529 -0.38146 0.41014 0.21384 -0.15983 -0.00022279 0.12858 -0.040476 -0.052374 -0.24796 -0.40344 0.4027 0.12442 0.07271 -0.10408 0.1716 0.063514 0.20261 0.02995 -0.062017 -0.0022469 -0.1873 0.34675 0.073125 -0.18307 0.35772 0.015363 0.92618 -0.083931 0.026531 0.17826 -0.1533 -2.135 -0.059015 0.11044 -0.70413 -0.3325 0.55703 0.60409 -0.86778 0.048946 -0.23018 0.05695 -0.21606 0.20446 -0.35738 -0.020273 -0.52727 0.3707 -0.19573 0.10718 0.15301 0.18651 0.29637 -0.070094 -0.48506 0.78233 -0.31955 -0.072462 -0.56419 -0.35346 0.25168 -0.41085 0.39995 0.12337 0.94013 -0.70864 -0.58866 -0.26274 -0.50525 0.34389 -0.17148 -0.31017 0.03616 0.81693 -0.12818 -0.46049 -0.56451 -0.56873 -0.54964 -0.6801 -0.18844 -0.29824 -0.094181 -0.30984 -0.15362 -0.29002 -0.2064 -0.64606 0.47408 -0.31652 -0.73442 -0.7601 -0.057375 -0.20722 0.42524 -0.0032135 -0.37505 -0.46603 -0.64899 0.45888 0.051194 0.048767 0.31212 0.47491 0.095241 -0.31151 1.0541 -0.26259 0.21463 0.048267 0.0098256 -0.28695 0.091392 0.47878 0.057224 -0.23427 0.10846 -0.29371 0.54548 0.5143 0.52899 0.019891 -0.64917 0.064735 -0.053749 0.077188 0.048592 -0.29687 0.53529 0.16322 -0.3238 -0.037407 0.041277 0.03788 0.11652 -0.1293 0.29704 -0.35059 0.15605 0.043463 0.091332 0.64329 -0.81008 -0.23178 0.72402 -0.53254 -0.70547 -0.078794 0.015663 -0.10317 0.021186 -0.19193 -0.77304 -0.14937 -0.54451 0.15752 -0.035847 -0.14548 -0.54419 0.24667 0.59489 -0.089243 -0.25232 -0.042248 -0.11792 -0.12779 0.059656 0.24514 -0.44899 0.14575 -0.9766 -0.60538 0.67284 0.086898 -0.34413 0.32116 -0.68545 0.0012003 -0.36304 -0.081957 -0.094544 0.16676 -0.24666 0.38633 0.63329 0.78924 0.75004 -0.15804 0.3957 -0.54942 0.48432
saxophone 0.27508 0.30341 -0.21834 0.27324 0.6892 -0.25716 0.58316 -0.19351 0.37242 0.70672 1.0248 0.40342 -0.013633 0.13228 -0.050474 0.43753 0.24238 0.053628 0.066918 0.096111 0.12434 0.15778 -0.45651 0.37135 0.34676 0.22539 -0.36945 0.56157 0.79572 -0.21084 5.4764e-05 0.35984 -0.072634 0.089486 0.64576 -0.35551 -0.31628 0.21987 0.52009 -0.3006 0.29171 -0.13001 0.25519 0.28823 -0.012587 0.19778 0.2581 -0.44247 0.20697 0.38684 -0.27476 0.25719 0.30924 0.52598 0.095657 -0.085432 0.60786 -0.71076 -0.33061 -0.72886 -0.40028 -0.10077 -0.068482 -0.19739 -0.71732 -0.24832 0.27506 0.56845 -0.11645 0.45873 -0.3946 -0.0091083 -0.059209 -0.17463 -0.59542 -0.18238 -0.041462 0.33172 0.072887 -0.60307 0.0052032 -0.26427 -0.096437 0.96016 -0.27403 0.30059 0.032578 0.2854 -0.2944 -0.19482 0.098158 -0.11039 0.092926 0.57313 0.29534 -1.0391 0.81412 0.41677 -0.075364 -0.39695 -0.0041956 -0.31514 0.58449 0.69435 -0.6488 -0.48937 0.67386 -0.13227 0.3086 -0.13021 0.78535 -0.25653 -0.27111 -0.57724 -0.055759 -0.077119 0.37122 0.24688 -0.37545 0.11331 0.1509 0.46942 0.15765 0.41578 0.29642 -0.18495 -0.23107 0.157 -0.035883 -0.51158 0.45469 -0.27041 0.16801 0.49535 0.16528 1.0762 -0.33999 -0.14746 0.29791 0.11364 -1.5758 0.37427 -0.27679 -0.22304 0.045472 0.94668 0.46605 -0.69342 0.12936 -0.49555 0.20703 0.15782 -0.14381 -0.14337 0.42309 -0.44024 0.43757 -0.44148 0.21357 -0.13123 0.16142 0.2486 0.40411 -0.51709 0.24354 -0.811 -0.055158 -0.064201 -0.35595 0.17502 -0.5582 -0.04715 0.20264 0.79249 -0.33282 -0.11198 -0.29676 -0.64261 0.71138 0.13414 0.62663 -0.12516 0.7721 0.17451 -0.16922 -0.2391 -0.79096 -0.23185 -0.7512 -0.11862 -0.18901 0.54269 -0.54906 0.05059 0.066579 -0.36919 -0.27395 0.64784 0.24046 -0.20315 0.04382 -0.0063606 -0.45917 0.1488 0.28839 -0.56897 -0.37247 -0.38161 0.21626 0.1432 0.095349 0.43177 -0.60626 0.058747 -0.080213 0.59436 0.32661 0.00061848 0.64375 0.32361 0.10095 -0.10699 0.23496 0.25281 -0.16592 -0.060367 0.03145 0.083694 0.63415 0.58134 0.23002 -0.54581 -0.4017 -0.16833 -0.52002 -0.020515 -0.26366 0.54055 0.34061 -0.15431 0.055496 -0.060421 -0.26244 0.21224 -0.17707 0.61578 0.017989 -0.44595 0.00095532 -0.37465 0.013041 0.010153 0.0084837 0.27132 -0.64752 -0.73072 0.028587 0.047609 -0.04004 -0.14493 0.30104 -0.37462 -0.18331 -0.46371 -0.07168 0.13717 -0.20428 -0.29703 0.25746 0.28589 -0.40861 -0.025092 0.33311 0.015469 0.53287 0.098598 0.39074 -0.74934 -0.21259 -0.53474 -0.10272 0.39838 0.28953 -0.28362 0.095155 -0.034415 0.40683 -0.36496 0.068145 -0.19522 0.36201 -0.32213 0.93349 0.18133 0.46829 0.93522 0.1156 0.42383 0.12552 0.17995
clarinet 0.23068 0.37608 -0.50081 0.31091 0.5666 -0.25865 0.42955 -0.11828 0.51793 0.47186 0.71509 0.43451 -0.23192 0.12512 -0.10342 0.70163 0.28613 0.23044 -0.30971 0.090464 0.30603 0.29656 -0.32797 0.3722 0.29506 0.146 -0.61995 0.16475 0.67839 0.059495 0.22676 0.50444 0.063258 0.076001 0.75701 -0.13468 -0.1666 -0.0050984 0.771 -0.50305 0.15138 0.0050649 0.34574 0.17792 0.10356 0.31124 0.38024 -0.33462 0.13489 0.69003 -0.2999 0.47868 0.15974 0.59999 0.23112 -0.3608 0.50322 -0.39101 -0.59835 -0.49342 -0.21802 -0.10759 -0.008377 -0.26237 -0.91844 -0.071753 0.17936 0.60969 0.19482 0.55276 -0.37869 0.025363 0.20844 -0.2419 -0.26309 -0.28377 0.099509 0.47556 0.051302 -0.12295 -0.32802 -0.42539 -0.03341 0.79186 -0.1931 0.31784 0.31358 0.23253 -0.33645 -0.16361 0.20711 -0.11456 -0.020597 0.19863 0.1908 -0.90195 0.84623 0.14226 -0.05479 -0.15756 -0.18671 -0.32537 0.78113 0.83083 -0.91968 -0.4442 0.54283 -0.11898 0.29727 -0.22084 0.85082 -0.14004 -0.53939 -0.57223 -0.13726 -0.33827 0.19667 0.23765 -0.25739 -0.02571 0.58603 0.41701 0.4306 0.51196 0.22716 -0.28176 -0.2866 0.010535 0.04957 -0.3712 0.56558 -0.50063 0.44112 0.60027 0.46142 1.0047 -0.47514 -0.19186 0.30252 -0.0072674 -1.425 0.33447 -0.27097 -0.059568 0.070303 1.1258 0.088832 -0.70536 -0.15687 -0.24207 0.30274 0.26066 0.055552 -0.13447 0.64738 -0.30027 0.36348 -0.41505 0.15379 -0.32245 0.014598 0.26189 0.29755 -0.43324 0.25434 -0.69205 0.18032 -0.13851 0.12653 0.10935 -0.42534 -0.36117 0.063358 0.80355 -0.40701 -0.4273 0.0031837 -0.54945 0.81829 0.37395 0.43103 -0.41505 0.55014 0.33305 -0.32119 -0.2822 -0.85299 -0.050385 -0.58757 0.03463 -0.67867 0.72093 -0.32184 -0.11401 -0.077297 -0.6277 -0.068746 0.55346 0.3762 -0.58996 -0.011418 0.17209 -0.49241 0.34473 0.34726 -0.78931 -0.50817 -0.23279 0.17389 0.21199 0.12764 0.33788 -0.32284 -0.23289 -0.092442 1.152 0.39895 0.0070553 0.71858 0.16655 0.055963 -0.31102 0.58852 0.016351 -0.11424 0.29541 0.29838 0.06411 0.64648 0.2378 0.063846 -0.64013 -0.23653 0.11303 -0.4129 -0.24478 -0.11673 0.63481 0.26725 -0.17361 -0.12573 -0.066943 -0.29338 0.13974 -0.40928 0.47275 -0.16982 -0.20282 0.12307 -0.14723 0.50784 0.15811 -0.19066 0.11365 -0.38494 -0.8624 0.17471 0.20499 -0.14718 -0.1463 0.51562 -0.39811 -0.26418 -0.41742 0.37947 -0.21174 -0.29509 -0.37702 0.14774 0.042726 -0.41204 -0.2894 0.20674 0.036132 0.27295 -0.035833 0.52309 -0.68699 -0.28243 -0.44046 -0.013643 0.49689 0.55653 -0.34702 0.14659 0.21887 0.4497 -0.32655 -0.2326 -0.50075 0.51009 -0.32338 0.64498 0.2789 0.83468 0.95149 0.018058 0.18981 0.013427 0.28901
viola 0.20829 0.52337 -0.39185 0.38442 0.52335 -0.25449 0.51518 0.024348 -0.32682 0.15075 0.46206 0.62801 -0.3225 0.036687 -0.11963 0.083078 0.33062 0.38424 0.11869 0.0046976 0.36558 -0.017221 -0.36181 0.33236 0.42018 0.1951 -0.49824 0.50471 0.77935 0.30948 0.39454 0.84883 0.25755 0.014194 0.11158 -0.12104 0.025765 0.0268 0.39515 -0.38298 0.52127 0.3291 0.58246 0.28249 0.19094 0.41837 0.23752 0.089312 0.36109 0.42694 -0.10206 0.39741 0.0024341 0.38779 0.11327 -0.61986 0.6002 0.10211 -0.72063 -0.11175 0.04852 0.041641 -0.073911 -0.06534 -0.44031 -0.15248 -0.28725 0.61099 -0.042194 0.10286 0.074874 0.3699 0.33218 -0.19849 -0.49025 -0.58015 -0.17484 0.24188 -0.31852 -0.12847 -0.42229 0.046656 -0.045116 0.59401 -0.86633 0.12894 0.54653 -0.34702 -0.098425 -0.25813 0.15178 -0.027563 0.39711 -0.044421 0.135 -0.56766 0.84358 0.2033 0.042879 -0.10356 -0.22275 -0.21222 0.78369 0.43182 -0.78417 -0.4846 0.1176 -0.088267 -0.22948 -0.31004 0.52388 -0.24914 0.046169 -0.37159 0.053157 -0.42699 0.092694 -0.083795 0.27084 -0.0089527 0.18432 0.13939 0.44327 0.30518 -0.0085089 -0.2078 0.20061 0.54049 0.43094 0.050354 0.18343 -0.13285 -0.063791 0.35827 -0.0064629 0.62916 -0.79141 -0.2774 0.078725 0.22586 -1.1679 0.06875 -0.55665 -0.31708 -0.15231 1.4265 0.11498 -0.34591 -0.42198 -0.38655 0.33534 -0.089292 0.83207 0.040874 0.058173 -0.047313 0.0036957 -0.31376 0.19912 -0.32418 0.055823 0.37009 -0.41105 -0.099384 0.22449 -0.52751 -0.1653 -0.30505 -0.11838 0.38776 -0.13905 -0.35674 -0.060499 0.76494 -0.096833 -0.47937 0.05031 -0.61091 -0.037508 0.16652 0.12875 -0.042013 0.42653 0.52367 -0.30857 -0.084403 -0.93599 -0.23999 -0.58303 -0.1151 -0.46935 0.48406 -0.40225 -0.050028 -0.048327 -0.32482 -0.30944 0.28906 0.41673 -0.38255 -0.48974 0.11027 -0.45481 0.41078 0.031767 -0.21487 -0.40493 -0.1667 0.24418 0.16943 -0.051696 0.4818 0.14852 -0.00010451 0.29697 1.0553 0.078814 0.36335 0.60792 0.045188 -0.35694 -0.11272 0.5798 -0.11062 0.017187 0.35634 -0.074826 0.028796 0.43815 -0.012357 0.16267 -0.80433 -0.27067 0.066922 -0.65698 -0.4832 -0.053416 0.10563 0.055603 -0.19161 -0.1925 0.28558 -0.39397 -0.32459 -0.023393 0.059895 -0.18268 0.25942 -0.33867 -0.063039 0.15166 -0.16763 -0.50436 0.31791 -0.22966 -0.58769 -0.21525 0.50984 0.21252 -0.20892 0.80849 -0.40755 0.13993 0.075273 -0.2393 -0.26744 -0.18985 -0.74129 -0.47517 0.34108 -0.37347 -0.34939 -0.18807 0.081985 -0.16037 -0.11769 0.65127 -0.47183 -0.13281 0.12518 0.10505 0.39808 0.16896 -0.32727 0.17376 0.23978 0.15289 -0.34104 -0.20911 -0.62426 0.44534 -0.26153 0.668 0.30191 1.056 0.4896 0.14354 -0.30479 -0.17029 0.1311
harmonica -0.23401 0.94294 -0.01815 0.0029441 0.64284 -0.48038 0.18016 -0.42788 -0.17814 0.3793 0.77548 0.50929 -0.16847 0.19028 0.16874 0.17692 -0.032416 -0.17689 -0.063484 0.020329 -0.087175 -0.30287 0.065856 0.085962 0.40716 -0.20046 -0.14477 0.54857 0.77884 -0.42046 0.15149 0.30516 -0.2318 0.43497 -0.11201 -0.035714 -0.24063 0.60175 0.3691 -0.058674 -0.073261 0.048635 0.11549 0.16826 -0.14127 0.40651 0.45749 -0.26666 -0.034471 0.23961 -0.061111 0.22502 0.16201 0.37547 -0.29311 -0.032287 1.1382 0.15309 -0.20616 -0.75093 -0.51731 -0.13775 -0.32083 -0.24152 -0.79854 -0.70274 0.19127 0.42287 0.18597 0.2588 -0.19882 0.50078 0.27204 -0.2063 -0.5257 -0.49296 -0.0085875 0.27562 -0.25538 -0.70054 -0.12915 -0.53771 0.15405 0.36618 -0.49527 -0.22122 0.20327 0.14632 -0.014954 0.56577 -0.64189 -0.20065 -0.37009 0.85194 0.42486 -0.96236 0.51291 0.26609 0.19501 -0.6879 -0.35886 -0.17793 -0.14507 0.19135 -0.39608 -0.56059 0.64192 0.074393 0.23384 -0.34829 0.73753 0.087408 -0.32617 0.16627 0.28452 -0.31127 0.22603 -0.1721 -0.59387 0.10566 0.19657 0.10633 0.18788 0.20314 -0.18136 -0.099831 -0.19079 -0.18899 0.043426 -0.37147 0.6078 -0.29601 0.47746 0.43868 -0.013333 0.81667 0.0056772 -0.33559 0.31391 -0.17984 -1.9913 0.16034 -0.048301 -0.77781 -0.033113 0.85889 0.59491 -0.40542 0.27535 -0.49647 0.08265 0.15659 0.21009 -0.19823 -0.12336 -0.54252 0.21715 0.13569 -0.088619 0.099737 0.36887 0.2938 0.25338 -0.30395 0.41812 -0.32572 -0.057493 -0.5275 -0.3194 0.72193 -0.16783 0.01752 0.31884 0.82484 -0.16015 0.066146 0.10363 -0.34854 0.25527 -0.064434 0.45027 -0.14273 0.68455 0.17285 -0.049703 -0.27904 -0.53409 -0.16148 -0.81578 0.013687 -0.17587 0.25587 -0.46344 -0.31047 -0.16654 0.039671 -0.59848 0.23556 0.1612 -0.25899 -0.5169 0.2265 -0.48819 0.366 -0.23808 -0.35557 -0.19682 -0.68457 0.27979 0.081837 -0.1873 0.39405 0.10887 0.17693 0.147 0.8258 0.22599 -0.20812 0.43092 -0.02158 0.03752 -0.17542 0.48984 0.19187 0.33139 -0.22367 0.12101 0.27833 0.36868 0.12658 -0.033012 -0.20235 -0.25445 -0.20309 -0.16293 0.0094489 -0.2671 0.61865 0.41573 -0.64073 0.076496 0.017884 -0.107 -0.28325 0.14147 0.75641 -0.21999 -0.43348 -0.076869 -0.36442 0.47448 -0.20096 -0.022642 0.8031 0.10921 -1.0485 -0.26364 0.029066 0.15695 0.43329 -0.041598 -0.95387 -0.057271 -0.4918 -0.099431 0.1285 0.1525 -0.35206 0.16101 0.13707 -0.38088 -0.17518 -0.072346 -0.0076861 0.28603 0.27708 0.33789 -0.45245 0.14738 -1.0863 -0.63011 0.81723 0.1044 -0.12986 0.23728 -0.53759 0.46457 -0.43937 0.11001 0.077369 0.22817 0.10711 0.70747 0.34031 0.67401 0.79825 0.10522 0.27093 -0.31545 0.26342
mandolin -0.37854 0.69271 0.40592 0.49379 0.53132 -0.2113 0.62184 -0.075811 -0.35699 0.52483 0.49552 0.69305 -0.39786 0.3378 -0.15212 -0.034381 0.31814 -0.1447 0.53605 0.32001 -0.012838 -0.25569 -0.0021199 0.26194 0.16252 0.22605 -0.31026 0.71076 0.53678 -0.20593 0.040283 0.41012 0.22498 0.23397 0.21166 0.2076 0.1429 0.70637 0.25665 0.2284 -0.090376 0.58554 0.58418 0.21153 0.0072045 0.36992 0.67316 -0.5441 0.059993 -0.061939 -0.19315 0.041997 0.057337 0.31115 0.11157 -0.22945 0.72202 0.24631 -0.53784 -0.24656 -0.4017 -0.05566 0.15789 0.052114 -0.57888 -0.88402 0.10389 1 -0.19775 0.31228 -0.13776 0.45254 0.19763 0.25145 -0.3842 -0.52525 0.067051 0.30215 -0.52061 -0.49693 -0.027269 -0.70916 0.38135 0.50011 0.010806 0.23696 0.52852 0.087773 -0.039321 -0.063756 -0.5443 -0.51852 0.03564 0.7961 0.13058 -0.78438 0.71486 0.70452 0.16637 -0.2332 -0.314 -0.43617 0.47921 0.86143 -0.62055 -0.62038 0.61322 0.0055353 -0.1029 -0.28561 0.65268 -0.024735 -0.12705 0.1379 0.2814 0.046274 -0.01298 -0.29324 -0.14031 0.13167 0.2378 0.18259 0.2302 0.28649 0.26329 0.063841 -0.033306 -0.30697 0.07283 -0.26682 0.41547 -0.0098623 -0.34566 0.39415 -0.17713 0.85404 -0.19511 -0.187 0.23096 -0.25563 -1.7278 -0.025179 -0.079721 -0.67292 -0.15206 0.41374 0.26046 -0.59746 0.1725 0.020342 0.2764 -0.24274 0.5968 0.036966 -0.11847 -0.51296 0.54009 0.069676 -0.095608 0.27015 -0.10856 0.44014 0.078906 -0.28036 0.77669 -0.66325 -0.063786 -0.64198 -0.29102 0.49631 -0.50174 0.15493 0.16418 0.78728 -0.35895 -0.14159 0.019863 -0.3836 0.2708 -0.1494 -0.12467 -0.069129 0.47086 0.090527 -0.43756 -0.34493 -0.67444 -0.045951 -0.86725 -0.37446 -0.33443 0.21762 -0.69216 -0.68819 -0.34252 -0.46998 -0.39115 0.22682 -0.032169 0.053603 -0.80775 -0.32095 -0.13551 0.63557 -0.092337 -0.20619 -0.83172 -0.68065 0.50984 0.36231 -0.0038645 0.34958 0.1214 -0.25361 -0.47275 1.0847 -0.11217 -0.068605 0.5782 -0.065374 -0.38418 -0.050084 0.61102 0.31708 0.0068533 0.21924 -0.31538 0.27322 0.48961 0.25185 0.31392 -0.75467 -0.32328 0.055218 0.00669 -0.705 -0.19795 0.37754 0.16271 -0.45372 0.22347 0.1035 -0.13077 -0.2023 0.14637 0.463 -0.29005 0.077669 -0.21244 -0.093126 0.65186 -0.50397 -0.19713 0.87376 -0.41739 -0.84089 0.11446 0.16121 -0.40833 0.44653 0.22102 -0.82502 0.26534 -0.84878 -0.089166 -0.13904 -0.24803 -0.63405 -0.28917 0.34184 -0.17118 -0.45993 0.15123 -0.16758 -0.37731 0.17484 0.40859 -0.57757 -0.15458 -1.0996 -0.49245 1.0065 -0.046396 -0.32243 0.6528 -0.23446 0.41888 -0.057494 0.17834 -0.31466 0.30709 -0.19911 0.7385 0.80754 0.37736 0.65381 -0.23696 0.041828 -0.26185 0.46481
trombone 0.29333 0.52564 -0.18903 0.18897 0.76812 -0.21901 0.44076 -0.18978 0.28421 0.38777 0.86332 0.39247 0.4869 0.25661 0.06577 0.3364 0.35664 0.0054881 -0.28494 -0.03862 0.32406 0.024717 -0.42533 0.32834 0.59195 0.23831 -0.47374 0.36228 0.91039 0.085924 0.13294 0.55283 0.21707 0.066152 0.61707 -0.45647 -0.019994 0.23178 0.80235 -0.26392 0.22958 -0.076593 0.034926 0.39902 0.44059 0.56127 0.41878 -0.23487 0.33477 0.34909 0.065002 0.30254 0.28235 0.41888 0.40661 -0.01879 0.69371 -0.27072 -0.38486 -0.52592 -0.60271 -0.15154 0.24797 -0.10782 -0.48837 -0.25379 -0.052595 0.37425 -0.030789 0.61876 -0.25862 0.32965 0.14559 0.041478 -0.78001 -0.073981 0.12447 0.36773 0.19038 -0.27039 -0.15455 -0.27878 -0.30923 0.84541 -0.097408 0.40097 0.29912 -0.074181 -0.6374 -0.078031 0.42893 -0.54659 0.17639 0.54873 0.094707 -0.89529 0.59761 0.04268 0.35383 -0.35369 -0.095028 -0.41467 0.75707 0.88865 -0.7998 -0.41712 0.62908 0.049063 0.28937 -0.21991 0.65631 -0.22289 -0.64361 -0.52645 -0.08188 0.011042 0.5814 0.24001 -0.37332 0.17282 0.25759 0.26464 0.58547 0.79504 0.21024 -0.41448 -0.30356 -0.19266 0.023527 -0.28117 0.39694 -0.076444 0.19576 0.64615 -0.0097208 0.90408 -0.37744 -0.1938 0.22373 0.028299 -1.3735 0.46838 -0.23038 -0.19982 -0.07617 1.028 0.36147 -0.81279 -0.031671 -0.23715 0.21123 -0.083717 0.19673 -0.23638 0.41453 -0.25986 0.049584 -0.41152 0.50586 -0.38337 0.49101 0.26222 0.39835 -0.50073 0.43655 -0.4049 0.12195 0.12274 -0.1519 -0.1414 -0.51294 -0.18438 0.50754 0.66294 -0.18067 -0.30518 -0.1389 -0.36362 0.65147 0.092093 0.51059 -0.11051 0.51986 0.13329 -0.36668 -0.27272 -0.47461 0.081479 -0.68018 -0.070348 -0.46501 0.51203 -0.37995 0.060605 0.15849 -0.3809 -0.33488 0.40812 0.12891 -0.3441 -0.19418 0.11326 -0.29493 0.044668 0.17326 -0.65777 -0.22388 -0.43739 0.37586 0.29186 0.32099 0.64979 -0.12799 0.088543 -0.37281 0.93503 0.11143 0.10459 0.56279 0.23718 0.013417 -0.30673 0.50874 0.084834 0.21883 -0.13906 -0.12222 0.27532 0.36827 0.41282 0.20038 -0.32187 -0.11595 -0.2363 -0.30564 0.079971 -0.32238 0.42404 0.39915 -0.24285 -0.18612 -0.15789 -0.16352 0.046271 -0.28625 0.76343 -0.34608 -0.070874 0.21772 -0.10674 0.36198 -0.10493 -0.13354 -0.010522 -0.45886 -0.58265 -0.019022 0.058944 -0.15747 -0.18939 0.26823 -0.40944 -0.071359 -0.45595 0.35043 0.046286 0.016823 -0.36843 0.26296 0.14041 -0.0076889 -0.24816 0.076716 -0.010228 0.28875 0.051746 0.69724 -0.71082 -0.17934 -0.48403 0.021863 0.67646 -0.025165 -0.19275 0.19757 0.088834 0.46309 -0.32981 -0.23378 -0.39651 0.39645 -0.31032 0.73189 0.21807 0.56497 0.96042 -0.21184 0.21401 0.033867 0.17696
oboe 0.2428 0.75253 -0.42863 0.072672 0.60411 0.068959 0.97443 0.27483 0.080688 0.055504 0.76849 0.63312 -0.11373 -0.048079 -0.083226 0.27717 0.33492 -0.18917 -0.010659 -0.039948 0.18557 0.46356 -0.26624 0.30028 0.35075 0.26109 -0.77619 0.40467 0.93338 0.12604 0.39764 0.4719 0.070897 0.33573 0.42443 -0.33111 -0.1986 -0.25537 0.51836 -0.49189 0.44579 0.18627 0.3211 -0.15557 0.32762 0.013404 0.066776 -0.2474 0.27398 0.84155 0.070602 0.41481 -0.0017085 0.50693 -0.049235 -0.66933 0.70015 0.30278 -0.96636 -0.28243 -0.20312 -0.22601 -0.34447 0.22511 -0.71336 -0.024715 0.17406 0.55951 0.032566 0.22032 0.071229 0.36528 -0.040313 -0.16434 -0.42451 -0.31771 0.096865 0.55906 -0.076332 -0.19617 -0.15976 -0.54376 -0.1352 0.87108 -0.41465 0.37665 0.38984 -0.1339 -0.45853 -0.39813 0.19293 -0.27049 0.069263 -0.21849 0.047388 -0.59483 0.79888 0.097844 -0.13234 -0.28294 -0.24348 -0.51783 0.84727 0.76988 -0.80835 -0.7959 0.4284 0.025303 0.121 -0.0069627 0.67598 -0.25957 -0.37991 -0.46483 -0.45781 -0.45679 -0.086187 0.18546 -0.18988 -0.081245 0.50852 0.39518 0.62788 0.40041 0.37721 -0.46311 -0.28982 0.028458 0.069822 -0.072724 0.57219 -0.59673 0.27322 0.51553 0.20163 0.83016 -0.74737 -0.42855 -0.10753 -0.025631 -0.79084 0.095838 -0.5562 -0.08933 0.12608 1.2047 -0.34019 -0.53284 -0.17497 -0.18524 0.21573 0.22834 0.27316 0.22487 0.39424 -0.069264 0.50228 -0.22984 0.23876 -0.22999 -0.032795 0.2654 0.28031 -0.036209 0.42923 -0.24846 0.16607 -0.40057 0.16327 0.2197 -0.27784 -0.38942 0.065348 0.70862 0.16759 -0.3573 0.15933 -0.67641 0.48783 0.45303 0.36046 -0.22876 0.6604 0.69753 -0.41352 -0.089701 -0.96097 0.060073 -0.42257 -0.16914 -0.57093 0.60666 -0.58042 -0.30548 -0.0036178 -0.34344 -0.37863 0.37456 0.41782 -0.6351 -0.080136 0.45472 -0.56071 0.30433 0.1467 -0.49505 -0.39058 -0.13549 0.40617 0.54584 0.11248 0.15852 0.064097 -0.53075 0.15199 1.0524 0.065553 0.3431 0.59946 0.11018 0.054504 -0.38804 0.26271 0.047694 0.068159 0.32015 -0.25898 0.15213 0.48103 -0.019909 0.18075 -0.87942 -0.26206 0.091235 -0.36811 -0.60512 0.11847 0.2545 0.11866 -0.29631 -0.59662 0.23972 -0.2426 0.029907 -0.40083 0.19906 0.093444 0.11408 0.23172 -0.16054 0.30742 0.026505 -0.154 0.22756 -0.067311 -0.99612 0.033427 0.341 0.13257 -0.14058 0.59111 -0.41348 -0.2659 0.030486 0.36818 -0.33464 -0.23225 -0.40351 0.0057403 -0.099343 -0.47654 -0.17997 -0.18686 0.11785 0.068761 -0.014727 0.83243 -0.57389 -0.17074 -0.17188 0.2814 0.44787 0.6597 -0.4924 0.066846 0.17818 0.35798 -0.33883 -0.43928 -0.30861 0.77214 -0.37267 0.5232 -0.12302 0.65485 1.1955 -0.13569 0.12049 -0.14975 0.055687
tuba 0.50719 0.38091 -0.33989 0.072372 0.80585 -0.037297 0.41683 -0.36267 0.26923 0.081319 0.70046 0.10825 0.25007 0.34351 -0.039383 0.24227 0.062103 -0.054835 -0.27699 0.10996 0.50692 0.1941 -0.10345 0.6085 0.044279 0.0644 -0.71781 0.58274 0.5994 -0.14132 0.43117 -0.051259 -0.066055 0.16108 0.54346 -0.22279 0.026477 0.41725 0.70129 -0.29036 -0.16646 -0.12773 0.6007 0.25255 0.057475 0.5263 0.34911 -0.042367 0.23381 0.2122 -0.23212 0.62943 0.10832 0.31452 0.086573 0.079524 0.59682 -0.0073583 -0.53218 -0.62246 -0.44759 -0.29889 0.14624 0.27244 -0.33454 -0.28907 -0.20508 0.25603 -0.27822 0.56216 -0.33978 0.25684 0.60759 -0.36402 -0.019497 -0.056733 -0.059288 0.6944 0.086199 -0.31054 0.27438 0.018585 -0.01148 0.98416 -0.34599 0.53897 0.45808 -0.022468 -1.0458 -0.2753 0.30273 -0.33459 0.064874 0.50027 -0.02205 -0.54386 0.17928 0.19022 0.41098 0.12982 -0.16096 -0.48626 0.6923 0.78934 -0.60708 -0.92442 0.20325 -0.34666 0.50709 -0.16373 0.49885 -0.38153 -0.58738 -0.57369 0.079466 -0.15284 0.72156 -0.03647 -0.32026 0.054374 0.19734 0.085124 0.62082 0.69358 -0.13392 -0.50537 -0.053521 0.33667 -0.14366 -0.32111 0.20473 -0.00053147 0.13184 0.56496 -0.13425 0.46144 -0.52331 -0.23678 0.17162 0.24021 -1.0896 0.72371 -0.43786 -0.12099 -0.19541 0.88651 0.4035 -0.82247 -0.26957 -0.14789 0.054965 -0.083383 0.19106 -0.4637 -0.15721 -0.59796 0.10013 -0.33142 0.44978 0.046409 0.33532 0.39089 0.40927 -0.42263 0.44093 -0.14541 -0.070187 -0.20375 -0.15114 0.045542 -0.76329 -0.58755 0.013086 0.18944 -0.24038 -0.70687 -0.18171 -0.30042 0.66208 0.069542 0.2174 -0.041876 0.43939 0.2555 -0.54933 -0.05334 -0.44143 -0.033065 -0.45078 -0.19105 -0.80867 0.4126 -0.55149 0.18678 0.038878 -0.3797 -0.10809 0.34829 0.5043 -0.28068 0.11057 0.42204 -0.31349 0.070587 0.028569 -0.48437 0.045929 -0.19119 0.32279 0.032517 0.18451 0.80311 -0.33896 -0.21311 -0.44121 0.66703 0.18806 -0.019689 0.47854 0.0052559 0.022584 -0.049821 0.4072 -0.14337 0.37174 -0.18525 -0.19896 0.54836 0.17364 0.085393 0.1114 -0.8857 -0.21246 -0.30701 -0.42997 -0.05548 -0.082883 0.16332 0.28223 -0.36196 -0.18101 -0.15462 0.058501 -0.17304 0.064491 0.3729 0.15513 -0.15889 0.48265 0.028843 0.3379 -0.40808 0.0053885 -0.021807 -0.31592 -0.62942 0.010742 0.05705 -0.13729 -0.38579 0.17293 -0.18562 -0.30774 -0.51337 0.29333 0.020265 -0.010674 -0.23229 -0.15236 0.29794 -0.22028 -0.44783 0.31529 0.14459 0.30137 0.15683 0.19721 -0.63204 0.083823 -0.47863 -0.082308 0.67766 0.22485 -0.18482 0.060526 0.15026 0.26697 -0.23352 -0.087919 0.050521 0.62568 -0.56522 0.53756 0.11576 0.70127 1.3043 -0.13729 -0.038904 -0.0014969 0.29983
harpsichord 0.49136 0.42209 -0.016175 -0.078792 0.32136 0.081918 0.51183 -0.17267 -0.11886 -0.024642 1.0796 0.44336 -0.38442 0.24081 0.32843 0.31641 0.089976 -0.34067 0.57785 0.19805 0.44273 0.1138 -0.66649 0.52205 0.49743 -0.080541 -0.10031 0.55796 0.96653 0.10353 0.18206 0.47858 0.0013102 0.29577 0.27113 -0.56443 -0.26892 0.43057 0.49238 -0.11471 0.24595 0.31377 0.002078 -0.0072251 0.4291 0.2842 0.43606 -0.24474 -0.069376 0.73757 0.17283 -0.12966 -0.26781 0.83562 0.42493 -0.77289 0.66782 0.2283 -0.45767 -0.7956 0.012103 -0.052488 -0.11415 0.8327 -0.9626 0.26367 0.41184 0.49239 0.12274 0.35239 0.58147 0.30875 -0.0070548 -0.74848 -0.47055 -0.57661 0.027196 0.0010646 -0.28992 -0.091474 0.2273 -0.52552 -0.21205 0.97894 -0.63072 0.10619 0.08414 -0.63109 -0.34964 -0.59559 -0.26656 0.31377 0.20034 0.27917 0.2738 -0.74074 0.9257 0.43108 -0.04223 -0.16832 -0.43567 -0.64242 1.0568 0.72995 -0.47332 -0.94603 -0.0044404 0.098647 -0.10938 -0.5175 0.505 -0.098983 0.082379 -0.19076 0.21725 -0.23957 -0.70034 0.10027 -0.0064047 0.19769 0.20111 0.32684 0.064493 0.16668 -0.24013 -0.040701 -0.26807 0.071739 0.29746 -0.17361 0.51888 0.24961 -0.031822 0.40128 0.00029896 1.0407 -0.26608 -0.36213 -0.1596 -0.17241 -0.41159 -0.079829 -0.36599 -0.41054 -0.55301 0.91423 -0.38289 -0.38365 -0.13759 -0.16571 0.28681 -0.024006 0.4828 0.38514 0.10878 -0.56696 0.6972 -0.24332 0.18158 -0.41348 0.15857 0.039219 -0.039423 -0.082689 0.32559 -0.49418 -0.084161 0.10111 0.045457 -0.081789 -0.5019 -0.089608 0.33893 0.96471 0.10677 -0.17746 0.64678 -0.30002 0.092431 -0.017343 0.23315 -0.32423 0.71731 0.00066652 -0.34607 -0.01684 -0.25463 0.084926 -0.22772 -0.16285 -0.35892 0.32106 -0.4438 -0.36873 -0.19149 0.13617 -0.61866 0.1716 0.10987 -0.56577 -0.7758 0.40947 -0.15563 -0.057791 -0.068192 -0.37875 -0.60013 -0.42967 0.62737 0.060157 0.23971 0.35613 0.19561 -0.27977 0.59955 1.2366 0.11592 0.15307 0.54678 -0.0089134 0.48372 -0.59635 0.20811 -0.25033 0.43294 0.37744 -0.2502 0.23253 0.41492 -0.11167 0.5595 -0.22686 -0.3375 -0.27071 -0.31734 -0.17 -0.054554 0.16239 0.21648 -0.33456 -0.022414 0.31205 -0.55051 0.057023 0.030129 0.026308 -0.13979 0.29962 -0.030502 -0.16331 0.28411 0.1817 -0.17952 0.43109 -0.23478 -0.76158 0.25919 0.17706 0.41586 0.29499 0.83134 -0.68802 -0.31515 0.28006 0.4269 0.29077 -0.093141 -0.60098 -0.25611 -0.13155 -0.40821 -0.51696 -0.47103 -0.37102 -0.26895 0.35743 1.0566 -0.26341 -0.28057 -0.26789 0.55279 -0.11066 0.65462 -0.11689 -0.11766 0.10923 0.033364 -0.4946 -0.079083 -0.52542 0.28322 -0.71438 0.73206 0.84767 0.60014 1.0312 0.026503 -0.30569 0.082119 0.59836
lute 0.0055497 0.053559 0.11212 0.24301 0.38988 0.044254 0.69251 0.01847 -0.55589 0.0067161 0.56063 0.23509 0.0065841 -0.10092 0.096994 -0.14809 -0.22817 -0.51177 0.27776 0.41475 0.011253 0.50173 -1.2136 0.77133 0.43831 0.19797 -0.14898 0.39126 0.84357 0.60633 0.39835 0.15041 -0.39185 -0.031175 0.12476 0.021308 0.17584 0.027253 0.18464 0.29441 0.27748 0.18705 0.11649 -0.25152 0.36726 0.032891 0.53856 0.082773 0.0049335 0.51395 -0.47784 -0.36993 -0.31309 0.54991 0.23623 -0.26162 0.5908 0.39905 -0.52074 0.014117 -0.022258 -0.21438 -0.33542 0.90547 -1.0701 -0.062966 0.19923 0.017426 0.21984 0.14664 -0.28905 0.30324 0.35813 -0.91672 -0.57932 -0.50562 -0.3067 0.44094 -0.91161 -0.31934 -0.30055 -0.25601 -0.3533 0.90749 -0.77523 -0.10212 0.83628 -0.5218 -0.31974 -0.34451 -0.40021 -0.47839 0.44624 0.44424 0.25851 -0.33624 0.70309 0.17788 -0.1695 -0.36098 -0.22131 -0.17584 0.40726 0.79782 -0.95414 -1.1226 -0.3529 -0.1449 0.013898 -0.41232 0.41189 0.040952 0.24671 0.43132 -0.32732 0.1646 -0.10257 -0.1154 0.1408 0.058152 0.65723 -0.22203 0.65166 0.77418 -0.21797 0.028317 -0.30862 0.36944 0.31986 -0.55104 0.38488 0.037995 -0.084612 0.14878 -0.54167 0.62161 -0.67881 -0.7391 -0.063219 -0.73064 -0.84936 -0.43491 -0.43268 -0.46483 -0.31263 0.63492 0.13066 -0.2793 0.093167 0.069314 0.84356 -0.12815 0.2183 0.18236 -0.039029 -0.55396 0.67081 0.24646 0.38625 -0.28016 0.20805 0.14171 -0.076895 0.10059 0.72297 -0.54383 0.43573 -0.46699 -0.23316 0.83628 -0.67959 -0.12082 0.17563 0.58524 -0.69259 -0.072861 0.25847 -0.10377 -0.31372 -0.59955 -0.68744 -0.11317 0.99789 0.20447 -0.69821 -0.25266 -0.76847 -0.50678 -0.077234 -0.4468 -0.71934 -0.15869 -0.3597 -0.27753 -0.060962 0.012831 -0.78225 0.52007 -0.22453 -0.57976 -0.046149 0.6856 -0.31135 0.29854 -0.076404 -0.60041 -0.51875 -0.35325 -0.051471 -0.17378 0.016618 0.17608 0.49946 0.094968 0.55811 0.53752 -0.092862 -0.11041 0.53435 -0.64819 0.45845 -0.48524 0.55542 -0.44165 -0.085765 0.53596 -0.53757 0.3606 0.48842 0.23721 0.43301 -0.50251 -0.52667 -0.012772 -0.34889 -0.57323 -0.037901 0.39192 0.12638 -0.64203 -0.50366 0.50807 0.074635 -0.41573 -0.16181 0.088359 0.023329 0.041453 0.032794 0.010674 0.37457 -0.29875 0.10622 0.43141 -0.0074243 -0.25159 0.60885 0.13242 0.15688 -0.35825 0.21824 -0.34303 0.048168 -0.1075 0.32068 -0.43014 0.024102 -0.61792 -0.34576 -0.071784 -0.012151 -0.51655 -0.45086 -0.022294 -0.23549 0.45902 0.73951 -0.42515 0.15991 0.081292 0.11859 0.25216 0.26977 -0.41832 0.47626 -0.06437 -0.2716 -0.19367 0.16786 -0.2959 0.17643 -0.22243 0.38819 0.43848 0.73747 0.95718 -0.51992 -0.11688 0.18994 0.51363
bassoon 0.21112 0.52491 -0.27479 -0.082956 0.67298 0.16386 0.58036 0.19529 0.044338 -0.2327 0.71467 0.13654 0.10562 0.12819 -0.13655 0.50373 0.36826 -0.26922 0.218 -0.1709 0.42746 0.38148 -0.36159 0.35404 0.43123 0.1685 -0.63017 0.43862 0.56736 0.13648 0.45128 0.6208 0.098051 0.21717 0.58968 -0.28155 -0.086909 0.29907 0.68722 -0.63742 0.063986 0.12683 0.11606 -0.14466 0.31756 -0.015341 0.47117 -0.46678 0.39597 0.9815 -0.020771 0.56892 0.31253 0.33524 0.11414 -0.82449 0.49853 0.38108 -0.97422 -0.3971 -0.2281 -0.22772 0.041255 0.31641 -0.87761 -0.079011 -0.28772 0.44671 0.18676 0.12701 0.23017 0.33362 0.49146 -0.63414 -0.20608 -0.37766 0.12072 0.49982 -0.12612 0.27962 -0.3604 -0.40691 -0.13077 1.049 -0.3555 0.37999 0.30207 -0.16911 -0.34393 -0.17423 0.18618 0.084485 -0.070049 -0.0073938 -0.043297 -0.80328 0.51656 -0.010502 -0.068004 -0.42507 -0.18454 -0.61481 1.0394 0.90728 -0.84739 -0.88179 0.3785 -0.10148 0.00559 -0.063967 0.84873 -0.068597 -0.33986 -0.81524 -0.14018 -0.61648 0.14753 0.48455 -0.090894 -0.098076 0.29072 0.37515 0.56789 0.31153 -0.0035986 -0.18369 -0.31428 0.18839 -0.22337 0.068013 0.36164 -0.25098 0.075739 0.49747 0.19583 0.82427 -0.90923 -0.35802 0.040013 -0.19822 -0.78481 0.032311 -0.26688 -0.21533 0.096413 1.3745 -0.20253 -0.79507 -0.05179 -0.2727 0.049501 0.25659 0.0061198 0.075076 0.17906 -0.22598 0.2141 -0.24101 0.50789 -0.16092 0.072824 0.39437 0.18588 -0.34073 0.25476 -0.50322 -0.073349 -0.041575 -0.020016 0.12263 -0.13351 -0.44016 0.11621 0.85796 -0.023138 -0.20682 0.41145 -0.43493 0.55271 0.33798 0.41811 -0.2266 0.41917 0.70012 -0.39743 0.33259 -0.66409 -0.011476 -0.33147 -0.098204 -0.70685 0.57606 -0.41691 -0.12048 0.013907 -0.34709 -0.20922 0.25449 0.4845 -0.83196 -0.29305 0.44202 -0.45049 0.082041 0.07817 -0.50184 -0.29727 -0.053067 0.18726 0.42463 0.12682 0.5097 -0.036021 -0.31817 -0.012208 0.84021 0.026628 0.19446 0.58877 0.5221 0.12522 -0.33441 0.61372 -0.18194 0.45588 0.15078 0.044972 0.092419 0.54135 -0.055111 0.13336 -0.72772 -0.17073 0.045774 -0.64774 -0.65071 -0.051466 0.28616 0.30082 -0.46229 -0.38173 -0.017754 -0.34996 -0.15342 -0.35224 0.40174 -0.073874 -0.024965 0.23583 0.12729 0.44551 0.014125 -0.12779 0.35231 -0.18409 -0.98534 0.034818 0.18229 0.21368 -0.50307 0.67689 -0.36771 -0.26336 -0.13867 0.55087 -0.18285 -0.023962 -0.20145 -0.19426 -0.10878 -0.48834 -0.40305 0.1255 0.18507 0.17538 0.058737 0.66993 -0.76658 -0.22493 -0.23865 0.26101 0.56935 0.48295 -0.10999 0.050316 0.35267 0.1575 -0.5285 -0.62668 -0.32833 0.5059 -0.2832 0.55893 -0.15292 0.62122 1.111 -0.21135 -0.06235 -0.31018 -0.41994
bongo 0.27671 0.27458 0.064456 -0.10478 0.52926 0.31322 0.027735 -0.13992 0.17388 -0.81146 0.4243 -0.16229 -0.1156 -0.047321 -0.11753 0.64286 0.17359 -0.84651 0.28791 -0.023735 -0.12116 -0.15647 0.42561 0.32426 -0.0013691 -0.13591 -0.26811 0.62694 0.8587 -0.17993 -0.0051434 -0.5393 -0.14544 -0.0051178 -0.08796 -0.26338 -0.11891 0.19616 -0.05783 -0.43164 0.23474 -0.27355 0.13335 0.2306 0.10883 -0.033959 0.085204 0.54765 -0.1026 0.59959 -0.29198 0.62151 0.37795 0.0034931 0.15722 -0.37688 0.43595 0.11635 0.04071 -0.26838 -0.51927 0.32829 -0.57415 0.47946 -0.25607 -1.2778 0.076639 0.21554 -0.26552 -0.012903 0.18392 -0.44704 0.27639 0.4567 0.084132 -0.25465 -0.20379 0.20085 0.39372 -0.50941 -0.2565 0.2055 0.16082 0.42962 -0.15876 0.2881 0.68909 0.082893 -0.65448 -0.14553 0.076279 -0.12027 0.20756 0.071691 0.18426 -0.59623 0.31951 0.14025 -0.46682 0.48186 -0.29052 0.281 -0.49031 0.42002 -0.15722 -1.4038 0.13319 0.29847 0.85782 0.030149 0.59449 -0.55228 -0.11744 -0.20135 0.43518 -0.38455 0.65508 0.37499 -0.40884 0.58038 -0.42158 0.31711 0.16805 0.24798 -0.14955 0.25393 -0.11298 -0.13881 -0.65748 -0.13721 0.75031 -0.81398 -0.32717 0.15811 0.059164 0.10087 0.11453 -0.031763 -0.033697 0.19188 -1.6622 -0.09342 -0.12834 -0.78267 0.6717 0.35856 0.74378 -0.54443 0.19795 -0.72848 -0.46847 0.02868 0.014284 -0.54306 -0.11109 0.057304 0.40879 -0.43253 0.14544 0.16094 0.05519 0.45877 -0.022921 0.45613 0.16089 0.050532 0.58908 0.095941 -0.21734 0.34675 -0.27505 0.1649 0.31174 -0.064332 -0.53631 -0.11077 -0.2426 0.061104 0.33189 0.16747 0.57853 0.030799 0.33157 0.20841 0.38471 0.2989 -0.29449 -0.51631 -0.030068 0.22829 -0.6074 0.11647 -0.33464 0.02598 -0.11438 -0.59222 -0.037755 0.47195 0.1787 -0.42637 -0.042883 0.16202 0.18683 0.072086 0.40612 -0.72252 -0.077001 -0.039493 0.02939 -0.11671 0.27008 0.30378 0.1533 0.3199 -0.41169 0.03536 -0.025719 -0.23456 -0.010889 -0.038861 -0.09618 0.20312 -0.25972 -0.43664 -0.11774 0.11629 -0.15424 0.47176 0.20344 0.18647 0.35055 -0.17555 -0.36417 -0.020528 -0.13361 0.50093 -0.48521 0.43699 0.45004 0.24964 -0.24253 0.12068 -0.16283 -0.12782 0.26292 -0.21889 0.30656 -0.2809 0.04234 -0.25898 0.046558 -0.7249 -0.32252 0.57409 -0.14859 -0.097042 -0.41863 -0.21243 0.21765 -0.30778 -0.37836 0.073886 -0.63173 -0.31847 -0.32724 -0.32936 -0.50301 -0.12359 0.036691 0.36757 -0.63437 0.30046 -0.1924 -0.13086 0.009186 -0.20144 0.6293 0.13296 -0.020637 -0.40998 -0.30346 -0.066838 0.045572 0.018217 -0.030786 -0.47068 -0.44281 0.51335 0.027163 0.12875 0.1017 -0.17071 0.31832 -0.16778 0.80736 0.66929 0.28008 -0.35389 -0.31453 -0.20234
bagpipe 0.3675 0.68327 0.025571 0.22904 0.51413 -1.1267 0.62399 0.05738 -0.44406 -0.18386 -0.12442 0.43591 0.60668 0.14785 -0.15237 0.12261 0.063365 -0.75271 -0.34133 0.0043817 0.21459 -0.034743 -0.33176 0.63409 0.076172 0.74944 -0.69662 0.30593 0.55684 0.24315 0.48273 0.084563 -0.70807 0.54363 0.31227 0.062438 -0.15274 0.28409 0.93243 -0.17232 0.06238 0.32354 0.63825 0.2596 0.77663 0.11958 0.33924 0.46494 0.15625 0.46259 -0.24732 -0.030868 -0.40612 0.61238 0.24684 0.14245 0.88024 -0.26893 -0.60018 -0.10429 -0.34849 -0.40936 -0.10627 0.22789 -0.418 -0.12491 0.36949 0.70107 0.078779 0.073518 -0.35031 0.53139 0.57102 -0.23558 0.15109 -0.24477 0.01654 0.83987 -0.53731 -0.22974 0.37406 -0.20871 0.055423 0.12958 -0.15662 0.60908 0.50638 -0.15014 -0.22652 0.1209 -0.71853 0.23537 -0.27522 0.40222 0.13968 -0.30127 0.6097 0.04941 0.073463 -0.47715 -1.0948 -0.7039 0.65749 1.2532 -0.40049 -1.3965 -0.055145 0.20951 0.11152 -0.50122 0.41864 0.21158 -0.41139 0.36616 0.043978 0.316 0.77052 0.64211 -0.078739 -0.14737 0.62725 -0.33234 0.17504 0.29002 -0.57568 0.068828 0.041343 0.14302 0.28267 -0.1079 0.1126 -0.41894 0.2705 0.26291 -0.10154 -0.29033 0.052176 0.11308 0.78415 -0.297 -1.1531 0.20277 -0.23227 -0.24325 0.019363 0.37007 0.37491 -0.089549 0.009577 -0.041728 -0.1726 0.11873 -0.3145 0.10076 0.22404 -0.21299 0.59119 -0.26288 0.42102 -0.21794 0.4428 0.54215 0.0018688 0.22981 0.56349 -0.14241 -0.19482 -0.15205 -0.78446 -0.14618 -0.26716 0.65676 -0.053343 0.71239 -0.13351 -0.15052 0.053399 0.057548 -0.20506 0.34719 -0.35463 -0.026813 0.67802 0.04659 -0.35875 -0.17125 -0.31282 -0.028622 -0.045019 -0.095796 -0.72342 0.36424 0.11046 -0.4969 0.16937 -0.073364 -0.37645 0.49367 -0.086197 -0.32118 -0.031128 0.55746 0.13436 0.57196 0.19353 -0.29555 0.11439 -0.46381 0.24117 -0.057069 -0.13899 0.785 0.077541 0.34042 -0.4495 0.71944 0.13103 0.067552 0.18574 -0.29559 -0.32549 -0.22401 0.32791 -0.29029 -0.41088 0.37694 -0.36732 0.36518 -0.22222 -0.005832 0.43226 -0.30565 -0.37651 -0.53993 0.48827 0.13537 -0.27177 0.10598 0.32905 -0.54071 -0.1639 0.19138 0.12346 -1.1831 -0.17833 0.8526 -0.057668 -0.11282 0.23997 -0.8035 0.16392 -0.16511 0.40425 0.48636 0.18747 -0.7093 0.52529 -0.1829 0.37206 0.17129 0.48587 -0.09002 -0.40365 -0.724 0.061457 0.54941 -0.3949 -0.28686 0.25361 0.50312 -0.67778 -0.12157 0.50316 -0.20907 -0.25536 0.40228 -0.023619 -0.4897 0.60847 -0.60579 -0.029527 0.27449 -0.15998 0.039227 -0.2332 0.095267 -0.078185 -0.034156 0.32905 -0.41826 0.17122 -0.67421 0.40271 -0.26565 0.1856 0.80172 -0.061036 0.3781 0.11449 0.32216
