death -0.24014 0.47859 0.1406 -0.022173 -0.015564 -0.58353 0.12621 0.059107 0.097653 3.4962 0.040814 0.16124 0.20607 0.72733 -0.7566 -0.1485 -0.079765 0.4477 -0.12652 -0.20327 -0.078408 -0.14359 -0.62791 -0.2449 0.21115 0.17861 -0.2789 0.34153 0.28453 0.43463 -0.020944 0.032292 -0.52134 0.082034 0.19273 0.24099 -0.075723 -0.072603 0.12888 0.34263 0.51604 -0.048779 0.11446 -0.30323 0.30105 -0.27404 -0.43287 -0.028709 0.61161 0.41957 -0.19707 -0.27341 -0.0026553 -0.12182 -0.15585 0.1175 -0.22954 -0.29799 -0.13231 -0.2497 -0.1548 0.41255 0.33514 0.051172 -0.08024 0.27202 0.029318 -0.42185 -0.25225 -0.26911 0.076425 -0.25167 -0.75157 -0.27105 0.44504 -0.37785 0.033175 -0.32443 -0.084111 -0.36494 0.16683 0.55824 -0.29322 -0.18205 0.16233 -0.51358 0.36098 -1.3011 -0.29524 0.098307 -0.31913 -0.08548 -0.31305 -0.29666 -0.31097 -0.3632 -0.023981 0.37011 0.26695 -0.14182 -0.1794 0.41203 0.31892 -0.36229 -0.098768 -0.69348 -0.22637 0.64568 0.19224 0.018151 -0.48552 0.77186 -0.3309 -0.11023 -0.041728 0.040797 0.23402 0.19296 -0.065325 0.12766 -0.30821 -0.036082 0.40473 -0.43349 -0.0049927 0.0051513 -0.41538 -0.35164 -0.11779 -0.0030098 0.044749 -0.22392 0.40474 -0.36734 0.1114 -0.1776 -0.15851 0.070643 -0.098866 0.58446 -1.5772 -0.10793 0.20964 0.0025299 0.12762 0.48436 -0.29191 -0.014537 0.49546 -0.25386 -0.22178 -0.23187 0.7461 0.14564 -0.17318 -0.42444 -0.056533 0.088947 -0.13614 -0.27606 0.13246 -0.031321 0.28259 0.49186 -0.12837 -0.065069 -0.087216 0.17219 -0.061293 -0.051072 0.37004 -0.11989 0.44754 0.35064 0.15285 -0.13787 -0.15693 -0.28264 0.051962 -0.4206 0.25321 0.16782 0.13272 0.36909 0.21591 0.55844 -0.30111 -0.29715 -0.023475 -0.2678 -0.56332 0.039313 0.090228 0.15513 0.037214 0.48453 -0.19422 -0.25671 -0.24847 -0.16869 -0.11003 0.0028481 -0.16093 -0.11708 0.007226 0.019922 0.43381 0.22209 -0.44629 -0.096957 0.28825 0.2125 -0.014175 0.35072 -0.095282 -0.96747 0.21428 0.065843 0.27071 0.20038 0.12139 0.19729 -0.59768 -0.091807 -0.64667 -0.078498 -0.24196 -0.020356 -0.072812 0.15108 -0.56811 -0.049648 -0.026551 -0.44199 -0.44349 -0.38608 -0.17982 0.34604 -0.27461 -0.37432 0.0051829 0.045987 -0.1157 -0.112 0.3295 0.3645 0.66173 0.20664 0.39946 -0.30909 -0.29043 -0.004404 0.29972 0.12298 -0.29167 0.054428 -0.60398 -0.43809 0.65218 0.13452 -0.075516 0.44694 -0.065349 0.35946 -0.48315 -0.079436 -0.13857 0.3112 -0.11852 0.16869 0.46572 -0.24529 0.0073835 0.19127 -0.016133 0.37518 -0.027436 0.51446 0.078052 0.0062109 0.58189 0.20937 -0.044043 -0.71271 0.18573 0.060072 0.26485 -0.15113 0.017739 -0.51445 -0.2634 -0.21936 0.094369 0.027892 -0.19757 0.052755 -0.25907 0.12108 0.49647 -0.089398
cancer -0.72145 0.40901 -0.17604 0.6174 -0.57322 -0.53449 0.4535 -0.31239 0.8163 2.6917 -0.11618 0.12771 0.29752 0.19967 0.042705 0.022942 0.37063 1.8956 -0.4651 0.23542 -0.14666 0.18178 -0.67249 0.0068311 0.33016 0.29818 0.027068 0.65277 0.70232 0.285 -0.1382 -0.019016 0.52603 -0.22821 0.74603 0.40579 -0.33086 -0.31607 0.17821 1.2798 0.034 0.095919 0.4489 -0.088466 -0.17353 -0.50064 -0.26377 -0.59099 0.11197 -0.12204 -0.46353 0.038685 0.98165 -0.70715 0.38853 -0.099818 0.13766 0.045976 -0.20229 0.12582 -0.45454 0.20874 0.062136 -0.13284 0.50893 -0.14449 0.014993 0.19736 0.43513 -0.0049358 -0.097354 0.39832 0.042307 0.17326 0.41667 -0.48248 -0.058932 -0.22201 0.27167 -0.48818 -0.29857 0.014423 -0.59911 0.81023 0.14436 -1.0974 -0.012125 -0.3241 -1.2414 0.27075 0.29229 0.2572 -0.55494 0.51366 -0.27196 -0.48677 0.34328 -0.2047 0.11223 0.048956 0.010641 0.22185 0.46696 -0.1869 0.030389 -1.07 -0.28201 0.48775 -0.35401 0.63545 -0.25764 0.45896 -0.15193 -0.40297 -0.16924 0.16465 0.071258 0.38862 0.56199 -0.17128 0.2326 0.32794 0.75798 -0.96981 -0.082989 -0.21937 0.13649 0.59242 -0.13345 0.15395 -0.029287 -0.021813 0.13085 -0.13468 0.25874 -0.53917 -0.17474 0.29362 -0.020045 0.036478 -0.55963 -0.28868 0.20927 0.32075 -0.31957 0.40445 -0.54062 0.090237 -0.11612 0.19506 -0.71609 -0.32973 0.50678 -0.025262 -0.71771 -0.61922 0.083923 -0.27559 -0.82101 -0.055399 0.43251 -0.34974 -0.15793 -0.446 -0.19444 0.1125 0.24712 0.11551 -0.26882 -0.34761 0.35654 0.26433 0.28139 0.11338 -0.16051 0.025989 0.034906 -0.18242 0.18372 1.3366 -0.75313 0.35056 0.08937 -0.026446 0.41621 -0.13565 0.11219 0.072208 -0.58229 0.28694 -0.3708 -0.6817 -0.30864 -0.2519 -0.21877 0.34969 0.12855 -0.19107 0.046519 -0.56433 -0.3405 -0.59134 -0.10521 0.35559 -0.25189 0.33704 0.20147 -0.22094 -0.70494 -0.025422 -0.2609 -0.39602 -0.023027 0.030612 -0.40397 -1.2583 0.2997 -0.11441 0.29249 -0.58877 -0.34366 0.23025 -0.68173 -0.43934 -0.41723 -0.31458 -0.65812 -0.40587 -0.13976 0.11007 -0.38431 -0.085315 0.64062 -0.29052 -0.84722 0.52738 0.2177 0.12919 0.23953 -0.053614 -0.5551 -0.019855 -0.044898 -0.27177 0.11984 0.43882 0.48592 -0.032541 0.14037 0.29396 0.38768 -0.46921 0.33787 0.44245 -0.076049 -0.20129 -0.62761 -0.39959 0.14381 -0.14471 -0.72197 0.0047601 -0.32393 0.42529 0.26693 0.24235 0.094976 0.0099245 0.076523 0.17046 -0.33922 -0.70266 -0.033497 0.24077 0.027153 0.19471 -0.59558 -0.10141 -0.24425 0.90008 -0.29273 0.65588 -0.33785 -0.41905 -0.10013 0.13636 0.69976 0.19297 0.10643 0.5124 0.83123 0.10659 0.11006 -0.56488 0.072985 -0.21154 -0.27855 0.0063818 0.23415 0.45857
kill -1.0911 0.14547 -0.37389 -0.062068 -0.32742 -0.27241 -0.37873 0.15486 -0.08438 2.211 0.03111 -0.21269 -0.23802 0.32374 -0.2944 -0.45489 -0.13768 0.33879 -0.64108 -0.070605 0.13342 0.69669 -0.096043 -0.29275 -0.33647 0.011866 -0.48015 -0.35019 0.25912 -0.18455 -0.4154 0.17896 -0.39368 0.1012 0.42508 -0.26442 0.40208 -0.076716 0.23972 0.19779 -0.021092 -0.29003 0.047926 -0.55226 0.3263 -0.48872 -0.1431 0.54003 0.11258 0.15622 0.089274 0.077604 0.052303 0.15905 -0.17896 0.13508 -0.51297 0.022678 0.22664 0.55898 -0.11408 0.21707 0.095957 -0.1158 0.81094 -0.14144 -0.17296 -0.39571 0.4406 -0.51867 -0.08799 0.38071 -0.31272 -0.27654 -0.0080943 -0.38803 0.062411 -0.67152 0.38239 -0.016144 -0.10289 -0.24194 -0.008227 0.0094699 -0.073704 0.2582 0.3946 -1.0566 -0.11729 0.21888 -0.0071494 0.28314 0.33136 -0.14898 -0.30946 -0.57116 0.2091 -0.18469 -0.48677 0.16599 -0.048941 0.70382 0.47678 0.089574 -0.16162 -0.86088 0.19399 0.2531 -0.087555 -0.057097 0.28128 -0.13952 -0.22552 -0.25243 -0.043253 0.33737 0.40443 -0.35386 -0.47371 -0.028511 -0.11168 -0.47252 0.55975 -0.64687 -0.013922 -0.33263 -0.41875 -0.30098 -0.06257 0.2085 -0.70949 0.16118 0.17204 0.046935 -0.19649 -0.32147 0.11819 0.027952 0.030765 0.19029 -2.5907 -0.042802 0.10542 -0.022261 0.18567 0.54486 -0.072002 -0.12723 -0.0091939 -0.41763 -0.14565 0.33794 0.32777 0.023259 -0.033184 0.13884 -0.50448 -0.13652 0.16976 0.23782 -0.097845 -0.56499 -0.09139 0.23308 0.42593 0.017445 0.051353 -0.26819 -0.15891 0.10748 0.23296 0.075289 0.27563 -0.21975 0.34396 -0.040265 -0.33234 -0.19838 0.24468 -0.11517 0.24339 0.21358 -0.49021 0.0061624 -0.051385 0.09821 0.42641 -0.17655 0.17698 0.36726 0.40899 0.019719 -0.45585 0.32013 0.27854 0.26766 -0.29087 -0.26659 0.27302 -0.47268 -0.37193 0.18509 -0.080064 -0.32155 0.40551 0.20264 0.36714 0.66634 0.13591 -0.48543 0.14483 0.08927 -0.12033 0.31017 0.12952 -0.79693 -0.023988 0.2486 -0.256 0.031238 0.24489 0.17968 -0.3962 -0.20417 -0.18414 0.19695 0.39522 0.46274 -0.12574 0.036818 -0.29218 -0.25815 0.31973 -0.36326 -0.29974 -0.17931 0.43361 0.20832 0.028452 -0.032604 0.1162 0.12873 -0.041121 -0.092572 0.27175 -0.43967 0.018088 0.21531 0.31837 -0.023452 -0.37634 0.30351 -0.14192 0.085568 0.041485 0.33227 -0.075202 -0.29881 -0.089729 -0.32477 -0.22526 0.35056 0.13774 -0.009031 -0.095498 -0.32963 -0.064202 0.2845 0.15968 0.52426 0.81465 -0.22671 0.10102 0.18584 0.1634 0.3964 -0.38405 0.57032 0.30491 0.20207 0.24972 0.19011 -0.19791 -0.73517 0.1072 -0.16716 0.61886 -0.66559 0.084381 -0.31665 -0.24309 -0.25472 -0.56851 0.17824 -0.23954 0.17998 -0.50629 -0.19296 0.042872 0.043685
abuse -0.87152 0.40062 0.20291 0.21826 -0.38421 -0.28427 0.36833 -0.12825 0.14888 2.9786 -0.41821 -0.46102 0.1659 0.33288 -0.27772 -0.074709 0.15146 0.56874 0.21665 0.61184 0.22308 -0.43747 0.098309 -0.10304 -0.037521 -0.16097 0.31459 -0.014257 0.64501 0.1546 -0.089983 0.19188 -0.43479 0.34488 0.48668 -0.013661 -0.63699 -0.21068 -0.43492 0.35247 0.42407 -0.60388 0.3684 -0.088749 -0.20726 -0.43664 -0.090542 0.63137 0.013762 0.1673 -0.5875 0.5002 0.12938 0.58585 -0.18678 0.34522 -0.46784 0.16921 -0.31492 -0.14031 0.14196 0.30493 -0.19766 0.14765 -0.20549 -0.42729 -0.019529 -0.50359 0.0079692 -0.3545 -0.0325 -0.4197 0.52515 0.27171 0.62848 -0.18231 -0.12198 -0.30054 0.027049 0.26236 0.28629 -0.22559 -0.26 -0.029767 -0.49957 -0.20711 0.61976 -0.7155 0.17693 0.02264 -0.25326 -0.46427 0.67054 -0.71262 0.072702 -0.16158 0.015336 0.010035 0.0099355 -0.57745 0.31675 0.16421 0.99713 0.14513 -0.079484 -1.1702 -0.66796 -0.27077 -0.40103 -0.47136 -0.63453 0.19134 -0.3774 -0.24072 0.020001 0.15462 -0.19708 -0.37101 -0.10312 0.24878 -0.91002 0.2835 0.12422 -0.97273 -0.092774 0.033806 -0.2007 -0.0086822 -0.099788 0.26809 -0.046537 -0.62816 -0.20964 0.14566 0.29934 -0.22788 -0.29526 0.47795 0.099875 0.62181 -0.16756 0.33527 0.88431 0.23108 -0.37684 -0.14832 0.1485 -0.17151 0.06232 -0.73406 -0.18343 -0.0051471 0.18267 -0.17621 0.22426 0.16534 -0.075265 -0.07668 -0.3212 -0.024817 -0.30498 0.36825 0.31953 0.12018 -0.19242 0.34693 -0.12597 -0.42736 -0.19386 -0.58377 -0.36613 -0.49879 0.49896 0.97518 0.21417 0.61123 -0.24481 0.43575 0.13949 0.21403 -0.5417 0.57 -0.1511 0.38322 0.42242 0.23086 -0.073767 0.58022 -0.31481 -0.36857 -0.25051 -0.76513 -0.15222 0.098631 -0.03858 0.41694 0.052057 -0.30391 -0.011915 0.35163 0.21908 -0.61361 -0.11386 -0.10159 -0.38288 -0.29986 -0.1737 0.0075474 0.029637 0.29901 0.0053105 -0.021268 0.47304 -0.07009 0.41337 -0.26211 0.20196 0.48466 -0.079825 0.047969 -0.10014 0.47126 -0.79349 -0.38351 -0.72679 -0.097538 -0.043705 -0.27193 -0.063868 -0.17166 -0.60135 0.43044 0.010499 0.53637 0.32372 -0.34837 0.04028 -0.10862 -0.26822 -0.28919 0.29699 0.011771 0.33292 -0.64605 0.44365 0.019847 -0.42426 0.16633 -0.397 0.3969 0.2109 0.26611 -0.38855 0.044776 0.19061 0.13242 -0.72633 -0.058237 0.38207 0.5817 -0.36602 -0.074966 -0.009854 -0.29799 -0.26829 0.32113 -0.20913 0.20503 0.4614 -0.74733 -0.35921 -0.6007 -0.17439 -0.034989 -0.26781 -0.43445 0.28922 0.029822 -0.4918 0.61302 -0.049617 0.15229 0.14191 -0.054861 0.33972 0.54016 0.089689 0.35777 -0.091368 -0.062335 0.20914 -0.1178 -0.38098 0.46977 -0.4494 -0.013759 0.10178 0.51077 -0.40535 0.41688
evil -0.60644 -0.51205 0.0064921 -0.29194 -0.56515 -0.11523 0.077274 0.33561 0.11593 2.3516 0.051773 -0.54229 -0.57972 0.1322 0.2843 -0.079592 -0.26762 0.18301 -0.41264 0.20459 0.14436 -0.18714 -0.31393 0.17821 -0.10997 -0.25584 -0.11149 0.096212 -0.16168 0.40055 -0.26115 0.53777 -0.52382 0.27637 0.72191 0.060405 -0.17922 0.1802 -0.14381 -0.14795 -0.081394 0.058282 0.022964 -0.26374 0.10704 -0.45425 -0.19964 0.3772 -0.097784 -0.31999 -0.078509 0.61502 0.071643 -0.03093 0.21508 0.2528 -0.31643 0.66698 0.019813 -0.32311 0.029266 -0.041403 0.28346 -0.79143 0.13327 0.077231 -0.18724 -0.33146 -0.20797 -0.69326 -0.23412 -0.068752 0.038252 -0.32459 -0.0083609 0.12945 -0.28316 -0.57546 0.24336 0.56433 -0.71285 -0.0054738 -0.23305 -0.071578 0.48301 -0.34312 0.27365 -1.1771 -0.658 -0.19009 0.0074287 0.32977 -0.16647 0.26851 0.11811 -0.06244 -0.049987 0.00071011 -0.056201 -0.26696 0.31351 0.43955 -0.088727 -0.12315 0.18855 -1.0834 -0.33041 0.57325 -0.39947 0.014852 -0.36787 0.37842 -0.28962 -0.070543 -0.058699 0.53076 -0.12736 -0.35724 -0.15007 0.013823 -0.19497 -0.37189 0.26255 -0.076826 0.084217 -0.5364 0.17393 -0.14698 -0.11068 0.17709 -0.39556 0.10433 0.0092675 -0.12282 -0.39842 -0.27758 -0.69369 0.070128 0.082794 0.048342 -2.7038 -0.16812 0.31413 0.024313 -0.036423 0.19292 0.44872 -0.45427 -0.37271 -0.99532 -0.13411 -0.60312 0.16642 -0.024611 0.66891 0.063476 -1.1327 -0.33786 -0.012576 0.35344 0.26643 -0.19404 -0.19516 0.6367 0.21373 -0.28936 -0.068847 -0.19738 -0.35305 0.10219 0.11744 0.037159 0.41041 -0.013766 -0.010325 0.010461 0.030697 -0.33016 0.24668 -0.26058 0.28665 -0.078507 0.0068945 0.1098 -0.64179 0.0024617 -0.24693 -0.011188 0.30838 0.45557 -0.62189 0.14873 0.3544 0.28642 -0.24211 -0.12404 0.23326 0.19555 -0.012425 0.1992 -0.17935 0.52031 -0.43666 0.086211 0.17282 0.065266 0.28701 0.60238 0.31843 -0.47646 -0.021181 -0.27726 0.40253 0.39968 0.01858 -0.62663 0.34149 0.44687 -0.46135 0.44174 -0.057541 -0.019038 -0.22626 0.058452 -0.046681 -0.0053295 -0.0018257 0.48565 -0.46144 -0.45877 -0.15891 0.13037 -0.29183 0.069206 -0.049825 0.55077 0.1473 -0.19255 -0.23916 -0.19319 0.15643 0.33491 -0.31913 0.20674 0.064556 -0.23195 0.12657 -0.0025131 0.11079 0.30436 0.069529 0.11027 0.26285 -0.23103 -0.28933 -0.050675 -0.089796 0.25816 -0.080917 0.3316 -0.3593 0.28336 0.14145 0.29012 0.15677 0.13225 -0.5009 0.2211 0.69609 -0.096917 -0.024966 -0.29391 -0.3124 -0.38031 -0.20604 0.15959 -0.56155 0.2917 -0.50459 0.065684 0.58594 0.013003 0.65874 -0.47811 0.28794 0.35918 0.43347 -0.4248 0.35892 -0.60925 -0.71236 0.2949 -0.21479 0.25658 -0.19358 1.1057 0.22862 0.21859 -0.19044 -0.10253
accident -0.33972 0.59775 -0.36463 0.18455 0.022954 -0.23952 -0.15761 -0.3183 0.10519 2.9963 -0.63511 0.032412 -0.14088 0.81166 -1.3268 -0.28169 0.019256 0.86501 0.28543 -0.12534 0.13604 -0.069733 -0.17274 -0.12376 0.7746 0.20541 0.17171 0.011467 0.44202 -0.60324 0.31936 -0.34723 -0.079241 0.801 -0.44826 0.19785 -0.081039 0.22154 -0.25648 0.35367 0.54523 -0.13478 0.29878 0.5627 -0.58354 0.45459 -0.27041 -0.38789 0.68945 0.18738 0.11918 -0.038856 0.50206 0.50824 -1.0293 0.34113 -0.090514 -0.052223 0.451 -0.21251 -0.09774 -0.16991 0.27607 0.53514 0.038622 0.21359 0.2283 -0.39685 0.046006 0.63396 -0.056329 -0.36259 -0.056804 0.10312 0.19998 -0.35653 0.29535 -0.13273 -0.49937 -0.15672 0.46588 0.5128 -0.1046 -0.083083 0.049014 -0.34053 0.75902 -0.23113 -0.39538 -0.15294 -0.39763 0.33841 -0.46065 -0.58186 -0.53123 -0.16685 -0.17935 -0.091669 0.37914 0.16853 -0.21719 0.24794 0.43507 0.32148 -0.16738 -0.6441 -0.43494 0.47042 0.021126 0.032693 -0.79121 0.39438 0.25959 -0.073642 -0.49389 -0.084353 0.50514 -0.12755 -0.0059736 -0.21792 -0.20158 -0.13742 0.39424 -0.97929 0.050891 -0.13726 -0.47868 0.063428 -0.0064009 0.05565 0.10589 -0.59878 -0.34939 0.087754 0.16756 -0.26315 -0.35028 -0.34847 -0.014696 0.38912 -0.84319 -0.17587 0.28541 0.70468 0.36265 0.16694 -0.71249 -0.34706 0.67264 -0.18113 -0.56639 0.025685 0.0090384 0.035293 0.34144 -0.17853 -0.11163 0.37487 0.10286 -0.12341 -0.13189 -0.11741 0.51164 0.23668 0.10016 0.068077 -0.19453 0.55456 -0.0088026 0.63837 -0.054808 0.24345 0.12379 0.22367 -0.061547 -0.4155 -0.25666 0.093648 0.077918 -0.15132 -0.51238 0.63505 0.080305 0.6005 -0.17004 0.11564 -0.27965 0.17718 -0.52381 0.21744 -0.16622 -0.093128 0.41744 -0.16043 -0.33809 -0.039791 0.20827 -0.26132 0.035443 0.34575 -0.5791 0.087597 0.19462 0.32033 -0.28765 0.4926 -0.27244 0.085857 0.39247 0.44178 0.14958 0.16507 0.34089 0.55633 -0.1069 -0.31326 -0.365 0.43364 0.38591 -0.24357 0.56525 0.10833 -0.003948 -0.11265 -0.60584 -0.24429 -0.37229 0.012487 -0.039639 -0.21679 -0.43849 0.045721 0.084674 -0.30805 -0.54328 0.19108 0.30576 0.50796 -0.13635 -0.070599 0.25908 -0.29138 0.48528 -0.011769 -0.32298 -0.013307 0.43187 0.26191 0.38436 -0.077196 -0.37403 -0.11586 0.2699 0.024801 -0.22108 -0.13949 -0.29802 -0.1924 0.56383 0.59722 0.27742 0.18274 0.23862 -0.50329 0.1732 -0.46704 -0.21023 0.51019 -0.39565 -0.15729 0.18401 0.0036093 -0.017256 0.18439 0.075274 0.69137 -0.018691 -0.087038 -0.17046 0.23627 -0.47938 -0.59179 -0.014693 0.23732 0.6202 0.27823 -0.48488 0.08834 0.077382 -0.19829 -0.28767 -0.0011306 0.55282 -0.44673 0.065802 -0.39342 -0.084092 -0.048485 0.50826 -0.22709
murder -0.35322 0.43718 0.14805 0.15543 0.19681 -0.47608 0.21 0.23617 -0.22765 3.3148 0.030409 -0.20355 0.31189 0.51146 -0.85274 -0.72246 -0.3223 -0.40687 0.39585 -0.15057 -0.083638 -0.2414 0.30432 0.21476 0.26774 -0.36722 -0.0060321 0.026657 0.21261 0.05049 0.15351 -0.041377 -0.49823 0.014632 0.68072 -0.41145 0.10122 -0.042528 -0.21542 -0.063941 0.27047 -0.22188 0.57972 -0.91577 0.12172 0.070697 -0.050976 0.28727 0.30117 0.52015 0.21302 0.39784 -0.11741 0.5032 -0.032652 0.19929 -0.0090556 -0.3504 -0.054174 0.031718 -0.10672 0.309 0.2412 -0.36931 0.14118 -0.23568 -0.49316 -0.15741 -0.090591 -0.64288 0.20548 -0.15162 -0.36969 -0.1866 0.4333 -0.80143 -0.23181 -0.54044 0.28475 -0.031764 -0.37887 -0.23522 -0.23155 -0.50195 -0.12379 0.29613 0.075153 -1.0355 0.092 0.18391 -0.018371 0.20523 0.28163 -0.48471 -0.37237 -0.72161 -0.23137 0.54108 0.030241 -0.3043 0.18424 0.4194 0.65 0.049003 0.016249 -0.57531 -0.23555 0.35784 0.50988 0.18978 -0.48597 0.79434 -0.10082 0.073251 -0.49014 0.44676 0.13644 -0.18921 -0.18884 0.36608 -0.13676 -0.17333 0.32552 -0.73964 0.35593 0.065728 -0.2851 -0.60066 -0.077257 0.02291 -0.3374 0.01157 0.087497 0.13243 0.28411 0.035737 -0.18763 0.20154 0.17883 -0.073769 -1.496 -0.28759 0.38057 -0.089828 -0.1867 0.11825 -0.4558 -0.68466 0.48175 -0.4248 -0.15248 0.042446 0.19318 0.1018 0.10625 0.17232 -0.24792 -0.48615 0.42619 0.045647 -0.31488 -0.21307 0.64217 0.59175 -0.15564 -0.0033356 -0.34622 -0.048438 0.49387 0.29788 0.013942 -0.05698 0.34296 0.17954 -0.1016 -0.42989 -0.29278 -0.43101 -0.12148 -0.13309 0.094653 0.74957 -0.15878 0.62204 -0.00075488 1.2238 0.025573 -0.11233 0.2402 0.30428 -0.42838 -0.51122 -0.19608 0.35452 0.13198 0.099207 -0.16229 0.093029 0.23516 -0.44281 0.013664 -0.14688 -0.22727 0.12206 -0.26869 -0.42072 0.080925 0.81114 -0.087838 0.1108 0.35158 0.1532 0.69639 0.24872 0.54886 -0.71421 -0.31351 0.032174 0.35759 0.24358 0.25574 0.33528 -0.71529 -0.16297 -0.48603 0.16761 0.15197 0.0056396 -0.19367 0.017585 -0.6151 0.31212 -0.20935 0.16662 -0.59375 -0.32913 -0.33915 0.18689 -0.26747 0.29809 0.051184 -0.062509 -0.27317 -0.64323 0.55728 0.65455 0.54216 0.29886 0.21435 -0.23176 -0.2531 0.5393 0.41222 0.012774 -0.42036 0.1144 -0.45953 -0.37742 0.3456 -0.20596 -0.070978 0.25845 0.047733 -0.074735 -0.42363 0.17444 -0.018437 0.37474 -0.51064 -0.3262 -0.24585 -0.18163 0.16004 0.69468 0.03058 0.29499 -0.054126 -0.091369 -0.15788 -0.12488 0.78953 0.14964 -0.32948 -0.60464 0.129 0.29255 0.16344 -0.26023 -0.58783 -0.53806 -0.22166 -0.24303 -0.12631 0.15979 -0.35191 -0.22717 -0.37149 -0.32881 0.2699 -0.076616
crash 0.058852 0.33984 0.082136 0.46234 -0.040384 0.0222 0.10425 -0.10504 0.25811 2.1673 -0.31756 -0.38686 0.041444 1.0293 -1.1171 -0.5898 -0.079655 0.9724 0.65574 -0.35922 -0.35238 -0.03767 0.3546 -0.095759 0.51925 0.21997 -0.33183 0.076908 0.52551 -0.27179 -0.21967 -0.31242 -0.11341 0.35662 -0.16577 0.12077 -0.21972 0.33697 -0.38695 0.3941 0.66481 -0.52174 0.27202 0.43239 -0.33929 0.39474 -0.045049 -0.31572 -0.031934 0.16889 -0.046004 -0.44418 0.12157 0.63729 -0.8977 0.27856 -0.51448 -0.16502 0.22584 -0.032819 -0.41307 0.042278 -0.18001 0.4312 0.17318 0.33415 0.50175 -0.35314 0.5208 0.54713 0.51213 -0.23769 0.22395 0.36173 0.016905 -0.57231 -0.071635 0.16044 -0.45906 0.35486 0.30361 0.14177 -0.02111 0.18304 -0.31904 0.10778 0.48314 -0.34973 -0.46832 0.20699 -0.15948 0.11191 -0.19744 -0.49515 -0.50444 -0.14991 -0.12387 0.48088 0.47474 -0.012793 -0.11237 0.55083 0.59229 0.07551 -0.046189 -0.41779 -0.21268 0.57181 0.44735 0.10567 -0.38733 -0.27439 -0.094561 0.00092822 -0.30628 -0.28466 0.3072 0.16153 -0.56353 -0.07863 -0.51013 0.091919 0.5294 -0.54111 -0.12485 -0.11095 -0.1859 0.15654 0.053601 -0.19303 0.28873 0.15438 -0.27941 -0.19209 0.33037 -0.7465 -0.45619 0.081225 -0.49733 0.29789 -1.5104 -0.26966 0.18661 0.21482 0.69351 0.61088 -0.52493 0.37345 0.63848 -0.41229 -0.31608 0.39163 0.11988 0.32129 0.29968 -0.29817 0.18871 0.65902 0.38466 -0.39615 0.23851 0.37062 0.1032 0.59362 0.097886 -0.10355 -0.36024 0.17394 0.27495 0.19784 0.52187 0.21456 0.12098 0.30744 -0.085425 -0.19346 0.13228 0.085513 -0.00070594 -0.18065 -0.18037 -0.15446 0.24305 0.59876 0.041461 -0.047081 0.052236 0.3475 -0.49116 0.049746 0.46981 -0.29302 0.13151 -0.28133 0.037115 0.05002 0.042845 -0.053959 -0.075287 0.296 -0.54344 0.10687 0.53432 -0.13431 -0.05778 0.0020424 -0.6599 0.081819 0.18235 0.31247 0.11422 -0.086925 0.1783 0.4334 -0.066668 -0.62347 -0.33762 0.2162 0.27809 -0.31903 0.56649 0.10501 -0.014452 0.0069612 -0.092373 -0.044881 -0.0012582 0.099038 0.072434 0.3144 -0.0046976 -0.046206 0.34783 0.066014 -0.39319 0.24434 0.032376 0.72271 -0.26809 -0.15364 0.54563 -0.15687 0.20626 -0.36329 -0.035567 -0.3624 0.58288 0.52097 0.63868 0.054079 -0.18771 0.13417 0.19263 -0.054803 -0.1106 -0.4134 0.067714 -0.12656 0.25876 -0.16695 0.45033 0.40772 0.26789 -0.56477 0.18928 -0.67072 -0.2733 0.92583 -0.10867 0.057146 0.35789 -0.16291 0.55705 -0.16845 0.24802 0.060407 0.27436 -0.22149 0.033474 -0.18137 -0.59996 -0.8055 -0.12575 -0.15883 0.38107 -0.30427 -0.33452 -0.06377 0.090565 -0.61531 -0.74506 0.50749 0.58829 -0.43834 -0.42424 -0.43463 -0.034504 -0.32348 0.42375 -0.20209
disaster -0.53213 -0.40404 0.55243 0.039929 -0.46935 -0.39454 -0.51284 0.22504 -0.091696 2.7724 -0.5866 -0.65679 0.23295 0.24169 -0.69682 0.22382 -0.014783 0.89321 -0.21425 -0.040953 -0.30128 -0.062386 -0.22262 0.25723 0.20414 -0.35603 -0.048626 0.31269 -0.087415 -0.37298 -0.19454 -0.82982 0.17889 0.074193 0.35354 0.28317 -0.14587 0.18161 -0.047127 0.46997 0.1567 0.0023964 0.089104 -0.047944 -0.28587 -0.23258 -0.34099 0.49633 0.34314 -0.34987 0.44472 0.13601 0.22575 0.36572 -0.60463 0.36205 -0.31042 -0.26719 -0.027081 0.28667 -0.23018 -0.034756 -0.13084 -0.52836 0.17887 0.091674 -0.21249 0.17111 -0.34956 0.33937 0.5903 -0.10175 -0.24036 0.19404 0.12469 -0.27856 0.49886 0.055915 0.039704 0.036433 -0.14877 -0.0023117 0.20881 -0.2675 -0.22826 -0.33734 -0.38713 -0.4482 -0.10857 0.0076155 -0.45827 0.10258 -0.50321 0.026338 -0.15306 0.07312 -0.62363 0.1846 0.30804 0.012693 -0.3108 0.026331 -0.14155 -0.01479 -0.090392 -1.3121 -0.74026 0.37679 -0.19236 -0.98156 -0.31141 0.37982 -0.42092 0.20385 -0.20802 -0.17873 -0.23815 0.35339 -0.4488 -0.51626 -0.33332 0.35527 -0.25694 -0.40965 -0.17813 -0.053395 -0.18229 -0.12151 -0.12778 -0.069067 -0.080902 -0.31953 0.33841 0.28727 0.10878 0.13618 -0.53846 -0.62958 -0.12868 0.49789 -0.78203 0.068678 0.17406 0.46338 0.45908 -0.23055 -0.47698 0.28561 0.31689 0.14016 -0.33057 -0.26397 0.17191 0.19835 0.43081 -0.051529 -0.072378 -0.112 0.29225 0.52384 0.3532 0.49102 -0.23595 0.21791 -0.33508 0.27649 -0.066939 -0.037359 -0.11153 0.062051 -0.48269 -0.11969 -0.013907 0.40077 0.16244 -0.25284 0.11085 -0.072866 0.06137 0.0023633 -0.18178 -0.090833 0.023934 0.017312 0.11898 -0.35167 0.019987 0.017524 -0.095149 0.063238 0.36479 -0.18065 0.41598 -0.14828 -0.58268 -0.0016046 -0.17841 -0.12083 0.427 0.67966 0.25448 0.019643 0.69768 0.28217 0.22223 -0.12206 -0.04335 -0.09847 0.31252 0.42248 0.14481 -0.42678 0.20005 0.39267 -0.016853 -0.080393 -0.19739 -0.10665 -0.14008 -0.4657 -0.10712 0.058416 0.20308 0.0041989 -0.21268 -0.56056 -0.091188 -0.16918 -0.48228 0.06051 -0.15198 0.12882 0.30888 -0.25131 -0.13346 0.26236 0.11131 -0.18483 -0.10216 -0.66372 0.046224 -0.53311 0.10878 0.025276 -0.41944 -0.22871 0.64215 -0.046579 0.29171 -0.51633 0.2433 0.00089437 -0.089677 0.029998 -0.32201 -0.54487 -0.29636 0.20609 -0.13088 0.53031 -0.10081 0.48754 0.35634 -0.45112 0.13719 -0.50252 0.13621 0.19139 0.23802 0.20605 0.29493 0.44407 0.047368 -0.22116 -0.34023 0.11589 0.59101 0.33687 -0.17493 -0.077904 -0.32871 -0.63761 -0.0052467 -0.21943 0.27359 -0.053145 0.63839 0.15909 -0.16316 -0.046886 -0.089863 1.0484 0.66616 0.083042 -0.1735 -0.11352 -0.17542 0.23008 -0.34337 -0.22907
ugly -0.53674 -0.3 0.004791 0.34325 0.072651 -0.15468 0.4714 -0.4353 0.0025002 1.6734 -0.037368 -0.51729 -0.37481 -0.2959 0.0048179 -0.026867 -0.10443 0.43171 0.27062 0.069838 -0.11725 -0.22011 0.26416 0.019489 -0.064326 -0.15819 -0.2656 -0.13375 0.094646 0.033839 0.13697 -0.027918 -0.34439 -0.10497 0.33985 0.18926 0.30349 0.06125 -0.21406 0.013792 -0.31951 -0.29672 -0.14736 0.52435 0.10649 -0.53501 -0.11745 -0.079723 0.010662 0.12839 -0.26257 0.73943 -0.26759 -0.24126 0.12962 0.15053 -0.18736 0.19094 0.47907 0.17754 -0.37828 -0.026503 -0.34353 0.049857 0.044797 0.0074031 -0.34056 -0.10168 0.14093 -0.11157 0.46112 0.01031 0.38918 0.2284 0.07108 0.51387 -0.2335 -0.39016 -0.035005 -0.17007 -0.35084 0.16253 0.31503 0.035945 -0.42607 0.012724 0.99508 -0.079153 -0.30037 -0.65655 -0.47451 0.43946 -0.17245 -0.21632 0.31724 0.19627 -0.322 0.25335 0.27742 -0.35821 0.63786 -0.056311 0.23948 -0.37041 0.3944 -0.93808 -0.36862 0.39016 -0.06576 -0.17046 -0.34091 -0.47602 0.18787 -0.58055 -0.25533 -0.026321 0.15797 -0.29491 0.0021441 -0.52688 -0.45614 0.015649 -0.43318 -0.50587 -0.20675 0.054026 0.17593 -0.090852 0.05301 0.16083 -0.21518 -0.12339 0.2831 0.32874 0.083934 -0.14192 -0.90769 0.2427 0.12952 -0.086936 -2.9157 0.25867 0.41762 0.23243 -0.13598 -0.073263 -0.10445 0.070693 0.12413 -0.09352 0.1593 0.21476 0.030854 -0.0093186 -0.04555 0.044841 -0.64309 -0.48454 0.070831 -0.43551 -0.30363 -0.49136 -0.0059713 0.30222 -0.23085 -0.023392 -0.031224 0.27918 -0.24561 -0.29627 -0.38338 -0.029512 -0.15252 0.20995 0.13172 -0.39864 -0.4418 0.28826 -0.19042 0.0095198 -0.59016 -0.30912 -0.60974 0.27836 -0.5215 0.31704 0.04245 -0.23104 0.44587 0.049983 0.65193 0.11961 0.005127 -0.020905 0.019651 0.43794 0.093191 -0.22065 -0.51626 0.2814 -0.13585 0.058406 -0.11306 -0.048485 0.10414 -0.36338 -0.23039 -0.079716 -0.15662 0.33253 -0.27309 0.15538 0.01665 0.061921 0.097249 -0.075403 0.018501 0.34678 -0.3986 -0.80435 0.099092 -0.26996 -0.21447 -0.16275 0.14003 -0.52703 -0.075699 0.31781 -0.37057 -0.20121 -0.32923 0.25455 0.1426 0.11746 0.30731 0.053615 0.18345 0.030471 0.38012 0.076601 -0.13202 0.11682 -0.15143 0.38899 0.16896 -0.025304 0.1864 -0.31028 0.11318 0.73389 -0.32757 -0.17825 0.41157 -0.29329 0.15484 -0.29351 0.30097 0.15746 -0.061547 -0.023671 -0.58789 0.14557 0.35352 0.15799 0.38673 -0.0067273 0.051058 -0.21395 0.44833 0.3889 -0.43979 -0.46715 -0.11494 -0.40728 -0.29392 -0.21516 0.016103 0.18339 -0.21426 -0.17987 0.66718 0.66405 -0.10701 0.027737 -0.21445 -0.011617 -0.4457 0.096235 0.11125 -0.34239 -0.15403 0.094408 -0.0086007 -0.20451 -0.27233 0.60617 0.0030774 0.040852 -0.031148 0.13405
poverty -0.6074 0.41639 0.39129 -0.17569 0.063097 -0.2492 0.42116 0.50065 -0.060941 2.8573 -1.1201 -0.23898 -0.304 0.31353 0.037194 0.3493 -0.07204 0.44579 0.0058851 0.35539 -0.26937 -0.42154 0.88905 0.26778 0.068938 -0.65053 0.52937 0.22109 -0.55106 0.20914 0.31427 -0.10613 -0.32321 -0.59649 -0.24433 -0.24295 -0.45668 -0.24054 0.15572 0.41543 0.4095 -0.010166 -0.0049256 -0.29038 -0.0099848 -0.63648 0.090797 0.50612 -0.062988 0.10853 -0.19062 0.6831 -0.25494 -0.1677 0.7934 -0.062264 0.40954 0.51013 0.21352 -0.29661 -0.42941 -0.016763 -0.53095 -0.52189 -0.059578 -0.54259 -0.0013345 -0.25747 0.53476 0.060525 -0.26597 0.68253 -0.02544 0.21546 -0.019499 0.44155 -0.28495 -0.077172 0.7653 -0.10146 -0.18096 0.68958 0.18364 -0.58563 0.15882 0.029087 -0.27971 -1.021 -0.22105 -0.12118 -0.57143 0.35197 -0.18352 -0.17751 -0.52779 0.026687 -0.19056 0.95654 0.45176 -0.42988 -0.019988 0.15672 -0.19218 -0.28384 -0.32379 -2.0364 -0.7497 0.15324 -0.69639 -0.40107 -0.27847 -0.17482 -0.37511 -0.64852 -0.3768 -0.75 -0.16656 -0.57209 0.29318 -0.22061 -0.9873 0.062742 0.36105 -0.39358 0.029399 0.19128 0.08131 -0.27651 0.43878 -0.15124 0.59988 -0.28044 0.43321 0.36708 0.12672 0.41951 0.046496 -0.010293 -0.60321 0.23811 -0.068787 -0.13042 0.47885 0.067552 0.3263 -0.2551 0.36978 0.77753 -0.39091 -0.31622 -0.32954 -0.30765 0.29517 -0.34001 0.23746 -0.055147 0.37525 0.2929 -0.48176 0.088164 0.03193 0.3358 -0.075455 0.40125 -0.19957 0.24117 0.47639 -1.0234 0.022986 -0.38856 -0.37898 -0.29996 0.70917 0.72125 0.37012 0.26459 -0.039878 -0.20617 0.46204 -0.48377 -0.37561 0.4416 -0.12142 0.23231 0.61198 0.50956 -0.24528 -0.49149 0.091679 -0.26211 -0.18407 -0.20746 -0.17696 -0.48954 -0.33194 0.052669 0.018343 -0.25111 -0.27823 -0.26866 0.68521 -0.38077 -0.36165 0.55216 -0.26334 -0.7143 -0.13282 -0.024322 0.072778 -0.17061 0.13374 -0.41109 -0.2326 0.27281 0.095243 -0.35232 -0.29119 0.49253 0.010952 0.082368 -0.51264 -0.20917 -0.45714 -0.051787 -0.24743 -0.48877 -0.0071609 -0.34353 -0.39563 0.064522 0.017651 0.082775 0.41862 0.10717 0.14139 0.30039 -0.019712 -0.13668 0.05403 -0.11396 -0.65647 0.037365 -0.34978 -0.2522 0.26023 0.031315 0.46188 -0.015249 -0.066717 0.15687 0.41753 0.36163 0.026238 -0.035297 -0.087878 0.3683 0.22961 -0.27234 -0.1359 0.21667 -0.57822 0.64566 -0.21629 0.40948 -0.046315 -0.67189 -0.20287 -0.28676 0.37142 0.51967 -0.047821 -0.2824 -0.48468 -0.12556 -0.24427 -0.37768 0.25887 0.55467 -0.5431 0.52979 0.25744 0.19716 -0.1741 0.058364 0.11847 -0.62835 0.40354 -0.24114 -0.38452 -0.15331 -0.016012 0.65388 0.48755 0.27177 -0.090035 0.35789 -0.011447 0.055793 -0.50555 -0.19386
jail -0.25478 -0.033839 0.20569 0.0069025 0.0095586 -0.34618 0.15524 -0.5502 0.36387 2.9386 -0.39992 -0.00015891 0.074471 0.14695 -0.95586 -0.12133 0.35498 -0.12905 0.5041 0.0026465 -0.23725 0.041678 0.17846 0.47424 -0.095434 -0.56611 -0.10676 -0.34648 0.357 -0.070355 -0.16084 -0.08654 -0.095426 -0.51783 0.007038 -0.071741 0.11231 0.02199 -0.099969 0.28373 0.56732 0.011268 0.81654 -0.52968 -0.4208 -0.15553 0.13908 -0.034641 -0.25298 0.14738 -0.27976 0.20157 0.43912 0.078352 0.092805 0.38245 -0.052042 -0.39565 0.18786 0.25282 -0.032302 -0.20686 0.24653 -0.0041904 0.43211 0.079031 -1.0188 0.10315 0.20674 -0.51373 -0.13103 -0.37005 0.25769 -0.56722 -0.20303 -0.38343 0.045059 0.079524 -0.54914 0.056835 -0.091287 -0.0067556 -0.067131 -0.12406 -0.2963 0.565 0.99247 -0.80543 0.10013 0.094641 -0.24346 -0.21544 -0.15933 -0.65961 -0.61089 -0.064376 -0.14089 0.13515 0.51786 -0.23574 0.36389 0.51294 0.46056 -0.30932 0.27602 -0.73197 -0.28177 -0.23231 0.22649 0.3639 -0.34752 0.85548 -0.029695 0.51261 -0.27685 0.1628 0.41273 -0.0078415 -0.66096 0.15879 -0.0594 0.34489 0.11963 -0.7339 0.012263 -0.16354 -0.36017 -0.38735 0.075582 0.053984 -0.32808 0.4805 -0.026221 -0.39879 0.69823 0.13877 -0.013491 0.59946 -0.37383 0.28729 -1.3596 -0.021866 0.3688 -0.25489 0.005385 0.3913 -0.15815 0.30892 0.079565 -0.39785 0.15728 0.14217 -0.37606 -0.34162 0.057556 -0.07721 0.39665 -0.083026 0.5061 -0.32009 0.29659 -0.11696 0.25808 0.4826 -0.29615 0.11558 0.048119 -0.097982 0.17241 0.36878 0.57793 -0.50805 0.10738 0.43251 -0.051651 0.59576 -0.16744 0.65429 -0.21144 0.013746 0.1945 0.40641 -0.22961 0.70899 0.32649 0.66509 -0.16252 0.0028843 0.16955 0.12487 -0.12438 -0.0028152 0.15444 0.20348 0.27709 0.53069 -0.48992 0.11103 -0.38466 -0.3122 0.43913 -0.33537 -0.22301 -0.076448 -0.16942 -0.70841 0.17266 0.38348 0.22409 0.71279 0.10678 -0.20688 0.19235 0.28055 0.92098 -0.26078 -0.29835 -0.11483 0.19147 0.46396 -0.12261 -0.21057 -0.47077 0.3429 -0.38094 0.02782 -0.3526 0.30128 -0.041625 -0.24295 -0.12214 0.11313 0.46184 0.16706 0.14268 -0.333 0.046588 0.1083 0.049511 0.20287 -0.097523 -0.060115 0.099753 -0.10287 0.30046 0.91724 0.32245 0.35826 -0.49526 0.14966 -0.19593 0.2478 0.11439 0.48893 -0.036603 0.17751 0.014728 -0.39861 0.38899 -0.58442 0.015943 0.2928 -0.11134 0.19023 -0.73976 0.28437 -0.34059 0.19965 -0.36359 -1.0025 0.15703 -0.49094 0.40001 0.28462 0.051828 -0.028333 0.22532 -0.052895 0.35456 -0.021967 -0.050754 -0.015036 -0.29689 0.12348 -0.15451 0.070868 0.29325 0.43157 -0.21189 0.12329 -0.077128 -0.38335 -0.079895 0.31488 -0.87161 -0.011604 0.29678 0.036452 -0.72052 0.1037
divorce -0.49796 0.50077 0.09753 -0.11975 0.5425 -0.59059 0.79172 -0.64705 0.83488 3.02 -1.0578 -0.2238 -0.036888 0.40228 -0.97709 -0.13564 -0.068698 0.061336 -0.12345 0.5288 -0.12005 -0.65033 -0.39573 -0.1939 0.014599 0.12181 0.15637 0.41802 -0.44294 -0.68933 -0.059878 0.41195 0.42723 -0.1561 0.38725 0.19316 0.099671 -0.41825 -0.11388 -0.08033 0.031979 -0.023289 0.38579 0.52909 -0.59892 0.26049 -0.80476 -0.37782 0.62673 0.25407 -0.19576 0.27297 -0.18881 0.0085017 -0.22696 -0.2088 0.42004 -0.11652 0.45349 -0.35575 0.22833 0.13141 -0.40225 -0.20362 0.46911 0.33522 -0.33324 -0.25113 0.21019 -0.26098 -0.63928 -0.085672 -0.12437 0.14785 0.29423 0.12239 -0.20251 -0.68787 0.25805 -0.72408 0.51953 0.16131 -0.22714 0.024887 -0.15211 -0.0036281 0.3733 -0.61798 0.48784 -0.13319 -0.88634 -0.57748 0.4617 -0.13871 -0.13927 0.6854 0.25347 -0.3608 0.00025549 -0.20389 0.25672 0.049798 0.31825 0.031072 -0.17086 -1.0026 -0.21036 0.48301 -0.20643 -0.57271 -0.62123 0.85147 0.18172 0.068742 0.093167 -0.23346 0.30898 -0.50766 0.32752 0.31298 -0.35258 0.46182 0.0016549 -0.49209 0.70896 0.56846 0.059287 0.12344 0.68467 -0.12877 -0.21708 -0.38976 -0.013953 -0.66579 0.3667 -0.13779 -0.47666 0.013418 -0.51948 0.15353 -0.81429 -0.35427 0.30649 0.60884 -0.60708 -0.083205 -0.074142 0.15323 -0.11543 -0.12848 0.12126 -0.57258 -0.29073 0.20871 -0.30456 -0.31451 0.21694 -0.13855 -0.35412 0.00014095 -0.37191 -0.44764 0.071888 -0.28829 -0.54668 -0.18232 -0.077588 0.34802 0.12799 -0.085471 -0.20439 0.021961 0.073726 1.241 0.33486 -0.49987 -0.021399 -0.47312 -0.206 -0.40802 -0.076666 -0.24184 -0.68827 0.26185 0.39965 0.47592 -0.53949 -0.36533 -0.20427 0.18681 -0.42576 -0.36932 -0.031034 -0.069789 0.082509 0.006964 -0.83822 0.36864 0.38695 0.23252 -0.061157 -1.0194 0.37926 -0.067552 -0.47689 -0.429 -0.081475 0.062172 -0.63033 0.93031 -0.063708 0.46969 0.23494 0.73091 0.35553 -0.42611 -0.36736 0.52964 0.26557 0.39746 0.055322 -0.48605 0.10473 -0.58122 -0.27334 0.063699 -0.46159 -0.33427 0.28028 -0.50122 0.31892 0.22255 0.24143 0.52359 -0.039765 -0.18603 0.21974 0.080799 -0.2647 -0.35234 0.37335 -0.36865 0.35509 -0.089666 0.24165 -0.16448 0.31411 -0.22023 0.085091 -0.018984 0.19942 0.23855 0.026936 -0.42496 -0.31832 -0.080776 0.14834 -0.26121 0.34545 0.55371 -0.57255 0.10272 1.0289 0.13424 0.05986 -0.30144 -0.058975 0.3279 -0.098762 -0.26557 -0.28752 -0.11011 -0.13473 0.29595 -0.11432 0.11417 -0.60427 -0.14284 -0.36394 0.12474 0.84187 0.039983 0.013113 -0.16522 0.38595 0.30558 -0.55937 0.27506 -0.16767 0.2273 0.22777 -0.20146 0.15548 0.40838 0.11205 0.00017073 0.13307 0.034695 0.51233 -0.59957
bomb -0.37307 -0.19416 0.28201 0.60656 -0.33597 -0.095476 -0.71375 0.2331 0.015106 1.9754 -0.1667 -0.42395 0.22931 0.06658 -0.49473 -0.3533 -0.060299 0.44116 -0.093027 -0.41462 0.32456 0.49607 0.055104 0.3282 0.067917 -0.18089 -0.83737 -0.020413 0.067311 -0.18049 0.02474 -0.32511 -0.10658 0.50451 0.42612 -0.52036 0.031094 0.4015 0.37355 0.26225 0.034617 -0.35925 0.10885 -0.086848 0.49888 0.31325 -0.11115 -0.061731 -0.34754 0.39277 0.075091 -0.030777 -0.13363 0.52553 -0.2223 0.41102 -0.20738 -0.31131 0.34596 -0.41534 0.046317 0.11633 0.16386 -0.025813 0.31501 -0.0049603 -0.48641 0.073599 -0.66562 0.34562 -0.58697 -0.3489 -0.051404 0.42232 0.13243 -0.70146 -0.30367 -0.44671 0.12338 0.27089 0.32909 -0.15905 0.099354 -0.21873 -0.17008 0.4151 0.29783 -0.26885 -0.73871 0.18971 0.5131 0.89898 -0.23159 -0.42974 -0.53533 -0.41644 -0.039981 0.27016 -0.52411 0.033734 -0.33252 0.3908 0.74037 0.14068 0.40126 -0.83743 -0.33252 0.014708 -0.034086 -0.083379 -0.37782 0.090641 -0.7972 0.23443 -0.23289 0.38687 -0.082597 0.56216 -0.79873 -0.40042 0.13546 0.21649 0.40965 -0.44652 -0.084702 0.10581 0.052329 -0.22277 -0.36276 0.45307 -0.30504 0.34505 -0.13559 0.29506 0.18081 -0.24608 0.64475 0.10998 -0.36009 -0.13035 -2.1377 0.1884 0.41794 -0.14118 -0.078927 -0.037997 -0.02173 0.022406 0.67342 -0.070397 -0.067485 0.37815 -0.015005 0.34208 -0.51861 0.069418 -0.52205 -0.016868 -0.0063329 0.27862 0.186 -0.060151 0.15777 0.48022 -0.43005 -0.034583 -0.074124 0.028029 0.18889 0.56116 -0.13962 -0.17378 -0.047066 -0.40687 0.35376 -0.2383 -0.43774 0.2434 0.12485 -0.22849 -0.11221 0.33504 0.054801 0.11333 -0.058407 -0.015402 0.55688 -0.17394 -0.026133 0.29966 0.05759 -0.030595 -0.2913 0.30092 -0.16945 0.25489 -0.30774 -0.45635 0.33693 -0.071974 0.039748 0.30494 0.58027 0.45689 0.99997 -0.38785 -0.26777 -0.06667 0.33378 0.34215 0.31126 0.066925 0.30194 0.34761 0.51363 -0.8629 -0.65638 0.17419 0.069906 -0.53868 0.25378 0.44393 0.36105 -0.084047 -0.23824 -0.025858 -0.2763 0.54271 0.048464 0.17857 0.47524 -0.20973 -0.29512 -0.54735 -0.19747 0.034083 0.34315 0.60701 -0.084673 0.21611 0.24747 0.21074 -0.14932 -0.42305 0.14494 0.23751 0.060139 0.58909 0.43164 -0.24943 -0.68936 0.1494 -0.012728 -0.12255 0.14777 0.14746 -0.33464 -0.40334 -0.4765 -0.21948 -0.52895 -0.033777 -0.10655 -0.74306 -0.25616 -0.34962 0.4187 0.45825 -0.27057 0.36469 0.43181 0.16581 0.27127 0.13535 -0.048407 -0.20088 0.2912 -0.017735 0.13419 0.11976 0.32199 -0.33087 -0.13562 -0.65609 -0.21254 0.21344 0.29615 -0.038312 0.14153 0.34796 -0.075677 0.21131 0.38615 -0.0066352 -0.10329 -0.58141 -0.16307 0.23922 0.023595 0.58796
assault -0.2851 0.13237 0.10191 0.13601 -0.035516 -0.9286 0.15166 0.23401 -0.1611 2.7746 0.06205 -0.78621 0.29875 0.37653 -0.82884 0.31198 -0.18231 0.17726 -0.0032079 0.11931 0.38419 -0.057929 0.40284 -0.21217 0.029388 0.27751 0.020144 0.18456 -0.0039489 -0.096704 -0.18509 0.29342 -0.55001 0.29191 0.27523 -0.50921 -0.10181 -0.091055 0.099923 -0.014578 0.30134 -0.25581 0.14821 -0.60752 0.21184 0.1048 -0.19698 0.39235 -0.13122 0.52533 -0.19407 -0.1552 -0.20668 1.0605 -0.43968 0.55615 -0.43596 0.16275 -0.18357 0.014603 0.21361 -0.048356 0.054884 -0.055477 0.12927 -0.012713 0.10482 -0.28201 -0.097226 -0.35621 -0.5162 -0.75331 0.31889 0.12413 0.44217 -0.66434 -0.23648 -0.43177 -0.01202 0.50312 -0.41118 -0.77541 0.25034 0.3746 0.6797 0.72163 -0.12737 -0.53107 -0.3624 0.23069 0.25881 0.40868 0.6972 -0.68468 -0.57248 -0.19022 0.10405 0.19934 0.050889 -0.10449 0.16401 0.38307 0.5385 0.066301 -0.45928 -1.1154 -0.53389 0.15684 0.26778 0.0024692 -0.49 0.0064704 -0.26116 0.073642 -0.13543 0.53349 0.68658 -0.17923 -0.050377 -0.11401 -0.40248 0.44082 -0.023049 -0.56052 -0.28046 -0.20476 0.03139 -0.08241 -0.26777 0.66971 0.36214 -0.47062 0.10126 0.1118 0.41218 -0.12427 0.23547 0.68322 0.24993 0.043817 -0.84589 0.12348 0.14552 -0.045197 0.34151 0.15858 -0.26682 -0.20841 -0.034439 -0.43131 -0.13872 0.047184 0.10668 0.37026 -0.3989 -0.080363 -0.24592 -0.23101 0.44476 0.10201 -0.16546 0.17151 0.64007 0.25821 -0.46525 -0.39239 -0.35291 -0.17603 0.29623 -0.1752 0.13924 0.28292 0.29311 0.42299 0.26964 -0.13407 -0.26665 0.090656 0.040045 0.074098 -0.012137 0.28355 0.072362 0.31225 -0.0025957 0.31529 -0.060245 0.33248 -0.0075958 0.21453 0.12229 0.036874 0.07851 0.49163 0.44857 -0.1587 -0.15569 -0.13589 -0.012066 -0.41514 0.45021 -0.18403 0.62384 0.27223 0.11312 -0.076321 -0.19999 0.17132 -0.076981 0.14593 0.27411 0.17913 0.35551 0.30432 0.55637 -0.0072253 -0.57495 0.21555 -0.032509 0.17471 0.40955 0.16749 -0.53375 0.029836 -0.53973 -0.59092 0.17483 0.32472 0.27825 0.13288 -0.42547 -0.042877 0.39585 -0.1941 0.12109 -0.17686 0.0032165 0.49277 -0.094598 0.34879 0.40855 -0.10638 0.084565 -0.55495 0.44505 0.83407 -0.0053028 0.27435 0.17429 -0.027944 -0.034975 0.17285 0.20303 0.022344 -0.43323 -0.080228 -0.4156 0.26345 0.21669 0.16837 -0.78489 0.065411 0.27231 -0.5712 -0.19378 0.62376 0.052591 0.4548 -0.48122 -0.80336 0.34107 -0.17993 0.049208 0.0016371 0.33983 0.52564 0.0901 -0.39941 0.096625 0.078925 -0.015556 0.054339 0.10978 -0.55623 -0.13741 0.17316 -0.15627 0.0064444 0.21139 0.087507 0.15862 -0.075339 -0.52761 0.19377 -0.71112 0.085877 -0.43005 0.0082645 -0.51536 0.16747
tragedy 0.11516 0.66855 0.50283 0.39319 -0.26865 -0.25618 -0.059691 0.55887 -0.074462 2.9358 -0.34062 -0.15293 0.21292 0.62476 -0.7674 0.078072 0.29589 -0.32946 -0.084676 0.0060312 -0.64249 -0.3409 0.11468 0.59916 0.4594 -0.17359 -0.10735 0.55459 -0.5198 0.26148 0.18268 -0.34167 -0.58258 0.11624 0.40563 0.25663 0.20202 -0.030921 -0.1758 0.41873 0.14526 -0.23337 0.20086 0.206 0.20852 -0.44849 -0.092212 0.25648 0.33771 0.0243 0.18928 0.12159 -0.045723 0.5217 -0.19764 0.30241 -0.17073 0.061389 -0.16726 -0.018979 -0.51285 0.2885 -0.10855 -0.28118 -0.3733 0.0093905 -0.42121 -0.29434 -0.19789 -0.00193 0.65178 -0.3592 -0.37552 0.35147 0.44084 -0.37064 0.27298 0.092065 -0.36796 -0.049944 0.074757 0.11095 -0.35622 -0.12215 -0.26236 -0.53811 -0.28212 -0.8379 -0.27208 -0.069383 -0.93831 0.14586 -0.36689 -0.23173 -0.31743 0.066152 -0.72476 0.39458 0.08921 -0.035402 -0.050817 -0.14491 0.30666 -0.10486 -0.070678 -0.93145 -0.57459 0.50341 -0.25413 -0.50232 -0.74517 0.22448 -0.0068139 0.11547 -0.88082 -0.088252 -0.46461 0.2803 0.18695 -0.12337 -0.2094 -0.40005 0.23669 -0.17022 0.2107 0.042136 -0.48007 -0.24547 -0.1845 -0.1713 -0.014296 -0.38805 0.048953 0.4373 0.31978 0.26533 -0.82771 -0.489 -0.17705 0.27439 -1.402 -0.082819 0.0022735 0.71685 0.041703 0.0023324 -0.76154 0.14967 0.75024 -0.17312 -0.16339 0.035892 0.40013 0.6466 0.3431 -0.19064 -0.10708 -0.37598 0.078383 0.2268 -0.035456 -0.031124 0.22787 0.71746 0.26863 0.35147 -0.39003 -0.10076 -0.042185 -0.28314 -0.44052 -0.3163 0.40501 0.1654 0.29899 -0.62089 -0.15435 -0.61491 -0.010163 -0.16534 -0.14924 0.37166 0.58146 0.52534 0.15384 -0.15901 -0.0051085 -0.34777 -0.20028 0.15537 -0.41438 -0.42886 0.24845 0.030001 -0.35689 -0.22265 -0.1504 -0.35329 0.27541 0.54549 0.34241 -0.10357 -0.33691 0.24391 -0.060698 -0.16177 -0.07406 -0.064808 -0.037399 0.25338 0.28877 -0.092268 -0.21365 0.3777 0.21704 -0.47283 0.44255 -0.066959 0.19706 -0.31128 0.42638 0.34367 0.32033 -0.094917 -0.53624 0.0040779 -0.060976 -0.22494 0.10033 0.044821 -0.3855 0.597 0.15187 0.038593 -0.49866 -0.15678 0.027758 0.35261 -0.14609 -0.39097 -0.10124 -0.37342 0.032941 -0.45066 -0.33631 -0.059829 0.22361 -0.014284 0.65512 -0.38316 0.014383 0.32538 0.25501 -0.43383 -0.59524 -0.42419 -0.35747 0.17841 0.034068 0.54762 0.077555 0.26973 -0.045783 -0.087 -0.2713 -0.26056 0.1531 0.33511 -0.17883 0.2551 -0.03597 0.21601 0.03099 0.26899 0.048464 0.14778 0.49033 0.10136 -0.079582 -0.034565 -0.071445 -0.35231 -0.16981 -0.6074 0.076894 0.36971 0.50289 0.025077 -0.21815 -0.25932 -0.365 0.29423 0.32938 -0.14175 -0.11024 0.33449 -0.48732 -0.18562 -0.3172 0.18612
grief -0.35812 0.42649 0.050622 0.25095 -0.049475 -0.19392 0.25849 0.27126 0.16181 2.4988 0.091188 0.016653 0.3292 -0.35838 -0.41181 -0.047765 0.04282 0.22175 -0.41632 0.35833 -0.60089 -0.48893 -0.48289 0.10274 -0.28901 0.32535 0.38637 0.64192 -0.16435 -0.040984 -0.2704 -0.15728 -0.79231 0.31432 0.21394 0.32494 0.44576 0.15066 -0.31394 0.40649 0.26729 -0.14478 -0.22253 0.053552 0.26955 -0.28065 -0.35404 0.41397 0.29407 0.10278 -0.26254 -0.38238 0.26772 0.25347 -0.25615 0.46935 -0.32443 0.26307 -0.10534 -0.20494 -0.023698 0.58749 -0.40939 -0.751 -0.2347 0.037119 0.22148 -0.7342 -0.077728 0.088215 -0.31669 -0.2477 -0.50582 0.52795 0.28318 0.38406 0.27183 0.14319 -0.16497 -0.040995 -0.55652 0.61568 -0.47165 -0.53394 0.099443 -0.67392 0.38149 -0.61318 0.40585 -0.030524 -0.52221 -0.29312 -0.13948 -0.06604 -0.44632 0.43012 -0.24464 -0.057896 -0.27566 -0.54538 -0.027507 -0.51477 0.38604 -0.41516 -0.12284 -1.3057 -0.50083 0.61334 -0.18361 -0.44946 -0.67929 0.2532 0.24178 -0.020176 -0.49586 -0.39736 -0.1465 0.0016076 0.4551 0.016585 0.22244 -0.25953 0.10921 0.21814 0.38959 -0.016065 -0.070069 -0.0075468 -0.022043 -0.42568 -0.23453 -0.29267 0.21818 -0.14958 0.19477 0.24241 -0.56381 -0.18764 -0.20101 0.35205 -1.2452 -0.054998 -0.072559 -0.027468 -0.25962 0.26108 -0.6084 0.21124 -0.41762 -0.60057 -0.087892 -0.079546 0.35505 0.50725 0.12925 -0.3731 0.44331 0.21294 -0.64346 -0.32174 -0.12524 -0.025291 -0.097268 0.20181 0.36468 0.30375 0.094064 -0.015644 -0.60516 -0.58184 -0.59532 -0.62404 0.63365 0.61996 0.24196 0.10012 -0.023685 -0.49085 -0.017472 -0.39151 -0.35504 -0.13898 -0.065583 0.76643 0.47108 0.10053 -0.37518 -0.25254 -0.20146 0.067929 -0.13554 -0.44915 -0.10697 -0.035927 0.061464 0.059606 0.068488 -0.61766 0.28068 0.24377 0.15281 -0.45883 -0.34837 0.26305 -0.38096 -0.18063 0.11062 -0.047164 -0.083331 0.080086 -0.1564 0.040154 0.084723 0.69772 0.23566 -0.81252 0.2961 -0.1897 0.11339 -0.026405 0.37565 -0.049234 0.45372 -0.089509 -0.44419 -0.17254 -0.23472 -0.1994 -0.57432 -0.23597 -0.28956 0.34769 0.24841 0.12939 -0.16031 -0.2635 0.23333 -0.17758 -0.35877 -0.73983 0.041877 0.45068 -0.29127 -0.61885 -0.082369 -0.16922 -0.27396 -0.34656 0.34636 -0.1195 0.42182 -0.16114 -0.076746 0.13446 -0.31111 -0.20902 -0.24902 -0.45805 0.13127 0.6119 -0.55873 -0.27603 0.19461 -0.14442 -0.19445 -0.034506 -0.065178 -0.037954 -0.16551 0.061855 -0.22911 0.11964 -0.22285 -0.2979 -0.23569 -0.06907 0.11379 -0.046737 0.073896 0.15711 0.44674 -0.41661 -0.14833 -0.63875 0.015143 0.095877 0.30849 0.091941 -0.0063268 -0.21536 -0.051963 -0.15908 0.052047 0.16498 -0.19015 0.056374 0.15166 0.15854 -0.48572 0.00075021
hatred -0.83622 -0.15552 0.038087 0.15352 -0.042136 0.051869 -0.019621 0.84534 0.052547 2.492 0.82828 -0.13158 -0.43191 -0.18926 0.058714 0.050615 -0.20442 -0.50601 -0.23639 0.72634 -0.097733 -0.34633 0.49606 0.06631 0.4641 0.1408 -0.042551 0.37218 -0.46723 0.69793 0.27798 0.36904 -0.53526 0.22039 0.50048 -0.032781 -0.066152 0.21565 0.097622 0.28121 -0.62212 -0.13673 -0.14478 0.32794 0.13827 0.0077261 -0.03798 0.85455 0.0018185 0.12821 -0.5754 0.44083 -0.49388 -0.047856 0.43466 0.10377 0.082104 0.11377 -0.012546 -0.17415 -0.16832 0.68551 -0.23088 -0.78085 -0.68319 0.085888 -0.15454 -0.46483 -0.32437 -0.20866 -0.13772 -0.25803 -0.11538 -0.28489 -0.051078 0.18641 -0.12432 -0.29458 0.47178 0.20539 -0.87556 -0.38833 -0.23553 -0.67833 0.6324 -0.155 -0.13061 -1.0323 -0.082334 -0.26125 -0.7272 -0.059638 0.56229 0.5436 -0.16308 0.16976 -0.59568 0.68411 -0.10236 -0.55028 0.40894 -0.19664 -0.13452 -0.265 0.28548 -1.7674 -0.36585 0.42745 -0.39684 -0.074791 -0.88917 -0.011121 0.25345 0.038113 -0.56198 0.13424 -0.04306 -1.0261 0.22177 -0.02244 -0.060277 -0.0045989 0.2606 -0.25697 0.31602 -0.040628 0.21344 -0.36392 -0.70431 -0.084045 -0.63164 -0.073129 0.025396 -0.087058 -0.12497 -0.27368 -0.11743 0.21001 -0.32531 -0.066104 -1.624 -0.081633 0.88253 0.12961 -0.56782 -0.016791 -0.41563 -0.25383 -0.43591 -0.6865 0.16432 0.15073 0.49331 -0.085141 -0.046517 0.1388 -0.67658 -0.38744 -0.25767 0.48998 0.0031343 0.28956 0.36616 0.44591 -0.17704 0.39541 -0.096855 -0.16834 -0.9578 -0.47435 -0.39206 0.019598 0.27753 -0.21728 0.64577 0.35561 -0.19092 -0.40239 0.38701 -0.49888 0.0081231 -0.026309 -0.13419 0.38753 -0.34145 0.16507 -0.055353 -0.50411 0.15847 0.34302 -0.028539 -0.36872 0.11841 0.12811 0.55877 0.15844 0.31053 -0.27366 0.17638 0.017819 0.079228 0.4067 -0.16184 0.23469 -0.047572 -0.099896 0.20369 0.030413 -0.1007 -0.39578 -0.29296 0.076505 0.23931 0.81148 0.31939 -0.3496 0.023818 -0.1549 -0.10038 -0.31126 -0.082723 -0.27003 0.050902 -0.41081 -0.2457 -0.19918 0.094482 -0.22864 -0.30161 -0.082274 -0.33644 0.40974 -0.30175 -0.10528 -0.31594 -0.22421 0.62242 0.070788 -0.15894 0.079779 -0.14741 0.9128 -0.11605 -0.63934 -0.0015403 0.081262 -0.33702 0.074037 -0.47377 0.26555 0.19296 0.30321 0.19091 0.081594 -0.15439 -0.091742 0.32376 -0.37876 -0.18638 0.053542 -0.3602 0.024042 0.1791 0.44605 0.072187 0.53762 -0.26177 0.15833 0.25678 -0.075607 0.68599 0.15494 -0.23885 -0.39589 0.25308 -0.56706 -0.051503 -0.32017 -0.56536 0.06244 0.74671 -0.13812 -0.088746 -0.47505 -0.17207 0.44469 0.44047 -0.15009 0.06432 -0.83745 0.16276 0.048342 0.091463 -0.19045 -0.10673 0.78578 -0.18912 0.24415 -0.45115 0.44988
poison -0.45612 0.1628 -0.16085 -0.19572 -0.43664 0.13786 -0.45626 -0.06093 -0.53654 1.4462 -0.38491 -0.4567 0.062724 -0.71308 -0.14971 0.014716 -0.33154 0.43917 -0.35476 -0.14478 0.14885 0.36183 -0.77521 -0.0066666 -0.18882 -0.62621 -0.233 0.036493 0.18304 -0.27614 -0.37068 -0.24887 -0.31207 0.071261 0.087974 0.44462 0.15575 0.15087 0.13769 0.23064 0.037036 0.20977 0.015338 -0.14517 0.40996 -0.21983 -0.080031 0.25609 0.28416 -0.54163 -0.052642 0.33008 -0.062967 -0.058608 -0.060874 0.041549 -0.55485 0.34343 -0.1281 -0.17176 -0.10856 0.12263 0.23051 -0.28191 -0.11108 0.16175 -0.48815 -0.83309 -0.25698 -0.50429 -0.44904 0.3245 -0.14305 0.30154 0.043473 -0.19489 0.039219 -0.53888 -0.14314 -0.27287 0.044862 -0.93255 -0.038641 -0.1446 -0.055818 -0.45765 0.92239 -0.22943 -0.54676 0.025708 0.25852 0.00022348 0.13337 -0.68218 -0.061702 0.020733 0.1061 -0.023286 -0.5064 0.020826 -0.042411 0.80787 0.16818 0.14832 -0.4609 -1.6385 0.015983 0.065012 -0.35023 -0.53671 -0.42261 0.59166 -0.289 0.060164 -0.57718 0.25687 -0.3853 -0.42067 -0.088096 -0.14499 -0.26397 -0.5828 0.12948 -0.67361 -0.20857 -0.20209 -0.024889 0.049513 -0.052627 0.071183 -0.62853 -0.39994 0.36429 0.36399 0.055234 -0.25878 0.091662 0.45325 -0.040599 0.081568 -1.7326 0.25765 0.60822 -0.072354 -0.37152 0.10514 0.040045 0.42042 0.3054 -0.18511 0.10103 0.42218 0.06242 0.3863 -0.20817 0.065279 -0.43944 0.23358 -0.07468 0.59407 -0.10811 -0.7469 0.24432 0.37129 0.14298 0.30162 0.14565 -0.41772 -0.78862 -0.093225 0.089852 -0.046497 0.039026 0.0091582 0.22442 0.17023 0.0053766 0.020871 0.2042 -0.27552 0.27726 -0.161 0.41247 0.45132 -0.01754 -0.2422 0.05711 -0.45218 -0.35488 0.35487 -0.37628 -0.14879 -0.14971 -0.19876 0.079601 0.33221 -0.3672 0.25697 0.58685 -0.36876 0.060734 0.1392 -0.37368 0.20377 0.26737 0.36163 0.21769 0.20074 -0.00021883 -0.55889 -0.13418 0.017683 0.39006 0.21743 -0.15915 -0.85712 0.3955 -0.096944 -0.42437 -0.38868 -0.50647 -0.021947 -0.32263 -0.54543 -0.26376 0.228 0.38618 0.61302 -0.4 0.060394 -0.39702 -0.56699 -0.21656 -0.61204 -0.45005 0.0039532 0.47419 0.25242 -0.17294 -0.023177 -0.047705 -0.098026 -0.25072 -0.48572 -0.029134 -0.21261 0.28179 0.17724 -0.6821 -0.13246 -0.7325 0.29535 -0.50577 0.18835 0.40994 0.25647 -0.044709 -0.66874 -0.0037928 0.34576 -0.45344 -0.29085 0.0903 -0.055647 0.70547 0.3299 -0.30486 0.14068 -0.073832 0.13277 0.68264 0.068902 -0.3191 0.068871 0.31932 -0.019667 -0.64657 0.10338 -0.2381 0.13616 0.14728 -0.1198 0.1309 -0.75648 0.24037 0.043677 0.66907 -0.66314 0.50233 -0.48886 -0.19514 0.023954 -0.0025052 0.1714 -0.23287 0.25437 -0.37461 -0.21736 0.12945 0.43417
sickness -0.32924 -0.0042261 0.059648 -0.20347 -0.61676 -0.42655 -0.038709 -0.21751 -0.12227 1.8381 -0.43726 -0.24883 0.11071 0.1639 -0.045808 0.1709 0.043715 0.6413 0.23681 0.37417 -0.37376 0.21671 -0.69829 -0.16784 -0.075508 -0.14462 0.4397 0.19829 0.29392 -0.084702 -0.097474 -0.24607 -0.72013 -0.17344 -0.32608 0.70018 0.0059878 0.174 0.014093 0.48404 0.41954 -0.32483 -0.48134 0.31237 -0.049905 -0.2173 -0.3321 0.36323 0.57343 0.44294 -0.32642 -0.23209 0.38181 -0.029717 0.046675 0.38225 0.30586 0.30873 -0.02798 -0.26798 0.15414 0.41415 0.44221 -0.53 -0.12766 -0.40195 0.36366 -0.24632 -0.45638 0.34457 -0.25654 0.69843 -0.34424 -0.034515 0.59426 -0.17824 0.2191 -0.076265 -0.24842 -0.24546 -0.2126 -0.02343 -0.18783 -0.22759 0.35592 -0.74776 0.59388 -0.65694 -0.20061 0.29594 0.08396 -0.068743 -0.25047 -0.16133 -0.58955 0.20965 -0.03613 -0.31623 -0.17408 0.11284 0.41238 -0.041906 0.080585 0.0034413 0.17514 -1.7173 -0.048049 0.36519 -0.31885 -0.34668 -0.83741 0.27726 -0.069141 -0.23692 -0.76591 -0.17679 -0.3496 -0.1739 0.42736 0.065848 -0.33713 0.13221 0.33834 -0.63487 0.17366 0.17967 0.085957 0.19247 0.5179 -0.06541 0.11743 -0.53315 0.21141 0.21409 0.35559 0.10963 0.027493 0.17469 -0.53457 0.080894 -0.89296 0.011798 0.35962 0.19099 0.46946 0.50413 -0.07127 0.47264 0.086205 -0.80222 -0.60306 -0.48144 0.25727 0.081615 0.052127 -0.19759 0.46852 0.21736 0.05496 -0.004812 0.28563 -0.088447 0.085878 0.12597 0.42249 0.15602 0.57188 0.10674 -0.31326 -0.35111 -0.57702 0.0085956 0.36877 -0.29138 0.17005 0.59487 -0.44878 -0.41949 -0.043932 -0.081628 -0.35078 -0.14242 0.048449 0.90213 0.34065 -0.028762 -0.07157 0.19476 -0.014651 0.24989 -0.23359 -0.39433 0.16516 -0.5064 0.2348 0.28829 -0.020794 -0.35748 0.31269 0.33451 -0.22703 -0.14327 -0.35109 0.21159 -0.19398 -0.092812 0.38084 -0.19678 -0.0094157 0.2032 -0.025099 0.061856 0.27351 -0.091212 -1.003 -0.66618 0.07251 0.017308 -0.039397 -0.15174 -0.20117 -0.27981 -0.19041 -0.27967 -0.15961 0.0084739 -0.26332 0.3363 -0.55716 -0.38978 -0.046088 -0.1618 0.32983 -0.39547 0.76334 0.14637 0.40467 -0.35676 -0.85463 -0.29094 -0.83653 0.0045745 -0.035362 -0.011643 0.19564 0.2294 0.17511 -0.16355 0.078362 -0.13515 0.22735 0.10458 0.69448 -0.057101 -0.31182 0.15815 -0.084426 -0.15761 0.060882 0.82678 -0.44908 0.00015306 -0.24161 0.13711 0.3114 -0.036061 -0.48975 0.47366 0.35797 0.040579 0.52641 -0.079862 -0.3464 0.094345 -0.22729 0.31765 -0.30447 0.49035 0.11423 0.67946 -0.061581 -0.28901 -0.037598 -0.32076 0.4465 0.11567 0.31747 -0.33676 0.56694 -0.044926 -0.0070338 0.48195 0.30271 -0.24541 0.23328 0.39959 0.04502 0.44983 0.096848 -0.30984
rotten -0.59093 -0.38897 -0.082574 -0.062857 -0.27856 0.47024 -0.089252 -0.51913 0.23768 1.2987 -0.1906 -0.18233 -0.62432 -0.039255 -0.22381 0.044089 -0.074799 0.0068887 0.55839 0.16253 0.30209 -0.28178 -0.18061 0.55103 0.022863 -0.36882 -0.5398 0.099353 0.015529 -0.14387 0.24792 0.30975 0.18475 -0.17564 -0.056152 0.38438 -0.16184 0.23695 -0.35462 0.53832 -0.03991 0.19095 -0.36981 -0.31174 0.22254 0.033384 -0.0030681 -0.39179 -0.2755 0.13815 0.24408 0.55002 0.47773 0.091649 0.21023 -0.23298 0.157 0.11074 -0.24174 0.01849 -0.10608 -0.017916 0.20584 -0.39904 0.2949 0.36043 0.022492 -0.68377 -0.19409 -0.072303 -0.076849 0.058796 0.23662 0.17999 0.3279 0.49034 -0.27329 -0.07277 0.063805 -0.14395 -0.19051 0.10266 0.44331 -0.89185 -0.11908 -0.2303 0.9645 -0.18506 -0.40075 0.25369 0.53463 0.2106 -0.066915 0.1356 0.26408 0.7024 -0.14244 0.077592 0.44875 -0.22406 0.36623 -0.27879 0.39501 -0.23869 0.032309 -1.507 0.22162 0.42674 0.44948 -0.18607 -0.014118 0.17824 -0.29292 -0.3195 -0.61061 0.15084 0.10353 -0.37213 -0.10317 -0.64371 -0.29466 0.16633 -0.52821 -0.11887 -0.53031 -0.044334 0.21914 -0.034257 -0.67786 0.0493 -0.38176 0.41297 -0.0056335 -0.079213 0.26444 0.086388 -0.37647 0.99962 0.21617 -0.22153 -2.2171 0.40975 0.063716 -0.003874 -0.14318 -0.21104 -0.066643 0.48439 0.13364 -0.046097 0.38417 0.26625 -0.035587 0.31222 0.45886 0.15202 -0.50735 0.080215 0.27841 -0.14329 -0.062726 -0.53078 0.31464 0.45238 0.1385 0.0015011 0.40324 -0.30803 -0.13332 -0.26691 -0.13578 -0.37545 0.16322 0.11924 0.11096 0.40744 -0.60003 0.14058 0.074097 -0.17952 0.024117 0.04403 -0.16191 0.73188 -0.28183 0.069762 -0.26353 -0.26891 0.092114 -0.25054 0.35973 0.030163 0.12192 -0.2093 -0.43998 0.45485 0.2561 0.35018 -0.36237 -0.29469 -0.085828 0.26611 0.11624 0.079289 0.34574 0.021755 -0.067124 0.58269 0.074914 -0.22344 0.17705 0.48299 -0.20884 -0.24993 0.10747 0.055861 0.17711 0.37726 -0.22379 -0.49496 -0.55164 -0.1283 0.33 -0.29651 -0.051665 -0.31562 -0.32499 -0.077207 -0.12139 -0.14013 -0.22096 0.019979 -0.31143 0.051877 0.062152 0.15183 0.10494 -0.42299 -0.11279 -0.07483 -0.4395 -0.22644 -0.34582 0.036983 -0.34311 0.029541 0.36253 -0.62627 -0.073246 0.73109 -0.23779 0.11628 0.68458 -0.64402 -0.0024066 0.0552 0.087473 -0.48237 0.13591 0.19551 -0.33699 -0.41164 0.043111 -0.093568 0.58222 -0.16541 -0.34888 -0.42177 0.039929 0.15114 -0.0072754 -0.036916 0.19747 -0.046361 -0.72254 -0.065411 0.043731 0.48568 0.015509 -0.17567 -0.017451 -0.1807 0.072057 -0.084542 0.28156 0.63891 0.18512 -0.40346 0.2396 0.071909 -0.46786 -0.031882 -0.41323 -0.20054 -0.1715 0.54605 -0.12748 -0.61117 -0.14519 -0.3512
stink -0.52304 -0.21937 -0.086297 -0.48481 -0.031842 0.34966 0.14388 -0.8404 0.29578 1.0957 0.13525 -0.67926 0.1359 -0.26797 -0.25146 0.15113 0.42206 -0.14571 -0.25735 0.17863 0.25383 0.56703 0.1286 0.18064 0.064131 -0.30209 -0.63856 0.021425 -0.15425 -0.24332 -0.069979 0.12535 -0.41297 -0.4126 -0.056635 0.30387 0.086246 -0.00264 0.11296 0.47674 -0.2132 -0.029485 -0.50036 0.072525 0.21234 -0.19646 0.33075 0.12912 0.044508 0.29198 0.21454 0.11378 0.29063 0.24054 0.33032 0.18606 0.057615 -0.26369 -0.3813 -0.044029 -0.075351 -0.077 -0.4228 -0.45133 -0.1852 0.15346 -0.03452 -0.39912 0.11421 0.25654 -0.049052 0.30568 0.2595 0.010118 0.13277 -0.033207 -0.36087 -0.18988 0.1696 0.065504 -0.41923 -0.1652 0.34428 -0.50461 -0.21209 -0.19814 0.99121 0.19178 0.15138 0.42453 0.19752 0.016805 0.29359 -0.075996 0.25912 -0.15753 -0.20323 -0.33449 0.1288 0.14791 0.23939 0.069877 0.3447 0.37869 0.51338 -1.2126 0.02 0.1099 -0.26551 -0.53733 -0.1499 -0.19193 -0.45647 -0.21963 -0.42479 0.064383 -0.15631 -0.24796 -0.21595 -0.55911 -0.037972 -0.54801 -0.099527 -0.54534 -0.19673 -0.35869 0.019949 0.1682 -0.4529 -0.27399 -0.31098 -0.48156 0.11389 0.12927 -0.094215 0.14189 0.042064 0.86054 -0.15223 0.3137 -2.0829 0.46837 0.58812 -0.19612 0.030882 0.041367 -0.091459 0.48092 0.18601 0.16611 0.28588 0.3605 0.059006 0.060561 0.21593 0.050228 -0.29602 -0.31085 0.19066 -0.11208 0.12241 -0.47323 -0.12532 0.090217 -0.27142 0.084219 0.26324 -0.18627 -0.21822 0.076689 -0.28221 0.022679 0.42091 -0.1039 0.54767 0.66481 -0.24279 0.52571 -0.010908 -0.48285 0.02837 -0.030703 -0.23239 0.22273 -0.014737 -0.20882 0.049546 -0.63017 0.55349 0.48883 0.73517 0.52116 -0.27381 -0.033662 0.45779 0.16799 0.37647 0.63636 0.11134 -0.013037 0.14853 0.21992 -0.10989 -0.20552 0.25593 -0.51573 0.048177 0.36152 0.066235 0.071603 -0.65264 -0.0059446 0.088029 0.27065 -0.43496 -0.20848 0.15858 -0.086606 -0.283 -0.52739 0.11482 -0.22994 0.002192 -0.53575 0.019029 0.081516 -0.43024 -0.027284 0.075021 0.10177 0.19974 -0.21334 -0.38904 -0.10625 0.036031 0.41163 0.48542 -0.10361 0.18442 -0.096758 -0.27851 -0.47041 0.33947 -0.31597 -0.71826 0.0099722 -0.19478 -0.48623 0.20346 0.807 -0.48626 -0.52384 0.048901 -0.34316 -0.063727 -0.31122 0.13477 -0.30084 0.14526 -0.017367 -0.29539 -0.35574 0.096124 -0.42041 0.6911 0.26877 -0.22275 -0.41157 -0.20031 0.42951 0.12811 -0.31987 0.29359 -0.0013666 -0.37071 -0.41236 -0.22256 0.071982 -0.064661 0.38433 0.042048 0.074754 -0.41545 -0.35107 -0.57794 0.20537 0.42315 -0.081141 0.16624 0.059748 0.05697 0.12992 -0.058806 -0.5704 -0.41904 0.28528 -0.082396 -0.23954 0.25274 -0.13562
vomit -0.28326 -0.60632 -0.28486 -0.25495 0.033361 0.10611 -0.58719 -0.1438 -0.088866 0.81533 0.18107 -0.10874 -0.36871 -0.070752 -0.011688 0.17449 0.12586 0.18517 0.13108 0.28287 0.22696 0.28743 -0.41597 -0.35294 0.23062 0.25114 0.24668 -0.27826 0.22351 -0.41102 0.13433 -0.53995 -0.49753 0.14169 -0.28164 -0.21802 0.0082105 0.50896 -0.54427 0.78621 0.40462 -0.34746 -0.47477 0.30341 -0.17118 -0.032367 -0.34377 0.46787 0.39287 0.1466 0.14536 -0.020456 0.49786 0.3427 0.23561 0.40442 -0.29684 -0.40459 -0.28715 0.036455 -0.040845 0.11023 -0.010217 -0.33568 -0.41713 0.024184 0.44805 -1.2387 -0.17591 0.57092 0.29751 -0.11036 -0.059446 -0.42969 -0.030598 0.031323 -0.53349 -0.24622 0.17051 0.17617 0.27486 -0.19297 0.003059 -0.63996 -0.16242 -0.32692 1.4693 -0.12916 -0.075215 0.4806 -0.093155 0.24137 0.62304 -0.24595 -0.38883 -0.11979 -0.35852 -0.2812 0.03137 -0.46744 0.10918 -0.023582 0.2721 0.38164 0.12954 -1.2581 0.18737 0.1732 0.10646 0.10075 -0.59929 -0.11913 0.14215 -0.28626 -0.45586 0.0019601 -0.5363 -0.41613 -0.0077187 0.025093 -0.50381 -0.14695 -0.38779 -0.3746 -0.36328 -0.083557 0.11724 0.49139 -0.055947 -0.3945 -0.19701 -0.38014 0.52888 0.52859 0.33895 -0.12572 -0.047882 0.96845 -0.29613 0.42565 -2.2685 0.57978 0.037847 0.47224 0.44585 -0.21483 -0.28056 -0.016685 0.083506 -0.32019 0.54602 0.61364 0.20611 0.10422 0.073779 -0.35007 0.18676 -0.38145 0.25349 -0.41008 -0.076692 -0.39069 -0.27374 0.25151 0.17353 0.29665 -0.16488 0.27315 -0.37428 0.27084 -0.85498 -0.4316 0.26447 -0.21813 -0.10464 0.5945 -0.23419 0.37519 -0.10285 -0.39401 0.033077 -0.7095 -0.095863 0.18011 0.62117 0.09959 -0.052031 0.52563 0.01536 0.21662 -0.28497 -0.75872 -0.090967 -0.12425 0.4762 0.51785 0.10576 0.41273 0.29439 -0.8313 0.0027612 0.22852 0.15569 -0.47661 0.40726 0.38153 0.30077 -0.10752 0.25288 0.26502 0.062553 0.50691 0.2301 0.22043 -0.2734 -0.48838 -0.051902 -0.1163 -0.0050917 -0.39461 0.069002 -0.098098 -0.07753 -0.7339 -0.2 -0.1117 -0.38692 -0.20832 -0.48665 0.10299 -0.2339 0.23507 0.0073899 -0.1351 -0.1096 0.42865 -0.033754 -0.4149 0.15429 -0.60857 -0.45344 -0.30551 0.27052 -0.49553 0.28642 -0.31555 0.031494 -0.83932 -0.16779 0.42345 -0.19536 -0.019361 0.33861 0.35078 0.071195 -0.10995 0.064744 -0.043534 -0.16174 0.81398 -0.55805 -0.048475 0.035733 -0.16006 0.86203 0.55097 -0.22621 -0.025165 -0.18467 0.15378 0.30369 0.24759 0.3339 0.12927 0.17163 -0.31725 -0.061864 -0.33096 0.14953 0.35081 0.31894 -0.24112 0.039997 -1.0434 -0.00082979 0.41073 0.60628 -0.50607 0.82713 0.49433 0.21892 -0.21396 -0.025639 -0.12352 0.10528 0.24214 -0.28381 0.053721 0.25074 0.23988
filth -0.11842 -0.10553 0.15191 -0.04099 0.3867 0.0658 0.01439 -0.53574 -0.72372 0.89557 0.075694 -0.35899 -0.24485 0.025187 -0.18364 0.12127 -0.30391 -0.14004 0.24605 0.56655 -0.27894 0.26322 0.27803 0.37766 0.2008 -0.20818 -0.11502 0.44868 0.12394 0.44019 0.49869 -0.011694 -0.85006 -0.087919 -0.060455 0.20833 -0.43151 0.20795 0.13134 0.47272 0.19777 0.21654 -0.58858 -0.051437 -0.039901 0.034738 0.71568 0.51532 0.22813 0.13002 -0.24255 0.20567 0.10749 0.17356 0.77901 0.50309 0.14115 -0.44658 -0.041465 0.0062148 -0.16114 0.39275 -0.35279 -0.45401 -0.15747 0.28245 -0.077526 -0.93474 -0.074853 -0.25771 -0.29215 0.074484 -0.090913 -0.84048 -0.089238 -0.081995 -0.47059 -0.053223 0.86368 0.092498 -0.18 -0.11875 -0.46119 -0.98937 0.2458 -0.36518 0.8184 -0.34893 -0.7017 0.34417 -0.065223 0.36197 0.5539 -0.22922 0.11408 0.33511 -0.60452 0.57763 -0.49357 0.059388 0.76818 0.0088419 0.29817 0.29241 0.069396 -1.5164 -0.40263 0.35104 -0.32923 -0.88005 -0.32459 0.14759 0.79522 0.10582 0.090212 0.3618 -0.16369 -0.53821 0.27526 -0.90362 -0.93154 0.024926 -0.30907 -0.5287 0.29853 -0.23065 0.20111 -0.28202 0.077234 -0.43406 0.076906 -0.40498 0.52708 0.27323 0.19911 0.47698 0.11057 0.98244 0.0078541 0.25775 -2.0203 0.33765 0.20745 -0.20792 0.1309 -0.69159 0.20729 0.21394 -0.5243 -0.22797 0.44566 -0.63378 0.36242 -0.58351 0.52884 0.22562 -0.37516 -0.091756 -0.041097 0.13881 0.0052086 0.024178 0.24094 0.66548 0.15303 -0.10254 0.17779 -0.21738 -0.8266 -0.083984 -0.29295 -0.54256 0.59983 -0.18448 0.082576 0.9128 -0.71742 0.60344 -0.25733 -0.012148 0.032078 -0.17258 -0.087343 0.23742 0.23286 -0.1877 -0.35178 -0.082135 0.31205 -0.14207 -0.00057879 -0.28819 0.67739 -0.084735 -0.62733 0.36411 -0.16021 0.54572 -0.091717 -0.75732 -0.071477 0.010334 0.33559 -0.19595 0.22706 -0.15776 0.17725 0.02785 -0.1897 -0.46925 -0.28444 0.21392 0.035869 -0.21188 -0.076756 -0.35524 0.085796 -0.24344 -0.31289 0.39526 -0.30543 -0.45956 -0.3367 -0.12477 -0.42379 -0.49153 -0.15086 0.030071 -0.4089 0.079992 0.13581 -0.03323 -0.37225 0.081593 0.23054 0.44159 0.32046 -0.4108 0.29162 -0.50857 0.18 0.3617 0.0083965 -0.62197 -0.23997 0.23226 -0.49829 -0.2143 -0.29656 0.28782 -0.57586 -0.15255 0.99196 -0.28131 -0.012267 -0.040271 0.058374 -0.2107 -0.096265 0.32279 0.045309 0.43811 0.22113 -0.28619 0.76547 0.45378 0.12255 -0.088805 0.39842 0.21303 -0.36661 -0.17039 0.061691 0.34894 -0.059702 -0.28272 0.22823 0.074982 -0.39056 -0.2179 0.4822 -0.054343 0.52206 -0.48302 -0.099377 0.1226 0.42114 -0.30361 0.032832 -0.1245 -0.13947 -0.29917 -0.088159 0.048593 -0.09922 0.034715 -0.20542 0.12229 -0.71524 -0.2109
pollute -0.41487 -0.23876 -0.294 0.21101 -0.16456 0.61217 -0.1668 -0.28457 -0.90375 0.73632 -0.097245 -0.31449 -0.10324 0.095899 -0.50379 -0.093654 -0.27944 -0.15916 -0.071429 0.069743 0.22207 0.45759 -0.11865 0.46623 -0.016159 -0.12756 0.37115 0.14744 0.26655 0.26949 -0.22241 -0.02081 -0.79759 -0.32335 0.073813 -0.53434 0.15051 -0.14424 0.22147 0.8009 -0.21517 -0.083357 0.29621 0.13628 -0.22717 -1.0148 0.16785 -0.4884 0.35654 -0.073977 0.34149 0.4055 0.48734 0.090914 0.61328 -0.38074 0.18729 -0.025971 0.28515 0.029776 -0.16759 0.011927 -0.13114 0.067433 0.47583 0.31517 -0.22139 -0.59584 0.51715 -0.74216 -0.35572 -0.027626 0.42702 -0.18313 0.093802 0.16047 -0.34567 0.47316 0.91926 -0.033024 0.082896 -0.64698 -0.52508 -0.013483 -0.062321 -0.11923 0.65623 0.0046149 -0.10426 -0.21244 -0.63586 -0.3249 0.20324 0.30595 -0.1013 0.74306 -0.13708 0.52428 -0.076616 -0.08602 0.029602 0.08214 0.10073 0.75378 0.31457 -2.2542 0.4947 0.19792 -0.31294 0.098698 0.11084 -0.26103 0.11487 0.16977 -0.35588 -0.12919 0.34872 -0.35714 -0.42428 -0.40228 -0.43802 -0.19588 -0.29113 -0.54753 -0.012102 -0.64933 -0.16704 -0.20256 0.26396 -0.18603 -0.080613 0.15223 -0.17867 -0.35503 -0.50223 -0.12338 -0.32598 0.11525 0.20743 0.20339 -0.47768 0.45878 0.22693 -0.041159 0.43139 0.013574 -0.21961 0.27349 0.025367 0.013935 0.22116 0.86219 0.44472 0.43376 0.32542 0.11696 -0.41765 0.13247 -0.22672 0.37434 0.098036 0.14205 -0.029944 0.75404 0.02209 0.17233 0.63026 -0.0010882 0.26223 0.34079 0.010031 -0.19365 0.46686 -0.24361 0.35269 0.56078 0.037262 0.40588 0.47903 0.13539 0.057564 -0.074183 -0.057969 0.025772 0.35357 0.0031264 0.45258 -0.10364 0.33944 0.34164 0.45569 -0.21122 -0.27048 0.0064576 0.062318 -0.0077753 -0.32062 0.55782 0.46464 -0.40954 -0.25788 0.98645 -0.081019 -0.097237 0.13051 -0.23453 -0.017356 0.368 0.4463 -0.71579 -0.48344 -0.39097 0.16569 -0.075547 -0.28879 -0.27258 0.82119 0.17251 0.11418 0.096975 0.10898 0.29373 -0.049256 -0.56588 0.25597 -0.55154 0.52877 -0.055872 -1.0085 0.1041 0.26822 -0.35041 -0.32993 -0.11259 0.049846 0.69191 0.80219 -0.069922 -0.45235 -0.73654 0.35087 -0.13452 0.59439 -0.15518 -0.0091877 0.014421 -0.64917 -0.26341 -0.46196 0.33826 -0.37719 -0.13596 -0.12787 -0.18411 0.59695 0.46489 0.006097 0.188 -0.3813 0.28681 -0.13636 0.13321 0.32503 0.15063 0.77727 -0.24397 -0.15581 -0.30921 -0.14074 0.11668 0.31271 -0.51777 0.93271 0.39869 0.37517 -0.59296 -0.42901 0.53386 -0.31174 -0.21312 -0.17114 -0.65196 0.17477 -0.58564 -0.17619 0.39226 0.26232 -0.78232 0.2064 -0.20737 -0.46714 -0.46874 -0.071244 -0.08936 -0.10546 0.064124 -0.50123 -0.029784 -0.32711 0.18226
