Kenya 0.1126 -0.27674 0.41482 0.0010554 0.051478 0.19601 -0.39141 0.16158 -0.077547 2.137 -0.94164 -0.038049 -0.14891 0.37477 0.011099 0.36257 -0.12313 -0.29988 0.49212 -0.057818 -0.31386 0.41852 0.0060149 -0.18109 0.59347 -0.21363 0.36671 -0.11582 -0.15822 -0.25479 0.43536 -0.18615 0.26041 -0.40693 -0.025317 -0.035517 -0.11361 0.20258 0.43239 -0.45894 -0.53073 -0.64397 0.23922 -0.1829 -0.50728 -0.93174 -0.23789 0.60719 0.24987 -0.33059 0.080829 0.17991 -0.44726 -0.16406 0.82141 -0.24027 -0.00759 -0.047324 0.16971 -0.032833 -0.48138 0.38776 -0.16305 -0.2415 -0.70383 -0.76887 -0.45222 0.37021 0.24771 0.030902 0.11385 0.5851 0.083282 0.53255 -0.0052987 0.45738 -0.24782 -0.14994 -0.027087 -0.32999 0.35804 0.65888 -0.072702 0.80545 -0.45583 0.016909 -0.88931 0.17136 0.71105 0.048482 0.062934 0.6483 -0.23245 -0.19927 -0.10154 0.27894 0.055235 0.55985 -0.55827 0.15628 0.34159 0.25017 -0.00022234 -0.7853 -0.24068 0.12353 -0.52659 -0.058076 0.52853 0.26727 -0.073419 -0.12747 -0.71902 -0.034133 -0.50386 -0.71868 0.83028 0.63682 -0.37024 0.34383 -0.41105 0.31636 0.48924 -1.3132 0.17785 -0.13067 0.14761 -0.031919 -0.3594 0.10265 -0.072902 0.056273 -0.025532 0.17797 -0.28953 -0.087539 0.19009 -0.0068154 -0.20285 0.16222 0.42112 0.50285 0.17587 -0.34404 -0.051895 0.15199 0.07815 0.84767 -0.085463 -0.57011 -0.48694 0.4185 0.20412 -0.018155 -0.044315 0.56715 -0.066462 0.33216 0.63001 0.17769 0.18558 0.65092 0.092776 0.19601 -0.43017 0.37181 -0.16411 -0.62791 -0.19537 0.34639 -0.39004 0.48781 0.29589 -0.38736 0.12454 0.38629 -0.20444 0.049156 0.41859 0.099126 0.26875 -0.071202 -0.007085 -0.72898 0.97092 0.23297 0.57596 0.21028 0.024409 -0.18622 0.35542 -0.45685 0.10045 0.31338 -0.74969 -0.3807 -0.52756 0.22432 -0.075291 -0.77995 -0.042479 0.24145 0.13399 0.71584 0.17153 -0.3771 -0.014519 -0.18568 -0.069639 0.255 0.56189 0.23375 0.34204 0.392 0.17762 -0.14128 -0.35597 0.175 -0.46384 -0.26449 -0.66847 0.25763 0.26562 0.19429 -0.44096 1.083 0.07823 0.15712 -0.17431 0.77524 0.071876 0.070721 -0.42357 -0.22371 0.12137 -0.49915 -0.26962 -0.019311 -0.066779 -0.046424 -0.74691 0.11416 -0.033574 -0.48839 -0.024834 -0.37495 0.2998 0.23994 -0.16427 -0.041098 -0.047312 -0.018655 0.033353 -0.23174 -0.18637 0.51978 0.38137 0.10517 -0.66267 -0.093286 0.33948 -0.14733 -0.24004 0.74048 0.21838 -0.61325 0.10119 0.24436 0.14392 0.32851 0.10489 0.26393 -0.21395 0.16212 0.022974 0.48138 -0.057287 0.65365 0.20922 0.46746 0.20677 -0.098298 0.27422 0.024661 -0.0097201 -0.70313 -0.29089 0.042353 -0.65067 0.067683 -0.026274 0.3459 0.059085 -0.85663 0.11541 0.5641 0.1997 0.34587 -0.54029 -0.22193
Ebony -0.65726 0.029758 -0.5527 0.40856 -0.26056 -0.047478 -0.0072421 0.52708 -0.60943 -0.37499 0.26752 0.33787 0.71108 -0.30424 -0.60038 0.19153 0.6175 -0.20275 -0.095067 0.68321 -0.050592 -0.16032 -0.32663 0.00054388 0.20776 -0.063894 0.22864 0.16518 0.17225 -0.12835 -0.30747 0.5182 0.20275 0.53915 0.71398 -0.50806 -0.57348 -0.19854 0.033642 -0.48594 0.008327 -0.12076 0.26463 -0.082544 -0.1673 -0.27302 -0.18159 0.015474 -0.35241 -0.27668 -0.65041 0.070205 -1.1478 0.17912 -0.23944 0.45993 -0.57515 -0.26905 0.032882 -0.88329 -0.005084 -0.26832 -0.14699 -0.45206 -0.39012 0.11871 0.75429 0.29063 -0.075905 0.80086 0.42311 -0.50979 0.58699 -0.066652 0.035191 0.083231 -0.22702 -0.52588 -0.63633 -0.35346 -0.0054699 -0.12759 -0.40064 0.28567 -0.00085605 -0.0037667 0.69291 1.3612 -0.41481 0.12722 0.12981 0.80728 -0.16263 -0.35203 0.2416 0.10133 0.26065 0.33543 -0.13116 0.29683 0.33591 -0.10343 0.29796 0.54417 -0.15556 2.0406 -0.33713 0.69362 -0.1088 -0.024297 -0.6941 -0.043186 -0.17681 -0.36938 -0.21254 -0.64039 -0.19837 0.18536 0.12649 -0.11657 0.016626 0.36173 -0.09118 0.32061 -0.099323 0.70142 0.10969 -0.44623 -0.14544 -0.45739 0.69876 -0.11226 0.16237 0.16813 -0.32158 0.29028 -0.18059 -0.81208 0.27642 0.46659 -1.3181 0.16196 0.473 -0.41552 -0.32109 -0.42034 0.12511 -0.49232 -0.30266 -0.086361 -0.32754 0.51913 -0.258 -0.51656 0.29319 0.721 0.25989 0.065123 0.54544 0.42534 -0.31675 0.32094 -0.44194 0.28642 -0.40113 -0.31271 0.4082 -0.090644 0.3005 -0.19864 -0.43968 0.020618 0.020114 0.76357 -0.14962 0.62862 -0.51611 -0.092181 0.24908 0.22934 -0.19368 0.66939 -0.63942 0.055077 0.61696 0.48973 -0.46006 -0.034926 0.31555 0.1235 -0.39523 -0.20138 0.035968 0.53967 -0.15809 -0.62916 -0.16362 0.33203 -0.37841 -0.1715 -0.084597 0.18788 -0.02381 -0.17909 -0.17344 -0.32312 -0.20109 -0.14109 0.46838 -0.38816 -0.075953 0.34421 -0.2947 0.23636 0.23474 0.13795 -0.5721 -0.59022 0.87766 -0.31496 -0.58064 -0.67163 -0.43462 0.33959 0.51533 0.30162 0.11523 0.063605 0.55563 0.87802 0.12613 -0.5668 0.0041413 0.028929 0.4461 0.19487 -0.41217 -0.13661 0.43955 -0.10614 0.35174 -0.11305 0.39177 -0.13216 0.20723 -0.7097 -0.44657 0.010889 -0.79023 0.48321 0.074065 0.093723 0.27083 0.13527 -0.318 0.51326 0.10568 -0.49403 -0.17368 -0.16734 0.30671 -0.05104 -0.17642 0.36844 -0.29646 0.26876 -0.25621 -0.38624 -0.87634 0.60588 -0.25455 -0.63859 -0.095358 -0.4417 -0.10072 -0.49919 0.45899 0.23046 0.11674 0.029794 -0.099968 0.9024 0.82198 -0.45801 -0.080302 -0.33155 0.38999 -0.16376 -0.0078383 0.44637 0.12421 -0.0087446 -0.17384 -0.31617 -0.11764 0.1042 -0.58606 -0.022738 -0.17931 -0.19217
Leroy -0.39615 -0.042837 -0.16769 -0.36721 0.076202 0.14836 0.3208 -0.26686 0.26094 1.2664 0.61368 0.2022 0.28294 0.2594 -0.56495 -0.31196 -0.14144 -0.61561 0.11781 -0.60251 0.17641 -0.1569 -0.05173 0.16715 0.41528 0.091229 0.02177 -0.18578 0.24702 -0.06855 0.1637 0.19208 0.19733 -0.40228 -0.25893 -0.52078 -0.14621 0.26416 -0.13334 -0.44326 -0.27646 0.04741 -0.090022 0.09615 -0.10744 -0.28852 0.56866 -0.14426 0.051679 0.1242 0.07517 0.21701 -0.32412 0.26442 0.30174 0.067607 0.11567 -0.052975 0.03709 -0.27432 0.53805 0.15016 0.2453 -0.14433 0.22827 -0.11356 0.0086725 0.19222 0.013867 -0.024489 0.089549 0.091487 -0.14717 0.10861 -0.53763 -0.032942 -0.084729 -0.40987 0.14291 -0.71062 -0.096261 0.16372 0.047935 -0.011974 -0.084498 -0.37254 0.18661 -0.43321 0.19428 -0.034153 0.12037 0.30564 -0.030742 0.21742 0.092324 -0.87861 0.11722 0.13681 -0.088666 -0.16586 -0.30159 0.24693 0.14819 -0.31639 -0.42808 1.6344 0.23123 -0.018499 0.1375 0.21567 -0.27849 0.040086 -0.36687 -0.10046 0.02151 0.28721 0.38063 0.20024 0.34008 0.22542 0.059727 0.0077338 0.031611 -0.015669 0.040409 -0.1011 -0.0049531 -0.18135 0.16374 0.24483 -0.023061 0.34076 0.12006 0.0077896 0.20167 0.042925 -0.20702 -0.079396 0.043104 0.55677 -0.31052 0.33878 -0.70804 -0.36593 0.34648 0.22276 -0.069556 0.21285 0.36156 -0.21888 0.044274 0.27161 -0.24376 -0.60335 0.10245 0.03491 -0.0049424 -0.36405 0.20776 -0.099053 0.21802 0.054765 -0.1274 -0.084038 0.15311 -0.20437 0.13047 0.37776 0.20727 -0.03374 0.11771 -0.087833 0.22464 -0.11815 -0.060525 -0.22663 -0.53226 -0.2647 0.1541 0.54274 0.41645 -0.085486 0.0088875 -0.050488 -0.3871 0.0018625 0.22881 -0.28376 -0.37526 -0.61801 -0.3225 -0.077437 0.16345 0.077898 0.41545 0.53924 0.3059 -0.31775 -0.008064 -0.21104 0.089169 0.15459 -0.23784 0.17539 -0.84044 -0.10116 0.20397 -0.34396 0.07209 0.12396 0.20083 0.31242 0.15498 -0.045047 -0.17596 0.18677 -0.23675 -0.23758 0.11443 0.12278 0.26251 0.24306 0.3199 0.1708 0.23745 -0.21306 0.16086 -0.10281 0.11072 -0.11673 0.10402 0.027496 -0.094016 -0.22524 -0.03365 -0.055783 -0.056895 0.26816 0.066074 0.051714 0.29832 -0.075557 -0.020625 0.19912 -0.6036 0.44836 -0.30369 0.010723 0.026792 0.10978 0.23158 -0.21059 -0.10399 0.051013 -0.17028 -0.56376 0.048635 -0.25038 0.0604 0.0082199 -0.1542 -0.47373 0.064198 0.048492 -0.27415 0.15534 0.21934 -0.081947 -0.4239 0.10581 0.22158 0.1028 0.84226 -0.12316 0.14994 -0.32574 -0.063056 0.064609 -0.38345 -0.15273 -0.66594 -0.066556 -0.1682 -0.36889 0.13005 0.12355 0.21727 -0.43858 -0.15303 -0.10381 0.39493 -0.28995 -0.098463 0.49347 0.28404 0.14754 0.24985 0.36443 -0.017836 -0.18478
Tyrone 0.21657 0.18803 0.052061 0.82176 0.3716 -0.28609 0.25427 -0.20628 -0.22394 1.5834 -0.0051905 0.19467 0.036427 0.059827 -0.56945 -0.20631 0.39685 -0.88955 0.20897 -0.14487 -0.25578 -0.38836 0.070365 0.29862 -0.25609 -0.25472 -0.29216 0.18165 0.060508 -0.17953 0.2311 0.15337 -0.16419 -0.047989 -0.11846 -0.54679 0.046659 0.18453 -0.1974 -0.25987 -0.10034 0.14982 -0.017605 -0.50218 -0.078968 -0.18158 0.22213 0.043667 -0.033358 -0.033404 0.54367 -0.010855 -0.046136 -0.092806 0.43876 0.31401 0.3903 -0.5108 -0.055681 0.22334 0.29347 0.02469 0.50074 -0.55689 0.42813 0.49243 -0.14067 0.39473 -0.22936 0.050846 -0.14179 0.47488 0.2858 -0.026816 -0.53637 -0.046481 -0.15214 0.25259 0.35401 -0.64 -0.44214 0.062998 0.054768 -0.45228 -0.088285 -0.039894 0.45501 -0.32934 -0.44777 -0.23413 0.21376 -0.0064937 0.15544 0.46515 0.31735 -0.18984 0.48175 0.26348 -0.23522 -0.27943 -0.76352 -0.43625 0.20807 0.18849 0.25823 1.4469 0.15922 -0.4014 0.20358 -0.028037 -0.32757 -0.12377 -0.75069 -0.0071035 -0.1782 -0.32652 0.14386 0.095495 0.22969 -0.027265 -0.14277 -0.059639 -0.097732 -0.58258 0.24777 -0.05158 -0.29952 -0.17055 -0.086191 0.014317 0.10037 0.030742 0.39448 -0.34698 0.68686 -0.049809 0.43085 0.54098 0.45319 -0.30229 -0.11773 0.38188 -0.35249 -0.094536 -0.034686 -0.15737 0.16663 -0.1253 0.64691 -0.26644 -0.40482 0.27767 0.10287 0.21172 -0.32526 0.51606 0.63683 -0.3495 0.23952 -0.25909 0.39686 0.17024 -0.4083 0.05753 -0.018757 -0.074481 -0.026453 -0.041045 -0.12119 0.07572 -0.4892 0.10682 -0.63322 0.31802 -0.036322 0.29784 -0.26364 0.22149 -0.34324 0.12836 0.016294 0.24114 0.18501 -0.10151 -0.26286 0.02366 0.22003 0.040559 -0.35803 0.16594 0.0047798 0.4682 0.28596 0.21214 0.1048 0.0076007 -0.21361 -0.61954 0.44622 -0.20088 0.54051 0.55397 -0.51911 0.077859 -0.31542 -0.34142 -0.46593 -0.11752 0.0056431 0.17694 0.27563 -0.16207 0.15999 0.16305 -0.078636 -0.1719 0.26653 -0.078352 0.39322 -0.094074 0.37402 -0.061136 -0.14568 0.52768 0.19867 0.032884 -0.30141 -0.19211 0.20743 0.19568 -0.29592 0.24975 -0.39463 0.11463 0.30563 0.14281 0.012301 0.42588 0.26363 0.16403 0.35659 0.22928 -0.23608 -0.26262 -0.5234 0.13641 0.1797 -0.11477 0.27798 0.46951 0.33014 0.14395 0.11913 0.12367 0.027567 -0.23598 -0.1553 0.23842 -0.29231 0.35446 -0.21039 -0.25636 0.18599 -0.20705 -0.046824 -0.060894 -0.2723 0.3364 0.12568 -0.2648 -0.10085 0.010892 -0.02776 0.47634 -0.031785 0.073631 -0.31597 0.13388 0.21956 -0.36444 -0.47857 0.71065 -0.91702 0.5198 0.57193 0.37044 -0.010533 -0.71955 0.24448 -0.49441 -0.112 -0.00097424 0.13387 0.030839 -0.39496 0.021265 -0.77537 0.36364 0.13667 0.10323
Jamal -0.24513 -0.20326 -0.019038 0.72893 0.76514 -0.096885 -0.15837 -0.032 0.38898 1.512 0.733 0.26701 -0.15998 0.38996 -0.72202 0.24067 0.44434 -1.2779 -0.44144 -0.080497 -0.62233 -0.47858 -0.13615 0.51935 0.2417 -0.23229 0.15878 0.13638 0.30492 -0.21063 -0.44623 -0.31958 -0.47459 -0.43544 0.029516 -0.43656 0.14463 0.34709 0.14464 -0.58613 -0.36133 -0.084798 -0.2458 -0.30961 -0.07916 -0.25854 0.052535 0.24163 -0.48427 0.69519 0.1842 0.0038577 -0.31784 -0.56265 0.13032 -0.49093 -0.058436 -0.50497 0.20392 0.18264 -0.15081 -0.19248 -0.35761 -0.39307 -0.29407 -0.77258 -0.28888 0.013851 0.43046 0.3965 -0.33694 -0.11516 0.13413 -0.22376 -0.31978 0.10764 -0.19624 -0.18785 0.023739 -0.62584 0.64525 0.37313 0.027625 -0.147 0.3254 0.31272 0.055134 -0.73512 -0.22949 -0.50522 0.40449 0.060591 -0.092418 -0.27618 0.15993 -0.40875 0.093417 0.21226 -0.29256 0.29931 0.080536 0.083066 0.09055 -0.28977 0.14583 0.75718 -0.24429 -0.12334 0.44477 0.55769 -0.20454 0.22246 -0.2857 0.24908 -0.77306 0.1719 -0.099934 0.039966 -0.032882 -0.23656 0.081981 0.19112 0.060405 -0.067664 0.62677 0.49015 -0.45787 0.062758 -0.16171 0.22159 0.42616 0.31477 0.65776 7.0959e-05 0.030462 0.44703 0.2363 0.14783 0.49722 -0.36645 -0.41579 0.56498 0.41463 -0.46309 0.047523 -0.16289 0.70237 -0.46618 0.25817 -0.11547 0.11236 0.01223 -0.0081812 -0.58185 -0.27934 0.39119 0.38856 0.25447 -0.19073 -0.15555 0.19087 0.42659 -0.26415 0.028834 -0.27848 -0.088618 0.33136 0.12723 0.28306 0.19931 -0.13305 -0.27987 0.14138 0.1129 -0.015085 -0.11202 0.21767 0.10001 -0.17312 -0.6575 -0.11349 0.25811 0.075539 -0.085861 -0.028838 0.52447 -0.0029157 0.13964 0.11711 0.072342 -0.0066931 0.087727 0.16661 0.57533 -0.083633 0.29003 0.31288 -0.024738 -0.11216 -0.024014 0.097568 -0.3409 -0.30824 -0.45321 -0.41294 -0.08148 0.027322 0.26355 -0.044731 0.37301 0.064582 0.16491 -0.040289 0.17651 0.33007 -0.11478 0.26259 -0.37223 0.069274 0.15386 0.023729 0.44395 -0.012144 0.95018 -0.23425 0.52771 0.48432 0.42046 0.21218 0.12372 0.086808 -0.12924 -0.20357 0.29335 0.040101 -0.31091 -0.079705 0.70801 0.58452 0.1216 -0.034762 0.69751 -0.062146 0.10258 -0.41466 0.12378 0.51143 0.026003 -0.41134 0.33125 -0.68712 0.25932 -0.64863 -0.36971 -0.079915 -0.60335 0.044081 -0.37096 -0.67606 -0.57033 -0.47497 -0.83619 0.48851 0.014502 -0.41982 -0.11812 -0.36729 -0.024275 -0.03758 0.061833 0.3899 0.2989 0.13177 -0.22694 0.027222 -0.17791 0.45778 -0.20904 0.21482 -0.10552 -0.22014 -0.016633 -0.41004 0.35117 -0.14975 0.45581 -0.20641 -0.20478 -0.11151 -0.18491 0.56239 -0.16499 -0.76428 -0.24156 0.58689 -0.35561 -0.21346 0.56536 0.10078 0.048646
Jermaine -0.38729 0.15385 0.024994 0.49704 0.44676 -0.30437 0.226 0.31793 -0.56033 0.95925 0.44897 -0.061777 0.21778 0.15866 -0.70804 0.066507 0.66619 -1.5875 -0.0042002 0.1316 -0.5346 -0.01703 -0.040138 0.48735 0.27864 -0.76476 0.36866 -0.098617 -0.058637 -0.44571 -0.54516 -0.042473 0.24296 -0.3356 -0.070545 -0.14311 -0.004189 0.34064 0.59642 -0.42239 -0.14949 0.22819 -0.097211 0.2502 -0.61146 -0.36105 -0.21461 0.32578 -0.66253 0.80249 0.20189 0.089771 -0.13671 -0.58384 0.088754 -0.81938 0.053807 -0.55582 -0.053373 -0.058076 0.52449 -0.0078721 -0.092672 -0.035371 -0.17941 0.33357 -0.26437 0.16346 -0.16222 0.11586 0.35416 0.1373 0.29272 -0.29017 -1.1018 0.16964 0.029916 -0.027413 0.0028676 -0.61834 -0.029824 0.77414 -0.52145 0.25331 -0.14533 0.15677 0.19059 -0.75411 -0.34835 -0.26024 0.29289 -0.0049605 0.22339 0.010999 0.037064 -0.070142 0.25087 0.074492 -0.80378 -0.23341 -0.232 -0.26477 0.024466 -0.19967 0.16263 1.0063 0.15859 -0.17016 0.28482 0.24462 -0.34299 0.03651 -0.14976 0.46223 -0.42086 0.50909 0.26369 -0.067224 0.21686 0.37831 -0.032979 0.13722 0.45013 -0.35372 0.15899 0.33466 -0.47853 -0.31693 0.055036 0.12226 0.36529 0.19525 0.031532 -0.33327 0.32831 -0.05383 0.39769 0.051815 0.61034 -0.27866 -0.90195 0.34906 0.028597 0.20721 -0.46743 -0.26935 0.1896 0.19515 0.46175 -0.034694 -0.19078 -0.14368 -0.19843 -0.12716 -0.13279 0.27796 -0.077116 0.255 -0.0061203 -0.046437 -0.079545 0.31904 -0.27178 -0.59781 -0.011284 -0.135 0.40404 0.70555 0.20143 0.04723 -0.26965 0.20385 -0.061179 -0.46465 0.2217 0.39285 -0.32211 0.21008 0.094389 -0.17765 -0.081892 0.34392 0.053497 0.41419 -0.3127 0.33802 -0.11802 -0.27185 0.31107 -0.40808 0.07646 0.20304 -0.017405 0.34696 0.098704 0.034482 0.067296 -0.24978 0.43539 0.106 0.16846 -0.63486 0.089015 -0.45273 -0.10795 -0.0038308 -0.24854 -0.30847 -0.50051 0.58864 0.4342 0.3193 -0.089746 0.47402 0.23427 0.24909 0.35588 0.21752 0.18573 -0.12681 -0.21329 -0.24501 -0.46827 0.55616 -0.05967 0.41121 0.69338 0.15436 0.26723 -0.042334 0.2175 0.20378 -0.13902 0.79074 0.079682 -0.436 0.022749 0.78397 -0.30127 0.44902 0.41417 -0.57176 -0.060408 0.90619 -0.33336 0.58166 0.1422 -0.37099 -0.42934 0.60282 -0.20622 0.51897 -0.62144 0.11781 0.29424 -0.61885 0.23491 -0.34689 -0.18008 0.19942 -0.49339 -0.73685 0.83858 -0.023494 -0.17498 0.29632 0.09433 -0.31893 -0.055101 -0.12793 -0.20214 0.028939 0.3978 0.16248 0.38846 -0.22022 -0.044059 0.03041 -0.0032119 -0.057331 0.048998 0.14901 -0.66337 0.5732 -0.0437 0.1473 -0.36544 -0.38558 0.26773 0.054454 0.73583 0.4037 0.34027 0.34058 0.089432 0.12115 -0.32172 0.073599 0.15176 0.15074
Aisha 0.13833 -0.60811 -0.14772 0.3031 0.15015 -0.42282 -0.37174 -0.12511 -0.12818 0.44847 0.97345 0.10118 -0.71274 0.2515 -0.63422 0.096147 -0.29801 -1.6174 -0.68412 0.13509 -0.21654 -0.21308 -0.31361 0.49333 0.50434 0.18166 0.1967 -0.11748 -0.10242 0.15758 -0.041116 0.020413 -0.12286 0.20427 0.17176 -0.082407 -0.11656 0.54625 -0.072122 -0.86405 0.41543 -0.40645 0.072371 -0.53005 -0.30932 -0.64108 -0.44058 0.075104 -0.07349 -0.097949 -0.10913 -0.22282 -0.25527 -0.32595 -0.03257 -0.11821 0.2756 -0.33426 -0.097433 0.36684 -0.05421 -0.33507 -0.026781 -0.29341 0.071087 -0.31613 -0.1852 -0.20425 0.76622 0.24149 -0.14671 0.020255 -0.26209 -0.7831 0.254 0.55159 -0.3557 -0.41141 0.30916 -0.70515 0.18959 0.22951 0.14413 -0.060963 0.29635 0.49397 0.16644 -0.49616 -0.46817 -0.314 -0.043174 0.2728 -0.40323 -0.14224 0.012533 0.19064 0.26356 -0.10174 -0.2729 -0.15423 0.43163 0.38233 -0.13555 -0.028785 -0.37874 0.49603 -0.6759 -0.17056 0.14136 -0.12123 -0.38156 -0.13051 -0.33598 0.065344 -0.10983 -0.34273 0.48237 -0.22171 0.41507 -0.041867 -0.48626 0.20944 0.3109 -0.039559 0.10906 0.61571 0.29202 -0.043587 0.32618 0.13499 0.080211 -0.059108 0.010309 -0.31689 0.11645 -0.10674 -0.33126 -0.079293 0.72973 0.36888 -0.65827 -0.089331 0.029367 -0.26753 -0.26853 -0.19747 0.12613 -0.28864 -0.52224 0.2417 -0.10547 0.10226 0.13405 -0.50299 -0.28364 0.19354 -0.10844 -0.50875 -0.63076 -0.057138 0.069396 -0.25391 0.30242 -0.19319 -0.18218 -0.11764 0.47127 -0.1154 0.17117 0.46543 -0.074545 -0.15576 0.28348 -0.10156 -0.054276 -0.089792 -0.11398 -0.40233 -0.40631 -0.43576 -0.69118 0.21469 0.28101 -0.082913 -0.13558 0.28459 -0.32509 0.24705 -0.024746 -0.039632 -0.071864 -0.10092 -0.24017 0.36083 -0.13482 0.35937 -0.039204 -0.088487 0.050678 0.21856 -0.47065 -0.2225 -0.11213 -0.30663 -0.2874 0.15496 0.58837 0.68208 -0.18637 -0.042543 0.026826 -0.30505 0.053616 0.064153 -0.032604 -0.12303 -0.4944 -0.090681 -0.012184 -0.12213 0.00012175 -0.46647 0.10218 0.31308 -0.3141 0.25736 0.64009 0.0067497 -0.31404 -0.27703 0.42564 -0.2202 -0.26645 0.37213 0.38207 -0.11021 -0.044007 0.055462 0.093218 0.11338 -0.41177 0.66794 -0.18318 -0.27426 0.58883 -0.080585 0.022662 0.15267 0.052232 -0.03382 -0.16376 0.023606 -0.019324 -0.16214 0.11364 0.0068837 0.33136 0.26105 -0.34506 0.21668 -0.2519 -0.32446 0.030803 0.13501 -0.07548 -0.12353 0.19752 0.097691 -0.17278 -0.36706 -0.17919 0.14641 -0.52316 -0.18386 -0.10853 0.43189 0.50802 -0.39249 0.44915 -0.058942 -0.071289 0.505 0.4546 -0.45691 -0.10651 0.67649 -0.10486 -0.043619 -0.14246 0.6602 0.71326 -0.21687 -0.27675 0.35545 0.29705 -0.22926 -0.49204 0.207 0.36494 -0.037378
Darnell 0.023038 -0.012369 0.1072 0.26099 0.20257 0.29341 0.28761 0.17718 0.0048938 0.97163 0.83483 0.17538 -0.11944 0.17341 -0.99642 -0.011961 0.19815 -1.0805 0.14818 -0.26317 -0.21164 0.3442 0.30963 0.48691 0.15439 0.012944 0.24786 0.092561 0.065289 -0.042178 -0.095153 -0.66054 -0.017125 0.12922 0.2268 -0.25559 -0.023908 0.28678 -0.15481 -0.48108 0.085464 -0.043389 -0.24876 0.18029 0.011698 -0.27183 0.09898 0.088131 -0.092939 0.19364 -0.031418 -0.046997 -0.12764 -0.46764 0.31786 0.13095 0.1538 -0.08103 -0.21791 0.039592 0.40131 -0.068079 0.45393 -0.22231 0.22472 -0.067739 -0.0029699 0.038947 0.1467 0.23365 0.26866 -0.06591 0.075302 -0.37311 -0.79081 0.069475 0.046039 -0.22864 0.05206 -0.56758 -0.2142 0.31766 -0.22141 -0.09655 0.46143 -0.1619 0.16712 -0.8818 -0.055551 -0.01614 0.71762 -0.026504 0.19127 -0.035749 0.44844 -0.0055326 0.010825 0.1112 -0.49264 -0.011624 -0.13066 0.052998 -0.22573 0.033125 0.14057 1.1426 0.12902 -0.19494 0.052981 0.12883 -0.50456 0.10302 -0.59337 0.076583 -0.32866 0.36972 0.31865 0.11832 0.75362 0.4033 -0.1082 0.17479 0.16267 -0.58021 0.35249 -0.18464 -0.10784 0.1961 0.015868 0.17015 0.34985 0.56076 0.5416 0.15231 -0.16889 -0.32957 0.22376 -0.13686 0.45889 0.004002 -0.057005 0.098482 -0.24692 0.31265 -0.14602 -0.034973 0.13866 -0.19093 0.41422 -0.21489 -0.13945 -0.089578 -0.13765 0.16104 -0.104 0.098299 0.35624 -0.0042796 0.2292 0.16829 0.021446 -0.083777 -0.14513 -0.74643 -0.029643 -0.085222 0.29102 0.44768 0.62521 0.14773 0.11018 -0.27671 -0.011071 0.12339 -0.15781 -0.040328 -0.15803 0.2099 -0.29084 0.041621 0.13133 0.26845 -0.46901 0.16115 0.057245 0.55186 0.16473 -0.34861 -0.12912 -0.12221 0.054977 0.14745 0.30532 -0.058 0.16898 0.20775 0.2669 0.24376 0.31766 -0.3398 -0.24373 0.090696 -0.37781 -0.50507 -0.5849 -0.29433 -0.07305 0.20091 -0.092824 0.38877 0.14246 0.11309 -0.055706 0.22967 -0.2572 0.013865 0.22134 0.13865 0.091059 0.11166 -0.19473 -0.29506 0.31847 0.41803 -0.28648 -0.33887 0.069374 -0.021725 0.25904 0.30889 -0.37061 0.21358 -0.40865 0.37935 0.27403 -0.37933 -0.034432 0.58745 0.14171 0.35768 0.35293 0.15001 0.32203 0.10212 -0.44825 0.23808 -0.15522 -0.092131 -0.03026 0.30611 -0.16833 0.19059 -0.78154 0.10585 -0.050259 -0.66077 0.024278 0.07215 -0.22319 -0.21784 -0.43443 -0.45892 0.11899 -0.092654 0.13869 0.39151 -0.049569 -0.065641 -0.22837 -0.19637 0.08636 -0.053848 0.13391 -0.34089 -0.019343 -0.051361 0.23549 0.20612 -0.10773 -0.37605 -0.28755 0.55929 -0.33811 0.36063 -0.41287 0.3065 -0.024526 -0.17274 0.21923 -0.059833 0.51378 -0.11517 -0.016367 0.27786 0.46874 0.093694 -0.25767 0.40888 -0.35654 0.057962
Kareem -0.53714 -0.39131 0.24209 0.55377 1.0073 -0.26481 -0.17262 0.17412 0.011094 0.8393 1.0392 -0.17758 -0.36982 0.63718 -0.31263 0.19787 0.45001 -1.4391 -0.34071 0.23726 -0.80066 0.66883 -0.30099 0.54457 -0.039868 -0.46892 0.4044 -0.25113 0.28522 0.15051 0.035175 0.12366 -0.3197 -0.56778 0.49632 -0.27803 -0.20372 0.28871 0.069101 -0.0022307 -0.2287 -0.025678 -0.037051 -0.24949 -0.035232 -0.45072 -0.74818 0.40304 -0.1421 0.64937 -0.14017 0.083159 0.033221 -0.27633 0.25782 -0.33947 0.042811 -0.07047 -0.046104 0.11009 -0.12699 -0.13096 -0.3376 -0.35462 -0.028256 -0.35338 -0.37333 -0.12361 0.51462 0.49261 -0.43847 -0.47712 0.38367 -0.24118 -0.081567 -0.027397 0.35134 -0.13771 0.1299 -0.51296 -0.034583 0.51765 0.11663 0.26044 0.39172 0.15363 0.24017 -0.40895 -0.39502 -0.75426 0.36048 -0.18173 -0.74112 0.47631 0.095478 -0.23207 0.19026 0.11847 -0.075785 0.17306 0.0075584 -0.1023 0.018239 -0.49898 0.47315 0.61721 0.077869 -0.16993 0.43661 0.23264 -0.18025 0.45453 -0.17825 0.32157 -0.65516 -0.035851 -0.56638 0.13801 -0.36164 -0.31145 0.46247 0.18311 0.41937 -0.40606 0.49588 0.12647 -0.45531 -0.13916 -0.029934 -0.072152 0.033785 0.06388 0.72811 -0.27096 0.091133 -0.26924 0.42436 0.18342 0.11958 -0.11533 -0.2519 0.46447 0.2896 -0.058173 0.18984 -0.27652 0.97389 -0.34869 0.18777 0.24316 0.2304 -0.27156 -0.22135 -0.18419 -0.43675 0.10089 0.17237 0.0108 0.14243 0.17164 0.17208 0.40327 -0.57006 -0.54907 -0.24775 -0.036482 0.20558 0.48594 0.22595 0.088799 -0.15752 0.14178 0.66898 0.2459 -0.060946 0.13821 0.047577 0.47905 -0.26628 -0.48002 -0.28052 0.20224 0.0082095 -0.089419 -0.22064 0.16648 -0.045833 0.2374 0.33598 -0.35656 -0.062681 -0.30586 0.34245 0.092547 0.00066828 0.62879 0.35609 -0.11529 -0.47784 -0.44333 -0.14702 0.019643 -0.094867 -0.37874 -0.14272 0.25661 0.15495 -0.12649 -0.29079 0.7563 0.29768 0.070127 0.34972 0.36946 -0.16067 -0.14259 0.55443 -0.4324 -0.36678 0.27328 0.042342 0.33566 -0.17312 0.65292 0.11603 0.34798 0.39836 0.34962 0.19997 0.27082 -0.11438 0.24447 -0.081563 0.63927 -0.35248 0.34172 -0.080233 0.97488 0.23085 0.35803 -0.29588 0.47632 0.69326 0.14116 -0.48994 0.19103 0.16285 -0.22484 -0.25064 0.27286 0.053844 0.3088 -0.58893 -0.37697 -0.013864 -0.87208 0.71675 -0.46782 -0.18602 -0.59314 -0.013062 -0.33418 0.12021 0.32183 -0.87286 0.066748 -0.27235 -0.23936 0.019942 0.29356 0.2869 0.068184 0.033632 0.076985 0.078722 0.028827 -0.081399 -0.2129 0.10112 0.065432 -0.43011 0.095411 -0.80592 0.46785 -0.30547 0.26709 0.25115 0.08024 -0.14626 0.36875 0.54392 0.063386 -0.35051 0.044267 0.95714 -0.37303 0.0032484 0.33043 0.34389 0.2085
Hakim -0.16063 -0.55997 0.20994 0.32113 0.56545 -0.35058 -0.0025824 0.0056459 0.28152 0.55378 0.6285 0.17182 0.090112 -0.24652 -0.87265 0.0078469 -0.29217 -1.3222 -0.56061 0.12628 -0.40795 0.075484 0.051704 0.30617 0.32693 -0.29393 -0.096486 0.12132 0.3354 -0.36923 0.028499 -0.26947 -0.14498 -0.037166 0.22696 -0.42142 0.19221 0.19203 0.20869 -0.43237 -0.17121 0.22137 0.11116 0.0022206 0.33534 -0.15572 0.012883 0.30488 -0.32989 0.15987 0.27163 0.31183 0.26693 0.48466 0.14495 -0.1458 -0.032661 -0.38447 0.22791 0.045375 -0.1508 -0.44008 -0.37664 -0.22301 -0.19591 -0.43338 -0.021131 -0.3604 0.60479 0.36822 -0.76874 -0.24831 -0.34123 -0.070753 -0.10716 -0.053545 -0.37851 -0.22452 -0.19589 0.045848 0.065914 0.33379 0.037557 -0.27115 0.11391 -0.15076 0.001191 -0.76213 -0.34322 -0.11983 0.20369 0.16943 -0.053471 -0.53496 0.11426 -0.27886 0.31356 0.40562 -0.77564 0.0065985 0.19755 -0.013213 0.06871 0.31906 0.35813 0.23321 0.26071 -0.38672 0.36957 0.26139 -0.15457 0.38696 -0.60262 0.44992 -0.78626 -0.036296 -0.37644 -0.2791 0.46675 0.11507 0.44065 0.09363 0.40949 0.22409 0.20219 0.27416 0.0043369 0.10644 0.36208 0.07657 0.17817 0.20449 0.16832 -0.039923 0.13576 0.62582 0.31654 0.22241 0.41348 0.10033 0.17751 0.095932 0.39854 -0.77531 -0.12443 -0.40091 1.0796 -0.54708 0.052462 -0.15447 -0.15517 -0.14199 -0.34824 -0.37236 -0.33536 -0.15692 0.03843 -0.20623 -0.23174 -0.012076 0.47446 0.01952 -0.20607 0.042303 0.20105 0.025723 0.68032 0.26526 0.38221 0.05128 -0.27536 0.24719 0.077495 0.16993 -0.089326 -0.42783 0.6755 -0.26604 0.1978 -0.60808 -0.15833 0.29281 0.41707 0.053412 -0.34856 0.27551 -0.46174 -0.15657 0.21672 0.09901 -0.22327 0.23774 0.13096 0.53175 -0.28932 0.39835 -0.18842 -0.036502 -0.28631 -0.10609 -0.35614 -0.33315 -0.6526 -0.76926 -0.033138 0.08612 -0.013867 0.32839 -0.6702 -0.046402 0.4047 0.2775 -0.40727 0.11031 -0.22671 -0.43904 0.13012 0.22928 0.031608 -0.1228 -0.13969 0.55623 0.20044 0.45571 -0.21486 0.47631 0.52036 0.6262 -0.36682 0.060882 0.17633 -0.0017903 -0.36493 0.044991 -0.00063794 0.036535 -0.097798 0.70665 1.0184 0.58047 -0.016603 0.79724 0.15978 -0.035084 -0.21446 -0.055219 0.53314 0.41138 0.13088 -0.34112 -0.036312 0.094012 -0.39474 -0.15475 0.10451 -0.59254 0.23039 -0.25311 -0.74002 -0.52234 -0.54085 -0.81153 0.18855 0.17452 -0.5057 0.1167 -0.0093845 0.27091 -0.14654 0.17855 0.36684 0.29879 -0.38 0.053537 -0.095355 -0.013802 0.37131 -0.43919 0.032398 0.023266 -0.13043 -0.069679 -0.22585 0.22762 -0.72814 0.28709 -0.006202 0.045689 -0.37528 0.16638 0.90619 -0.198 -0.29491 0.18696 0.82167 -0.64976 -0.048401 0.29021 0.29881 -0.010595
Rasheed -0.58084 -0.1339 0.64519 0.56187 0.67999 -0.13439 -0.39193 0.048339 0.25946 0.71436 0.46919 0.41284 -0.39678 0.46049 -0.45415 -0.014304 0.38855 -1.7693 -0.3881 0.30336 -0.67949 -0.12385 -0.18806 0.23887 0.22269 0.15629 -0.16502 -0.013085 0.49412 -0.32664 -0.18964 0.19927 -0.29442 -0.28529 0.16895 0.069262 0.2116 0.62646 -0.22278 -0.62441 -0.39003 -0.04931 0.11271 -0.56442 0.087003 -0.10477 -0.30109 0.50707 -0.79636 0.44055 0.079763 0.024557 -0.0073565 0.28245 0.27359 -0.028276 -0.17545 -0.36236 -0.2143 0.30624 0.094035 -0.16316 -0.30456 -0.25773 -0.046413 0.092379 -0.085178 -0.34438 0.40257 0.61655 -0.45952 -0.49154 -0.08556 -0.23412 -0.094626 0.56432 0.34881 0.22514 -0.14216 -0.38793 0.58381 0.65194 -0.21269 0.052374 -0.21483 0.56611 0.5453 -0.45539 0.08484 -0.45687 0.39819 0.1036 -0.23655 0.38328 0.15736 -0.56037 0.33464 -0.047409 -0.50448 0.5901 -0.12417 0.33574 0.083883 -0.11542 0.48518 0.44629 -0.32098 -0.27481 0.044363 0.60568 -0.27877 0.28927 -0.50896 0.42192 -0.74021 -0.052253 -0.24491 -0.0754 0.076632 -0.15908 0.22528 -0.090655 -0.017633 -0.10742 0.70981 0.10326 -0.4772 0.26449 0.19779 -0.61714 -0.2146 0.54325 0.36919 -0.35275 0.25738 0.043299 0.21243 -0.048149 0.29811 -0.44076 0.037127 0.91111 0.15027 0.19829 -0.45959 -0.44887 0.23305 -0.21657 0.36806 0.30349 0.18687 0.2399 -0.17288 0.29008 -0.33849 0.15946 0.081948 0.43547 -0.11079 -0.10943 0.2495 0.25813 -0.23634 -0.10997 -0.0949 -0.41422 0.39764 0.17026 0.15354 -0.24636 -0.86544 -0.06254 0.1874 -0.31887 0.25219 -0.22141 0.058225 0.56555 0.49701 -0.79813 -0.57075 0.29543 0.17418 -0.31281 -0.21315 0.80856 -0.43829 0.603 0.39724 -0.0036805 0.26518 0.13825 0.011902 0.01525 -0.21296 0.92493 0.53841 0.46943 -0.65016 0.14828 -0.3885 -0.29906 0.041037 -0.82747 0.38927 -0.074615 0.11251 0.39451 -0.35733 0.38305 0.53697 0.21494 0.29229 0.28014 0.15339 0.075401 0.31076 0.34611 0.029114 -0.19056 0.084237 0.22506 0.2325 0.58934 -0.35633 0.093014 0.3866 0.82499 -0.2308 0.34173 0.51715 0.078316 -0.32361 0.77466 0.052759 -0.039383 -0.036109 0.65215 -0.2225 0.41084 0.10547 0.30099 -0.040116 -0.032983 -0.33555 0.13213 0.4206 -0.051956 -0.21065 0.098357 -0.35035 0.1931 -0.13604 -0.079926 0.024791 -0.85951 0.18543 -0.15357 -0.82896 -0.66286 -0.68824 -0.77919 0.13098 0.50437 -0.33673 -0.10303 -0.023332 0.10059 0.062911 -0.18105 0.0037963 0.081697 -0.070932 -0.23273 0.33144 -0.42493 -0.10551 -0.57002 0.22444 -0.099978 -0.20829 0.13671 -0.59545 0.44357 -0.55553 0.37388 0.084007 -0.055751 0.089 0.08031 0.98354 -0.48833 -0.37946 -0.32109 0.54888 -0.79037 -0.42327 -0.014308 -0.18922 -0.2071
Keisha 0.028496 0.20103 0.040813 0.3046 0.23504 -0.051176 0.084215 -0.31883 -0.19899 0.22585 0.86633 0.30192 -0.066402 -0.42057 -0.2451 0.012868 0.35682 -1.5849 -0.30767 0.25522 -0.014213 -0.19556 -0.18651 0.4034 -0.024147 0.0011265 0.22069 -0.73659 -0.18636 -0.4941 -0.068776 0.72492 0.15052 -0.060591 0.49916 -0.27334 -0.14656 -0.10544 -0.16884 -0.56305 -0.086431 0.32159 -0.23949 -0.0527 -0.0034585 -0.11006 -0.30644 -0.44622 0.063299 0.213 0.15525 0.64311 -0.27759 0.24002 -0.01338 -0.016621 -0.25951 -0.43466 -0.22344 0.098008 0.47515 0.27364 0.065935 -0.5874 -0.17724 -0.11762 -0.0033571 0.43195 0.22464 -0.089294 0.23482 0.064054 0.31819 -0.19971 -0.29518 0.12768 0.066564 -0.17395 0.72251 -0.87453 0.025903 -0.15281 0.018768 0.33656 0.32463 0.47793 0.82099 -0.36956 -0.55829 -0.080584 0.49579 0.3423 -0.18034 0.49109 0.0012588 0.11259 0.11945 0.27291 -0.35113 -0.068182 0.49049 -0.16016 0.10092 -0.52732 -0.02954 0.96767 0.022385 -0.71097 0.13258 -0.22298 -0.46828 0.31082 -0.040507 0.081631 -0.51775 -0.41994 -0.070269 -0.16142 0.41145 0.1352 -0.083671 0.21124 0.43477 -0.48301 0.10027 0.084045 -0.012524 -0.22848 0.22426 0.10826 0.044241 0.3036 0.22264 0.1321 0.61123 -0.20029 -0.22952 -0.15329 0.32202 0.017715 -0.639 0.050412 -0.41475 0.11866 -0.54079 -0.15112 -0.32613 0.46587 -0.5026 0.090513 -0.1758 0.11261 0.061313 0.26574 -0.088633 0.1229 0.41059 -0.40107 0.39355 -0.30684 -0.29618 0.050617 -0.17793 -0.12701 -0.039306 0.088091 0.28882 0.34844 -0.11664 -0.02209 0.025807 -0.13479 0.28623 0.25681 0.42069 1.0428 -0.0061277 -0.14751 -0.57634 0.52438 0.70711 0.17428 -0.11125 0.30902 0.10019 0.77527 -0.23723 0.21671 -0.082697 0.17825 -0.3403 -0.15622 0.30548 0.37491 -0.1001 -0.0028592 0.095942 -0.15672 0.67057 0.076828 -0.40014 -0.26451 0.19263 -0.25104 -0.21502 0.13679 -0.27863 0.3193 0.10999 0.41962 -0.21276 0.3238 -0.32132 -0.056333 -0.16588 0.17265 -0.062898 -0.51472 0.46573 -0.2142 -0.72388 0.15339 0.17164 0.42104 -0.35697 0.21058 -0.053557 -0.080883 0.26364 0.20351 -0.13666 -0.4481 -0.20457 0.53279 0.32969 -0.049975 0.063498 0.3789 -0.061186 -0.17636 -0.57971 -0.1137 0.12334 -0.41073 -0.29828 -0.023846 -0.032928 -0.32647 0.17437 0.094116 -0.31985 -0.060763 -0.071111 0.09599 -0.06184 -0.11302 0.18183 -0.62413 -0.34689 0.13385 -0.14104 -0.41832 0.15711 0.012336 -0.14796 -0.44117 0.039128 0.26057 -0.29601 0.16307 -0.34135 0.3167 -0.24452 0.14865 0.5089 0.078382 0.1329 -0.18224 0.10961 0.50154 -0.16047 0.3495 -0.22418 -0.10558 -0.027542 -0.092834 -0.005463 -0.40063 0.14256 0.19967 0.39119 0.27444 0.013627 0.13629 0.29121 0.084735 -0.55841 0.28086 0.38016 -0.42202
Tamika 0.13925 0.085664 0.39455 0.41515 0.93468 -0.02484 0.2665 -0.044071 -0.2011 0.013865 0.16592 -0.00053966 0.028904 0.091188 -0.42777 -0.12618 0.1803 -1.6747 0.012167 0.072966 -0.53595 -0.14651 -0.20237 0.21479 0.10885 -0.057313 0.22692 -0.23552 0.14886 -0.62757 0.056636 -0.036957 0.44373 -0.059343 -0.01262 -0.25188 -0.22052 -0.068232 0.20503 -0.32232 -0.10054 0.081703 -0.19522 -0.4049 0.078738 -0.7861 -0.32361 -0.015917 0.18928 -0.25001 0.0090978 0.10792 -0.74342 -0.31433 0.023605 -0.31401 -0.20009 -0.33567 -0.35716 0.51627 0.15929 -0.046449 -0.20161 -0.28612 -0.23752 0.073469 0.37586 -0.024936 0.41754 0.68218 0.088505 0.22083 -0.11297 0.19599 -0.31864 0.072776 -0.33283 -0.067587 0.187 -0.22477 0.027112 0.34722 -0.27341 0.3081 0.11175 -0.30788 0.52047 -0.65071 -0.36868 0.059154 0.67372 0.1869 -0.10385 0.021 0.39564 0.039671 0.32928 0.36448 -0.71518 -0.048917 0.16266 0.054212 0.31972 -0.021621 -0.15303 0.58014 0.098339 -0.054061 -0.39338 0.30342 -0.10576 -0.0040106 0.15433 0.16128 -0.24495 -0.0047963 -0.48416 -0.27612 0.22364 -0.0042724 -0.48131 0.088806 0.4038 -0.29236 0.067492 0.14316 -0.28416 0.11996 0.20969 0.018763 -0.076342 -0.092345 0.42914 0.0036166 0.51005 -0.6481 0.29384 0.1612 0.49219 -0.076274 0.014156 0.18888 -0.56118 -0.53926 -0.0016192 0.15336 -0.15071 -0.095503 0.26975 -0.25567 -0.12738 0.15447 -0.019153 0.44215 -0.96089 0.27981 0.59173 0.14796 0.26593 -0.058924 0.26077 0.546 0.085555 -0.73039 0.5273 -0.0019272 0.52319 0.8105 0.035001 0.19052 0.048251 0.22237 0.70146 -0.01214 0.23972 0.30493 -0.0029325 0.093768 -0.64344 0.46645 0.11987 -0.081039 0.33052 0.45813 0.17221 0.45695 -0.47538 -0.061868 0.15911 0.34057 0.18 -0.18982 0.30158 0.04577 0.15196 0.0089847 0.23214 0.52589 1.0042 -0.12444 -0.012192 -0.30383 -0.68434 0.24854 -0.90339 0.39453 0.36009 0.25526 -0.044344 0.12815 0.38589 0.49855 -0.045977 -0.074292 0.17178 -0.16848 0.11406 -0.38275 0.40969 -0.52357 -0.54767 0.056847 -0.41051 0.18367 -0.020526 -0.21886 0.78819 0.50744 -0.19412 0.17162 -0.3651 -0.42136 -0.70297 0.56765 0.0032312 0.03686 0.19948 0.47433 0.22339 -0.098238 -0.55921 -0.22458 0.1659 -0.0020515 -0.46961 -0.020777 -0.52197 -0.17789 0.24618 0.0085957 0.049459 0.014597 -0.82831 -0.38274 -0.59727 -0.61124 0.17117 -0.25443 -0.21181 0.056485 -0.65401 -0.21485 -0.17094 0.64179 -0.075335 0.50585 -0.15553 -0.25168 -0.51844 -0.32792 -0.12977 -0.15129 0.099636 0.19767 0.30515 -0.17833 0.089534 -0.61081 -0.059073 -0.0050805 -0.28814 0.44743 -0.80864 0.16326 -0.347 0.17394 0.10331 -0.33675 0.56286 0.40405 0.87651 -0.073668 -0.022019 -0.060033 -0.084859 -0.33887 -0.66469 0.055462 -0.038497 -0.13537
Latoya -0.27337 -0.16677 0.41448 0.75433 0.099339 0.14846 0.14408 -0.035322 -0.70526 -0.36529 0.6183 0.23586 0.50217 -0.052283 -0.95577 -0.1674 0.25058 -1.7008 0.096059 -0.20501 -0.43948 -0.046416 -0.28094 0.18406 -0.0059139 -0.034019 0.081125 -0.078649 -0.14827 -0.13758 0.18514 0.10681 0.62937 -0.17637 -0.024332 -0.032468 0.019331 0.6601 0.77562 -0.53953 -0.06356 0.2397 -0.53354 0.088757 0.14157 -0.13516 -0.25897 -0.54453 -0.087234 0.17239 -0.33502 0.24924 -0.59672 -0.08802 0.13195 -0.24467 0.31193 0.062348 0.075249 0.48692 0.15758 -0.4063 0.12233 -0.2458 -0.14894 0.49853 0.40487 0.40468 0.42675 0.21844 0.77587 0.090082 0.42869 -0.43496 -0.4813 0.39489 -0.20342 0.079719 0.33913 -0.28483 0.13071 0.26922 -0.30404 0.2489 -0.057772 -0.13831 0.59651 -0.87284 -0.37668 0.0091728 0.21682 0.12181 0.13298 -0.37121 0.76953 0.25434 0.21276 0.53663 -0.48787 -0.52694 0.46372 -0.18324 0.13178 -0.5335 0.18097 0.59368 -0.1566 -0.13907 -0.12755 -0.1648 -0.24603 -0.28435 -0.19617 0.2768 0.1492 -0.13122 -0.14132 0.080146 0.47998 -0.025467 -0.52362 0.0043722 0.34228 -0.35693 0.20808 -0.094387 -0.23041 -0.29581 -0.011782 0.034524 -0.048268 0.017574 -0.097384 0.060045 0.494 -0.34043 -0.2504 -0.42857 0.27673 -0.026748 -0.24997 0.46658 -0.52241 0.20959 -0.3056 -0.52136 -0.22006 0.074453 -0.27517 0.2448 -0.16219 -0.21568 -0.16224 0.084048 0.29572 0.46503 0.40582 -0.38111 0.33005 -0.082391 -0.077388 0.71347 0.14106 -0.21075 0.1909 -0.40103 0.60521 0.18987 -0.068526 0.042908 0.031622 -0.3263 0.21284 0.27005 0.27218 0.60076 -0.41362 0.22053 -0.32234 0.17441 0.023305 0.38896 -0.28628 0.38764 0.80383 0.94839 0.3028 -0.17761 -0.068152 -0.065667 -0.32699 0.13576 0.39106 0.056297 0.11868 0.50837 -0.14292 0.10807 0.39539 -0.4135 -0.71912 -0.29626 -0.042242 -0.053358 -0.40853 -0.16665 -0.010877 -0.12806 -0.17133 -0.098068 0.22643 0.67889 -0.10732 0.28436 0.40324 -0.026912 0.28503 0.15176 0.26285 -0.003773 -0.027479 -0.046481 0.060387 0.23853 -0.1239 -0.13722 0.43536 0.14189 -0.15634 0.046228 -0.34926 -0.069045 -0.33667 0.65687 0.0421 0.034201 0.20189 0.2963 -0.084514 0.097957 -0.17172 -0.19823 0.29606 -0.03423 -0.1998 -0.051754 -0.05301 0.15185 -0.10932 0.21616 0.065114 0.092385 -0.43165 -0.096194 -0.42283 -0.6082 0.23533 -0.39196 0.069931 -0.0092482 -0.49772 -0.1512 -0.21529 0.31722 0.37381 -0.062558 0.34874 0.13524 -0.6193 -0.049191 -0.55794 -0.061049 -0.16524 0.031898 0.29257 -0.009237 0.059031 -0.20877 0.057703 -0.2516 0.27645 0.079453 -0.39241 0.21913 -0.10236 0.2881 -0.015569 0.12102 -0.34547 -0.27315 0.59458 0.31785 0.051698 -0.19351 0.17012 0.052961 -0.80942 -0.15225 -0.053217 0.024749
Tanisha -0.1871 0.03698 0.19173 0.19992 0.61945 0.24169 -0.11817 -0.1641 -0.37107 -0.45381 0.35661 -0.14241 -0.40188 0.41479 -0.36361 0.29325 0.20887 -1.6196 -0.073475 0.36061 -0.09738 -0.42748 -0.39121 -0.45501 -0.090778 0.047655 0.31835 -0.50228 -0.15827 -0.013506 0.43681 0.018624 0.43637 -0.76975 -0.17832 0.09748 -0.22792 0.47277 -0.24882 -0.27908 -0.19571 -0.75696 -0.71385 -0.34985 0.10794 -0.63451 -0.70612 -0.30903 -0.096332 0.4324 0.28432 0.11321 -0.11111 -0.17077 -0.093343 -0.60934 -0.096256 -0.27048 -0.13633 0.88042 0.31945 -0.25693 -0.33213 -0.46393 -0.01798 0.23118 0.25185 0.38621 0.59139 -0.15809 0.10966 -0.077416 -0.13645 -0.26001 -0.24489 0.20384 0.1586 -0.15563 0.47438 -0.50702 0.27492 -0.18633 -0.48184 0.14763 0.44693 -0.058876 0.37511 -0.4968 -0.58936 -0.095732 0.65738 0.63849 -0.59861 0.11003 -0.080878 0.43476 0.11324 0.11758 -0.24763 0.25778 0.18667 0.076421 -0.11392 -0.077739 -0.027349 0.61647 0.045866 0.021855 -0.15587 -0.77985 -0.42092 0.21474 0.12843 0.14701 -0.38619 -0.38117 -0.20138 0.57345 0.52184 -0.074165 -0.6109 -0.13422 0.080293 -0.33454 0.18605 0.352 -0.12391 0.014642 0.053782 -0.3912 0.12168 0.18406 -0.00049354 -0.033121 -0.012303 -0.19896 -0.20253 0.029754 -0.12148 0.004533 -0.02091 0.15426 -0.14715 -0.01184 -0.14545 0.20095 -0.092204 0.17924 -0.19148 0.35597 0.088514 -0.084567 -0.36769 0.2234 -0.31654 -0.18861 0.4899 0.2451 0.39701 -0.2072 0.3001 0.28656 -0.0085498 -0.58126 -0.0072345 0.083226 0.54087 0.39597 -0.18352 0.027728 -0.15529 -0.42169 0.27089 0.51394 0.16456 -0.18768 -0.60795 0.56018 -0.27711 0.044112 -0.47289 0.12534 0.37597 0.38969 0.29525 1.0554 -0.041514 0.048604 0.21348 0.024657 0.058312 -0.20945 0.062932 0.29695 -0.13177 -0.016699 -0.21314 0.39274 0.57818 0.19719 -0.32097 0.14381 0.031607 -0.52119 -0.14285 0.46903 0.3126 0.48085 0.46456 0.28177 -0.4485 0.64865 -0.032942 0.011985 -0.059461 0.08999 -0.06419 -0.2031 0.14479 -0.69877 -0.29446 0.048623 0.61567 0.61942 0.096975 -0.22915 0.37412 0.086545 0.10845 -0.25503 -0.15423 -0.34529 0.11806 0.6648 0.33204 -0.32247 -0.16246 0.7781 -0.021395 0.55827 -0.57547 0.24161 0.13169 0.21098 -0.39479 -0.55177 -0.43855 0.074533 0.21506 -0.033456 -0.38102 0.27883 -0.40558 -0.39092 -0.10802 -0.52076 0.16374 -0.27306 -0.52826 -0.46202 -0.11304 -0.029132 0.24949 0.18617 0.14661 0.31529 0.045886 -0.32049 -0.39728 -0.20807 -0.15164 -0.36547 0.057216 0.16802 0.28115 -0.40295 0.32362 -0.061195 0.50552 0.24527 0.13379 0.048335 -0.57112 0.14017 0.3096 0.54729 -0.069443 -0.019095 0.61992 0.16082 0.5279 0.11886 -0.12224 0.19228 0.070682 -0.0065702 -0.34273 -0.088402 -0.17554 -0.19727
Lakisha -0.58892 0.25498 -0.3846 -0.27754 0.12134 -0.096467 0.09255 -0.04677 -0.53329 -0.74956 0.85636 0.57945 -0.23782 0.091104 -0.59243 0.24432 -0.1475 -1.9337 -0.062805 0.293 -0.023252 0.11571 -0.18251 -0.053243 0.12964 -0.42146 -0.22252 -0.012831 -0.065404 -0.053026 0.1376 -0.49871 0.60882 -0.19988 0.44382 -0.22751 -0.16438 0.87573 0.050596 -0.89391 -0.39535 0.056931 -0.094907 0.48461 -0.039538 -0.65098 -0.62098 -0.6982 0.40134 0.20922 -0.043597 -0.027386 -0.59671 -0.48133 -0.16351 -0.092005 0.055457 -0.47145 -0.50314 0.70255 -0.078388 -0.69765 -0.68265 -0.30812 0.30347 -0.35862 -0.35608 0.10413 0.61974 -0.022319 0.55414 -0.19968 -0.18832 -0.12686 -0.58313 0.2546 -0.96277 -0.31145 0.54269 -0.36085 0.61973 -0.23326 0.15385 -0.12727 0.56061 -0.07259 0.62135 -0.79834 -0.4139 0.0074448 0.11367 -0.20934 0.0052544 0.12763 -0.22027 0.09463 0.38843 0.42274 0.1194 -0.029617 0.073115 -0.14745 0.16676 -0.17773 0.1386 -0.068049 -0.70716 -0.72098 0.51765 -0.17571 0.24324 -0.00079548 0.14895 1.0341 -0.19154 0.50325 -0.028126 0.15172 0.13946 -0.4159 0.076359 0.11458 0.62922 -0.058528 -0.10791 0.60147 -0.095597 -0.078314 0.21974 -0.083658 0.32517 -0.23737 0.11682 0.024975 -0.048001 0.077939 -0.40309 -0.37674 0.058574 -0.376 0.28892 0.46697 -0.27149 -0.37142 -0.34222 -0.19067 -0.28358 0.67028 -0.24447 0.080109 -0.091148 -0.37486 -0.16411 0.22872 -0.064575 -0.26899 0.5956 -0.47936 -0.22705 -0.060375 0.40086 0.089842 -0.4417 -0.11707 0.26096 -0.57008 0.49486 -0.12075 -0.30659 0.0011909 0.3535 0.60093 0.90744 -0.011107 0.36005 0.3196 -0.060493 -0.50018 -0.86572 0.12549 -0.50793 -0.21849 0.11525 0.12423 0.12544 0.69101 0.86682 0.013391 0.18124 -0.24594 0.017926 -0.085749 0.046469 0.16126 -0.55098 0.28764 -0.35614 0.21904 0.34138 0.10814 0.034169 -0.27312 -0.013753 -0.062669 -0.06399 -0.17728 0.092101 0.46319 0.1066 0.4482 0.44589 0.77614 -0.35966 -0.022069 -0.46879 0.42209 -0.092237 -0.52114 0.34196 -0.49692 -0.15299 0.58603 0.45905 0.29631 0.22762 0.21241 0.09398 0.077509 -0.48741 0.04967 0.44415 -0.47841 0.11124 0.87472 0.21357 -0.22005 0.33775 0.27243 0.026426 -0.55689 -0.47952 0.024131 0.20262 0.011796 -0.54329 -0.78575 0.041489 0.14907 -0.032267 0.53789 -0.0074699 0.1266 -0.2456 -0.39563 -0.65162 -0.2323 0.74127 -0.31937 -0.50754 0.11245 -0.36303 -0.65659 -0.091934 -0.37113 0.18468 0.53494 0.0015341 0.13117 -0.68462 0.32196 -0.1995 -0.049858 -0.0071754 -0.073997 0.26533 -0.081569 0.37912 -0.46734 0.42957 0.077433 -0.7204 -0.39482 -0.86519 -0.055767 -0.44827 -0.16426 -0.037601 0.17146 -0.017405 -0.46545 1.0625 0.18717 0.25711 0.085209 0.0064689 0.48389 -0.31207 0.087008 -0.1917 0.18529
