Ebony -0.65726 0.029758 -0.5527 0.40856 -0.26056 -0.047478 -0.0072421 0.52708 -0.60943 -0.37499 0.26752 0.33787 0.71108 -0.30424 -0.60038 0.19153 0.6175 -0.20275 -0.095067 0.68321 -0.050592 -0.16032 -0.32663 0.00054388 0.20776 -0.063894 0.22864 0.16518 0.17225 -0.12835 -0.30747 0.5182 0.20275 0.53915 0.71398 -0.50806 -0.57348 -0.19854 0.033642 -0.48594 0.008327 -0.12076 0.26463 -0.082544 -0.1673 -0.27302 -0.18159 0.015474 -0.35241 -0.27668 -0.65041 0.070205 -1.1478 0.17912 -0.23944 0.45993 -0.57515 -0.26905 0.032882 -0.88329 -0.005084 -0.26832 -0.14699 -0.45206 -0.39012 0.11871 0.75429 0.29063 -0.075905 0.80086 0.42311 -0.50979 0.58699 -0.066652 0.035191 0.083231 -0.22702 -0.52588 -0.63633 -0.35346 -0.0054699 -0.12759 -0.40064 0.28567 -0.00085605 -0.0037667 0.69291 1.3612 -0.41481 0.12722 0.12981 0.80728 -0.16263 -0.35203 0.2416 0.10133 0.26065 0.33543 -0.13116 0.29683 0.33591 -0.10343 0.29796 0.54417 -0.15556 2.0406 -0.33713 0.69362 -0.1088 -0.024297 -0.6941 -0.043186 -0.17681 -0.36938 -0.21254 -0.64039 -0.19837 0.18536 0.12649 -0.11657 0.016626 0.36173 -0.09118 0.32061 -0.099323 0.70142 0.10969 -0.44623 -0.14544 -0.45739 0.69876 -0.11226 0.16237 0.16813 -0.32158 0.29028 -0.18059 -0.81208 0.27642 0.46659 -1.3181 0.16196 0.473 -0.41552 -0.32109 -0.42034 0.12511 -0.49232 -0.30266 -0.086361 -0.32754 0.51913 -0.258 -0.51656 0.29319 0.721 0.25989 0.065123 0.54544 0.42534 -0.31675 0.32094 -0.44194 0.28642 -0.40113 -0.31271 0.4082 -0.090644 0.3005 -0.19864 -0.43968 0.020618 0.020114 0.76357 -0.14962 0.62862 -0.51611 -0.092181 0.24908 0.22934 -0.19368 0.66939 -0.63942 0.055077 0.61696 0.48973 -0.46006 -0.034926 0.31555 0.1235 -0.39523 -0.20138 0.035968 0.53967 -0.15809 -0.62916 -0.16362 0.33203 -0.37841 -0.1715 -0.084597 0.18788 -0.02381 -0.17909 -0.17344 -0.32312 -0.20109 -0.14109 0.46838 -0.38816 -0.075953 0.34421 -0.2947 0.23636 0.23474 0.13795 -0.5721 -0.59022 0.87766 -0.31496 -0.58064 -0.67163 -0.43462 0.33959 0.51533 0.30162 0.11523 0.063605 0.55563 0.87802 0.12613 -0.5668 0.0041413 0.028929 0.4461 0.19487 -0.41217 -0.13661 0.43955 -0.10614 0.35174 -0.11305 0.39177 -0.13216 0.20723 -0.7097 -0.44657 0.010889 -0.79023 0.48321 0.074065 0.093723 0.27083 0.13527 -0.318 0.51326 0.10568 -0.49403 -0.17368 -0.16734 0.30671 -0.05104 -0.17642 0.36844 -0.29646 0.26876 -0.25621 -0.38624 -0.87634 0.60588 -0.25455 -0.63859 -0.095358 -0.4417 -0.10072 -0.49919 0.45899 0.23046 0.11674 0.029794 -0.099968 0.9024 0.82198 -0.45801 -0.080302 -0.33155 0.38999 -0.16376 -0.0078383 0.44637 0.12421 -0.0087446 -0.17384 -0.31617 -0.11764 0.1042 -0.58606 -0.022738 -0.17931 -0.19217
Jerome 0.11731 -0.65495 0.068152 -0.43124 0.22506 0.7328 0.36336 0.047748 -0.07649 2.0308 1.0047 -0.079356 0.14256 0.10279 -0.33717 0.14431 -0.0091496 -0.24049 -0.061939 -0.52329 0.10576 -0.40185 0.14883 -0.45482 0.55403 0.054584 0.010469 -0.28581 0.39382 0.14346 0.16612 0.19015 0.31528 -0.29594 0.10789 -0.11243 -0.62771 -0.16009 0.55634 -0.41122 -0.020651 0.058319 0.0060604 -0.39064 -0.18504 -0.43981 0.18078 -0.12547 0.03539 -0.11117 0.36296 0.07788 -0.48489 -0.040823 0.74354 0.1496 0.085853 0.10923 0.073992 -0.37573 -0.027569 -0.11888 0.038005 -0.16915 0.020139 0.36913 -0.30779 -0.061051 -0.064558 0.13013 -0.16448 0.022063 0.20224 -0.075245 -0.5006 -0.1821 0.074367 -0.069336 -0.34794 -0.55826 0.017212 0.34789 0.33282 -0.062238 -0.27226 -0.41167 0.14655 -0.35867 -0.57315 -0.026845 0.065509 -0.46474 0.061743 -0.17016 -0.19969 -0.41345 -0.14392 -0.10877 -0.25732 0.035875 -0.24295 -0.3493 0.18572 -0.050104 -0.18528 1.59 0.23727 -0.072446 0.23954 0.084439 -0.34556 0.26567 -0.24415 -0.32132 -0.24036 0.059439 -0.24648 -0.07639 0.33164 0.036245 -0.019699 -0.2141 -0.011831 -0.0028645 0.31119 0.03827 -0.44343 0.32695 0.31971 0.27348 -0.22863 0.088154 0.099969 -0.062448 0.19405 0.12911 0.32337 -0.52085 -0.33011 -0.023116 -0.028493 0.074626 -0.29029 -0.47358 0.051912 0.14416 0.29582 -0.095913 0.10272 -0.12743 -0.048521 0.23384 -0.063942 -0.55076 0.016179 0.41225 0.1373 -0.015648 -0.10861 -0.15565 0.38081 -0.15828 0.23257 -0.075946 -0.18167 0.054716 0.1045 0.65833 -0.11699 -0.21638 -0.32317 0.25234 0.0067942 -0.3686 0.13906 0.25937 0.2331 -0.14665 0.37143 0.12263 0.10512 -0.10409 -0.12919 -0.17845 -0.13954 -0.053928 -0.094708 0.18124 -0.21094 -0.26164 -0.4467 0.34885 0.23081 0.079464 -0.096457 0.19975 -0.22213 -0.45731 0.19469 -0.26371 -0.10081 -0.09377 -0.4348 -0.075347 -0.38495 -0.039547 0.11212 -0.77491 -0.14603 0.62851 0.43925 0.12497 0.19393 -0.24012 -0.057411 0.18115 -0.034508 -0.05434 0.24939 0.081738 0.16725 0.36579 -0.17299 0.12949 0.20004 0.13365 0.1982 0.14347 0.19229 0.018377 0.22941 0.20041 -0.40881 0.28677 -0.093146 -0.30187 -0.043365 0.7703 -0.42518 -0.069766 0.33284 0.024487 -0.52367 0.32754 -0.28438 0.49554 -0.093736 -0.18029 -0.24824 0.18816 -0.10742 0.15793 -0.11089 -0.0073412 -0.073086 -0.4867 0.14768 0.018358 0.047561 -0.038265 0.54484 -0.72985 0.044636 0.049788 0.021481 -0.15729 -0.25837 -0.095045 0.079107 -0.13771 0.11583 0.12827 0.45167 -0.28543 0.15958 -0.33389 0.08446 0.2893 -0.091619 -0.10595 -0.41732 -0.15765 0.092169 -0.21394 -0.21833 0.42141 -0.013808 -0.0076397 -0.15074 0.16653 0.46227 -0.51602 -0.33957 0.6248 0.14577 -0.024105 -0.29953 0.23694 -0.11644 0.096843
Jasmine -0.40134 0.18461 -0.15874 0.21764 0.070189 -0.30439 0.012115 -0.26643 -0.48762 0.68159 0.65244 0.4041 -0.30184 -0.03235 -0.26146 0.056146 0.17985 -0.45665 -0.17239 0.061172 -0.49611 0.16888 -0.3371 0.21777 -0.023187 0.14349 0.28975 -0.19406 0.045277 -0.20901 0.063022 0.44686 0.048859 -0.22708 -0.03934 -0.12065 0.37636 0.030338 -0.3148 -0.86188 0.16042 -0.33697 -0.35641 -0.083618 0.51502 0.1579 -0.23904 -0.042904 0.025888 -0.17583 -0.43006 -0.67095 -0.36141 0.68905 0.022568 -0.40757 0.0021195 -0.41219 -0.43366 0.43656 0.23273 -0.2264 -0.23342 -0.47027 0.33428 -0.22754 0.25148 0.62182 0.41246 -0.071275 -0.3586 0.40543 0.27378 -0.28075 0.33831 0.33583 0.12811 0.15202 -0.14847 -0.87521 -0.16904 0.11587 -0.24467 0.10544 0.13313 -0.42597 0.45013 0.6741 -0.58459 0.30999 0.10833 0.26601 0.22549 -0.20326 0.3966 0.0090985 -0.30901 -0.050971 -0.34628 -0.15826 0.024459 -0.15952 0.091645 -0.67547 -0.066565 1.5079 -0.20672 0.034096 0.014464 0.13795 -0.85509 -0.18373 -0.3539 0.22388 -0.26592 0.2095 -0.39688 0.20529 0.24323 -0.0097321 0.13878 0.10143 0.034047 -0.098616 0.21401 0.53728 0.18278 0.18986 0.12222 -0.057603 0.09123 -0.30992 0.21949 0.25507 0.20359 -0.67999 0.070166 -0.043012 0.61931 0.50469 -1.1335 -0.049519 -0.16108 -0.11991 -0.47696 -0.24497 -0.38141 0.10976 -0.29663 -0.19497 0.9288 0.51183 0.082952 0.37114 0.11745 0.25862 0.35098 -0.058244 0.00096466 -0.085287 0.2139 0.7149 0.002493 -0.12238 -0.024928 -0.41918 0.47914 -0.38743 0.13106 0.17566 -0.046629 -0.092781 0.047864 0.4905 0.087981 0.27337 -0.49253 -0.24555 -0.12586 -0.36837 0.025251 0.77144 -0.1747 -0.10593 0.31079 0.085282 -0.23799 -0.14302 0.11086 0.36793 -0.28242 -0.11742 0.033911 0.89351 0.37552 -0.58823 -0.34553 0.31485 -0.091397 0.10931 -0.080217 0.44854 -0.619 0.12514 -0.21539 0.27607 0.052651 0.52191 0.7212 0.23614 -0.71676 -0.34559 0.11022 0.13172 -0.37239 0.26305 -0.019053 -0.37156 0.23512 -0.15096 -0.18733 0.25911 0.11708 0.5592 -0.16825 0.35364 0.49225 -0.12341 0.46762 0.31431 0.34812 0.16618 -0.51295 0.25953 -0.076205 -0.49254 0.072669 -0.10055 0.20034 0.085485 -0.48695 -0.23599 -0.077754 -0.20272 -0.54268 -0.23875 -0.30112 -0.041557 -0.24235 0.58849 -0.05606 0.28784 -0.47716 0.026668 -0.45923 0.13368 0.31019 -0.033641 -0.084453 -0.44197 0.060999 -0.20896 0.04567 -0.34887 -0.11979 -0.16766 -0.082148 -0.12596 -0.56986 -0.037326 -0.23739 -0.063795 -0.4245 -0.14143 0.22262 0.36397 0.29996 0.30574 0.78022 0.57909 0.15522 0.16791 0.50416 0.045131 -0.10053 0.56233 0.37742 0.0046158 0.2681 -0.40632 0.44016 0.3388 0.0048963 0.019849 -0.091416 0.18573 -0.33001 -0.0077507 0.50093 0.011462
Lamar -0.057083 -0.1923 0.62433 -0.1911 0.28887 -0.0061103 0.038291 0.34719 -0.060991 1.7361 0.4018 0.11046 0.026105 -0.10299 -0.4929 0.046507 0.12254 -0.8042 0.089884 -0.24371 -0.37148 0.77494 0.26153 -0.024253 -0.25806 -0.18985 -0.31701 0.16292 -0.17386 -0.049152 0.073142 0.33061 -0.17968 -0.16455 -0.42876 -0.54613 0.5458 0.21295 0.32093 -0.33629 -0.33904 0.24764 0.091782 0.36938 -0.34126 0.16697 0.47105 0.34792 -0.44575 -0.057399 0.0048824 0.30321 -0.40467 -0.19667 -0.50038 -0.40985 -0.32006 -0.13572 -0.49683 -0.06795 0.70405 0.1507 0.2174 0.098366 0.38993 -0.038777 -0.028661 -0.040604 -0.24943 -0.14416 -0.0044003 0.01049 0.094429 -0.40566 -0.59734 0.42052 0.35109 -0.40688 -0.4296 -0.72438 0.13773 0.31024 -0.13051 0.031339 -0.10123 -0.19928 0.23453 -0.08756 -0.23757 -0.64886 -0.38458 -0.065825 -0.31114 -0.16676 -0.31792 -0.032957 -0.013953 -0.048582 -0.038217 -0.016477 0.0020998 0.079462 0.056159 0.02622 0.2394 1.624 0.24001 -0.41606 0.10873 -0.13558 -0.096813 0.51841 -0.17931 -0.25235 -0.11138 -0.13302 0.0029031 -0.4186 0.023503 -0.1542 0.01909 0.52594 0.11137 -0.42739 0.091941 0.093319 -0.08577 0.039202 0.29582 -0.0284 0.3962 0.42188 -0.062386 0.10466 0.57776 -0.35776 0.17492 -0.052313 0.16233 0.20599 0.011511 0.63337 -0.37219 0.4025 -0.036495 -0.37305 -0.037917 -0.33119 -0.027036 -0.39099 -0.21602 -0.18313 -0.13179 0.33272 -0.28693 -0.075074 0.48802 -0.51104 0.45095 -0.3025 -0.14168 0.15529 -0.70584 -0.77563 -0.17923 0.28721 -0.12452 0.69091 0.18049 0.25299 0.25813 0.004076 -0.00054734 0.054602 -0.13568 -0.17598 -0.60148 0.024166 -0.095584 -0.18224 0.34322 -0.14516 -0.15767 -0.007473 -0.17502 0.48394 -0.26182 -0.028702 0.13658 -0.27873 0.47658 -0.42842 0.077264 0.13793 0.21527 0.65724 -0.48929 0.018817 -0.10126 -0.094302 0.80993 0.085186 -0.309 -0.23908 -0.041754 0.21808 -0.36415 -0.079736 -0.20633 0.31078 -0.27183 0.36502 0.22376 0.19713 -0.072428 0.29533 -0.22165 0.28672 -0.021221 0.11433 0.046927 0.21782 -0.44651 0.3693 0.32479 0.14562 0.45576 0.45245 0.17688 0.0079921 0.54535 -0.30811 0.019494 0.32855 -0.15217 -0.25775 0.22752 0.089998 0.35566 0.62116 0.46841 -0.6501 -0.20907 0.090802 -0.46345 0.33551 -0.44868 -0.33157 0.060133 -0.10256 -0.016072 0.11815 0.060007 -0.011998 -0.055841 -0.39772 0.13136 0.04034 -0.45514 0.20903 -0.1685 -0.54516 0.30565 -0.072411 0.07111 -0.12951 -0.2834 0.39924 0.14212 -0.0038394 0.098744 0.33846 -0.14187 -0.023422 0.59581 -0.51607 -0.59926 0.14472 0.0172 -0.1508 -0.47139 -0.11955 -0.71 0.67527 0.09285 0.4111 0.067617 -0.24744 -0.030587 -0.23324 0.17812 0.14352 -0.24828 0.12534 0.15717 0.049594 -0.15089 -0.0088193 -0.052775 -0.14823
Lionel 0.28521 -0.25672 0.021082 0.12884 0.030284 -0.13273 0.21462 -0.23761 -0.11539 0.97121 0.24231 0.17135 0.040986 -0.2971 -0.19823 -0.18284 -0.60262 -0.57246 -0.069892 -0.41373 -0.26497 -0.60552 -0.33626 0.25628 -0.049597 0.014135 0.88439 -0.26644 0.11525 -0.072419 -0.24805 0.35637 -0.33331 0.11311 -0.35759 -0.098077 0.1101 0.15804 0.34674 0.041507 0.1091 -0.027143 -0.3943 0.44755 0.20643 -0.84569 0.24695 -0.10608 -0.45644 0.37208 0.246 0.056587 0.10728 -0.11225 0.044354 -0.071362 0.33139 -0.20672 0.33418 0.16792 0.12602 0.72059 -1.0654 -0.23378 -0.51906 0.43264 0.59637 -0.73114 -0.4973 0.32542 -0.46561 -0.24946 -0.068036 0.46068 -0.63104 0.099976 0.14099 -0.13588 1.1387 -0.22424 -0.30914 0.20166 0.27145 -0.39939 -0.22983 -0.2837 -0.14261 -0.47408 0.13207 0.34011 -0.20673 0.55866 0.09956 -0.1727 0.032229 -1.1432 0.2502 0.15677 0.3897 -0.086095 -0.12431 0.17055 0.59264 -0.28243 -0.099268 1.2555 0.060667 0.11982 0.23107 -0.25445 -0.40153 0.28799 -0.21372 -0.43495 0.25507 0.089442 0.25632 -0.37499 -0.025794 -0.31458 0.073446 -0.15019 0.02761 0.12973 0.089365 -0.18876 -0.35361 -0.11606 0.12934 0.10778 -0.14845 -0.27654 0.23064 -0.41737 0.46097 0.7069 0.4185 -0.14923 -0.21383 -0.10745 -0.62477 -0.5423 -0.47427 0.023504 -0.53367 -0.24697 0.35653 -0.24651 -0.35909 0.33207 0.26593 -0.025331 -0.40315 0.10114 0.34569 -0.49269 0.10142 0.21463 0.037732 -0.4377 -0.37775 0.14904 -0.21634 -0.065323 0.25898 0.10382 0.48199 0.32015 0.39629 -0.039698 -0.30711 0.053752 -0.13248 -0.042259 0.17662 0.021284 0.45951 -0.22896 0.23702 0.29277 0.21025 0.26814 0.4751 0.13615 -0.42464 0.083587 -0.24402 -0.21016 0.10511 -0.0016681 0.1901 0.37027 -0.023015 0.11819 0.01865 -0.61733 0.33008 0.23751 0.5006 -0.48825 0.010389 -0.28387 0.19039 0.14694 -0.70932 -0.23218 -0.02313 -0.31606 -0.095272 0.52657 0.33788 0.16975 0.30868 0.14209 0.38809 0.80836 0.14767 0.22138 0.1907 0.40227 -0.17025 0.15183 0.40744 0.19649 0.5477 0.35862 0.48744 0.48212 0.25721 0.63207 -0.15636 -0.33956 -0.53567 -0.0096976 0.01791 0.31616 0.15357 0.42566 -0.15275 0.2339 0.36508 -0.053638 -0.06147 0.26677 -0.37262 0.1459 0.34419 0.14252 -0.21233 -0.11612 0.0094633 0.14297 0.043777 0.14855 0.069494 -0.46355 0.066724 -0.37853 -0.054571 0.54 0.53807 -0.064655 0.055527 0.41491 -0.2624 0.33709 -0.34312 0.086493 -0.23326 0.37634 0.28752 0.068059 -0.14054 -0.20409 0.028985 0.41516 -0.26712 0.57281 -0.18348 0.2798 -0.48821 0.7538 -0.17913 0.19769 0.26169 0.035517 0.019621 -0.31291 0.19903 -0.03465 0.076511 0.060747 0.58979 0.72204 0.58156 -0.44237 0.54745 0.28952 0.26844 0.79674
Theo 0.10696 0.049632 -0.094948 0.02534 -0.11658 0.078177 0.37657 0.053344 0.37116 1.2706 0.75702 0.63571 0.14523 -0.12473 0.15842 0.12016 -0.14911 -0.79131 -0.080486 -0.24029 0.32524 -0.073132 0.057703 0.18323 0.039771 -0.28346 0.098445 -0.27277 0.085464 -0.31888 -0.45488 0.11762 0.10147 -0.021465 0.16714 -0.081577 0.4316 0.1439 0.04884 -0.73184 -0.030044 0.021745 -0.14991 0.30696 -0.24768 -0.37382 0.03454 0.291 -0.2249 0.22005 0.18773 -0.076931 -0.10105 0.28933 0.05906 -0.47691 -0.044659 -0.065019 0.34013 -0.029842 -0.16822 -0.013875 -0.022855 -0.18153 -0.015494 -0.024911 -0.051678 -0.017138 0.080454 0.27537 -0.093116 -0.26233 -0.081675 -0.038214 -0.50281 -0.2213 0.34793 -0.14995 0.20951 0.046187 0.095477 0.32631 -0.11563 0.13603 -0.38848 -0.35449 0.201 -0.56494 0.20447 0.027322 -0.10295 -0.25958 0.29002 0.12943 0.014874 -0.60092 -0.11402 -0.44088 -0.16365 0.43564 -0.22938 -0.28897 0.066986 -0.14665 -0.27147 0.8284 0.1402 0.12655 -0.048408 -0.20689 -0.065888 -0.025302 -0.19272 0.17331 -0.16373 0.38689 -0.17971 -0.047769 0.51023 0.60949 0.23815 -0.060127 0.66092 -0.21816 -0.15515 0.18585 -0.21808 -0.29721 -0.38843 0.18425 0.10513 -0.011049 -0.53905 -0.069404 -0.23919 -0.07644 0.26816 0.24573 0.059825 -0.029792 -0.60216 -0.23707 -0.24131 -0.031789 0.029289 -0.068632 -0.077487 0.090408 0.63714 -0.48344 0.8798 0.23595 -0.43305 -0.40765 0.42498 0.21997 0.14299 -0.025071 -0.20261 -0.20147 -0.04783 0.37033 -0.68789 -0.10222 0.43246 0.24756 0.040057 -0.066776 0.14681 -0.46114 -0.4284 -0.34076 0.051161 -0.59339 0.41032 -0.26104 0.09403 -0.28349 0.39473 0.15318 0.3547 0.13182 0.03687 0.071982 -0.70424 0.079505 -0.010747 0.12123 0.24245 -0.35707 0.10447 0.10875 -0.089423 0.4589 0.13281 0.24231 0.43961 0.07315 0.57427 0.2716 0.036448 -0.12192 -0.29737 -0.64987 -0.069904 -0.13721 0.21164 0.088462 -0.092837 0.019456 0.11203 -0.058723 -0.090579 -0.39125 0.040467 -0.097042 0.26777 0.19965 0.24906 -0.34569 -0.15004 0.31361 0.20429 0.17442 -0.25018 -0.021188 0.27466 -0.0017036 0.41486 0.46183 -0.42952 0.031419 -0.2233 0.09418 0.041884 -0.57567 0.20249 0.47939 -0.075817 -0.14624 0.24523 0.69107 -0.76908 0.021187 -0.62346 0.63788 0.40972 0.15396 0.11779 0.33523 -0.10191 0.12501 -0.38556 -0.5322 0.069874 -0.076546 -0.3961 -0.26199 0.12189 -0.19525 0.041662 -0.273 0.28451 0.50614 -0.17745 0.42472 -0.66381 -0.36694 -0.07235 0.19512 -0.028866 0.31572 0.39679 -0.050282 -0.40264 -0.1473 0.65833 0.28154 0.2021 0.46044 0.21608 -0.3026 -0.097887 0.11498 -0.12149 -0.15457 -0.019021 -0.057237 -0.055788 0.31667 0.090952 0.15811 0.15274 0.32667 0.18892 0.11696 0.59183 0.20494 -0.2121 -0.085424
Malik -0.47173 -0.19503 0.78868 0.73667 0.28906 -0.079339 -0.40034 0.15002 0.24793 1.4092 0.29346 -0.1084 -0.41474 0.089921 -0.57656 0.21589 0.075491 -1.2249 -0.15637 0.57258 -0.73745 0.14498 -0.53768 0.13631 0.10108 0.28961 -0.054631 -0.48213 -0.078393 0.25785 -0.058993 -0.07992 -0.10684 -0.58723 0.048427 0.28324 -0.57206 0.20098 -0.10024 -0.92139 0.025317 -0.3842 0.19801 -0.052165 -0.26147 -0.20526 -0.45948 0.59032 -0.4432 0.76699 0.12449 0.35229 -0.56197 0.097131 -0.0053103 0.021339 0.37624 -0.17184 0.49244 0.18628 0.32197 -0.50377 0.020513 -0.24004 -0.031721 -0.27253 -0.36012 -0.18784 0.62106 0.63328 -0.41857 0.30869 -0.22029 -0.37461 -0.25929 -0.15817 0.29543 -0.42481 0.39526 -0.60233 0.26747 0.271 -0.4337 0.47911 0.42697 0.13825 0.099922 -0.83948 0.26108 -0.2326 0.16987 -0.042488 -0.31149 -0.12598 -0.14013 -0.1217 0.076581 -0.10804 -0.76766 0.18522 0.046092 0.61121 0.23377 -0.14893 0.12978 0.61474 -0.28473 -0.010349 0.54677 -0.15995 -0.12705 0.4016 -0.26927 0.33723 -0.75392 0.4488 0.18585 -0.22553 -0.04152 0.32741 -0.029383 0.28006 -0.19032 -0.015573 0.10752 0.77869 -0.23909 0.32077 -0.344 0.25072 -0.29289 0.15649 0.35228 -0.21679 0.36587 0.066261 -0.045685 -0.18341 0.82954 0.23326 -0.41682 0.21257 0.27353 -0.55006 -0.28285 -0.50093 -0.026025 -0.45895 -0.12616 0.3574 0.047471 0.20205 0.123 -0.47611 -0.22991 -0.08242 0.12718 -0.0087675 -0.16853 0.0016307 0.086341 -0.23745 0.22694 -0.18609 -0.022854 -0.18422 0.37397 0.25196 0.33026 0.46676 -0.068516 -0.56558 0.20527 -0.33241 0.45043 -0.37027 0.21576 -0.018215 0.45785 -0.68505 -0.56764 0.096196 0.58233 0.089646 -0.10785 0.69756 -0.15436 0.31167 0.6193 0.21106 -0.29303 -0.099552 -0.22285 0.49101 -0.024852 -0.087741 0.14721 -0.025783 -0.39407 0.024968 -0.48589 -0.11671 -0.014803 -0.55155 -0.18074 0.29442 0.14863 0.2577 -0.18045 -0.41115 -0.038753 0.1096 0.040843 -0.04842 0.095208 0.044593 -0.64447 -0.18192 -0.29666 -0.26543 0.04032 0.38852 -0.029737 1.0492 -0.45316 0.61963 0.28065 -0.087232 -0.032162 -0.28742 0.54619 -0.14756 -0.48958 0.029175 -0.018999 -0.22062 -0.13663 0.5618 0.35408 0.31768 -0.21579 1.2468 0.12039 -0.29443 0.077114 0.38318 0.34232 0.0018565 -0.43128 -0.18794 -0.20439 -0.12091 -0.3035 -0.21346 0.35749 -0.52287 0.30937 -0.19247 -0.49914 -0.96049 0.1552 -0.39305 0.23303 -0.093632 -0.67195 -0.24154 0.14704 0.27709 0.53934 -0.34388 0.06112 0.089159 -0.29051 -0.26701 -0.12877 -0.10358 0.47735 -0.044229 0.22293 -0.16483 -0.23909 -0.13542 -0.13299 0.32598 -0.4032 0.43496 0.26694 0.29335 -0.76173 -0.12298 0.51008 -0.27465 -0.68584 -0.28242 0.54045 -0.14628 -0.68375 0.3311 0.40885 0.11229
Leroy -0.39615 -0.042837 -0.16769 -0.36721 0.076202 0.14836 0.3208 -0.26686 0.26094 1.2664 0.61368 0.2022 0.28294 0.2594 -0.56495 -0.31196 -0.14144 -0.61561 0.11781 -0.60251 0.17641 -0.1569 -0.05173 0.16715 0.41528 0.091229 0.02177 -0.18578 0.24702 -0.06855 0.1637 0.19208 0.19733 -0.40228 -0.25893 -0.52078 -0.14621 0.26416 -0.13334 -0.44326 -0.27646 0.04741 -0.090022 0.09615 -0.10744 -0.28852 0.56866 -0.14426 0.051679 0.1242 0.07517 0.21701 -0.32412 0.26442 0.30174 0.067607 0.11567 -0.052975 0.03709 -0.27432 0.53805 0.15016 0.2453 -0.14433 0.22827 -0.11356 0.0086725 0.19222 0.013867 -0.024489 0.089549 0.091487 -0.14717 0.10861 -0.53763 -0.032942 -0.084729 -0.40987 0.14291 -0.71062 -0.096261 0.16372 0.047935 -0.011974 -0.084498 -0.37254 0.18661 -0.43321 0.19428 -0.034153 0.12037 0.30564 -0.030742 0.21742 0.092324 -0.87861 0.11722 0.13681 -0.088666 -0.16586 -0.30159 0.24693 0.14819 -0.31639 -0.42808 1.6344 0.23123 -0.018499 0.1375 0.21567 -0.27849 0.040086 -0.36687 -0.10046 0.02151 0.28721 0.38063 0.20024 0.34008 0.22542 0.059727 0.0077338 0.031611 -0.015669 0.040409 -0.1011 -0.0049531 -0.18135 0.16374 0.24483 -0.023061 0.34076 0.12006 0.0077896 0.20167 0.042925 -0.20702 -0.079396 0.043104 0.55677 -0.31052 0.33878 -0.70804 -0.36593 0.34648 0.22276 -0.069556 0.21285 0.36156 -0.21888 0.044274 0.27161 -0.24376 -0.60335 0.10245 0.03491 -0.0049424 -0.36405 0.20776 -0.099053 0.21802 0.054765 -0.1274 -0.084038 0.15311 -0.20437 0.13047 0.37776 0.20727 -0.03374 0.11771 -0.087833 0.22464 -0.11815 -0.060525 -0.22663 -0.53226 -0.2647 0.1541 0.54274 0.41645 -0.085486 0.0088875 -0.050488 -0.3871 0.0018625 0.22881 -0.28376 -0.37526 -0.61801 -0.3225 -0.077437 0.16345 0.077898 0.41545 0.53924 0.3059 -0.31775 -0.008064 -0.21104 0.089169 0.15459 -0.23784 0.17539 -0.84044 -0.10116 0.20397 -0.34396 0.07209 0.12396 0.20083 0.31242 0.15498 -0.045047 -0.17596 0.18677 -0.23675 -0.23758 0.11443 0.12278 0.26251 0.24306 0.3199 0.1708 0.23745 -0.21306 0.16086 -0.10281 0.11072 -0.11673 0.10402 0.027496 -0.094016 -0.22524 -0.03365 -0.055783 -0.056895 0.26816 0.066074 0.051714 0.29832 -0.075557 -0.020625 0.19912 -0.6036 0.44836 -0.30369 0.010723 0.026792 0.10978 0.23158 -0.21059 -0.10399 0.051013 -0.17028 -0.56376 0.048635 -0.25038 0.0604 0.0082199 -0.1542 -0.47373 0.064198 0.048492 -0.27415 0.15534 0.21934 -0.081947 -0.4239 0.10581 0.22158 0.1028 0.84226 -0.12316 0.14994 -0.32574 -0.063056 0.064609 -0.38345 -0.15273 -0.66594 -0.066556 -0.1682 -0.36889 0.13005 0.12355 0.21727 -0.43858 -0.15303 -0.10381 0.39493 -0.28995 -0.098463 0.49347 0.28404 0.14754 0.24985 0.36443 -0.017836 -0.18478
Tyrone 0.21657 0.18803 0.052061 0.82176 0.3716 -0.28609 0.25427 -0.20628 -0.22394 1.5834 -0.0051905 0.19467 0.036427 0.059827 -0.56945 -0.20631 0.39685 -0.88955 0.20897 -0.14487 -0.25578 -0.38836 0.070365 0.29862 -0.25609 -0.25472 -0.29216 0.18165 0.060508 -0.17953 0.2311 0.15337 -0.16419 -0.047989 -0.11846 -0.54679 0.046659 0.18453 -0.1974 -0.25987 -0.10034 0.14982 -0.017605 -0.50218 -0.078968 -0.18158 0.22213 0.043667 -0.033358 -0.033404 0.54367 -0.010855 -0.046136 -0.092806 0.43876 0.31401 0.3903 -0.5108 -0.055681 0.22334 0.29347 0.02469 0.50074 -0.55689 0.42813 0.49243 -0.14067 0.39473 -0.22936 0.050846 -0.14179 0.47488 0.2858 -0.026816 -0.53637 -0.046481 -0.15214 0.25259 0.35401 -0.64 -0.44214 0.062998 0.054768 -0.45228 -0.088285 -0.039894 0.45501 -0.32934 -0.44777 -0.23413 0.21376 -0.0064937 0.15544 0.46515 0.31735 -0.18984 0.48175 0.26348 -0.23522 -0.27943 -0.76352 -0.43625 0.20807 0.18849 0.25823 1.4469 0.15922 -0.4014 0.20358 -0.028037 -0.32757 -0.12377 -0.75069 -0.0071035 -0.1782 -0.32652 0.14386 0.095495 0.22969 -0.027265 -0.14277 -0.059639 -0.097732 -0.58258 0.24777 -0.05158 -0.29952 -0.17055 -0.086191 0.014317 0.10037 0.030742 0.39448 -0.34698 0.68686 -0.049809 0.43085 0.54098 0.45319 -0.30229 -0.11773 0.38188 -0.35249 -0.094536 -0.034686 -0.15737 0.16663 -0.1253 0.64691 -0.26644 -0.40482 0.27767 0.10287 0.21172 -0.32526 0.51606 0.63683 -0.3495 0.23952 -0.25909 0.39686 0.17024 -0.4083 0.05753 -0.018757 -0.074481 -0.026453 -0.041045 -0.12119 0.07572 -0.4892 0.10682 -0.63322 0.31802 -0.036322 0.29784 -0.26364 0.22149 -0.34324 0.12836 0.016294 0.24114 0.18501 -0.10151 -0.26286 0.02366 0.22003 0.040559 -0.35803 0.16594 0.0047798 0.4682 0.28596 0.21214 0.1048 0.0076007 -0.21361 -0.61954 0.44622 -0.20088 0.54051 0.55397 -0.51911 0.077859 -0.31542 -0.34142 -0.46593 -0.11752 0.0056431 0.17694 0.27563 -0.16207 0.15999 0.16305 -0.078636 -0.1719 0.26653 -0.078352 0.39322 -0.094074 0.37402 -0.061136 -0.14568 0.52768 0.19867 0.032884 -0.30141 -0.19211 0.20743 0.19568 -0.29592 0.24975 -0.39463 0.11463 0.30563 0.14281 0.012301 0.42588 0.26363 0.16403 0.35659 0.22928 -0.23608 -0.26262 -0.5234 0.13641 0.1797 -0.11477 0.27798 0.46951 0.33014 0.14395 0.11913 0.12367 0.027567 -0.23598 -0.1553 0.23842 -0.29231 0.35446 -0.21039 -0.25636 0.18599 -0.20705 -0.046824 -0.060894 -0.2723 0.3364 0.12568 -0.2648 -0.10085 0.010892 -0.02776 0.47634 -0.031785 0.073631 -0.31597 0.13388 0.21956 -0.36444 -0.47857 0.71065 -0.91702 0.5198 0.57193 0.37044 -0.010533 -0.71955 0.24448 -0.49441 -0.112 -0.00097424 0.13387 0.030839 -0.39496 0.021265 -0.77537 0.36364 0.13667 0.10323
Terrence 0.51423 -0.1752 0.37289 0.2577 0.5559 0.19613 0.65846 -0.35186 -0.22947 1.3229 0.38609 0.42946 0.21415 -0.091873 -0.2666 0.34593 -0.020189 -1.0099 -0.04329 0.17764 -0.40573 -0.038376 -0.083024 0.20054 -0.27335 -0.012971 0.070414 -0.12565 0.44386 -0.54814 -0.34081 0.011524 0.23195 -0.29918 0.12321 -0.50435 -0.18406 -0.040446 -0.090751 -0.5053 0.29166 -0.11142 -0.17097 -0.20232 -0.099065 -0.38155 -0.31861 0.4207 -0.4356 -0.18443 0.58663 0.14185 -0.36505 -0.10863 0.38931 -0.030271 0.286 -0.25987 0.093383 0.14801 0.68215 -0.05196 0.27328 -0.10955 0.39822 0.12922 -0.16513 0.079644 -0.40655 0.022923 0.64912 -0.21132 0.63381 -0.078405 -0.65167 0.24597 -0.18706 -0.10767 -0.1358 -0.30762 -0.044845 0.32947 -0.016086 0.16151 -0.53945 -0.35882 0.049488 -0.73557 -0.27811 -0.11035 0.14634 0.11807 -0.49836 0.41123 0.091039 -0.22105 0.085384 0.27595 -0.75006 -0.027193 -0.36433 -0.27061 0.062378 0.00081449 -0.049169 1.3248 -0.2808 -0.058734 0.071807 0.032616 -0.29713 0.11617 0.094667 0.12641 -0.34648 0.19295 0.15238 -0.41988 0.47574 0.15825 0.12287 0.23206 -0.19019 -0.27133 0.51932 0.23144 -0.57583 0.2922 -0.28573 0.15936 0.21834 0.31663 0.56736 -0.096925 -0.013911 -0.06637 0.22765 -0.26171 0.47232 -0.2009 -0.37891 0.27647 -0.2064 0.43318 0.032619 -0.00070931 0.45219 0.020703 0.10366 0.3054 0.036853 -0.49745 -0.1064 0.088079 -0.45138 0.32445 0.1564 -0.37635 0.26887 0.0027975 0.30398 0.48365 -0.65476 -0.40987 0.28935 0.41638 0.22315 0.098613 0.44068 -0.31649 0.22303 -0.18951 0.17023 0.1682 0.34802 0.085484 0.073385 0.23317 0.030186 -0.38869 -0.29074 0.4999 -0.24472 0.21733 0.25438 0.44606 -0.062615 0.43252 -0.25432 0.13667 -0.081591 -0.2275 -0.37323 0.34567 -0.019111 -0.13642 0.078473 -0.14987 0.37899 -0.54818 -0.095026 -0.026067 -0.38666 0.016717 -0.18661 0.024413 -0.08146 -0.23685 -0.12871 0.76917 0.41055 0.43881 -0.072795 -0.031151 -0.35693 0.36572 0.47855 0.0081701 0.12113 -0.27966 -0.091538 0.30216 -0.19494 0.34218 -0.45056 0.14576 -0.10491 0.073872 0.15922 0.5222 -0.06748 0.10567 -0.16688 0.36792 -0.29935 -0.078925 -0.059305 0.79713 0.00062887 0.40398 0.40977 -0.028674 -0.1245 -0.14088 -0.092408 0.41954 -0.15127 -0.20064 0.17197 0.057334 -0.29606 0.27851 -0.18724 -0.12353 -0.36766 -0.43534 0.58674 0.33553 -0.18142 -0.52248 -0.20818 -0.17576 0.37181 0.20854 0.059681 -0.082947 -0.27282 -0.32882 0.25507 -0.05415 0.023814 -0.029757 0.41488 -0.096752 0.13824 0.10277 -0.2383 -0.39796 -0.021971 -0.02819 -0.29954 0.25573 -0.75872 0.1154 -0.2938 0.49325 -0.058607 -0.072628 0.19379 0.1947 0.51906 -0.28218 -0.074231 0.33744 -0.058621 0.15351 -0.04031 0.46265 -0.22468 0.21734
Torrance 0.16205 0.28761 0.28001 -0.016582 0.4467 -0.44835 -0.098823 0.39705 0.48227 1.3443 0.38085 -0.04466 0.12538 -0.22496 -0.75571 -0.079531 0.45215 -0.022202 0.49795 0.10643 0.12602 -0.052563 0.34257 0.32025 -0.38056 0.29171 0.19791 -0.1165 0.83643 -0.16708 0.10041 -0.21079 -0.13168 -0.019295 0.34677 -0.45938 0.26095 -0.065371 -0.20592 -0.14513 -0.25572 -0.016687 0.28389 -0.15757 0.098543 0.32144 0.17965 -0.094778 -0.13377 0.59344 -0.29773 0.09408 0.27053 0.17211 -0.090055 -0.40301 -0.21872 -0.051763 0.45227 -0.19773 0.21809 -0.5353 0.17596 -0.14474 1.076 -0.021993 0.29589 -0.43634 0.14813 -0.11615 -0.26979 -0.35227 0.45949 0.12684 -0.23759 0.059107 -0.30588 -0.31107 0.54478 -0.29573 -0.37149 0.16837 0.65291 -0.56836 0.27846 -0.044302 -0.12637 0.088938 -0.29921 -0.61125 -0.12931 0.23104 -0.13944 0.15722 -0.0079908 0.16848 0.38909 -0.27365 -0.09008 -0.38091 -0.21456 0.13523 -0.12193 0.13635 0.23796 1.0956 0.51675 -0.10939 0.043552 -0.13015 -0.35795 -0.21185 0.20298 0.35878 -0.29515 0.31112 0.23695 -0.34607 0.058096 -0.22628 -0.081091 -0.28188 0.4806 -0.11767 0.23038 0.051847 -0.009908 -0.01933 -0.1247 0.3664 -0.082222 0.1274 0.093012 -0.22716 -0.26549 -0.67589 -0.24467 -0.23295 -0.029224 0.071403 1.3464 0.27602 -0.37632 0.43239 -0.07968 0.11912 0.081574 -0.44502 0.026236 -0.15862 0.014117 0.088327 -0.67983 0.13085 -0.42429 0.10286 0.53498 -0.52937 -0.35361 -0.093434 0.068221 0.22567 0.028073 0.37838 0.32879 -0.38488 -0.60113 0.026768 0.1487 -0.10676 -0.27647 -0.25765 -0.7824 0.38882 -0.45396 -0.23738 -0.79656 0.21837 -0.39187 0.34545 -0.13679 -0.072979 -0.35031 0.18787 0.028412 -0.15964 0.27289 0.23407 0.19915 -0.049651 -0.049021 0.060247 0.12619 -0.28129 -0.28234 -0.059586 0.049063 -0.43209 -0.032006 0.31624 0.2552 0.0083658 -0.36195 0.06692 -0.030926 -0.090685 0.26633 0.45504 -0.077595 0.40612 -0.23221 -0.051311 -0.014532 0.12581 0.038701 0.23601 0.3052 0.085699 0.50574 -0.089544 -0.17305 -0.53986 0.036137 0.20667 -0.24532 -0.30623 -0.18996 0.087154 0.21619 0.029243 0.4635 -0.28483 0.18237 0.029856 -0.046855 0.39503 -0.0032802 0.54759 -0.21068 -0.57104 -0.16564 -0.032063 -0.32436 -0.46831 0.047745 0.34562 -0.3001 -0.1272 0.10047 -0.22353 -0.44412 -0.24602 0.34816 -0.14371 0.31422 -0.1244 0.0069878 -0.1436 0.58694 0.059652 0.22183 0.43971 -0.50492 -0.62175 -0.066722 0.049167 -0.68291 0.59672 -0.47076 -0.23089 -0.52013 0.58189 -0.057956 0.46138 0.1397 -0.050119 -0.6438 0.02507 0.086525 -0.17071 -0.45034 -0.1989 0.20194 0.011195 0.6063 0.23201 0.29317 0.227 0.030798 -0.25576 -0.042107 -0.047257 0.13177 0.26731 0.0078514 0.11811 -0.20499 -0.081632 0.011098 0.27622
Tia -0.024096 -0.032971 0.1212 0.21068 -0.021177 -0.50328 -0.14427 0.18037 0.0056171 0.44592 0.58726 0.033749 -0.4489 -0.34616 -0.068531 0.11302 0.088581 -1.1337 -0.2681 -0.050527 0.055598 0.01265 -0.21825 -0.005432 -0.098613 -0.088395 0.10314 -0.60775 0.017893 -0.23838 0.24516 -0.068477 0.6238 -0.28871 0.11194 -0.37038 0.13956 -0.27799 -0.33961 -0.63976 0.15034 0.08235 0.0047214 -0.21874 -0.051895 -0.15063 -0.082308 0.046504 -0.3387 -0.13828 0.19137 -0.14287 -0.19625 -0.00086964 -0.14992 0.043684 0.26535 -0.33982 -0.30016 0.47864 0.013479 -0.16744 0.35977 -0.1245 -0.051696 -0.39782 0.38489 0.11199 0.2482 0.0068145 0.29117 0.069739 -0.22985 0.17568 -0.45324 0.33864 -0.039125 -0.23549 0.095442 -0.57391 0.19933 -0.2188 -0.25983 0.1948 0.26331 -0.36757 0.55879 -0.18097 -0.62051 0.48111 0.17123 0.069836 -0.3562 -0.48798 0.41183 0.32912 -0.092766 0.21033 0.084173 -0.078742 -0.20903 -0.10464 -0.16115 -0.15649 0.088102 1.356 -0.1623 -0.43157 -0.032707 -0.24178 -0.71661 0.1028 -0.42742 0.30799 0.20647 -0.49158 -0.024513 0.17617 0.38752 0.35666 -0.096058 0.22202 0.4373 -0.15252 0.12626 0.35538 -0.16997 -0.22464 0.22287 -0.064244 -0.12561 0.38708 -0.31548 0.38001 0.13414 -0.33093 0.044684 -0.2875 0.20542 0.32255 -1.1174 -0.3316 -0.035774 -0.38837 -0.035969 -0.2439 -0.32859 -0.0046625 0.040092 -0.067421 0.17611 0.45333 0.071123 0.33636 -0.3165 0.24555 0.0078489 0.098332 0.22488 -0.2992 0.1522 0.25161 -0.35501 0.14589 0.094792 -0.31607 0.17464 0.66314 0.10973 0.030775 0.5414 -0.4657 0.076942 0.44679 0.076806 0.20708 -0.16453 -0.12899 -0.36712 0.31449 0.06145 0.25789 0.086463 0.40191 0.061632 0.57071 -0.078904 0.061926 0.12276 0.72635 -0.21469 -0.071945 0.13312 0.45244 -0.39308 -0.10655 -0.055902 0.27862 0.55783 0.16992 -0.46485 0.026544 -0.60705 -0.19103 -0.30737 -0.45334 0.38443 0.5433 0.091864 0.28243 -0.38832 -0.52956 -0.46823 0.50833 -0.099938 -0.15784 0.15073 -0.23004 0.27683 0.10456 -0.4962 -0.038256 0.45326 0.42706 -0.19742 -0.17178 0.034821 -0.045997 -0.0028883 0.12002 -0.2434 -0.46025 -0.34457 0.20088 0.30326 -0.048049 0.091259 0.055381 0.20121 -0.27386 -0.13089 -0.08541 -0.27371 -0.43693 -0.0032307 -0.23457 -0.37543 -0.43855 0.097222 0.38035 -0.14282 0.034241 -0.55737 -0.29139 -0.30258 0.47926 -0.19602 -0.29939 0.070129 -0.059437 -0.076837 -0.063285 -0.20787 0.46347 -0.64713 -0.14421 -0.24523 0.30438 -0.59242 0.072167 -0.59318 0.30398 -0.52151 -0.061765 -0.06207 -0.19601 0.16426 0.14021 0.18972 0.62985 0.013887 0.41358 0.158 0.01786 -0.40167 0.097928 0.50962 0.078854 0.14747 0.10173 0.68325 0.11943 -0.2068 0.24068 0.10231 0.039511 -0.36538 0.10071 0.073849 0.055322
Lamont 0.042085 -0.042692 -4.1976e-05 0.10877 0.19892 0.25732 -0.20468 -0.14652 -0.05408 1.3736 0.79697 -0.0059928 0.22891 -0.014275 -0.40731 -0.24024 0.42822 -1.0655 0.024683 -0.72242 -0.097405 -0.33888 0.15648 0.019226 0.23504 0.42332 -0.24676 0.17525 0.2135 0.21239 -0.13525 0.16926 -0.3842 -0.16284 0.0021194 -0.39657 -0.42328 0.080543 -0.35314 -0.55272 0.17035 0.44798 -0.12256 -0.44745 0.3951 0.19039 0.45349 0.002397 0.22848 -0.14934 0.25615 0.53376 -0.202 -0.18168 0.40561 0.33501 -0.178 -0.27184 -0.043275 -0.012255 0.012882 0.29945 0.18469 -0.19043 0.63337 -0.026871 0.33636 0.10643 0.1869 0.024725 -0.56945 0.38933 0.41764 -0.17952 -0.64482 0.50812 0.39514 0.034113 0.05856 -0.50653 -0.59001 -0.15623 0.18124 0.10572 -0.034513 0.36187 0.20748 -0.41694 0.049308 -0.12506 0.084553 0.42057 0.064847 0.98067 -0.052724 -0.32945 0.22589 0.2872 -0.41796 0.059153 -0.14693 0.24318 0.12205 -0.2236 -0.046408 1.0998 -0.079025 -0.11029 0.086929 0.16378 -0.097147 0.25017 -0.079258 0.0759 -0.28633 0.30599 0.11183 0.012143 0.34062 -0.0060131 -0.31638 0.13729 0.072443 -0.053365 -0.1164 -0.18241 -0.080788 0.028447 0.11251 -0.066221 -0.37583 0.2343 0.45812 -0.34883 0.50028 -0.07917 -0.058657 0.028835 0.42042 -0.20546 0.33544 -0.072469 -0.4967 -0.013151 0.15013 -0.056634 -0.051487 -0.015075 0.35252 0.2775 0.17345 -0.079574 -0.29146 -0.24231 -0.12356 0.47012 0.37241 -0.43061 -0.097643 0.018032 0.15723 0.56469 -0.48639 -0.34672 0.17261 -0.05309 0.0048668 0.2532 0.20066 -0.054228 -0.47758 0.085364 -0.10939 0.13475 0.13919 0.16126 0.58647 0.29734 0.17675 0.29599 0.40735 -0.044626 -0.010046 0.30976 0.4771 0.24648 0.23404 0.15737 -0.16733 -0.071017 0.12325 0.31794 0.31868 0.023437 0.60773 0.18573 -0.031182 0.049603 -0.028799 -0.29574 0.16175 0.23551 -0.12476 -0.28725 -0.073012 0.064271 -0.21901 -0.099731 0.17904 -0.10775 -0.052237 0.28585 0.098418 -0.16326 0.17125 -0.38415 -0.35222 -0.16377 -0.026967 -0.046465 0.34382 -0.04678 -0.096866 -0.12636 0.13487 0.27336 -0.046661 -0.55349 0.1104 0.37386 0.39833 -0.18737 -0.082904 -0.41957 -0.21952 -0.29721 -0.1065 0.086336 0.017558 0.082673 0.2024 -0.054395 0.083522 0.24104 -0.29092 0.51838 0.072768 -0.14188 -0.049159 0.2426 0.12845 -0.2355 0.15504 -0.47069 0.24405 -0.34278 0.071892 -0.14758 0.23463 0.36685 -0.36037 -0.17479 0.1353 -0.057306 -0.12981 -0.15148 0.010888 0.14881 0.26972 0.10333 -0.019947 0.38658 0.17586 0.096591 0.27486 -0.0402 0.37116 0.22972 0.28106 -0.093935 0.20442 -0.25032 -0.073947 0.43713 0.012257 0.36946 -0.034285 -0.33761 -0.32893 -0.18466 0.35449 0.048578 0.25404 0.14539 0.10835 0.17335 -0.50941 0.0097795 -0.068408 0.060701
Yolanda -0.37067 -0.15883 0.34543 0.19332 0.11612 -0.124 0.098621 0.14887 -0.32671 0.78662 0.54247 0.24451 0.16073 -0.048201 -0.30805 0.13415 -0.40822 -0.94701 -0.098739 -0.16231 0.092944 -0.13634 -0.089501 -0.0099115 0.045185 -0.065405 0.081328 -0.052251 0.50077 -0.41352 0.23562 -0.058797 0.63146 -0.69417 -0.21309 -0.28045 0.01498 -0.09094 0.44531 -0.72905 0.25442 -0.31892 -0.16035 -0.040671 0.01239 -0.37063 -0.39727 -0.034682 0.35179 0.0026312 -0.25767 0.36711 -0.11965 0.17689 0.39396 -0.11936 0.24071 -0.17579 -0.41653 0.30378 0.38003 -0.099622 0.031577 0.011724 0.055497 -0.40092 0.19124 0.064691 0.1875 0.032184 -0.30543 -0.30882 -0.25594 -0.21399 -0.3818 0.1547 0.12656 0.10927 0.761 -0.62455 0.065746 0.45031 -0.30088 -0.088635 -0.17658 -0.027048 0.12212 -0.60467 -0.38282 -0.5914 0.27302 -0.070893 -0.12124 0.29081 0.37814 -0.14135 0.56578 0.081511 0.0048493 -0.27262 0.091367 -0.0041612 0.3296 -0.069562 0.042133 1.2668 0.24645 -0.17232 0.17718 -0.11394 -0.39196 -0.17408 0.062654 0.073473 0.26189 -0.29075 -0.074698 -0.19839 0.6036 0.09064 -0.14993 0.11738 0.64245 -0.18789 0.04255 -0.023515 0.28378 -0.48936 0.17886 0.44013 0.026605 0.019099 0.025601 0.19437 0.50189 0.013716 0.18423 0.10432 0.17044 0.32671 -0.25704 0.076713 -0.31567 -0.045049 -0.39144 -0.0085641 0.05316 -0.046044 -0.5177 0.10965 0.089401 0.28627 -0.38251 -0.27875 -0.53985 0.16054 0.045374 -0.48195 0.096259 0.033083 -0.041465 0.48595 0.058535 0.10541 0.43729 0.17603 0.48747 0.5257 0.18435 0.061236 -0.10746 0.22941 0.0081279 0.057402 0.27461 0.067574 -0.15617 -0.24339 -0.60025 -0.16458 0.34399 0.4585 0.3494 0.31973 0.26004 0.16031 0.026079 -0.42629 -0.088057 0.30453 -0.09188 0.013378 0.12881 0.16582 0.043678 0.3774 0.27679 0.29857 0.30645 0.099231 0.19334 0.38205 -0.2321 -0.25214 -0.38778 -0.054097 0.26496 0.5252 -0.096334 -0.087831 -0.20911 0.093978 0.0654 0.55826 -0.39229 0.11231 0.083962 -0.39889 -0.11869 0.11034 -0.15765 -0.37004 0.41561 0.42467 0.26775 -0.16398 0.57023 0.050411 0.46458 -0.22064 0.13695 -0.36846 -0.086149 0.32775 0.12247 -0.45452 -0.07231 0.15169 -0.32306 -0.39671 -0.19117 -0.40288 0.073966 -0.28828 -0.2904 -0.049836 -0.040503 -0.22502 0.053027 0.12808 0.019999 0.184 -0.12567 0.17034 -0.53412 -0.33508 0.34511 -0.21542 -0.028298 0.45189 -0.60542 -0.12566 -0.049448 -0.10498 -0.14583 -0.20147 0.31259 0.19376 -0.64335 0.22474 -0.55064 -0.14411 0.066674 0.22458 0.65859 0.21054 -0.48202 -0.37741 -0.13843 -0.098776 0.23418 0.27436 0.36901 -0.4163 -0.36397 -0.13357 0.24542 -0.012701 -0.073168 0.12736 0.77343 0.27528 0.46943 0.30734 0.057201 -0.14069 0.27934 -0.13199 0.36947 -0.14073
Yvette -0.17952 0.052656 0.42423 -0.03137 -0.11871 0.03028 0.17705 -0.061234 -0.31621 0.90448 0.75048 0.32045 0.078325 -0.10985 -0.12745 0.4652 -0.45133 -1.0162 -0.42739 -0.70093 0.21097 0.16438 -0.43117 -0.25301 0.19901 0.12869 0.0058194 -0.25654 -0.16731 -0.41638 0.27471 0.090064 0.46934 -0.15348 0.28699 -0.17792 -0.23501 0.034303 -0.52023 -0.51228 0.41323 0.036058 -0.17767 -0.084121 0.031974 0.074455 0.12436 -0.22035 0.77295 -0.13123 0.16829 0.29758 -0.28377 -0.15874 0.36443 0.20484 0.22513 -0.20642 -0.018395 0.20435 0.061039 -0.36931 0.14703 -0.14422 0.11756 0.13558 -0.0061312 0.12635 0.36337 0.053488 0.1783 -0.13057 0.083364 0.34143 -0.4961 0.096403 0.0030772 -0.20782 0.14993 -0.22459 -0.34335 0.027321 -0.57825 -0.16083 0.007832 -0.24796 0.49302 -0.41556 -0.1323 -0.24858 0.59512 0.26574 -0.12422 0.068555 0.3523 -0.10394 0.039368 0.33268 -0.061838 0.11226 0.29855 -0.60091 0.092475 0.2473 0.17236 1.1241 -0.043318 -0.46866 -0.10085 -0.34369 -0.1246 -0.082536 -0.29084 -0.17783 0.018542 -0.14308 -0.27695 -0.036655 0.7341 0.04645 -0.36206 0.19144 0.26556 0.15514 0.29408 0.028282 0.005065 -0.24661 0.29593 0.2171 -0.48982 0.028455 0.15982 -0.044433 0.46098 -0.077754 0.5138 0.2494 0.25908 0.05896 -0.22635 0.031244 -0.34918 -0.29732 0.048116 -0.16418 -0.083141 0.096913 -0.12286 -0.13379 0.16556 0.36354 -0.30548 -0.23492 -0.0012917 0.12701 0.49106 -0.15318 -0.1039 -0.10461 0.1793 0.22922 0.044794 0.0064557 0.15546 0.078595 0.57493 0.11521 -0.023346 -0.34882 -0.023346 -0.17502 0.56112 0.39173 0.18377 0.31819 -0.28171 -0.23611 -0.12062 0.33487 -0.11254 0.15144 0.26304 -0.016101 0.48217 0.08613 0.34493 0.066231 -0.17251 0.16872 0.056343 -0.051068 0.14073 -0.16484 0.4187 -0.13559 0.18811 0.16954 0.32734 -0.14135 -0.36209 0.13391 0.17918 0.0071283 -0.062305 0.15534 -0.31708 0.15471 0.036697 -0.21401 -0.043883 0.023994 0.11177 0.39456 -0.020223 0.22848 -0.18142 0.029014 -0.010082 -0.12537 -0.15932 0.058371 -0.013467 0.69062 -0.074086 0.11547 0.18824 -0.3921 -0.11995 -0.037522 -0.31627 -0.21243 -0.35418 0.021571 0.34088 0.13326 -0.11071 0.34408 0.11472 0.15513 0.067692 0.19427 -0.14128 -0.17043 -0.45017 -0.14321 -0.051881 -0.053149 0.32669 0.098134 -0.17231 0.24374 -0.10416 -0.39155 -0.22878 -0.22905 0.40149 -0.44379 0.043159 0.10377 -0.41909 0.027307 0.022623 -0.01501 -0.43735 -0.1431 -0.3049 -0.014189 -0.7339 -0.09132 -0.57024 -0.23841 0.2609 0.30948 -0.23453 -0.1666 -0.25173 0.40356 0.073118 0.32677 -0.21687 0.53572 0.53742 -0.16254 -0.32709 -0.41411 0.20964 0.1669 -0.11821 0.11493 0.65064 -0.16905 0.85409 -0.14527 0.15589 -0.16188 0.00078924 -0.1783 -0.080683 -0.34667
Marcellus 0.060118 -0.34185 0.15155 -0.10509 0.55353 0.7904 0.38653 0.12007 -0.25351 1.1465 -0.39642 0.11255 0.18897 0.58034 -0.70603 0.041168 -0.033415 -0.56122 -0.39153 -0.35772 0.07918 -0.52177 -0.17165 0.079507 0.0127 0.022819 -0.12435 1.4243 -0.028337 -0.063616 -0.013001 0.26299 -0.32771 -0.602 0.29907 -0.064343 -0.34334 -0.035302 0.015518 -0.37667 0.18746 0.57964 0.25086 -0.95575 -0.52095 -0.044292 0.10243 -0.10331 -0.33969 -0.66996 0.58038 0.27376 -0.4484 0.41709 0.79554 0.11628 -0.33213 -0.35171 0.15832 0.2731 -0.24532 0.46226 0.20086 0.1339 0.19508 -0.30007 0.052076 0.13365 0.30398 -0.026624 0.20956 -0.76561 -0.077545 -0.0027002 -0.53117 0.20464 -0.11625 0.53354 0.17462 -0.60154 0.33546 0.069482 0.33698 0.11533 -0.03954 -0.0070587 0.33144 -0.01008 -0.37263 -0.1235 -0.21029 -0.75047 -0.035048 -0.36875 0.40978 0.32423 0.054155 0.4443 0.033075 -0.036336 0.21382 0.018337 -0.39259 0.42437 -0.54759 0.11879 -0.23516 -0.28705 -0.3539 -0.062736 -0.72071 0.083455 -0.38063 0.054068 0.010498 -0.12308 0.079587 -0.27651 -0.37347 -0.16908 -0.23965 -0.022111 0.0086466 0.32026 -0.37859 -0.33773 -0.77143 -0.17227 0.21817 0.3595 -0.39349 -0.86436 0.044749 -0.28537 0.075252 0.32584 -0.026633 -0.27417 0.58475 0.25458 0.92444 -0.12529 -0.84161 0.3567 0.3141 0.46008 -0.024113 0.18354 0.60678 -0.34991 -0.34695 0.43122 -0.15557 -0.13231 -0.21375 -0.06201 0.15074 0.4015 -0.44888 0.15406 0.1793 -0.38892 -1.2962 -0.15776 -0.41922 0.54865 0.76055 0.21423 0.4297 0.095466 -0.4395 0.58117 0.17495 -0.28886 0.079458 -0.50276 -0.50332 -0.43237 0.080599 -0.13361 -0.20402 -0.26668 0.72996 0.52548 -0.54054 -0.2735 0.016907 -0.07417 -0.1541 0.028917 0.15961 0.53835 0.059086 0.43905 0.44877 0.40676 -0.36229 0.12795 -0.091255 -0.63377 0.22523 0.37934 -0.29974 0.21118 -0.3372 -0.24827 -0.10219 0.32286 -0.23308 -0.91182 -0.20026 -0.44584 0.31345 -0.20417 -0.75715 -0.40885 -0.28182 -0.14431 0.34878 -0.10838 0.23079 0.048565 -0.209 -0.30185 0.50047 0.082334 0.027894 0.15837 0.32893 -0.15251 0.44113 -0.054449 -0.092766 -0.20822 -0.36296 0.25634 0.28963 0.045867 -0.30648 0.26152 0.68201 -0.51436 0.024015 -0.47395 -0.065048 0.15037 -0.56575 -0.2024 0.45748 0.3498 -0.092521 -0.14974 -0.26122 0.0016353 0.0084408 0.01465 -0.014842 0.50154 -0.73925 0.092492 0.018611 0.14926 -0.082688 0.44992 0.21969 -0.071524 0.055446 -0.63562 0.016125 0.44516 0.91898 -0.28859 0.59638 0.029261 -0.055562 -0.57256 0.01076 0.031842 0.76166 -0.56223 -0.5895 0.73 0.10046 -0.074338 0.55788 0.80726 -0.13821 -0.23965 -0.5563 0.43441 -0.35544 -0.61724 -0.20839 0.0046683 0.25731 -0.25594 -0.26886 0.48388 0.0069228 -0.30387
Alonzo -0.25098 -0.32345 0.2903 -0.070229 0.16405 0.074677 0.11117 0.011318 0.060103 1.0015 0.50885 0.50446 0.19396 -0.00027483 -0.73847 -0.0044684 0.14847 -0.97564 0.10706 -0.23439 0.40344 -0.43651 -0.13419 0.074318 0.1289 -0.049262 0.10556 -0.22939 -0.2641 -0.08702 0.28442 -0.26974 0.19151 -0.58143 -0.55395 -0.49205 -0.023029 -0.068615 0.21896 -0.54057 -0.15669 -0.12219 -0.10702 -0.26676 0.14165 -0.78768 0.23771 0.28271 0.0045157 0.34296 0.339 0.14844 -0.021666 -0.33178 0.26307 -0.29429 0.12757 0.3515 -0.43104 0.32285 0.52129 0.42369 -0.055124 -0.27899 0.15803 0.044043 0.31836 -0.10265 -0.28855 0.17197 -0.085076 0.014266 -0.29409 -0.082947 -0.31893 0.2281 0.045555 -0.37123 0.35236 -0.47939 -0.0008749 0.58352 -0.19444 -0.24121 -0.032197 -0.12922 0.0043298 -1.1267 -0.45553 -0.24561 0.40793 -0.33351 -0.15461 -0.24113 0.20014 -0.70864 -0.01915 0.036572 -0.15498 0.21131 -0.13462 -0.39398 0.074536 -0.06766 0.15612 1.1775 0.43352 -0.027554 0.26468 -0.04307 -0.27488 0.17922 -0.24526 -0.079114 -0.13199 0.21737 0.016247 -0.30005 0.29712 0.0020416 0.039248 -0.19904 0.40913 -0.21783 -0.048429 0.37146 0.0057958 0.0024197 0.15324 -0.19258 0.28684 0.55755 0.23062 -0.1195 0.013702 0.38808 0.13426 0.071671 -0.057656 -0.17335 -0.037529 0.095275 -0.32525 0.26981 -0.026448 -0.41585 0.58996 -0.23325 0.34093 -0.1571 0.13612 0.037863 -0.39022 -0.29827 -0.09486 -0.22181 0.30723 -0.51437 0.71104 0.011575 0.045548 0.060196 -0.35512 -0.16027 0.11264 -0.15142 0.2998 0.84484 0.57092 -0.28562 -0.070522 0.089452 0.063844 0.35745 -0.23619 -0.2659 -0.65916 -0.32496 -0.0021512 0.052211 -0.13319 0.67142 0.056668 0.33278 0.04584 0.40743 0.25067 -0.10268 0.25297 -0.087599 -0.21579 0.22416 -0.017174 -0.33143 0.15402 0.35813 0.55531 0.16487 -0.036186 0.092718 -0.10801 0.10782 -0.062846 -0.0039236 -0.54531 0.11777 0.1033 -0.054761 -0.31572 0.37934 -0.083639 0.30865 -0.13521 -0.19464 -0.3547 -0.40985 0.044436 -0.11943 0.1772 -0.08568 -0.18884 0.46106 0.46533 0.30059 -0.034928 -0.086745 -0.045397 0.20035 0.37543 0.060623 0.099302 -0.20027 0.04941 0.40789 -0.15203 -0.2386 0.15588 0.37817 0.017985 0.17037 -0.06688 0.038087 0.16363 0.39132 -0.3759 0.28326 -0.29958 0.11402 0.12446 -0.086478 0.22575 0.24149 -0.37041 0.23425 -0.53553 -0.92923 0.32047 0.20151 0.13886 -0.10703 0.061868 0.2169 0.64418 0.070117 -0.43474 0.54981 -0.242 0.18098 -0.48149 -0.092053 0.034455 0.35638 0.39324 -0.14478 0.27352 -0.41311 0.14533 -0.19353 0.048321 -0.052842 -0.37893 0.20029 -0.71149 0.067436 0.015615 0.2917 0.075435 -0.72344 -0.015131 -0.20653 0.82762 0.07793 0.13527 0.24478 -0.018273 -0.17872 0.044465 0.43706 0.099953 0.21785
Darnell 0.023038 -0.012369 0.1072 0.26099 0.20257 0.29341 0.28761 0.17718 0.0048938 0.97163 0.83483 0.17538 -0.11944 0.17341 -0.99642 -0.011961 0.19815 -1.0805 0.14818 -0.26317 -0.21164 0.3442 0.30963 0.48691 0.15439 0.012944 0.24786 0.092561 0.065289 -0.042178 -0.095153 -0.66054 -0.017125 0.12922 0.2268 -0.25559 -0.023908 0.28678 -0.15481 -0.48108 0.085464 -0.043389 -0.24876 0.18029 0.011698 -0.27183 0.09898 0.088131 -0.092939 0.19364 -0.031418 -0.046997 -0.12764 -0.46764 0.31786 0.13095 0.1538 -0.08103 -0.21791 0.039592 0.40131 -0.068079 0.45393 -0.22231 0.22472 -0.067739 -0.0029699 0.038947 0.1467 0.23365 0.26866 -0.06591 0.075302 -0.37311 -0.79081 0.069475 0.046039 -0.22864 0.05206 -0.56758 -0.2142 0.31766 -0.22141 -0.09655 0.46143 -0.1619 0.16712 -0.8818 -0.055551 -0.01614 0.71762 -0.026504 0.19127 -0.035749 0.44844 -0.0055326 0.010825 0.1112 -0.49264 -0.011624 -0.13066 0.052998 -0.22573 0.033125 0.14057 1.1426 0.12902 -0.19494 0.052981 0.12883 -0.50456 0.10302 -0.59337 0.076583 -0.32866 0.36972 0.31865 0.11832 0.75362 0.4033 -0.1082 0.17479 0.16267 -0.58021 0.35249 -0.18464 -0.10784 0.1961 0.015868 0.17015 0.34985 0.56076 0.5416 0.15231 -0.16889 -0.32957 0.22376 -0.13686 0.45889 0.004002 -0.057005 0.098482 -0.24692 0.31265 -0.14602 -0.034973 0.13866 -0.19093 0.41422 -0.21489 -0.13945 -0.089578 -0.13765 0.16104 -0.104 0.098299 0.35624 -0.0042796 0.2292 0.16829 0.021446 -0.083777 -0.14513 -0.74643 -0.029643 -0.085222 0.29102 0.44768 0.62521 0.14773 0.11018 -0.27671 -0.011071 0.12339 -0.15781 -0.040328 -0.15803 0.2099 -0.29084 0.041621 0.13133 0.26845 -0.46901 0.16115 0.057245 0.55186 0.16473 -0.34861 -0.12912 -0.12221 0.054977 0.14745 0.30532 -0.058 0.16898 0.20775 0.2669 0.24376 0.31766 -0.3398 -0.24373 0.090696 -0.37781 -0.50507 -0.5849 -0.29433 -0.07305 0.20091 -0.092824 0.38877 0.14246 0.11309 -0.055706 0.22967 -0.2572 0.013865 0.22134 0.13865 0.091059 0.11166 -0.19473 -0.29506 0.31847 0.41803 -0.28648 -0.33887 0.069374 -0.021725 0.25904 0.30889 -0.37061 0.21358 -0.40865 0.37935 0.27403 -0.37933 -0.034432 0.58745 0.14171 0.35768 0.35293 0.15001 0.32203 0.10212 -0.44825 0.23808 -0.15522 -0.092131 -0.03026 0.30611 -0.16833 0.19059 -0.78154 0.10585 -0.050259 -0.66077 0.024278 0.07215 -0.22319 -0.21784 -0.43443 -0.45892 0.11899 -0.092654 0.13869 0.39151 -0.049569 -0.065641 -0.22837 -0.19637 0.08636 -0.053848 0.13391 -0.34089 -0.019343 -0.051361 0.23549 0.20612 -0.10773 -0.37605 -0.28755 0.55929 -0.33811 0.36063 -0.41287 0.3065 -0.024526 -0.17274 0.21923 -0.059833 0.51378 -0.11517 -0.016367 0.27786 0.46874 0.093694 -0.25767 0.40888 -0.35654 0.057962
Alphonse -0.20196 0.17332 0.1223 -0.37983 -0.020933 0.50795 0.38744 0.089863 -0.22095 0.30813 0.90978 0.36574 -0.10696 0.10607 -0.19609 -0.031922 -0.52915 -1.0157 -0.077259 -0.43108 0.048199 -0.0053567 -0.53965 -0.64397 0.064674 -0.23711 0.37296 -0.27412 -0.41105 0.50658 0.025595 0.18215 0.35466 -0.73689 0.42006 -0.46366 -0.79735 0.029271 -0.14987 -0.17536 -0.25427 0.052203 0.23173 -0.37822 0.70429 -0.46303 0.4804 -0.387 0.074094 0.17618 0.58024 -0.2524 0.50785 0.5155 0.16007 0.36668 -0.12459 -0.22523 0.25138 -0.52522 0.49322 0.0029818 -0.15321 0.48344 -0.44468 0.40993 -0.37876 -0.21074 -0.21068 0.21043 -0.52512 -0.3831 -0.13698 0.63189 0.40343 0.63714 -0.054039 -0.43304 -0.14556 -0.44288 0.030875 0.25247 0.023871 -0.090694 -0.31919 -0.34728 -0.16401 -0.66997 -0.32126 0.23539 -0.0024882 0.31781 -0.37594 -0.13287 0.12401 -0.6629 -0.37919 0.048384 -0.70222 0.20515 -0.42263 -0.0052784 0.13902 -0.022198 -0.037157 0.47928 0.16984 0.064791 0.44633 0.16268 -0.10541 0.3696 -0.042732 -0.70577 -0.31714 0.085067 -0.17338 -0.71264 -0.096215 0.33275 -0.3372 -0.13797 0.79849 0.41442 0.40398 0.19458 -0.3441 0.42121 0.064003 0.61036 -0.25176 -0.26516 0.4804 0.18695 -0.062717 0.16396 0.06629 0.32891 0.26514 0.22803 -0.12981 0.076886 -0.69355 -0.90482 -0.063714 0.089291 0.0085176 -0.046766 0.41762 -0.16024 0.40837 0.088813 0.048727 -0.53394 0.33034 -0.33112 -0.42471 -0.66611 -0.23663 0.041694 0.24312 -0.096817 -0.10778 -0.17168 0.60349 -0.0018631 0.90386 0.55688 0.016314 -0.13526 -0.30022 0.11922 0.5645 0.044171 -0.22062 -0.26389 -0.25479 -0.31047 0.42937 -0.354 0.63374 0.31206 -0.053944 -0.053883 -0.50226 -0.34017 0.046224 0.018331 -0.43581 -0.57712 -0.14754 0.37382 0.014685 0.33469 1.3153 0.15776 0.58708 -0.067057 -0.043374 0.03518 -0.18507 0.52923 -0.12384 0.050818 -0.30759 -0.44172 0.14915 -0.18242 -0.2929 0.15878 0.24688 0.19039 0.02299 -0.19698 -0.13853 -0.058692 0.054636 -0.077451 0.049844 -0.32962 0.1691 0.30156 0.27245 0.59077 0.21075 0.16716 0.38337 0.21316 0.10801 -0.0083384 -0.16441 -0.35327 -0.15416 0.062654 0.43605 0.2625 0.12099 -0.37595 0.56654 -0.008783 0.1293 0.67122 0.057152 0.024824 -0.12019 0.17313 0.45508 0.35009 0.31389 -0.19813 0.25198 -0.061861 -0.86158 0.34346 0.31089 -0.54321 0.10749 -0.3451 -0.087619 0.13695 0.17352 0.23542 -0.090077 0.1323 0.15516 -0.020107 -0.11531 -0.26727 -0.98696 -0.34303 0.015231 -0.61875 0.37809 -0.028618 0.26209 0.014251 -0.16649 -0.14539 0.12703 0.12692 -0.61722 0.19037 0.36701 -0.039652 0.80284 0.47014 0.10059 -0.38596 -0.92787 -0.64194 0.599 -0.52571 -0.10373 -0.19686 0.24268 -0.00097148 0.01797 0.42299 0.59268 -0.058227
Deion 0.078102 -0.053671 0.17623 -0.082507 0.69997 -0.41144 0.80066 0.051437 0.27799 0.49556 0.6027 -0.026544 0.42109 0.49655 -0.57788 0.26359 0.62026 -1.7582 0.15916 0.25919 -0.13137 0.53745 -0.07935 0.064193 -0.28221 0.18593 -0.053475 0.5509 -0.59469 -0.52994 -0.089461 -0.18516 0.48279 -0.69346 -0.13677 -0.63316 -0.78113 0.45768 0.033832 0.33848 -0.11593 -0.3101 0.20839 0.6307 0.11108 -0.19002 -0.81359 -0.10051 -0.56598 0.20626 -0.09198 -0.10459 0.40004 -0.48122 0.48788 0.58207 -0.11413 0.25595 -0.024511 0.16032 0.29166 0.36942 -0.22108 -0.19039 -0.12196 0.060792 -0.18755 0.37259 -0.27807 -0.019985 -0.25152 -0.39829 0.04237 -0.2546 -0.69592 -0.18016 0.38615 -0.48053 -0.33367 -0.49411 0.019664 0.51495 -0.41416 0.13977 -0.3685 -0.09332 0.61521 -0.10989 -0.0089876 -0.4369 0.29986 0.25379 -0.20571 0.21724 0.5801 0.058668 -0.026989 0.25939 0.52309 -0.59773 -0.072245 0.055288 -0.021619 -0.21681 -0.033703 0.60669 0.15832 -0.047795 0.23887 0.32909 -0.47096 -0.22741 -0.68724 0.54851 -0.32388 0.7059 -0.29473 -0.26283 0.25981 0.0086378 0.0092803 0.083917 -0.005874 -0.3711 0.8635 -0.10072 -0.77916 -0.17168 0.68159 -0.095743 0.31316 -0.086529 -0.056848 -0.13265 0.47299 -0.2353 0.52676 0.55332 0.33131 -0.49314 -0.1781 0.14811 0.13645 -0.044942 0.10984 -0.12172 0.56981 -0.62082 0.18327 -0.39554 -0.094622 0.22984 0.19723 -0.024338 -0.034902 0.89431 0.018902 0.044199 0.44393 -0.17993 -0.63955 0.39286 -0.15272 -0.12219 -0.12427 -0.51441 0.41929 0.49597 0.12238 0.30061 -0.5502 -0.12082 0.21787 -0.08997 0.13689 0.53795 -0.41302 -0.042089 -0.41335 -0.58376 0.29628 0.2651 -0.96848 -0.37557 -0.091438 0.67255 -0.22508 -0.045273 -0.46422 0.14715 0.46844 -0.21118 -0.55644 0.15369 -0.18368 0.066961 -0.0024513 0.090282 0.20666 -0.2134 0.10636 -0.87138 0.60784 0.081786 -0.50304 0.27256 0.73806 -0.53724 -0.40664 0.98181 0.043893 -0.045039 0.18775 0.31278 0.083514 -0.030848 0.44401 -0.19579 0.090522 0.12539 -0.14325 -0.034516 -0.41374 -0.23498 0.11603 0.16412 0.078048 -0.23618 0.41756 0.18898 -0.18105 0.51834 0.038427 0.80781 -0.1481 -0.33181 0.80986 0.63974 -0.39225 0.66335 0.41947 -0.012562 0.40287 0.1812 -0.14669 -0.073224 -0.27791 0.035487 0.17753 0.54364 -0.00051907 0.020544 -0.69726 -0.53806 -0.22678 -0.50407 0.27873 -0.42683 -0.075143 -0.024551 -0.20533 -0.19312 0.47991 0.41108 -0.21033 0.41124 0.064363 -0.11711 -0.093816 0.035417 0.43753 1.151 0.47987 -0.50152 0.47317 -0.069088 -1.0368 0.37071 -0.41196 -0.20737 -0.27658 0.0066318 -0.93057 0.066877 0.049623 0.19588 -0.22665 0.074773 0.042109 0.64736 0.57476 -0.25242 -0.19365 0.33244 0.15948 -0.2133 0.10347 -0.074079 -0.11129 -0.20236
Tyree 0.011073 0.022065 -0.23864 0.35132 0.22999 -0.38184 -0.60443 0.39406 -0.25551 0.52728 0.57577 0.26289 0.20095 0.36904 -0.79128 -0.14276 0.13033 -1.2972 -0.15644 -0.22704 -0.1952 -0.17406 0.33897 -0.091264 0.16929 0.09108 -0.023636 0.59853 0.06253 -0.068141 0.32873 -0.25352 0.073479 -0.36228 -0.20984 -0.27749 -0.1174 0.66404 0.093394 -0.51917 0.31969 -0.19346 -0.081612 0.42631 0.25539 -0.14761 0.28239 0.031991 -0.0048712 0.19133 0.28637 -0.23069 -0.18031 -0.12527 0.9649 0.41563 0.34446 -0.25052 0.079577 -0.26009 0.27598 0.259 0.11143 -0.45569 0.1273 -0.61037 -0.34867 0.02871 -0.31182 -0.21282 0.25775 -0.43213 -0.11266 -0.052921 -0.53525 -0.20325 0.086935 -0.409 -0.098537 -0.78835 -0.17293 0.107 -0.10793 0.13536 -0.15953 0.15962 0.5122 -0.63005 -0.64929 -0.28226 0.16433 0.099265 -0.31029 -0.0038374 0.46237 0.14265 0.0082794 0.034381 0.18537 -0.024893 0.00574 -0.30123 0.20554 -0.067763 -0.1155 0.93603 0.30444 -0.19828 0.31169 0.105 -0.47964 0.16574 -0.29001 -0.10663 -0.024587 0.024571 -0.28181 0.25655 0.62107 -0.15553 0.74841 -0.29341 0.23832 -0.093374 0.24282 0.076302 -0.15442 -0.26168 0.12512 0.25371 0.41408 -0.088015 0.065355 -0.09771 0.20783 0.18148 0.23789 0.044342 0.27957 -0.26044 0.1854 0.064827 0.091977 -0.23182 -0.18589 0.15852 0.27311 -0.00098078 -0.014762 -0.23688 -0.077472 0.088006 0.14231 0.042608 -0.46843 0.24474 -0.13901 -0.15222 0.32741 0.53406 -0.10448 0.20217 -0.1177 -0.22986 0.1818 -0.11291 0.16429 0.37782 -0.15832 0.18715 -0.28016 0.26683 0.53592 0.067249 -0.20061 -0.13139 -0.30047 -0.42906 -0.47545 -0.12463 0.44092 -0.0022551 0.026734 -0.35638 0.023969 -0.057636 0.56277 -0.099989 -0.016049 -0.20986 -0.21513 0.42466 0.010948 0.24406 0.020154 0.32499 0.20406 0.12514 0.50208 -0.48495 -0.20287 -0.34097 0.41763 -0.42475 -0.39152 0.18655 0.069249 0.19175 -0.26578 0.16529 0.023096 0.32066 -0.30855 -0.074904 -0.24823 -0.060856 0.16069 -0.24366 0.018198 0.036411 -0.05831 0.33408 -0.35475 0.76767 -0.035762 0.3055 0.32154 -0.040983 0.14849 0.274 0.14166 -0.28565 0.043582 0.22344 0.00019237 0.09263 -0.055991 1.0425 -0.1376 0.60522 -0.093144 0.10924 0.28793 0.10603 -0.49448 0.23417 -0.46785 0.25122 0.11586 0.34549 -0.032635 -0.12236 -0.50365 -0.057624 -0.28634 -0.77573 0.34211 0.17788 -0.054136 -0.31325 -0.68694 0.069933 0.39083 0.1781 0.14899 0.61481 -0.040233 -0.055111 -0.37637 0.19391 0.17719 0.067364 0.34668 -0.0019875 0.4321 -0.020179 -0.93124 0.07925 -0.21363 -0.44097 -0.22388 0.028272 -0.58397 0.22834 0.025979 0.016095 0.24671 0.026658 0.18877 0.21907 0.28759 -0.2701 0.2834 0.38552 -0.013292 0.10863 -0.10394 0.31345 0.51059 -0.33189
Wardell -0.017872 0.50274 -0.48041 0.21573 -0.049479 0.25608 -0.049963 -0.10729 -0.1312 -0.024274 0.80982 0.14633 0.24716 -0.29669 -0.054413 -0.47578 0.24826 -1.5425 0.51872 -0.51047 0.2144 0.016925 0.22554 -0.19039 0.27306 -0.20437 0.28384 0.39204 -0.12098 0.013081 0.47368 -0.51389 -0.081421 0.62701 -0.21207 -0.015423 0.020674 0.40171 0.14041 -0.58203 0.43576 0.3145 -0.21384 -0.08582 -0.32186 -0.13832 0.19248 -0.12231 -0.069709 -0.25464 0.13582 -0.47351 -0.24702 0.13328 -0.31407 0.04761 0.56747 -0.17767 -0.34316 0.35363 -0.070987 -0.25811 0.43362 -0.38918 0.12576 0.23035 0.49112 -0.00093094 -0.34548 0.36205 -0.12721 0.5036 -0.07006 -0.32503 -0.48377 0.33269 -0.35939 -0.09455 -0.014476 -0.60466 0.25398 -0.16604 0.48767 -0.010985 -0.38558 0.058377 0.15618 -0.72926 -0.082805 -0.12496 0.62288 -0.25597 -0.28879 0.60394 0.27128 0.2037 0.090186 0.36581 -0.08567 -0.035737 -0.021141 0.37254 0.27713 0.19201 -0.27908 0.62746 0.29853 -0.0015212 0.22662 -0.1505 0.26821 0.039011 -0.57299 -0.33309 0.1869 -0.21656 0.06186 -0.28241 -0.20295 0.56185 -0.027635 0.32663 -0.27041 -0.079892 0.48381 0.28192 -0.18523 -0.1698 -0.18807 -0.54464 0.017919 0.21175 0.13703 -0.12157 -0.3199 0.28703 0.053632 -0.28345 0.055085 0.025929 0.80763 0.45733 -0.85193 -0.23619 0.26916 0.24864 -0.022458 -0.29802 -0.56612 0.17391 -0.21737 -0.07604 -0.24601 -0.19666 -0.18285 -0.57356 -0.20688 -0.24468 0.081394 -0.041516 -0.10566 0.32616 -0.45899 -0.46623 0.60329 -0.78066 0.16943 -0.2055 0.028694 0.1314 -0.22544 0.10859 0.27342 0.29012 -0.11876 0.010411 -0.58173 -0.19053 0.17413 0.49638 0.20297 -0.1473 -0.1568 0.46308 -0.12502 -0.096924 0.32241 -0.24971 -0.42917 -0.21733 -0.21543 0.33926 -0.12203 0.3706 0.12204 0.14895 0.3366 0.41357 0.18169 -0.24794 0.10304 -0.17642 -0.042929 -0.66422 0.0088909 0.16431 -0.15635 0.14462 -0.18681 -0.063676 -0.25213 -0.043749 -0.040705 0.56209 0.082195 -0.32367 -0.11573 0.12854 0.18869 0.035829 -0.36053 0.10948 0.17016 0.15796 0.19845 -0.088117 -0.46718 -0.29891 -0.35622 0.46292 -0.048901 -0.55326 -0.82437 -0.028168 0.078434 -0.068777 -0.20763 0.0092583 0.38579 -0.26549 0.50598 -0.69586 0.43353 0.44156 -0.27246 0.48569 0.075732 -0.21296 -0.13096 -0.094343 0.3367 -0.24639 0.10455 0.31838 -0.099235 -0.58812 0.23337 0.1339 0.18964 -0.34053 0.070591 0.52924 0.45988 0.042431 -0.38714 -0.20778 0.26723 0.26473 -0.15754 -0.044568 -0.41819 -0.020016 0.59995 -0.10365 -0.51426 0.060716 -0.25284 -0.33439 -0.18929 -0.34134 0.24993 0.23279 -0.39084 -0.11852 -0.11259 0.65002 0.059256 -0.5526 0.13026 -0.6222 0.041753 -0.37981 0.29751 0.31255 0.29592 0.13047 -0.29613 0.66739 -0.071807 -0.27433
Latoya -0.27337 -0.16677 0.41448 0.75433 0.099339 0.14846 0.14408 -0.035322 -0.70526 -0.36529 0.6183 0.23586 0.50217 -0.052283 -0.95577 -0.1674 0.25058 -1.7008 0.096059 -0.20501 -0.43948 -0.046416 -0.28094 0.18406 -0.0059139 -0.034019 0.081125 -0.078649 -0.14827 -0.13758 0.18514 0.10681 0.62937 -0.17637 -0.024332 -0.032468 0.019331 0.6601 0.77562 -0.53953 -0.06356 0.2397 -0.53354 0.088757 0.14157 -0.13516 -0.25897 -0.54453 -0.087234 0.17239 -0.33502 0.24924 -0.59672 -0.08802 0.13195 -0.24467 0.31193 0.062348 0.075249 0.48692 0.15758 -0.4063 0.12233 -0.2458 -0.14894 0.49853 0.40487 0.40468 0.42675 0.21844 0.77587 0.090082 0.42869 -0.43496 -0.4813 0.39489 -0.20342 0.079719 0.33913 -0.28483 0.13071 0.26922 -0.30404 0.2489 -0.057772 -0.13831 0.59651 -0.87284 -0.37668 0.0091728 0.21682 0.12181 0.13298 -0.37121 0.76953 0.25434 0.21276 0.53663 -0.48787 -0.52694 0.46372 -0.18324 0.13178 -0.5335 0.18097 0.59368 -0.1566 -0.13907 -0.12755 -0.1648 -0.24603 -0.28435 -0.19617 0.2768 0.1492 -0.13122 -0.14132 0.080146 0.47998 -0.025467 -0.52362 0.0043722 0.34228 -0.35693 0.20808 -0.094387 -0.23041 -0.29581 -0.011782 0.034524 -0.048268 0.017574 -0.097384 0.060045 0.494 -0.34043 -0.2504 -0.42857 0.27673 -0.026748 -0.24997 0.46658 -0.52241 0.20959 -0.3056 -0.52136 -0.22006 0.074453 -0.27517 0.2448 -0.16219 -0.21568 -0.16224 0.084048 0.29572 0.46503 0.40582 -0.38111 0.33005 -0.082391 -0.077388 0.71347 0.14106 -0.21075 0.1909 -0.40103 0.60521 0.18987 -0.068526 0.042908 0.031622 -0.3263 0.21284 0.27005 0.27218 0.60076 -0.41362 0.22053 -0.32234 0.17441 0.023305 0.38896 -0.28628 0.38764 0.80383 0.94839 0.3028 -0.17761 -0.068152 -0.065667 -0.32699 0.13576 0.39106 0.056297 0.11868 0.50837 -0.14292 0.10807 0.39539 -0.4135 -0.71912 -0.29626 -0.042242 -0.053358 -0.40853 -0.16665 -0.010877 -0.12806 -0.17133 -0.098068 0.22643 0.67889 -0.10732 0.28436 0.40324 -0.026912 0.28503 0.15176 0.26285 -0.003773 -0.027479 -0.046481 0.060387 0.23853 -0.1239 -0.13722 0.43536 0.14189 -0.15634 0.046228 -0.34926 -0.069045 -0.33667 0.65687 0.0421 0.034201 0.20189 0.2963 -0.084514 0.097957 -0.17172 -0.19823 0.29606 -0.03423 -0.1998 -0.051754 -0.05301 0.15185 -0.10932 0.21616 0.065114 0.092385 -0.43165 -0.096194 -0.42283 -0.6082 0.23533 -0.39196 0.069931 -0.0092482 -0.49772 -0.1512 -0.21529 0.31722 0.37381 -0.062558 0.34874 0.13524 -0.6193 -0.049191 -0.55794 -0.061049 -0.16524 0.031898 0.29257 -0.009237 0.059031 -0.20877 0.057703 -0.2516 0.27645 0.079453 -0.39241 0.21913 -0.10236 0.2881 -0.015569 0.12102 -0.34547 -0.27315 0.59458 0.31785 0.051698 -0.19351 0.17012 0.052961 -0.80942 -0.15225 -0.053217 0.024749
Jamel 0.089491 -0.0962 0.071347 0.021899 0.76339 0.064724 -0.071031 0.58061 -0.13797 -0.25258 0.69136 0.32214 0.061861 -0.28162 -0.42685 -0.22171 0.33721 -1.5319 -0.20319 0.13224 -0.31293 -1.2465 -0.14097 0.015454 0.51027 0.14013 0.018718 -0.34721 -0.16965 0.16013 0.15487 0.1562 0.13321 -0.051832 0.075858 -0.85476 0.0039217 0.84147 -0.2026 0.0065356 0.016339 0.29537 0.14076 -0.18729 -0.14028 -0.32376 0.29378 -0.38671 0.14065 0.71942 -0.1192 0.21619 -0.29911 -0.55683 0.20107 0.25429 0.23501 -0.042162 0.13067 0.087711 0.22904 0.1669 0.4245 -0.31225 0.12346 -0.19441 -0.10159 -0.83044 0.55562 0.36086 0.29445 -0.25367 0.16391 0.28329 -0.17254 -0.018772 0.1931 -0.2995 0.94793 -0.15093 0.34996 0.11388 0.056495 0.039921 0.22275 0.38753 0.46303 -0.60279 0.12494 0.022022 0.65451 0.28681 0.44425 0.14487 0.64708 0.22651 -0.12815 0.1607 -0.11294 0.24854 -0.29572 -0.21635 -0.28909 0.20615 0.095857 0.44498 0.10979 -0.46943 0.61219 0.16804 -1.0091 -0.49378 -0.40805 -0.11372 -0.43587 -0.25498 -0.1947 -0.17172 0.21735 0.25262 0.22321 -0.32676 -0.54764 0.008517 -0.080778 0.23837 -0.92898 0.018074 -0.028134 -0.048614 0.15324 -0.098042 0.2992 0.1435 0.038296 -0.35917 -0.02203 0.0074824 0.0097107 0.11188 -0.1704 0.18963 -0.52913 0.053925 0.078228 -0.16106 0.52033 0.65578 -0.25079 -0.013149 0.2311 -0.059144 -0.39277 -0.83887 -0.16367 0.35593 0.32992 -0.32315 -0.23273 0.16604 0.15345 0.57095 0.28302 -0.45103 0.36936 0.15155 0.43163 0.38322 -0.31926 0.046117 -0.42141 -0.30883 -0.19047 -0.18776 0.10106 0.35179 -0.63316 -0.015016 -0.1377 -0.5795 0.017092 0.4174 -0.19272 0.11292 -0.24257 0.50242 0.42852 0.48663 -0.073221 0.19544 -0.30303 0.13987 0.36062 0.52418 -0.33925 0.37718 -0.070013 -0.75359 0.78468 -0.61318 -0.25429 0.60498 -0.42761 -0.01973 -0.27558 -0.30083 -0.23464 0.44499 0.15291 0.05549 0.43358 0.053658 -0.26281 0.25747 -0.23492 -0.34038 0.15876 -0.50991 0.57156 -0.1109 -0.21734 0.34796 0.20031 0.11321 -0.50862 0.33087 0.52327 -0.0084046 0.053458 0.68139 0.6128 -0.0043705 -0.26274 0.22772 -0.55474 0.33716 -0.10939 0.6723 0.26002 0.21036 0.62904 0.92639 0.008619 -0.51405 -0.38053 0.51171 0.081036 -0.053596 -0.18258 0.33415 -0.45411 0.24763 -0.26748 -0.19236 -0.11594 -0.87711 0.75111 -0.16042 0.0098922 -0.15321 -0.36983 -0.70304 0.0068882 0.23439 -0.36842 0.22618 -0.18561 -0.81235 -0.61002 -0.39043 -0.10391 0.12045 0.34554 0.10025 0.42771 -0.19206 -0.076509 -0.39688 0.61825 -0.31411 -0.10764 0.10593 -0.73901 0.27688 -0.16759 0.49324 0.52074 -0.54482 0.14904 -0.12327 1.056 0.11528 -0.03673 0.36102 0.29277 0.069197 0.071595 -0.26906 0.29364 -0.27311
Malika -0.04511 -0.52854 0.49905 -0.15253 0.01649 -0.21154 0.2048 -0.11291 0.061886 -0.57373 0.99428 -0.0090946 -0.88777 -0.11016 -0.63584 -0.12698 0.1565 -1.731 -0.34343 -0.27472 0.16349 0.067276 -0.19655 -0.075874 0.2017 0.42423 0.43456 -0.22427 0.15551 -0.032329 0.64388 0.11742 0.67587 -0.37634 0.17177 -0.024634 -0.10706 0.45236 -0.32796 -0.57618 0.29971 -0.36063 0.17004 -0.34805 -0.44927 -0.24513 0.16388 -0.40206 -0.23922 0.4584 0.18773 -0.22382 -0.33983 0.25154 0.46428 -0.22861 -0.3422 -0.19668 -0.33386 0.74808 -0.11921 -0.36754 -0.013384 -0.273 -0.38271 -0.61521 0.36081 0.10536 0.72571 0.43334 -0.61073 -0.33689 0.19854 -0.30001 0.16841 0.013359 -0.13922 -0.59464 0.49539 -0.75373 -0.11312 -0.066287 -0.32169 0.65533 0.14021 0.3981 0.059523 -0.16299 -0.53478 -0.48658 0.10715 0.34682 -0.63573 0.21436 0.075779 0.36094 -0.014836 -0.1558 0.08728 0.0004449 0.41123 0.3004 -0.11399 0.11056 -0.31775 0.29468 -0.32102 0.095717 -0.14406 0.063785 -0.43997 0.083066 -0.022337 0.16304 -1.1612 -0.29863 0.31619 0.23525 0.2733 0.11267 -0.11731 0.39199 0.43275 -0.83494 0.48473 0.22707 0.32157 0.01454 0.3504 -0.23477 -0.32251 -0.35132 -0.10914 -0.20028 0.043593 -0.25282 0.091195 0.020145 0.093612 0.12725 -0.0047311 -0.16361 -0.26082 -0.46459 -0.14817 -0.30438 -0.10902 0.31414 -0.26668 -0.10839 -0.13331 -0.06326 0.40874 -0.19205 -0.24476 -0.080367 0.29353 -0.50983 -0.56672 0.10161 0.37778 0.52763 0.89146 -0.18212 0.24406 -0.48892 0.45187 0.28405 0.2237 0.48167 -0.57277 -0.3691 0.40127 0.12097 -0.56476 -0.13158 -0.21922 0.04892 -0.46073 -0.3322 0.2556 -0.0023041 0.40587 0.12824 0.344 0.78942 -0.54066 -0.082509 -0.22822 0.0068517 -0.17455 -0.29158 0.13291 0.15026 0.24556 0.1813 0.017869 -0.2327 0.011675 -0.15418 -0.23923 0.38801 -0.019403 -0.20552 -0.038291 -0.12228 0.33381 -0.0056591 -0.41671 -0.16241 0.21229 0.12802 -0.12101 0.11875 -0.065011 0.24873 -0.065073 -0.2024 0.27097 -0.41221 -0.1761 0.33082 0.15587 0.18897 0.22333 0.34229 0.26843 -0.065957 -0.34679 0.082118 -0.1324 -0.78011 0.022136 0.6059 -0.083544 0.028372 -0.24959 0.44279 -0.25908 0.073371 -0.41667 0.22687 -0.1114 -0.22169 0.088569 -0.10505 0.061323 0.27172 -0.074345 0.13647 -0.488 0.1149 -0.47691 -0.7799 -0.034535 0.32756 0.56729 -0.44987 -0.16135 -0.38783 0.11012 0.0012867 -0.23709 0.62482 0.067316 -0.046181 0.081458 0.49421 -0.69319 -0.070825 -0.46163 -0.53417 0.014282 -0.569 0.064312 -0.17559 0.18083 -0.44916 0.31823 -0.013034 -0.17297 -0.22717 0.23971 0.023379 0.10564 0.24246 0.05982 0.36707 -0.16957 0.060976 1.224 0.23455 0.089072 0.338 0.38483 0.13258 -0.4102 0.21721 -0.29263 -0.25103
Lavon -0.033082 0.41024 0.64844 -0.072337 0.64545 0.39996 0.0021318 -0.19967 0.046693 0.19271 0.92899 -0.015357 0.5104 -0.14784 -0.87646 0.10753 -0.24247 -1.2604 -0.47993 -0.61976 0.20975 -0.37752 0.20906 -0.054346 0.55174 -0.40246 0.052726 0.46184 0.41329 0.67023 -0.1051 0.21624 -0.36727 0.061238 0.60503 -0.38276 0.27043 -0.49438 0.86651 -0.20198 0.099553 -0.40529 0.91072 0.062541 -0.51019 0.33839 0.32635 0.21799 0.32242 -0.27091 0.41418 0.10899 0.37543 0.31843 -0.25408 -0.74424 -0.25242 -0.52094 0.40413 0.25118 1.0399 0.30773 0.62488 -0.94931 0.4243 0.27955 -0.2825 -0.36032 0.063654 -0.12174 0.018834 0.24371 -0.063708 -0.52994 -0.20095 -0.18056 -0.295 0.0086245 -0.38668 -0.95066 0.30193 -0.66637 0.32465 -0.15724 0.19415 0.36856 0.49643 -0.27129 -0.57337 -0.15398 0.202 0.2732 -0.022346 0.17133 0.20787 0.20679 -0.064506 0.051897 -0.011089 -0.048536 0.15158 0.2318 0.39602 -0.35438 0.13663 0.18872 0.55726 0.20702 -0.28461 -0.41736 -0.65967 0.86458 -0.63428 -0.42962 -0.090667 -0.27103 -0.49724 -0.36138 0.26387 -0.13434 -0.30065 0.61455 -0.13905 -0.42518 0.71428 -0.35278 0.79726 -0.28752 -0.0014707 0.18867 -0.34459 -0.22366 -0.52802 0.097385 0.012737 -0.23027 0.13223 0.44702 0.016455 0.26899 0.78932 0.57588 0.097748 -0.12679 -0.10966 -0.18206 -0.20099 -0.035891 -0.10562 0.20475 -0.27486 0.048748 -0.35926 0.031382 0.09583 -0.12769 0.60588 -0.020791 -0.18667 0.36065 0.54417 0.35782 -0.22619 0.42908 1.1756 -0.36292 -0.10229 0.45421 -0.40899 0.44473 -0.73536 0.068815 0.053126 0.76198 -0.056411 -0.114 -0.052443 -0.60538 0.007587 0.41565 0.45524 -0.082086 -0.034425 0.24854 -0.067844 -0.12842 0.1002 -0.53637 -0.31824 -0.47565 -0.31323 -0.163 -0.38829 0.18945 0.45368 0.17364 0.19232 0.22574 0.21639 -0.11755 -0.10562 0.37732 0.25947 0.68065 -0.18508 0.4902 0.0086131 -0.20243 0.26509 0.72896 -0.12353 0.14599 0.021007 -0.39394 0.34443 -0.16036 0.27955 0.20879 0.80254 0.086837 -0.14379 0.97317 0.81364 0.63056 0.072998 0.42726 0.07234 0.067507 0.1024 -0.72986 0.32273 0.21391 0.15287 0.21744 -0.041739 -0.47464 0.32101 0.1855 0.14121 0.59058 0.3886 -0.1625 0.58838 0.028293 -0.28913 -0.062201 -0.28012 -0.20462 0.42621 -0.066075 -0.0993 -0.03894 0.39416 -0.22265 -0.064859 -0.29414 0.18643 -0.14867 -0.47935 -0.36154 -0.002069 -0.45705 -0.62371 -0.24891 -0.11873 0.1807 -0.40116 -0.20176 -0.52377 0.053591 0.52349 0.80394 -0.17519 0.57641 0.13587 -0.066386 -0.2897 0.28869 -0.13098 -0.26776 -0.49652 -0.7439 -0.1951 -0.3308 0.38296 0.0139 -0.041323 -0.57062 -0.2614 -0.1647 0.33801 0.32123 -0.21009 -0.17727 0.59915 -0.23965 -0.43395 -0.0017251 -0.2018 -0.47924
Tanisha -0.1871 0.03698 0.19173 0.19992 0.61945 0.24169 -0.11817 -0.1641 -0.37107 -0.45381 0.35661 -0.14241 -0.40188 0.41479 -0.36361 0.29325 0.20887 -1.6196 -0.073475 0.36061 -0.09738 -0.42748 -0.39121 -0.45501 -0.090778 0.047655 0.31835 -0.50228 -0.15827 -0.013506 0.43681 0.018624 0.43637 -0.76975 -0.17832 0.09748 -0.22792 0.47277 -0.24882 -0.27908 -0.19571 -0.75696 -0.71385 -0.34985 0.10794 -0.63451 -0.70612 -0.30903 -0.096332 0.4324 0.28432 0.11321 -0.11111 -0.17077 -0.093343 -0.60934 -0.096256 -0.27048 -0.13633 0.88042 0.31945 -0.25693 -0.33213 -0.46393 -0.01798 0.23118 0.25185 0.38621 0.59139 -0.15809 0.10966 -0.077416 -0.13645 -0.26001 -0.24489 0.20384 0.1586 -0.15563 0.47438 -0.50702 0.27492 -0.18633 -0.48184 0.14763 0.44693 -0.058876 0.37511 -0.4968 -0.58936 -0.095732 0.65738 0.63849 -0.59861 0.11003 -0.080878 0.43476 0.11324 0.11758 -0.24763 0.25778 0.18667 0.076421 -0.11392 -0.077739 -0.027349 0.61647 0.045866 0.021855 -0.15587 -0.77985 -0.42092 0.21474 0.12843 0.14701 -0.38619 -0.38117 -0.20138 0.57345 0.52184 -0.074165 -0.6109 -0.13422 0.080293 -0.33454 0.18605 0.352 -0.12391 0.014642 0.053782 -0.3912 0.12168 0.18406 -0.00049354 -0.033121 -0.012303 -0.19896 -0.20253 0.029754 -0.12148 0.004533 -0.02091 0.15426 -0.14715 -0.01184 -0.14545 0.20095 -0.092204 0.17924 -0.19148 0.35597 0.088514 -0.084567 -0.36769 0.2234 -0.31654 -0.18861 0.4899 0.2451 0.39701 -0.2072 0.3001 0.28656 -0.0085498 -0.58126 -0.0072345 0.083226 0.54087 0.39597 -0.18352 0.027728 -0.15529 -0.42169 0.27089 0.51394 0.16456 -0.18768 -0.60795 0.56018 -0.27711 0.044112 -0.47289 0.12534 0.37597 0.38969 0.29525 1.0554 -0.041514 0.048604 0.21348 0.024657 0.058312 -0.20945 0.062932 0.29695 -0.13177 -0.016699 -0.21314 0.39274 0.57818 0.19719 -0.32097 0.14381 0.031607 -0.52119 -0.14285 0.46903 0.3126 0.48085 0.46456 0.28177 -0.4485 0.64865 -0.032942 0.011985 -0.059461 0.08999 -0.06419 -0.2031 0.14479 -0.69877 -0.29446 0.048623 0.61567 0.61942 0.096975 -0.22915 0.37412 0.086545 0.10845 -0.25503 -0.15423 -0.34529 0.11806 0.6648 0.33204 -0.32247 -0.16246 0.7781 -0.021395 0.55827 -0.57547 0.24161 0.13169 0.21098 -0.39479 -0.55177 -0.43855 0.074533 0.21506 -0.033456 -0.38102 0.27883 -0.40558 -0.39092 -0.10802 -0.52076 0.16374 -0.27306 -0.52826 -0.46202 -0.11304 -0.029132 0.24949 0.18617 0.14661 0.31529 0.045886 -0.32049 -0.39728 -0.20807 -0.15164 -0.36547 0.057216 0.16802 0.28115 -0.40295 0.32362 -0.061195 0.50552 0.24527 0.13379 0.048335 -0.57112 0.14017 0.3096 0.54729 -0.069443 -0.019095 0.61992 0.16082 0.5279 0.11886 -0.12224 0.19228 0.070682 -0.0065702 -0.34273 -0.088402 -0.17554 -0.19727
Nichelle -0.22236 0.10857 0.092215 0.41942 -0.015807 0.8581 -0.72047 -0.17167 0.044719 -0.48272 1.0282 -0.22505 0.19019 0.093961 -0.47846 0.054591 -0.84598 -1.7724 -0.45762 -0.30406 -0.15334 -0.58224 -0.19238 -0.2265 0.52214 -0.34799 -0.33247 -0.10202 -0.28378 -0.048902 0.41054 0.068965 0.22651 0.1044 0.11364 -0.32524 -0.18756 0.52563 0.42403 -0.6122 -0.062315 0.083499 -0.22054 -0.38017 0.39149 0.20401 -0.3149 -0.06595 0.27685 0.11182 0.22521 -0.56824 -0.074741 -0.7709 0.82988 -0.66247 -0.13239 -0.03734 -0.58916 0.0031588 0.076871 -0.087816 0.24455 -0.47085 -0.082249 -0.19616 0.21207 0.14608 -0.011798 0.65308 0.59039 -0.4782 0.012216 -0.87112 -0.50912 0.34225 -0.25546 -0.12576 0.56929 0.1487 -0.07353 -0.05521 -0.14936 0.76284 0.43054 0.035759 0.42186 -1.0493 -0.1955 -0.62126 0.37484 0.57561 -0.78214 0.10025 0.7514 -0.15799 0.65003 -0.079036 -0.48226 -0.65218 -0.44444 -0.041317 0.45261 -0.46203 -0.1555 0.40011 0.043038 -0.011652 -0.24623 -0.11061 -0.67573 0.0068143 -0.44787 0.26098 0.2181 -1.0763 -0.16302 0.0020723 0.31897 0.12849 -0.39059 0.56594 0.39358 0.55635 0.574 -0.094762 -0.22384 0.22732 0.43404 0.38041 0.27517 -0.26778 0.024968 -0.12478 -0.068124 -0.45954 0.00011374 0.3233 0.32575 0.43376 0.22786 -0.25129 -0.42819 -0.0419 0.23641 0.25685 -0.020903 0.40363 -0.59697 -0.086178 -0.045512 -0.039529 0.20279 -0.24443 -0.35954 -0.28049 0.23798 -0.31054 0.43773 0.70591 0.27235 0.22839 0.0045301 -0.38055 0.36821 -0.13543 0.52203 0.22012 0.33806 0.6363 0.17969 -0.71227 -0.029496 0.59484 0.043439 0.67061 -0.40819 -0.10585 -0.10765 -0.041275 -0.0041921 -0.12142 0.3648 -0.043473 0.39106 0.56121 0.23752 0.49824 0.10231 0.2441 0.58879 -0.34397 -0.19074 0.041698 0.39859 -0.34761 0.33222 0.073415 0.36123 -0.079514 -0.65918 -0.17666 0.036405 -0.24307 -0.76921 0.30022 0.38457 -0.44524 -0.26341 -0.11979 0.16402 0.58355 -0.13217 -0.4933 -0.49181 0.6112 0.4888 0.072651 0.47481 -0.34708 0.1963 0.31337 0.46653 0.37971 0.60292 -0.17817 0.48078 -0.27713 0.036282 -0.42112 -0.13839 0.19063 0.23454 0.052149 0.05125 -0.25436 -0.12194 0.27342 0.089651 -0.088894 -0.20513 -0.588 0.043921 -0.39338 -0.04538 0.31133 -0.79669 -0.35898 0.56553 -0.40115 -0.046749 -0.061983 -0.2253 0.56795 -0.35739 -0.58008 -0.057777 0.33858 -0.38599 -0.18563 -0.20339 0.56268 -0.10608 -0.26004 -0.51052 -0.12181 0.48797 0.26338 -0.86689 0.47587 -0.37871 0.16818 -0.38899 -0.034523 0.25479 -0.0031032 -0.0012844 -0.62547 -0.054224 0.33409 -0.24577 0.27171 0.37992 -0.41231 -0.11297 0.020676 -0.12077 -0.013803 0.011917 0.44735 0.40022 -0.015568 0.10858 -0.24158 -0.14498 -0.85217 -0.13461 0.15938 -0.22493 0.19563
Latisha -0.27196 -0.12687 -0.01916 -0.41973 0.2044 -0.017847 0.13699 0.24309 -0.87753 -0.67805 0.76382 -0.19696 0.10478 0.35229 -0.41163 -0.32796 0.16031 -1.4223 -0.16288 -0.26104 -0.17159 -0.20971 -0.31102 -0.41325 0.35382 0.16923 -0.077623 0.063369 -0.034795 -0.17745 0.21175 0.0099161 0.17514 -0.10041 0.10239 -0.34149 0.058281 0.48648 -0.26919 -0.38529 -0.37677 0.0069197 -0.58441 -0.67701 0.59828 0.11102 -0.74078 -0.10631 0.083918 -0.23828 0.2889 0.046605 -0.1965 0.0079809 0.21809 0.17472 0.22108 -0.40281 -0.15252 0.62603 0.085329 -0.078218 -0.13319 -0.13281 -0.03293 0.072977 0.043568 -0.15083 0.50019 0.060858 -0.0036883 -0.0093036 -0.046043 -0.19254 0.0659 0.14135 -0.26449 -0.48156 0.24458 -0.67699 0.40159 0.27707 -0.018113 -0.059789 0.35865 0.36197 0.79642 -0.89268 -0.15878 -0.33117 0.34607 0.50429 0.34991 0.072579 -0.22202 0.44662 -0.080041 -0.028552 0.25726 -0.086854 0.13543 -0.26223 0.38896 -0.54459 -0.10352 0.45409 -0.32108 0.30761 -0.020738 -0.34905 -0.69724 -0.061475 0.076272 0.35829 -0.24192 0.098988 -0.38273 0.12643 0.39382 -0.036297 0.22822 -0.63401 0.417 -0.11449 0.60663 0.031824 -0.071126 -0.33465 0.31468 0.051069 0.35853 -0.14629 -0.089918 -0.049015 0.34841 -0.19921 -0.041633 -0.30808 0.17079 0.46772 0.4209 -0.16381 -0.23227 -0.083347 -0.78586 -0.062102 0.33863 0.15247 -0.15695 0.22104 0.0050506 -0.25332 -0.36308 0.3721 -0.35288 -0.204 0.42168 0.078321 0.58878 -0.30889 0.29607 0.39941 0.60403 0.25926 0.20564 0.071196 0.54046 0.45231 -0.14594 -0.001934 -0.44244 -0.40056 0.33302 0.82786 -0.39485 -0.41009 -0.22999 -0.18536 -0.64507 0.19941 -0.1273 0.93102 -0.058204 0.15378 0.35673 0.75128 0.23945 0.082524 0.017932 -0.42279 -0.15073 0.54887 0.54127 0.60763 -0.013603 0.0048375 0.10693 0.63892 0.69656 -0.43485 -0.37216 0.35487 -0.62715 -0.12123 -0.31798 0.22463 -0.32822 0.27988 0.48769 0.019049 -0.061682 0.12182 -0.39845 0.4235 0.11848 -0.1454 0.0081309 0.044073 0.16566 0.26743 -0.056958 -0.040022 0.099767 0.023708 -0.18883 -0.37096 0.19659 -0.11512 0.15634 -0.19643 -0.5222 -0.42388 -0.35777 0.3969 0.15302 -0.14469 0.15176 0.60114 -0.12468 0.058495 -0.5219 0.091438 -0.037842 -0.10352 -0.2026 -0.17596 -0.35625 -0.084363 0.30144 0.23708 -0.096525 -0.14574 -0.33617 -0.3614 -0.59331 -0.71055 -0.13834 -0.17161 -0.22732 0.19909 -0.0056412 0.096379 -0.64116 0.34552 -0.031738 0.47083 0.33387 0.00070019 -0.61774 -0.061148 -0.12555 0.10366 0.27129 0.013357 0.30529 -0.018369 0.643 -0.27435 0.47656 -0.36106 -0.022451 -0.41091 -0.4129 -0.011769 -0.24547 0.44782 -0.16339 0.065674 -0.36456 0.34205 0.99816 0.10812 0.13863 0.55557 -0.20584 0.036303 -0.12568 -0.11881 -0.26598 -0.16177
Shereen -0.0808 0.015797 0.077655 0.89048 -0.11443 -0.22751 0.025675 -0.070188 -0.63753 -0.64711 0.63985 -0.050959 0.02695 0.24511 -0.20243 -0.45289 0.0020831 -1.7456 -0.01367 -0.48082 0.032792 0.26347 -0.073321 0.15137 -0.032722 -0.095345 0.38597 -0.29564 -0.2429 0.053843 0.56995 -0.43068 0.14038 -0.49167 -0.040725 0.018812 -0.22217 0.29803 0.456 -0.61515 0.32726 -0.7954 -0.40086 -0.50491 0.15928 0.18934 0.1406 -0.26514 0.81122 -0.21656 -0.0047083 0.11766 -0.32834 0.048884 0.29632 -0.24202 0.5072 -0.20366 0.074351 0.44751 -0.44195 -0.75242 -0.16881 -0.086729 0.089958 -0.50963 0.25432 0.58195 0.40886 0.43736 -0.49663 -0.2227 0.29079 0.43341 0.0075099 -0.27302 -0.069298 -0.085061 0.032528 -0.38042 0.17641 -0.12279 0.069049 -0.28302 0.32717 0.067773 0.32829 -0.73023 0.26842 -0.073193 0.10633 0.14779 0.20357 -0.01141 0.1101 0.74614 0.8139 -0.0056992 -0.0030684 0.17889 0.38092 -0.3077 0.066863 -0.069177 -0.14866 0.09028 -0.034702 -0.38446 0.22993 -0.65317 -0.34603 0.096988 0.20465 0.061404 -0.4694 -0.019217 0.066189 0.38344 0.56186 -0.10396 -0.63303 -0.16153 0.8441 0.19964 0.02233 0.12117 0.24853 -0.097787 -0.24293 -0.10679 -0.41726 -0.23375 0.27581 -0.0009332 -0.0015658 -0.71227 0.079538 -0.033477 0.22296 -0.045174 0.68757 0.21227 0.34727 -0.42563 -0.50665 0.16217 0.57872 0.14116 -0.94025 0.43691 -0.25174 -0.16468 -0.16993 -0.20931 0.35674 -0.24116 0.86667 -0.1121 -0.32195 -0.022924 0.16789 -0.13934 0.56467 0.19846 0.57873 0.055906 0.3759 -0.031165 0.26165 -0.4772 -0.069288 -0.040256 0.40686 0.16032 0.43364 -0.57487 0.58859 -0.72827 -0.25195 -0.19632 0.1367 -0.19318 0.32033 0.089711 0.10975 0.25719 0.26771 0.099525 -0.18869 0.15585 0.25063 0.0056024 -0.088493 0.19516 -0.29007 0.55959 0.73377 0.14502 0.1418 0.16087 -0.27382 0.17805 -0.18435 -0.073234 -0.56986 0.069079 0.25478 0.65875 -0.0040613 0.26407 0.2168 -0.33506 -0.46324 0.50316 -0.32733 0.098488 0.040247 0.44 0.026187 -0.11072 -0.18902 0.02572 -0.74242 0.23862 1.0967 0.4466 0.30786 0.26952 -0.088324 -0.28419 0.02141 -0.16451 -0.77083 -0.079986 0.27792 -0.25761 -0.23673 -0.072046 0.09526 -0.32206 -0.27048 0.4765 0.16668 -0.2406 0.07479 0.2828 0.20243 0.21442 -0.037862 0.23537 -0.20229 0.31882 -0.050371 -0.05223 0.11049 -0.15528 0.49107 -0.20236 -0.57581 -0.18848 -0.57272 0.44942 -0.44221 -0.006199 -0.20022 -0.058289 -0.69693 -0.29983 -0.57198 0.56852 -0.48681 -0.47186 0.16417 0.42214 -0.21516 0.36293 -0.24518 0.081109 0.035693 0.34033 0.065712 -0.18505 -0.21725 0.17448 -0.81342 0.14938 0.085629 0.28091 -0.50355 0.71028 0.6929 -0.12929 -0.30845 -0.11829 0.84439 -0.0033259 0.095999 -0.32779 -0.16168 0.28304
Lakisha -0.58892 0.25498 -0.3846 -0.27754 0.12134 -0.096467 0.09255 -0.04677 -0.53329 -0.74956 0.85636 0.57945 -0.23782 0.091104 -0.59243 0.24432 -0.1475 -1.9337 -0.062805 0.293 -0.023252 0.11571 -0.18251 -0.053243 0.12964 -0.42146 -0.22252 -0.012831 -0.065404 -0.053026 0.1376 -0.49871 0.60882 -0.19988 0.44382 -0.22751 -0.16438 0.87573 0.050596 -0.89391 -0.39535 0.056931 -0.094907 0.48461 -0.039538 -0.65098 -0.62098 -0.6982 0.40134 0.20922 -0.043597 -0.027386 -0.59671 -0.48133 -0.16351 -0.092005 0.055457 -0.47145 -0.50314 0.70255 -0.078388 -0.69765 -0.68265 -0.30812 0.30347 -0.35862 -0.35608 0.10413 0.61974 -0.022319 0.55414 -0.19968 -0.18832 -0.12686 -0.58313 0.2546 -0.96277 -0.31145 0.54269 -0.36085 0.61973 -0.23326 0.15385 -0.12727 0.56061 -0.07259 0.62135 -0.79834 -0.4139 0.0074448 0.11367 -0.20934 0.0052544 0.12763 -0.22027 0.09463 0.38843 0.42274 0.1194 -0.029617 0.073115 -0.14745 0.16676 -0.17773 0.1386 -0.068049 -0.70716 -0.72098 0.51765 -0.17571 0.24324 -0.00079548 0.14895 1.0341 -0.19154 0.50325 -0.028126 0.15172 0.13946 -0.4159 0.076359 0.11458 0.62922 -0.058528 -0.10791 0.60147 -0.095597 -0.078314 0.21974 -0.083658 0.32517 -0.23737 0.11682 0.024975 -0.048001 0.077939 -0.40309 -0.37674 0.058574 -0.376 0.28892 0.46697 -0.27149 -0.37142 -0.34222 -0.19067 -0.28358 0.67028 -0.24447 0.080109 -0.091148 -0.37486 -0.16411 0.22872 -0.064575 -0.26899 0.5956 -0.47936 -0.22705 -0.060375 0.40086 0.089842 -0.4417 -0.11707 0.26096 -0.57008 0.49486 -0.12075 -0.30659 0.0011909 0.3535 0.60093 0.90744 -0.011107 0.36005 0.3196 -0.060493 -0.50018 -0.86572 0.12549 -0.50793 -0.21849 0.11525 0.12423 0.12544 0.69101 0.86682 0.013391 0.18124 -0.24594 0.017926 -0.085749 0.046469 0.16126 -0.55098 0.28764 -0.35614 0.21904 0.34138 0.10814 0.034169 -0.27312 -0.013753 -0.062669 -0.06399 -0.17728 0.092101 0.46319 0.1066 0.4482 0.44589 0.77614 -0.35966 -0.022069 -0.46879 0.42209 -0.092237 -0.52114 0.34196 -0.49692 -0.15299 0.58603 0.45905 0.29631 0.22762 0.21241 0.09398 0.077509 -0.48741 0.04967 0.44415 -0.47841 0.11124 0.87472 0.21357 -0.22005 0.33775 0.27243 0.026426 -0.55689 -0.47952 0.024131 0.20262 0.011796 -0.54329 -0.78575 0.041489 0.14907 -0.032267 0.53789 -0.0074699 0.1266 -0.2456 -0.39563 -0.65162 -0.2323 0.74127 -0.31937 -0.50754 0.11245 -0.36303 -0.65659 -0.091934 -0.37113 0.18468 0.53494 0.0015341 0.13117 -0.68462 0.32196 -0.1995 -0.049858 -0.0071754 -0.073997 0.26533 -0.081569 0.37912 -0.46734 0.42957 0.077433 -0.7204 -0.39482 -0.86519 -0.055767 -0.44827 -0.16426 -0.037601 0.17146 -0.017405 -0.46545 1.0625 0.18717 0.25711 0.085209 0.0064689 0.48389 -0.31207 0.087008 -0.1917 0.18529
Shaniqua -0.14794 0.17529 -0.26754 0.19997 0.16172 -0.01166 -0.10079 -0.19218 -0.57007 -0.69755 0.49229 -0.085374 -0.22431 0.26779 -0.15942 -0.11408 0.5828 -2.0555 0.048233 -0.069323 -0.33177 -0.21246 -0.25662 0.11439 0.051047 -0.22839 0.050866 0.076069 0.060834 -0.38528 0.46772 0.41313 0.16083 -0.33609 0.18652 0.01132 0.32729 0.71259 -0.4593 -0.57051 -0.41098 0.16869 -0.40376 -0.48394 0.080746 -0.28001 -0.49421 -0.4673 -0.44068 0.36786 -0.24492 0.50568 -0.45589 -0.03074 0.040391 0.19755 -0.1238 -0.37688 -0.0036334 0.76458 0.45804 -0.13865 0.14019 -0.15321 -0.2409 0.1834 -0.38806 0.45688 0.073512 0.2945 -0.26915 0.30478 -0.17829 -0.071008 -0.24204 -0.021628 0.38089 -0.25121 0.30138 -0.46382 0.45379 -0.30133 -0.27097 0.2809 0.40734 0.28908 1.2565 -0.93907 -0.11559 -0.23284 0.1379 -0.4343 0.17484 0.18445 -0.017305 0.34799 0.0026011 0.98755 0.36086 0.078989 -0.083483 0.19978 0.35318 0.052698 0.23756 0.059618 -0.4107 -0.24433 -0.15943 0.31337 -0.63896 0.036105 -0.31183 0.16326 -0.36416 -0.6104 0.096072 0.30428 0.0044625 0.32196 -0.18808 -0.11353 -0.40977 -0.4945 -0.021716 -0.29276 -0.04395 -0.35763 -0.11871 -0.4273 -0.32019 -0.16384 0.17843 0.10841 0.44163 0.4081 -0.095323 0.14968 -0.11841 0.10291 -0.18123 -0.048312 -0.73529 0.26287 -0.30816 -0.091226 0.69704 0.6782 -0.24947 0.41331 -0.69768 -0.26469 0.30488 0.12476 -0.52563 -0.24066 0.40481 0.0042036 -0.14016 -0.1374 -0.066988 0.65741 -0.20146 -0.056726 0.032606 0.21053 -0.25262 0.55677 0.0024974 0.88721 -0.056492 -0.059774 0.64549 0.26781 0.23976 0.039945 -0.58302 -0.069484 -0.58504 0.049999 -0.045834 0.035938 -0.23749 0.25751 0.044078 0.52222 0.27612 0.28206 0.022872 0.0073152 -0.0032739 -0.30622 0.091772 0.51861 -0.1764 0.38768 0.1287 -0.31432 0.91737 -0.63767 0.0046505 0.2097 0.045134 0.51235 -0.42751 -0.25104 0.43252 0.037484 0.52129 -0.25002 -0.39906 0.48095 -0.50277 0.34957 0.21337 -0.25166 0.0010818 0.24005 0.69067 0.27137 -0.3595 -0.38555 -0.49979 0.40591 0.063008 0.046908 0.034636 0.21477 -0.0075841 -0.16515 0.036323 -0.40085 -0.15582 0.091802 0.31121 0.19279 0.54964 0.43454 0.14075 -0.40348 0.02153 -0.33796 -0.44191 0.37317 -0.2324 -0.4791 0.10203 0.0017074 -0.082619 0.21877 -0.48587 -0.13979 -0.050408 0.089172 -0.065855 -0.33625 -0.33065 -0.33841 0.24845 0.8476 -0.40063 0.18202 -0.0019384 0.22314 -0.4233 0.47011 -0.55839 -0.1609 -0.49771 -0.17804 -0.1498 -0.38192 0.31798 0.42125 0.090323 -0.42069 -0.0026492 -0.14241 0.55599 -0.45329 -0.49117 0.12581 -0.1994 0.74257 -0.2133 0.15965 -0.093209 0.2472 0.22324 0.2512 0.37979 0.045087 0.065003 0.48392 -0.18222 -0.052654 -1.0018 0.022128 0.40872 -0.01584
