Sarah -0.27448 -0.40011 -0.16634 0.59426 -0.46493 -0.14947 -0.055769 -0.18526 -0.35934 2.4329 -0.19702 0.30006 -0.48304 0.089744 -0.45519 -0.16678 -0.30058 -0.46718 -0.1384 -0.16383 0.17152 -0.016655 -0.54967 0.15314 0.30046 0.37436 -0.056258 0.38036 -0.41914 -0.045735 -0.12224 0.61556 0.36738 -0.098742 0.29802 0.21864 0.40998 0.37528 -0.066726 -0.75597 0.0058906 0.27476 -0.24146 -0.40003 -0.034896 -0.055728 -0.068927 -0.0095811 0.72718 0.113 0.095644 -0.20855 -0.22583 -0.37576 0.12044 -0.24132 -0.069632 0.082706 -0.23492 0.20256 0.35813 -0.042575 0.20989 0.051947 -0.16365 -0.18626 0.11998 0.05177 0.57276 0.15131 0.19389 0.18865 -0.18866 0.25915 0.068022 0.2596 -0.11673 0.092643 0.051087 -0.38721 -0.1495 -0.36038 0.050454 0.095023 0.32108 -0.60507 0.29497 -0.64933 0.18275 0.15667 0.32188 0.16202 0.0090194 0.15506 -0.27276 -0.47394 0.093556 0.57882 0.00080737 -0.35176 0.04632 -0.17869 0.1159 -0.77008 -0.23304 1.9016 -0.10311 -0.17672 -0.13876 -0.0077263 -0.25863 -0.10052 0.29935 0.021898 0.44416 -0.46769 0.097133 -0.22999 0.34994 0.43069 -0.085978 0.18627 -0.14039 -0.48507 0.047079 0.35736 0.16489 0.029415 -0.092265 -0.057849 -0.2654 0.24135 0.10826 -0.36248 -0.24741 0.064431 -0.25475 0.0052808 0.043551 0.010345 -1.1649 -0.12532 -0.091617 0.030677 -0.11347 0.1019 0.029033 -0.14368 -0.56511 -0.14293 0.3301 -0.20796 0.10923 -0.015315 0.1585 -0.12264 0.39315 -0.45393 -0.078191 -0.51544 -0.19824 -0.095813 0.12468 -0.034132 -0.26208 0.03955 0.075239 -0.12979 0.34479 -0.01949 0.063068 -0.29881 0.24603 -0.0088426 0.13694 -0.56892 -0.60595 -0.29989 0.029073 0.12145 0.21468 -0.1825 0.3342 -0.029855 0.46491 0.21189 0.62167 0.24965 -0.16955 0.27949 -0.032724 -0.14844 0.16871 0.0055915 -0.14485 0.1308 -0.033384 -0.24035 0.29519 -0.03592 -0.25194 -0.24811 -0.24361 -0.15531 0.067823 0.072556 -0.035355 0.22547 -0.10942 -0.53016 -0.23756 0.29118 -0.33678 -0.26131 0.057565 0.25692 -0.1655 -0.0025976 -0.33679 -0.41081 -0.037294 0.29017 0.16015 0.12723 0.43851 0.045139 0.40394 -0.54377 0.046012 -0.071463 0.37177 -0.40739 -0.27293 -0.016402 0.18011 -0.45241 0.39175 0.2449 -0.26575 -0.45722 -0.24491 0.0052845 0.032021 -0.043561 -0.10109 -0.10707 -0.21309 0.070242 0.020383 -0.16127 -0.15813 0.18714 -0.016853 -0.39717 -0.70153 -0.2139 0.093636 -0.043507 -0.27398 0.27249 0.32563 0.045115 0.13129 0.30092 0.079868 0.12942 -0.1334 0.13077 -0.010108 -0.23312 -0.25323 0.48962 -0.42893 0.17432 0.1805 -0.10482 0.65029 -0.22908 -0.11064 0.34364 0.45013 0.17296 -0.098417 -0.39081 -0.34225 0.018619 -0.015233 0.065991 0.28708 -0.056933 0.43814 0.15906 0.12742 0.36979 0.29012 -0.16126 -0.21686 0.13289 -0.32827 -0.088659
Matthew -0.11081 -0.43442 0.06075 -0.054319 -0.068204 -0.38453 0.69187 0.16845 -0.31464 2.5267 0.11608 0.13731 -0.31665 0.077998 -0.73783 -0.012734 -0.22785 -0.15045 -0.47269 0.32215 0.38738 -0.53537 0.06949 -0.0085332 -0.17525 0.19976 0.30282 0.57205 0.039949 0.039256 -0.27449 0.46372 0.088694 -0.26563 0.16736 0.14016 -0.070906 -0.15469 -0.040929 -0.23549 0.50315 -0.0054787 0.14077 -0.26387 -0.25613 0.14317 -0.12542 0.11029 0.24894 0.047251 0.33988 -0.19636 -0.11756 0.065059 0.19413 -0.23136 -0.083441 -0.0058304 -0.019106 -0.045973 0.3153 -0.12142 0.43901 0.13492 -0.18696 -0.30035 -0.072874 0.33536 -0.025093 0.44339 -0.057186 -0.21666 0.37174 0.2195 -0.44045 0.0044964 0.31651 0.029001 0.13871 -0.1676 0.21334 0.2022 0.53478 0.063676 0.25026 -0.64662 0.28648 -0.82643 -0.39882 0.25724 0.58463 -0.34424 -0.17191 -0.049122 0.51051 -0.25538 0.29059 -0.28171 0.17118 -0.54139 -0.14677 -0.39986 0.27524 -0.49851 -0.3057 1.8301 0.0090479 0.14873 0.18103 0.024821 -0.030635 -0.36193 0.076961 0.076212 0.064669 -0.045397 0.036873 -0.19069 0.079017 0.25352 -0.53394 -0.53844 -0.078196 0.34734 0.26704 -0.55832 -0.32268 0.46011 0.42279 0.16431 0.055805 0.75733 0.38447 0.016428 -0.40805 0.012101 0.14767 -0.68631 -0.094292 -0.20015 -0.32409 -0.28168 -0.1545 0.43714 0.15896 0.48316 0.42752 -0.76069 -0.27181 -0.39901 0.090439 -0.17022 -0.19218 0.15621 -0.28328 -0.25552 -0.43805 -0.61544 -0.60827 -0.29784 -0.0052127 -0.42853 0.3055 -0.24948 -0.40215 0.46467 0.3372 -0.13374 -0.16216 0.19161 -0.047469 0.23077 0.31022 -0.45327 -0.082085 0.011791 -0.044355 -0.34355 0.27992 -0.059392 0.058945 -0.4015 0.19415 0.33535 0.24396 0.47138 0.016745 0.19434 -0.41332 -0.4848 -0.4455 -0.027621 0.083032 0.37332 0.083732 -0.52118 0.1275 -0.054512 0.59099 -0.25444 -0.94804 -0.17435 -0.41534 0.098481 0.21731 0.32355 -0.076241 0.19951 -0.52759 0.47327 0.26455 0.20812 0.1397 -0.27814 -0.41211 0.43898 0.23503 0.25588 0.31147 0.33468 0.17505 0.053655 -0.004367 0.42035 0.16391 0.23122 0.11731 -0.59044 -0.34479 0.32002 0.050343 -0.084388 -0.58073 -0.078245 0.0095608 -0.33265 0.025186 0.40433 -0.11457 -0.41104 -0.12688 0.09868 -0.10484 0.00025979 0.11481 -0.001855 0.37726 -0.083743 0.10281 0.19206 -0.032283 0.12188 -0.032032 -0.13729 -0.2696 -0.28938 0.27574 0.11835 0.32572 -0.29395 0.46268 0.050349 0.37729 0.071712 0.4457 -0.0032085 0.077544 0.32206 0.25527 -0.31519 -0.10832 0.086962 0.056999 0.19962 -0.16641 -0.37892 0.18892 0.1159 -0.17999 0.20746 0.3391 -0.39441 0.11061 0.21089 -0.2582 -0.25645 -0.31297 -0.20156 -0.01818 0.19154 -0.22155 -0.12728 -0.072349 0.70079 -0.49913 0.49398 -0.13161 0.4694 -0.037341 0.054127
Greg -0.44419 0.18556 -0.44548 0.23739 0.13946 0.19204 0.27716 -0.15787 -0.18598 2.4048 0.40582 -0.20214 0.26998 0.051753 -0.27158 -0.39291 0.24298 -0.1251 -0.16837 0.37285 0.024184 -0.25292 -0.17921 -0.64272 0.0091337 -0.17168 -0.15657 0.39606 -0.053691 -0.20126 -0.092713 -0.40707 -0.015175 -0.14417 -0.044429 0.16075 -0.22513 0.070608 -0.10525 -0.34535 0.52308 -0.16788 -0.063803 0.093553 -0.29868 -0.086662 -0.022345 0.44741 -0.12828 0.27006 0.64565 -0.12246 -0.14518 0.084927 0.051601 -0.4395 -0.016751 0.29545 0.17384 0.23943 -0.60267 0.14341 -0.17249 0.29459 0.33213 -0.38687 0.034336 -0.29704 0.030191 0.20173 0.26491 -0.099026 0.51288 0.52139 -0.41857 0.13369 -0.36737 -0.43588 -0.058198 -0.08169 0.59324 0.0015665 0.27951 0.18515 0.1198 0.11137 0.10704 -0.60531 -0.52063 0.33015 0.40503 -0.12282 -0.074086 0.67845 0.52687 -0.5066 0.0015791 0.10277 0.046244 -0.061099 0.19383 -0.27262 0.22164 0.12174 -0.17125 1.8601 0.069206 -0.011159 0.074443 0.2847 0.10028 -0.23094 -0.039127 0.18423 -0.12405 -0.32493 -0.16982 -0.24178 0.53502 0.42487 0.47922 -0.07871 0.24359 -0.042787 0.36517 -0.27076 -0.42761 0.019485 -0.018864 0.13717 -0.016585 0.53005 -0.17619 0.04113 -0.14478 0.040358 0.075767 -0.10381 0.24499 0.13921 -0.65274 -0.19105 -0.31876 0.20571 0.16896 0.3164 0.37919 -0.2303 -0.24659 -0.0055808 0.18924 -0.24737 -0.13183 0.25589 0.15935 0.23409 0.4722 0.0042437 -0.076007 0.1431 0.15091 -0.24278 0.55793 -0.47854 -0.23446 0.11964 -0.11068 -0.13121 -0.089327 -0.23319 -0.17325 0.0028775 0.19571 -0.072621 -0.019012 -0.14911 -0.064923 -0.42849 0.17906 -0.062039 -0.031435 -0.0738 -0.25751 -0.067105 -0.37979 -0.036443 0.405 0.3427 -0.37301 -0.19393 -0.19191 0.07908 -0.29787 0.17177 -0.019574 0.26675 -0.15159 0.09644 0.18334 0.1972 -0.39744 -0.32279 -0.41593 -0.079038 -0.039965 0.27499 -0.20065 0.044463 -0.03736 0.34737 0.05426 -0.092811 0.17922 0.079539 -0.39375 0.48799 0.31085 -0.046609 -0.17258 0.0064943 -0.22613 0.27383 0.21372 0.22932 0.19481 -0.044903 0.016207 -0.25554 -0.12972 0.16884 0.17095 -0.21132 0.083041 0.14379 -0.064723 0.06279 -0.16807 0.43157 0.38288 0.32271 0.45594 -0.031118 -0.26775 -0.12759 -0.49685 0.37983 -0.27511 -0.32416 0.027937 0.27146 0.30868 -0.2186 -0.4355 0.30475 -0.27398 -0.50266 0.2125 0.023667 -0.20701 0.041865 0.15382 0.049648 -0.12276 0.16219 0.12723 -0.17068 -0.26895 0.15274 0.46272 -0.19641 -0.035195 0.3312 0.18749 -0.39239 -0.37988 -0.11035 0.19696 -0.19228 0.14617 -0.29481 -0.21337 -0.20651 -0.58577 0.27817 -0.24322 -0.2262 -0.20239 -0.25367 -0.12044 0.23408 0.348 -0.22739 0.50291 0.42835 -0.036347 -0.24972 0.13021 -0.094448 0.30662 -0.11753
Anne -0.017951 -0.24871 -0.39786 0.18064 -0.19386 0.14562 0.29124 -0.039986 0.14468 2.3342 -0.11048 0.25248 -0.010512 -0.012699 -0.32381 0.24059 -0.39271 0.15403 0.24914 -0.39385 0.21503 0.16713 -0.56958 -0.27416 -0.097971 0.093254 -0.013861 -0.018008 -0.034236 0.25306 -0.1747 0.35701 0.17941 0.10189 0.28675 0.12669 0.063415 0.30941 -0.32014 -0.87631 0.27166 0.07182 0.069828 -0.10596 0.42882 -0.021441 -0.12437 0.0043778 0.24704 0.061284 0.23182 -0.13891 -0.24628 -0.0070051 0.24561 -0.59065 -0.21686 0.585 -0.33977 0.20495 0.36389 -0.11705 0.0069637 0.13982 -0.1034 0.44656 -0.15342 -0.077164 0.4885 0.26472 -0.19044 -0.22322 -0.029023 0.80004 0.29107 -0.11944 0.063152 0.33671 -0.46241 -0.78257 -0.23645 -0.47621 0.19424 0.10216 -0.032678 -0.4754 0.20079 -0.19365 0.019943 0.23162 0.14632 0.21926 0.081301 0.57841 0.071888 -0.53665 0.27567 0.26748 -0.19106 -0.028409 0.19622 -0.31 -0.16404 -0.41445 -0.23021 2.0862 -0.3653 -0.35682 -0.092872 -0.2848 -0.10816 0.3436 0.40796 -0.18063 -0.28851 -0.46876 -0.55763 -0.25713 0.40073 0.3519 -0.33769 -0.15251 -0.063862 -0.21397 0.65304 0.083936 0.10628 -0.11827 0.20825 0.18368 -0.11383 0.24735 0.05418 -0.29422 -0.2272 -0.042856 -0.30248 0.082071 0.086471 -0.042132 -0.43463 -0.10413 -0.13256 0.19038 -0.2947 -0.027735 -0.18281 0.050719 -0.05968 0.15853 0.20907 0.12648 0.044086 0.12393 0.031143 -0.16603 0.36004 -0.81978 -0.015968 -0.11372 -0.28013 -0.3229 0.062831 0.031964 -0.070244 0.20293 0.33528 0.02343 0.45211 -0.13995 0.11065 -0.25814 0.35046 0.38426 0.23925 0.054822 0.073369 -0.30234 -0.51979 0.22878 -0.1353 -0.12934 -0.073248 -0.11353 -0.078683 0.21736 -0.21501 0.10803 -0.24647 0.21598 -0.35863 0.32197 0.40438 -0.15731 -0.50145 0.1562 0.21371 -0.44774 0.32525 0.032356 -0.044348 -0.083256 0.013218 -0.093503 -0.05659 0.30374 0.02153 0.043186 0.078472 -0.47389 -0.10797 -0.13769 -0.10411 -0.43913 0.028582 0.19978 -0.093125 0.20538 0.24142 0.16687 -0.29146 0.38475 0.17931 0.034054 0.08708 -0.31758 -0.23569 -0.9067 -0.035837 0.12654 -0.13788 0.0024639 -0.35898 0.076005 0.23874 -0.21646 0.15887 0.094909 -0.13703 -0.43909 -0.10732 0.20858 -0.10802 -0.18082 0.19573 -0.39648 0.33822 0.36161 0.39773 -0.32431 -0.12592 0.39477 0.080849 -0.2979 -0.35743 -0.40359 0.30143 0.12772 -0.035799 0.52093 0.17411 -0.13911 -0.053329 0.51497 -0.16357 -0.077463 -0.061423 0.039375 -0.34172 -0.43536 -0.57756 -0.23178 -0.12494 -0.042098 -0.32029 0.30473 0.21104 0.16305 -0.063712 0.43119 0.14067 0.55617 0.44655 -0.28595 -0.081968 -0.00024073 0.28046 0.2232 -0.39643 -0.09887 0.56101 -0.033676 0.40162 0.49575 0.069311 -0.10092 -0.088226 -0.4132 -0.18608 -0.019983
Brad -0.25609 -0.15396 -0.50346 0.25138 0.33952 0.26105 0.30257 -0.11273 0.046391 2.1197 0.19856 -0.03184 -0.44469 -0.008613 -0.36665 -0.078715 -0.18301 -0.35935 -0.29033 0.32755 -0.11633 -0.053637 -0.31589 -0.090069 0.054889 0.10793 -0.076549 0.32448 -0.3783 -0.0071353 -0.092837 -0.34702 -0.044372 -0.036582 0.066447 0.4317 0.14958 0.41407 -0.00073515 -0.54028 0.34552 -0.056781 -0.19483 0.37953 0.046593 0.041634 -0.53288 0.14703 0.02614 -0.0016343 0.37304 -0.17348 0.025698 -0.25498 -0.19006 -0.58404 -0.0060172 0.04696 0.014949 0.47884 0.18709 0.11012 -0.29987 0.037356 -0.041855 0.012758 0.15549 -0.07843 0.35795 -0.021139 0.21553 -0.17305 0.2918 0.34817 -0.82386 0.050522 -0.044454 -0.13776 0.16891 -0.21201 0.38606 0.027904 -0.026739 -0.11496 0.27703 -0.19411 0.18388 -0.39542 0.019627 0.3748 0.28426 -0.24735 0.21075 0.55669 0.15538 -0.3491 -0.42342 -0.29979 -0.099152 0.046956 0.23423 0.42039 0.057573 0.13133 0.30233 1.889 -0.062675 0.33504 0.016672 0.21146 0.30714 -0.056883 0.17517 0.40338 0.14808 0.064289 0.19331 -0.37482 -0.017096 0.61206 -0.066393 0.35268 0.32031 0.076724 0.40608 0.24221 -0.51967 0.52104 0.30191 0.4536 0.3172 0.70415 -0.0089437 0.41537 -0.30064 -0.12406 0.3265 -0.2334 0.058629 -0.14551 -1.1687 -0.20016 -0.17595 0.51038 0.13941 -0.13492 -0.16592 -0.64183 -0.074643 0.12845 0.1364 -0.53371 0.23772 0.031996 0.067226 0.098275 0.35349 0.030168 -0.33902 0.23055 0.20858 0.1337 -0.40881 -0.56269 -0.26002 0.45334 0.11423 -0.22129 0.039015 -0.17528 0.13944 -0.40646 0.15931 0.058924 0.13164 -0.070105 -0.17987 -0.20772 0.40103 0.15782 0.032983 -0.37376 -0.36251 0.20702 -0.23175 0.28544 0.21287 0.12014 -0.095387 -0.11966 -0.21259 0.21491 -0.22424 0.20714 -0.35469 -0.18725 -0.013854 0.13169 0.02942 -0.46341 -0.38674 -0.41141 -0.09165 -0.41818 -0.65491 0.050581 -0.012775 0.10144 -0.35621 0.49632 -0.10433 0.099404 0.48235 0.23474 -0.4772 0.79219 -0.011258 0.0035949 0.02746 -0.17296 -0.22248 0.22229 0.13333 0.40048 0.42337 -0.51213 -0.082212 0.08737 0.015837 -0.013151 -0.0051821 0.10908 0.26508 -0.41608 -0.16802 -0.13486 0.17403 0.28325 0.32487 0.13839 0.46552 -0.36659 0.24266 0.137 0.40531 0.48374 -0.028112 -0.32147 0.13126 0.22298 0.036765 -0.1837 -0.14024 -0.072459 -0.19426 -0.42977 -0.16731 0.17215 -0.10831 0.25391 0.49705 -0.087651 -0.074383 -0.085615 -0.038821 0.32831 -0.17713 -0.15463 0.52676 0.10048 -0.049239 -0.023351 0.15625 -0.31273 -0.42893 0.072558 0.11981 -0.054989 0.11979 0.08649 -0.39215 -0.21741 -0.34306 0.39574 -0.33915 -0.43442 -0.44865 -0.14487 0.0493 0.16221 0.46767 0.31584 0.25845 0.32365 0.10205 0.46215 -0.11424 -0.13349 -0.3556 0.072325
Todd -0.36765 -0.42862 -0.65466 0.29342 -0.18857 0.30169 0.28301 -0.17354 -0.18966 2.3988 0.21401 -0.15613 0.066938 0.30524 -0.42654 -0.071209 -0.17393 -0.1109 -0.058428 0.02989 0.1485 0.22797 -0.097509 -0.23009 -0.27478 0.0070662 -0.37714 0.45117 0.067386 -0.10126 0.21549 -0.58723 -0.019813 -0.010904 -0.092506 0.13224 0.079519 0.21426 -0.18133 -0.75456 0.10354 0.088289 -0.051623 0.037598 -0.15346 0.081417 0.0081359 0.027977 0.45211 -0.13315 0.60717 -0.13999 -0.16261 -0.08704 0.094465 -0.22721 -0.073829 0.017178 0.23585 0.17216 -0.24604 0.30485 0.18554 0.33989 -0.020593 -0.17607 0.13877 -0.28119 0.13315 0.0078281 0.018374 -0.026056 -0.0020679 -0.00079857 -0.69874 -0.053674 0.045907 -0.16942 -0.02561 -0.2342 -0.068096 -0.40568 0.25078 -0.16937 0.19924 -0.1606 -0.015035 -0.62052 -0.13 0.18561 0.32283 -0.11806 -0.053669 0.21529 0.16561 -0.20875 -0.19614 -0.11696 -0.068724 0.091161 0.0469 -0.026397 0.19522 -0.38537 -0.0084681 2.0063 0.16439 -0.034191 0.19734 0.0052348 -0.071517 -0.014006 -0.32803 0.38954 -0.24355 0.14169 0.18089 -0.30149 0.38114 0.25994 0.18347 0.30134 0.14804 0.24858 0.37712 -0.28593 0.077255 -0.27425 0.095962 0.49606 -0.012901 0.31504 0.14171 0.09191 -0.36609 0.26582 0.13313 0.084147 0.13629 0.19275 -0.67254 -0.26596 -0.28565 0.1202 0.15979 0.11504 -0.20719 -0.30042 0.05434 -0.096932 0.47107 -0.50469 -0.035824 0.14553 0.3388 0.20011 0.091273 -0.34593 -0.27736 -0.023312 0.014935 -0.12739 0.43336 -0.68759 0.011412 0.12159 -0.18683 -0.098013 -0.012344 -0.23676 0.077536 -0.25224 0.14043 -0.038133 -0.063767 -0.022695 -0.089996 0.039586 0.17505 -0.30114 0.057827 -0.022778 -0.021642 0.30292 -0.11238 0.21914 0.59033 0.29153 -0.58249 0.13234 0.074519 0.22876 0.19457 0.10217 -0.2076 -0.020087 0.06038 0.19369 0.036979 -0.28306 -0.16475 -0.29331 -0.69114 -0.12018 -0.20876 0.23238 0.11528 0.10743 -0.40105 0.30231 -0.28264 0.060248 0.2747 -0.13013 -0.14474 0.23128 0.31643 0.10725 -0.18702 0.21552 -0.30142 0.22351 0.24186 -0.12323 -0.072742 -0.24667 0.27296 -0.13135 -0.004532 0.29227 -0.028241 -0.10753 -0.06512 -0.13553 -0.076874 -0.44405 0.045664 0.084234 0.079657 0.029422 0.36721 -0.28194 0.29552 0.12727 -0.17782 0.17928 -0.31908 -0.23835 0.25092 -0.0010444 -0.05065 -0.073188 -0.0274 -0.024523 -0.55633 -0.4004 0.38671 -0.056751 -0.03364 0.51297 0.1262 -0.20901 0.23463 -0.23118 -0.15869 0.010568 -0.029559 0.13522 0.52617 -0.04324 -0.12112 0.055457 0.1924 -0.022183 -0.34271 -0.18676 0.23085 -0.063082 -0.053098 -0.25772 -0.19534 0.11489 -0.75257 0.10971 -0.0047451 -0.024959 0.10161 0.035984 -0.0085815 -0.017612 0.15026 -0.22593 0.33234 0.39267 -0.19603 0.00077413 -0.016787 0.18147 -0.2815 -0.17729
Neil -0.09038 0.14907 -0.54709 0.05769 -0.30232 0.023997 0.37594 -0.49575 -0.1964 1.9821 0.63629 0.12518 -0.039463 0.49455 -0.15565 -0.2938 0.058715 -0.42136 0.25625 -0.2176 -0.10339 -0.22752 -0.15221 -0.087468 0.16679 -0.29408 0.2986 0.17797 0.10832 0.06375 -0.13509 -0.34189 -0.053337 0.44187 0.1359 0.40276 -0.079454 -0.14586 -0.032481 -0.58072 0.16591 0.41727 -0.14112 -0.156 -0.14034 -0.05858 -0.11571 0.072381 0.20902 0.027764 0.42009 -0.30131 0.17482 0.072589 -0.26137 -0.71156 -0.19353 -0.34952 0.10127 0.21246 -0.30385 -0.18832 -0.41693 -0.1964 0.18318 -0.56134 0.017076 0.0053285 0.26268 0.13529 0.014043 -0.25221 0.2797 0.12517 -0.81355 -0.11176 -0.16872 0.19917 -0.10244 -0.1449 0.27864 -0.65996 0.028336 -0.37558 -0.16039 -0.82818 -0.099403 -0.63634 0.004421 0.15637 -0.11208 0.067863 -0.070408 0.57236 -0.38869 -0.59212 0.16652 0.22243 -0.23248 -0.099344 -0.063368 -0.28459 0.2975 -0.022718 -0.6907 1.8318 -0.36147 -0.36703 0.47631 -0.078906 0.20655 -0.18825 0.091964 0.15791 0.21296 0.16161 0.39466 -0.36035 0.31016 0.26078 -0.43779 -0.067011 -0.56556 0.018428 -0.046856 -0.05099 0.079078 0.21946 0.021217 0.030747 -0.22375 0.29424 -0.070572 -0.11965 0.24015 -0.023229 0.26972 0.11082 0.28779 -0.084409 -0.80213 -0.43233 -0.19291 -0.012329 -0.14516 -0.15649 -0.2362 -0.4417 -0.13652 0.16917 0.15997 -0.27383 -0.15713 -0.088211 0.014943 -0.15213 0.22559 -0.14509 -0.43676 -0.074542 0.33351 -0.14776 0.67013 -0.39792 -0.16563 -0.056079 -0.066409 -0.53691 0.075083 0.0026279 -0.1426 0.071133 0.025782 -0.53751 0.16288 0.042678 0.32535 0.22667 0.29764 -0.15944 -0.36351 -0.016013 0.80623 -0.011013 -0.25214 -0.19762 0.17045 0.009587 0.087493 -0.27909 0.21478 0.058991 -0.29889 -0.02179 -0.11686 -0.43377 0.093404 -0.071426 -0.28313 -0.10636 -0.17517 -0.69788 -0.11774 0.206 -0.108 0.41089 -0.26786 -0.39574 -0.26558 0.10209 0.28907 0.32799 0.32144 -0.12899 -0.13043 0.54706 -0.21377 -0.31301 0.36334 -0.15939 -0.22443 0.30237 -0.42052 0.27508 0.48043 -0.29587 -0.076677 -0.37245 -0.01961 -0.13935 -0.20493 -0.15345 -0.039712 0.17874 0.074967 -0.28075 -0.12875 0.034034 0.092085 -0.12515 0.48822 0.057916 0.048036 -0.20549 0.078209 0.27498 0.26046 -0.10516 -0.020118 -0.30458 -0.21814 -0.57929 0.14773 -0.023376 0.18824 -0.39804 0.12311 -0.11859 -0.10582 0.31216 -0.26627 -0.14171 -0.11395 -0.081505 -0.35494 -0.20595 -0.092257 0.19436 0.63435 0.20315 -0.45753 0.22166 0.34852 0.082544 -0.084543 0.11664 0.30903 -0.27284 -0.021874 -0.10817 0.16082 -0.40324 -0.0070892 0.26491 -0.085039 -0.58431 0.11822 -0.3079 0.07671 -0.021823 -0.15735 0.17953 0.061817 0.44025 0.17362 0.18047 -0.071934 0.050357 0.17243 -0.064139
Emily 0.059231 0.052854 -0.71391 0.24168 -0.5113 0.17819 0.16758 -0.093986 -0.36052 2.1138 0.27743 0.509 -0.51341 -0.031957 -0.081749 0.05795 -0.14746 -0.11663 -0.49317 0.0054669 0.051349 0.27283 -0.44751 0.086951 0.10658 0.30675 0.27196 -0.080534 -0.14129 -0.047372 0.32775 0.53633 0.15974 -0.059047 0.43006 0.066684 0.26231 0.23163 -0.040203 -0.70009 0.63346 0.017191 0.077044 -0.27032 0.27765 0.1613 -0.22401 0.010559 0.33212 -0.43898 -0.091703 -0.13377 -0.065199 -0.21278 -0.050473 -0.45182 -0.24293 0.040287 -0.055708 0.31902 0.10485 0.13735 0.24684 -0.26872 -0.41694 -0.043996 0.084814 0.062307 0.47038 0.12229 0.079124 0.13437 -0.19304 0.28453 0.00070199 0.26136 -0.14371 -0.13067 -0.055326 -0.32677 0.15622 0.32708 -0.14382 0.065519 -0.037668 -0.24902 0.35417 -0.35186 -0.1024 0.59703 0.10854 0.16871 -0.20992 -0.43344 -0.28918 -0.25008 0.27748 0.13813 -0.0054651 -0.22052 0.012233 -0.63347 -0.18909 -0.36044 -0.37462 1.9959 -0.28866 0.20362 0.080536 -0.13781 -0.35216 -0.077162 0.057988 0.074806 -0.21626 -0.19609 -0.17633 0.064932 0.13659 0.15362 -0.2888 -0.21024 0.28076 -0.29885 0.21643 0.31149 -0.11252 -0.10597 0.018612 -0.0014173 -0.17859 0.07684 -0.11408 0.20209 -0.002765 -0.01188 -0.24413 -0.29109 0.24598 0.11303 -1.0113 -0.24181 -0.26481 0.036989 -0.11232 0.11359 -0.25966 -0.1445 -0.30934 0.4426 0.24062 -0.088513 0.34279 0.23689 0.38563 0.022594 0.33248 -0.43099 -0.31054 -0.22526 -0.22952 -0.29428 -0.24047 -0.56474 -0.26949 0.30639 0.38069 -0.21775 0.091209 0.081009 -0.065794 -0.19852 0.41723 -0.052815 0.17547 -0.36183 -0.5791 -0.68075 -0.38859 0.24625 -0.070268 0.015465 0.01231 0.26442 0.37346 -0.19295 0.35276 0.18101 0.063068 0.013145 -0.36249 0.348 0.033246 -0.12377 -0.39336 0.037787 -0.074627 -0.13364 0.22471 -0.05915 -0.36757 -0.1467 -0.42889 -0.018977 -0.092692 -0.017323 0.096149 0.27315 0.25247 -0.1982 -0.24457 -0.079315 -0.76864 -0.24787 -0.27991 0.43955 -0.033322 0.037321 0.016196 -0.26226 0.1933 0.17452 0.14976 -0.036037 0.047006 0.20084 0.25175 -0.49278 0.053368 -0.34662 -0.27334 -0.42674 -0.21725 0.1576 0.11293 -0.15967 0.12178 0.25992 0.3249 -0.1743 -0.25234 0.00039397 -0.23093 0.066348 0.036081 -0.018771 -0.53826 0.25387 0.11469 0.098525 -0.0335 0.33176 -0.31482 -0.11104 -0.60732 -0.40693 0.22492 0.073209 -0.17327 0.30938 0.0013785 0.025065 -0.18502 0.12409 0.21198 0.083107 -0.65638 0.13164 -0.40726 -0.097961 -0.56576 0.10329 -0.26959 0.098063 -0.029728 -0.034059 0.15846 0.17765 0.18397 0.18924 -0.097105 0.201 -0.25428 -0.23653 -0.27644 0.10499 -0.14532 0.3388 0.25651 -0.062357 0.17845 0.1968 0.51719 0.63886 0.38691 -0.11217 -0.33024 -0.093377 -0.26347 0.0022614
Brett -0.32589 -0.30961 -0.95567 0.18936 0.11348 0.317 0.50799 0.23022 0.29659 2.0248 0.44914 -0.1513 -0.33856 0.26163 -0.057816 -0.14211 0.3677 -0.56988 -0.33936 -0.098724 -0.14493 0.13644 0.13364 -0.032285 -0.10322 0.10199 0.14177 0.095557 -0.20904 -0.34117 -0.060692 -0.085273 0.29211 -0.17652 0.33136 0.58538 -0.11339 -0.13607 -0.10293 -0.65947 0.41461 -0.24267 -0.11274 -0.035027 0.096895 0.36093 -0.29848 0.2038 -0.011669 0.57219 0.33062 -0.21087 0.13496 -0.18695 0.25837 0.047413 -0.063208 -0.022892 -0.068927 0.21865 -0.29202 0.089391 0.14553 0.14935 -0.0040652 -0.23022 -0.11623 -0.27816 -0.15302 0.19402 -0.030281 0.11571 0.39954 0.29432 -0.5904 -0.058383 0.40928 -0.36708 0.10742 -0.27137 0.026763 0.017263 0.25136 -0.0983 0.31128 -0.14061 0.45108 -0.12762 -0.3346 0.8635 0.40663 0.014692 -0.023424 0.48824 0.058546 -0.3542 -0.11332 -0.3116 -0.18211 0.18449 -0.27868 -0.42263 0.16112 0.057185 -0.066126 1.6822 -0.2911 0.35081 0.52828 0.05888 -0.12913 -0.35796 -0.31294 0.17821 -0.34754 0.53833 0.040152 0.019414 0.52579 0.36258 0.34861 0.12584 0.018782 -0.0086243 0.016523 -0.19464 -0.43351 0.30954 0.41314 0.34626 -0.14968 0.2125 -0.069481 0.18562 -0.018591 -0.13425 0.28773 -0.015995 -0.10625 0.09556 -0.82939 0.166 -0.27221 0.48319 0.23989 0.12085 -0.0092484 -0.50287 0.12234 0.0031574 0.38804 0.2344 0.25939 -0.087731 0.19044 -0.11896 0.080518 0.064376 -0.49432 0.18723 0.051691 0.062098 0.59038 -0.54958 -0.3474 -0.13493 0.15349 -0.16729 -0.067641 -0.057348 -0.35435 -0.32634 0.29466 0.073586 0.44347 -0.045642 0.11025 -0.26919 0.16178 -0.016235 -0.022802 0.25958 -0.31904 0.014553 -0.44484 0.26664 0.14097 0.082419 -0.24029 -0.095644 0.18036 0.26427 0.031619 -0.057635 -0.46721 0.17919 0.24343 0.15528 0.18586 -0.23221 -0.37519 -0.19886 0.15541 -0.35012 -0.4023 0.13077 0.13248 0.095146 -0.25929 0.44736 -0.027149 0.16647 0.26479 0.16501 -0.17919 0.60873 0.046759 -0.37157 -0.0077968 0.23608 0.081942 0.018666 0.14906 0.26091 0.31238 -0.12781 0.14633 -0.46869 0.0092122 0.32198 0.13954 0.30756 -0.015134 -0.0010651 -0.16157 -0.37627 0.21134 0.24206 -0.44497 0.063866 0.53317 0.0053776 0.23857 0.25138 -0.14982 0.4976 -0.27804 -0.096174 0.053099 0.42461 0.22148 -0.34261 -0.23461 -0.19746 -0.08849 -0.63155 -0.0035436 -0.44555 -0.14729 0.035986 0.41578 -0.12888 0.55748 0.16288 -0.060937 0.10151 -0.2144 -0.074377 0.41714 -0.070274 -0.1282 0.25657 0.38824 -0.11489 0.041646 -0.17796 0.28152 -0.13675 -0.056582 0.020155 -0.29146 -0.14827 -0.49747 0.39572 -0.19205 -0.074723 -0.4164 -0.034842 0.044367 0.34157 0.30396 0.33478 -0.097816 0.3921 -0.068584 -0.22268 -0.47358 -0.21418 -0.49066 0.06916
Jill 0.15421 -0.24437 -0.34898 0.46906 -0.05912 0.15563 -0.076754 -0.2796 -0.32726 1.8829 0.31866 -0.23352 0.022752 -0.19741 -0.078518 -0.095648 -0.13714 -0.30689 -0.59186 -0.12237 -0.1901 0.40993 -0.25309 -0.50141 0.030822 0.038478 0.012568 0.049339 -0.008962 -0.058354 0.14177 0.1588 -0.073255 -0.06016 0.10828 -0.10469 0.22106 0.04643 -0.014902 -0.91156 0.096501 0.41045 -0.29146 -0.070333 0.10984 0.31176 -0.42296 0.17733 0.33953 -0.27116 0.31862 0.025787 -0.13022 0.053703 0.31346 -0.10303 -0.22236 0.23185 -0.26555 0.36593 -0.2638 0.080761 0.13774 -0.16394 0.050916 0.15582 0.22391 0.063936 0.86768 0.26313 0.12978 -0.2884 0.13946 0.33519 -0.29882 -0.23471 -0.42587 -0.13946 0.14324 -0.26133 0.061073 -0.13309 -0.10804 -0.017003 0.011598 -0.57405 0.42186 -0.13684 -0.11572 0.14298 0.39864 0.36985 -0.020227 0.28598 -0.21104 -0.17205 0.08885 0.073994 0.18803 -0.12422 0.092858 -0.43958 -0.27115 -0.2423 -0.21027 1.7836 -0.1804 -0.029717 0.063155 -0.28494 -0.0077319 0.071718 0.36817 0.057517 0.19382 -0.30955 -0.076803 -0.038393 0.5074 0.14491 -0.2029 -0.085308 0.15332 -0.16752 0.1884 -0.057568 0.13725 -0.092031 0.15507 0.49712 -0.41963 0.2 -0.017682 0.14459 0.21765 0.18318 -0.029977 0.014128 0.22392 0.11822 -0.71703 -0.40235 -0.093023 -0.01744 -0.6863 0.21803 -0.15379 -0.16462 -0.51675 0.0074755 -0.082247 -0.30631 -0.21593 0.23882 -0.033455 0.20066 0.18917 -0.33248 -0.13995 -0.3285 -0.22892 0.20235 0.45224 -0.19645 -0.20281 -0.088518 -0.016462 -0.067311 -0.091381 -0.046429 -0.13791 -0.46326 0.70464 -0.10591 0.049559 -0.16867 -0.015443 -0.1008 -0.0017367 0.39751 0.2979 -0.18231 0.19333 0.12298 0.33263 0.26454 0.37474 0.13842 -0.052548 0.44542 -0.061753 0.19827 0.29414 0.18674 -0.0082891 0.026691 0.079695 0.19761 0.616 -0.10688 -0.36042 -0.30867 -0.25992 -0.15247 -0.61981 0.16062 -0.10202 0.01738 0.034166 -0.10398 0.11757 -0.16404 0.070621 0.33282 0.23404 0.32407 -0.31506 0.020782 -0.35621 -0.16222 -0.21349 0.24155 0.13861 -0.084668 0.16536 0.015988 0.00094828 0.029499 -0.07897 0.1455 -0.60544 -0.30199 -0.21673 0.20933 -0.10728 -0.036337 0.0038343 0.11511 -0.0072248 -0.11117 -0.23118 -0.23825 0.073088 0.31801 0.17997 -0.081817 -0.35712 -0.015655 0.16989 0.17091 0.016793 0.09654 0.069054 -0.50265 -0.22351 -0.26179 -0.02297 -0.22197 -0.33062 0.088658 -0.27599 -0.16778 -0.41993 -0.097125 -0.14957 0.0448 0.12308 0.1449 -0.17221 -0.13317 -0.55481 -0.061792 -0.22315 -0.090234 -0.29893 -0.0499 -0.24707 -0.40314 0.27468 0.27993 0.73127 -0.28348 0.029375 -0.23933 -0.06783 0.14619 0.27569 0.29686 -0.29938 0.4606 0.33415 -0.1125 0.11679 0.6521 -0.243 -0.15229 -0.63927 0.0029862 0.17533 0.050101
Carrie -0.050046 -0.071245 -0.11283 0.37426 -0.45545 0.048377 0.34858 -0.37006 -0.19045 1.7156 0.1843 0.078568 -0.20955 -0.03292 0.031548 0.02921 -0.50266 -0.56197 -0.42136 -0.22901 0.02787 0.084833 -0.18335 -0.22493 -0.23077 0.58624 0.017255 0.044418 -0.19052 -0.11262 0.28938 -0.11955 -0.093871 0.015889 0.3658 0.57791 0.050597 0.10593 0.12804 -0.53476 0.02365 -0.014901 -0.13081 0.02667 -0.18597 0.0072215 -0.54172 0.24011 0.16454 -0.40256 0.019772 -0.16825 -0.21065 -0.17535 -0.10232 -0.36233 0.44161 -0.24262 -0.047882 0.46544 0.48598 -0.082162 0.49338 0.034383 -0.22851 0.091782 -0.0089644 -0.15889 0.42961 0.12137 0.27556 -0.13182 -0.28369 0.32233 -0.47669 0.2753 0.19202 0.31199 0.19864 -0.33504 0.4204 -0.15084 -0.19081 0.19258 -0.044962 -0.62873 0.28366 -0.33081 0.13981 0.245 -0.29233 0.44262 -0.12157 0.32084 -0.020655 0.12224 0.12886 0.61375 -0.1848 -0.44659 -0.052715 -0.040685 0.07984 -0.37772 -0.14389 1.8984 0.051966 -0.15457 -0.081868 -0.14367 -0.039865 0.21534 0.26321 0.17106 0.12502 -0.20493 0.069688 -0.56375 0.38017 0.25055 -0.22428 0.20326 0.3501 -0.26084 0.29643 0.37625 0.053181 0.055921 0.0057613 0.038817 -0.19102 0.27271 0.16307 0.19791 0.38394 0.167 -0.31492 0.20008 0.0095312 0.08828 -1.2148 -0.10285 -0.2961 -0.078608 -0.38376 -0.10906 -0.033143 -0.30764 -0.41566 0.029447 -0.1079 -0.087867 -0.031347 0.014077 -0.10072 0.090398 0.42881 -0.58245 -0.12446 -0.10477 -0.05306 0.17763 -0.028036 -0.3765 -0.059831 0.21321 0.062892 -0.11651 0.067803 -0.13149 -0.0096921 0.28349 0.33334 -0.2403 0.26779 -0.38882 -0.362 -0.18002 -0.38271 0.030726 0.27325 -0.19027 0.17006 0.1265 -0.091356 0.20591 0.31504 -0.19898 -0.17813 0.085958 -0.10284 -0.15038 -0.042687 0.14157 -0.075189 0.030057 -0.14269 0.48285 0.10636 -0.15775 -0.25415 -0.23216 -0.10343 0.17155 -0.39719 0.0164 0.23281 0.3293 0.089097 0.013132 -0.13234 0.1408 -0.38144 -0.26421 -0.35547 0.77551 -0.5034 -0.029584 0.005178 -0.012215 0.16995 0.45873 -0.1349 -0.084192 0.2124 0.22417 0.043 0.088701 -0.22159 -0.50324 -0.070002 -0.17595 0.30614 0.33724 -0.085582 -0.30713 0.60947 0.068146 0.35586 -0.32847 -0.023479 -0.3715 0.17302 0.17388 0.3452 -0.12076 -0.28789 -0.19321 -0.0059814 -0.26161 0.23948 0.36959 0.068882 -0.16214 -0.56528 -0.52341 0.392 0.12227 -0.27437 0.34232 -0.28773 -0.14127 0.058267 0.081585 0.0088905 0.12057 0.19323 0.32356 -0.34235 -0.10599 -0.53924 0.016757 -0.30303 -0.12388 0.24029 -0.096742 -0.0086698 -0.096206 -0.20973 0.02676 0.14525 -0.037714 -0.00076719 -0.28879 -0.31471 -0.050942 -0.20108 0.25604 0.27099 0.14488 0.25041 0.43157 0.45113 -0.13398 -0.06505 -0.22318 -0.3199 -0.1431 -0.46195 -0.02706
Allison -0.23555 0.14654 -0.12718 0.2752 -0.33672 0.1319 0.033111 0.15437 -0.44079 1.7197 0.76687 -0.038241 -0.21385 -0.24708 -0.55695 -0.26232 -0.37447 0.0061901 -0.77898 -0.12098 0.18461 0.003996 -0.10483 0.24335 -0.14439 -0.032642 0.22431 0.032728 0.10127 -0.14638 0.30117 0.27695 0.16561 0.26653 0.18083 -0.21701 0.027118 0.28991 -0.12031 -0.64731 0.526 0.23158 -0.024826 0.25056 0.28472 0.017278 -0.10131 -0.16344 0.15618 -0.54318 0.14727 -0.27291 0.083694 -0.076536 -0.12017 -0.017924 -0.060959 -0.195 -0.11524 0.37973 0.11041 -0.074528 0.29259 -0.14974 0.34066 -0.38954 0.15923 0.13821 0.66427 0.33009 0.11602 0.073189 0.34223 0.28887 -0.80526 0.28223 -0.37733 0.2555 0.13581 -0.40771 -0.2046 0.051644 0.13514 0.10282 0.26824 -0.41106 0.58947 -0.028671 -0.11422 0.47756 0.076868 -0.04699 0.16319 -0.30113 0.11436 -0.22204 0.16713 0.10481 -0.32244 -0.27195 -0.33862 -0.19318 -0.079061 -0.11564 0.046646 1.8857 0.089678 -0.11404 -0.096334 -0.16738 -0.50818 0.11067 -0.35045 0.12661 -0.038893 -0.37176 -0.072127 0.13474 0.61493 0.12196 -0.057668 -0.28913 0.066206 -0.54573 0.074642 0.20844 0.092927 0.16846 0.17723 0.055954 -0.054539 0.30815 0.18644 -0.11825 -0.11209 -0.44406 -0.20605 -0.33894 0.12822 0.35219 -0.19098 -0.27599 -0.19123 0.0015942 -0.14808 -0.13176 -0.34287 -0.29369 -0.4917 0.26889 -0.16395 -0.05902 0.19957 0.3601 0.27881 -0.22911 0.26331 -0.44241 -0.21621 -0.060401 -0.1761 0.13734 0.27583 -0.61348 -0.15126 -0.13703 0.067266 -0.17976 -0.038646 -0.1559 -0.12426 -0.028802 0.28856 0.10848 0.14828 -0.51802 -0.35249 -0.33583 0.066418 0.38634 0.00025014 0.23998 -0.0098438 -0.05926 -0.026196 0.061302 0.3334 0.023247 -0.042124 0.034275 -0.033337 -0.056414 0.24333 0.16748 -0.072573 -0.11841 -0.043586 0.29116 0.31323 -0.23749 -0.42905 -0.019592 -0.23364 -0.2226 -0.54789 -0.20129 0.29667 0.14557 0.24476 0.098483 -0.2617 -0.16351 -0.0042075 0.13917 -0.31962 0.64355 -0.22866 -0.20093 0.10095 0.14293 0.20896 0.38362 0.13532 0.41881 -0.16681 -0.11966 0.14525 -0.07645 0.011536 -0.030971 -0.13227 -0.38849 0.021649 0.0071274 0.1358 -0.33933 -0.29013 0.29804 -0.077796 -0.24272 0.26515 -0.10715 0.11828 0.37649 -0.1401 0.16061 -0.2917 0.27655 0.065211 0.24533 0.020342 0.022903 -0.55295 0.051364 -0.39106 -0.38903 -0.31516 -0.16822 0.10554 0.49248 -0.14306 -0.7671 -0.044205 -0.045542 0.033094 -0.20797 -0.3883 0.33686 -0.14976 0.34212 -0.17278 -0.28867 -0.44487 0.1188 0.021483 0.012548 0.10153 0.26652 0.32863 -0.093413 -0.0044729 0.28953 -0.12858 -0.33764 -0.41485 0.029597 -0.46283 -0.039965 -0.24763 0.074795 -0.059231 -0.026666 0.49904 0.42806 0.086022 -0.090141 -0.15923 0.49388 -0.33684 -0.16978
Laurie -0.069037 0.18316 -0.47583 0.36883 -0.20728 0.16836 -0.035724 -0.25771 -0.0253 1.8112 0.27469 0.044796 0.086224 -0.38269 -0.28621 -0.15394 -0.23846 -0.39915 -0.059087 -0.29859 0.19976 -0.064286 0.028814 -0.2448 0.078112 0.10739 -0.26529 0.10514 -0.067539 -0.010778 0.26041 0.20757 -0.08832 0.22509 0.39239 0.1493 0.045648 -0.053886 -0.10748 -0.64159 0.048311 0.092959 -0.13887 0.095031 0.24193 0.13978 -0.039098 -0.0064369 0.1548 0.11549 0.37982 -0.24917 0.062676 0.014604 0.11284 -0.34963 -0.0029734 0.063751 -0.18127 0.16222 -0.45714 0.13979 0.023564 -0.37059 0.27398 -0.36201 0.0070475 0.25255 0.53336 0.20002 0.38549 -0.11431 0.17278 0.42348 -0.28749 0.17414 -0.55523 -0.18417 -0.12538 -0.078053 0.30407 -0.010246 0.079823 -0.028868 -0.023594 -0.37788 0.14048 -0.41985 -0.031161 0.095982 0.039221 0.28432 0.30775 0.58687 0.12991 -0.29223 0.047794 0.19181 0.072065 -0.040406 0.093086 -0.23125 0.13733 -0.19242 -0.1317 1.7468 0.17162 -0.018322 0.070503 -0.21629 -0.038943 0.3393 0.12172 -0.20709 0.32156 -0.56823 -0.31624 -0.027097 0.57828 0.49654 0.014901 0.04464 0.0023409 -0.15678 0.3077 -0.12011 0.044384 0.31638 0.020383 -0.15307 -0.25112 -0.0063741 -0.04498 0.53819 0.021371 0.11035 -0.15961 -0.013081 0.17954 0.19369 -0.35538 -0.25654 -0.5841 0.22794 -0.45702 0.25054 -0.030262 -0.41109 -0.70411 -0.004048 -0.041475 -0.22836 -0.023815 -0.18913 0.038 -0.16814 0.42435 -0.24131 -0.50307 -0.22645 0.24848 -0.18675 0.26427 -0.09047 -0.033302 0.30857 0.096149 -0.29504 0.1161 -0.46408 -0.25543 -0.05543 0.37174 -0.25353 -0.030468 -0.36969 -0.10075 -0.4259 -0.30235 0.26096 0.11776 -0.1056 0.39051 0.19394 0.037836 0.15849 -0.030762 0.25264 -0.15332 -0.12615 -0.0084371 0.026975 0.041292 0.019605 0.091376 0.084875 0.10612 0.17684 0.44289 -0.12359 -0.49839 -0.28201 0.072395 0.082453 -0.3315 0.40047 -0.10725 0.14297 0.097434 0.12348 0.29959 -0.26461 0.34333 -0.06053 -0.23467 0.45252 0.014345 0.12463 0.11759 0.11005 -0.37418 0.37806 0.38043 -0.25695 0.22754 0.11241 0.045035 -0.3379 -0.34416 -0.069942 -0.1345 -0.14762 -0.36261 -0.547 0.10038 -0.25286 0.11154 0.012149 -0.068089 -0.34746 -0.044278 -0.073118 0.23175 -0.06429 0.01203 0.26945 -0.21518 -0.047729 0.19543 0.27192 0.023859 0.062149 -0.11511 0.14281 -0.31487 -0.59117 0.42376 -0.19127 -0.25722 0.12739 -0.070661 -0.13086 -0.25409 0.072777 -0.050344 -0.06721 -0.099871 0.095828 -0.021774 0.032131 -0.61908 -0.10394 -0.36047 -0.11388 -0.19053 -0.13264 -0.14485 -0.23119 -0.18892 0.24534 0.45188 0.21849 0.005991 -0.27245 -0.15359 0.00022971 0.15831 0.19465 -0.085787 0.21791 0.2899 -0.084488 0.22889 0.6918 -0.21321 -0.13419 0.43278 -0.41545 0.012519 -0.057392
Brendan 0.040977 -0.32629 -0.31621 0.51981 0.087359 0.041269 0.37441 -0.18449 0.070743 1.975 0.21132 -0.088148 -0.11973 0.36695 -0.0041502 -0.095021 -0.087995 -1.0192 -0.17652 0.49683 -0.39073 -0.30185 0.3464 -0.14565 0.10855 -0.14243 0.075496 0.1639 0.048421 -0.7507 -0.068001 0.078083 0.29473 -0.17825 0.018433 0.13349 0.0076627 -0.097397 0.071438 -0.75471 0.27202 0.22493 -0.13815 -0.062428 0.17331 -0.016075 -0.14648 0.52698 0.28463 -0.13158 0.87676 -0.16199 0.099891 0.0083119 0.30089 -0.036035 0.29977 -0.10178 -0.04686 0.23235 -0.13976 0.017984 -0.045159 -0.046677 -0.063571 0.05177 -0.18801 0.30373 -0.10002 -0.28501 0.12344 -0.022966 0.31794 0.36828 -0.54242 -0.086848 0.21129 0.045797 0.037368 -0.12206 0.19268 0.059604 0.27287 0.0441 0.17613 -0.41632 0.53742 -0.27247 -0.11495 0.74425 0.47807 0.16474 -0.47041 0.70864 -0.0015855 -0.84324 -0.074689 -0.21468 0.08556 -0.27812 -0.30448 -0.56054 0.10714 -0.076274 -0.087251 1.4289 0.026321 0.27676 -0.20081 0.084979 -0.12143 -0.31086 -0.30977 0.13412 0.030844 0.49857 -0.18441 -0.020986 -0.065164 0.62501 0.12317 -0.50674 -0.13123 0.14675 0.32175 0.095176 -0.43983 0.19731 0.11145 0.33223 0.066585 0.6144 0.45276 -0.026281 0.15285 -0.18895 -0.047895 -0.20021 0.20868 -0.70846 -0.38577 -0.41683 -0.05824 0.27002 0.2396 0.10204 -0.13817 -0.27827 0.019829 0.26366 0.48343 -0.17052 -0.037412 0.14701 0.22636 0.13786 0.44582 -0.21361 -0.12155 0.024831 0.26298 0.24294 0.041535 -0.78663 0.1116 0.25016 -0.18151 -0.4982 -0.42359 -0.58633 -0.52018 0.12972 -0.18142 -0.5562 0.44867 -0.28058 0.14736 -0.056061 -0.25668 -0.14534 -0.49859 0.29871 0.14197 0.1909 -0.27758 -0.061318 0.043892 0.64938 -0.065052 -0.23477 -0.069602 0.32909 0.19222 0.073621 -0.021974 -0.21196 0.18327 0.14655 -0.11826 0.040115 -0.25728 -0.19294 0.3543 0.082025 0.38057 0.050037 -0.23171 -0.42993 0.10045 -0.063608 0.15274 -0.16155 0.20303 -0.10671 -0.45105 0.37769 0.48543 -0.090899 0.22056 -0.10479 -0.45553 0.20447 -0.41776 0.30023 -0.25362 -0.17786 0.20849 -0.25293 0.041989 0.15552 -0.2915 0.018334 0.019233 0.22008 0.11992 -0.37736 -0.10601 0.41765 0.12408 -0.026431 0.4568 0.22884 -0.24538 -0.0458 0.52755 0.38069 0.37949 0.014476 0.25957 0.1389 0.011592 0.025478 -0.17027 0.26856 0.13642 -0.10428 -0.30915 -0.25613 0.017803 -0.28536 0.1143 -0.053568 0.21875 -0.18488 0.11572 -0.0075586 -0.42692 0.09074 0.17897 -0.064213 -0.47017 -0.020264 0.14073 0.12884 -0.20189 -0.032391 0.3251 0.27543 0.16167 -0.010101 -0.39654 0.25702 -0.39953 0.25147 -0.071581 -0.057282 -0.55371 -0.29428 0.21334 0.021732 0.17682 -0.044059 0.29939 0.17974 -0.19507 0.30732 -0.30613 0.069203 0.24995 -0.44211
Meredith -0.093775 0.044103 -0.46091 0.11257 -0.2429 -0.15125 0.20772 0.05513 -0.19604 1.9133 0.31219 0.35813 -0.21685 -0.11759 -0.18252 -0.34438 -0.38462 -0.34842 -0.47346 0.01772 -0.12937 0.25547 -0.0085366 0.12552 0.18309 0.15074 -0.20391 0.069487 -0.040552 -0.054899 -0.28196 0.61419 0.06385 -0.081003 0.37172 0.067208 0.41275 0.30114 0.1459 -0.7024 0.34382 0.13508 0.12642 0.22208 0.15463 0.00074184 -0.10502 -0.041783 0.20074 -0.59858 0.078477 -0.171 -0.056009 -0.16055 0.039057 -0.21037 0.05572 -0.13616 -0.15008 0.37738 -0.28538 0.045522 0.058339 0.11414 -0.0069136 -0.071384 0.02684 -0.12738 0.011061 0.22925 0.21578 -0.037856 0.069684 0.14459 -0.66874 -0.1072 -0.40065 0.10082 -0.081073 -0.78268 -0.069717 0.095925 -0.025305 -0.31824 0.096971 0.26084 0.13238 -0.32684 0.28597 0.14212 0.15442 0.33177 -0.10473 -0.084449 0.29314 -0.29439 0.08463 -0.010694 -0.29877 -0.29097 -0.038024 -0.26695 -0.20132 -0.072536 -0.14059 1.5398 -0.16531 0.37353 0.21525 -0.047638 -0.18116 0.36698 -0.18063 -0.10943 0.13804 -0.18624 0.47731 -0.064722 0.4707 0.32402 0.36566 -0.46168 0.1534 -0.21298 0.084257 -0.19193 0.010672 0.42785 0.0070551 -0.065125 -0.18731 0.070838 0.23462 0.15007 -0.076241 0.062074 -0.80124 -0.047053 0.11448 0.15105 -0.11628 -0.055616 -0.50383 0.32234 -0.12233 -0.017209 -0.18891 -0.15103 -0.46495 -0.0073842 0.24532 0.16166 0.30636 0.037109 0.063288 -0.071928 0.29443 -0.44131 0.21111 -0.021975 -0.094425 0.01519 0.19047 -0.21064 0.032196 -0.20166 -0.037924 0.45179 -0.022442 -0.41015 0.0351 -0.15419 0.34841 0.057713 0.011037 -0.50002 -0.23089 -0.37676 -0.37474 0.47275 -0.16035 -0.31824 -0.018941 0.19802 0.076516 -0.091631 0.30992 0.031 0.038905 -0.14235 -0.098907 0.10778 0.15556 0.03058 0.20872 -0.11746 0.27812 0.40521 0.39463 -0.21127 -0.39558 -0.13224 -0.14505 -0.30303 -0.17961 0.37405 0.031782 -0.010909 0.18879 -0.09103 0.11036 -0.12873 0.04922 -0.12741 -0.065531 -0.087329 -0.037449 -0.030129 0.25616 0.37146 0.29129 0.47801 -0.11909 0.18226 -0.15991 0.012924 0.20887 -0.56878 0.045052 -0.22989 -0.42771 -0.19162 -0.21429 -0.067505 0.080456 -0.16762 0.26413 -0.088438 0.055293 -0.050829 -0.16816 -0.00020374 -0.20001 -0.05619 0.16204 0.22473 -0.035463 -0.1037 0.083144 -0.066036 -0.27161 -0.04915 -0.22915 -0.11945 -0.55838 -0.66894 0.37018 0.28199 -0.12462 0.12543 -0.25825 0.19244 0.093342 0.13579 0.14115 -0.069666 -0.084799 0.19439 -0.15293 -0.1129 -0.52482 -0.099959 -0.18166 0.31705 -0.10179 0.03208 -0.057906 -0.39416 -0.16246 -0.19865 -0.12018 0.1118 -0.56478 -0.15795 -0.30578 0.2074 -0.0044156 0.032603 0.12 0.40168 0.28875 -0.076369 0.29224 0.47871 -0.002207 -0.44363 -0.35798 0.074617 -0.10264 -0.11892
Geoffrey 0.1547 -0.068805 -0.11805 -0.38974 0.063445 0.54468 0.15864 -0.55181 -0.027925 1.522 0.49867 0.27832 0.029162 0.076418 -0.37558 -0.23859 0.18521 -0.69468 0.17346 -0.13958 0.2324 -0.035602 -0.24652 -0.2473 0.47491 -0.22359 0.067925 0.098051 0.091161 0.092414 -0.30778 0.10992 0.048867 0.0016868 0.05429 -0.69035 0.24726 -0.073102 -0.1777 -0.33924 0.15866 -0.16895 0.068432 -0.18452 0.47026 -0.13369 0.016941 -0.15011 0.083174 0.24654 0.54567 -0.077907 -0.28468 0.34129 0.50658 -0.014001 -0.023714 0.073536 0.081118 0.087923 0.16822 0.063732 -0.10653 -0.38435 -0.24506 0.18374 0.066769 -0.16972 0.34791 0.39746 -0.14584 -0.05891 0.020179 0.21211 0.11972 0.17055 -0.4083 -0.086496 0.060135 -0.29032 -0.40344 -0.026553 0.25327 0.0042228 -0.15365 -0.99288 -0.0053581 -0.56676 -0.16892 -0.041833 0.16988 0.50298 0.1364 0.086828 0.092143 -0.70232 0.41915 0.0051544 -0.33412 -0.084292 -0.069673 -0.32265 -0.10178 -0.13782 -0.73725 1.327 -0.48524 -0.32148 0.33223 -0.38731 -0.32903 -0.098828 0.063573 0.37626 -0.18587 0.23436 -0.11494 -0.35294 0.41705 -0.19172 -0.073654 -0.35612 -0.099876 0.0087459 0.52943 -0.11178 -0.61537 0.14301 0.056411 0.10717 -0.12949 0.49983 0.48272 -0.19506 -0.23384 -0.44408 -0.10842 0.081207 0.1902 0.13052 0.13942 -0.41645 -0.45489 -0.072622 0.10871 -0.13463 0.48046 -0.079693 -0.43775 0.14452 0.39288 -0.26317 -0.35545 0.12074 -0.10067 -0.029469 0.43747 0.0036562 -0.053751 0.33058 -0.028303 -0.49923 0.31897 0.0096139 -0.15384 0.0038069 -0.0076137 -0.39274 0.443 -0.37957 -0.30755 -0.18891 0.31755 0.0067681 0.14387 0.19729 0.87136 -0.54052 0.67266 0.27521 -0.32434 -0.36 0.45562 0.42323 0.096095 -0.044944 0.083561 -0.018063 0.10754 -0.17522 -0.77282 0.18686 -0.022454 0.37471 -0.062616 -0.23154 0.25405 -0.0031324 -0.0029491 -0.097617 -0.39549 0.10379 -0.22636 -0.21149 0.006037 0.31101 -0.083915 -0.2875 -0.62052 0.11039 0.65936 0.39005 0.048529 0.16519 -0.15323 0.25562 0.34078 0.35149 0.30206 0.1522 -0.065497 0.023036 0.10011 -0.2497 0.25704 -0.045294 -0.24958 -0.49187 0.39036 0.40126 0.0075948 -0.2329 -0.64812 -0.40888 -0.21518 -0.013094 0.078907 0.16795 0.095638 0.02264 0.12258 0.049303 -0.12781 -0.46761 0.27649 -0.021491 0.69859 0.083336 -0.34963 -0.10129 0.10919 0.38235 -0.3232 0.14935 0.28823 -0.90256 0.45774 0.071526 0.30099 0.41122 0.41078 -0.18279 -0.42618 0.39413 0.012428 -0.30625 -0.2779 0.26888 0.30681 -0.3333 -0.30524 -0.16129 -0.052349 -0.12044 -0.444 0.15705 0.18417 0.00029 0.11456 0.31993 -0.28057 0.21679 -0.15367 0.13095 -0.69686 -0.00072613 0.17354 -0.48664 -0.10983 -0.2854 -0.020926 -0.23106 0.053894 0.58055 0.18502 0.1164 0.12634 0.35412 -0.015977 0.035134
